1182 150
the -0.35338607 0.0053480132 0.10459191 0.45661694 0.15498179 0.022126526 -0.14917052 -0.015045466 -0.34532252 0.50250137 -0.06681398 0.023894481 -0.038393464 0.04779668 0.07551555 -0.20279878 0.08212178 -0.0320361 0.22825527 -0.044210203 -0.035319407 0.45151916 -0.06254611 -0.31224614 -0.16005063 0.38973382 0.27722287 -0.10063429 0.040814847 -0.060052358 0.03430346 -0.1767225 0.10813426 -0.011585334 0.44504938 -0.066847146 -0.16345976 0.13512644 0.116148144 -0.20061857 0.34536916 0.29758802 0.0045638266 0.24539399 -0.20893979 0.20152041 0.038493812 0.3514945 -0.06845661 0.37865835 0.21582021 -0.22188306 -0.14437743 -0.10935327 -0.3672939 -0.099230334 -0.14022753 0.47621325 0.26235282 -0.039413344 -0.07808533 -0.1894119 0.13783628 0.24300763 -0.44558287 -0.19743364 -0.1882268 -0.35352737 -0.45877105 0.3374927 -0.5926141 -0.06696554 0.15593643 -0.03692696 -0.23551212 0.24066892 -0.28735852 -0.072859295 0.10904963 -0.29749873 0.09241993 -0.12764078 -0.033465143 0.42831615 0.013697047 0.6116629 -0.12858276 -0.090343766 -0.15490562 0.15176472 -0.17420076 -0.36060962 0.32509065 0.23034814 -0.22985668 -0.20970249 -0.022132581 -0.18523541 0.17830728 -0.5317068 -0.23709716 0.016109338 0.27146152 0.24760361 -0.0010619164 -0.05114417 0.08218856 -0.021660965 -0.3818156 0.045058582 -0.29440975 -0.00033762006 -0.19118914 0.4719918 0.13247667 -0.3036789 0.40552908 0.0711109 0.26629534 0.038849767 0.05587199 0.45448312 -0.12407586 0.08713356 -0.16720371 0.13359752 0.030844387 0.21556 0.54176813 -0.37506482 0.20675002 -0.49237567 0.13364603 -0.3633605 -0.12771133 0.0398959 0.36596847 0.05621572 0.5485706 -0.0917874 -0.19214089 -0.12913583 0.035669576 -0.15766618 0.06350734 0.3588835 0.46057093 -0.25362882 0.06350816 -0.047917977
and 0.07066228 0.18353535 -0.23384216 -0.01627266 0.028613789 -0.053613167 0.03996444 -0.04040252 -0.13774835 0.23170896 0.18434565 0.074702725 -0.20762986 0.14910531 0.23306152 0.09985086 0.0927323 -0.04428564 0.25661322 -0.19847672 0.087176 0.07163759 -0.25322834 0.048125546 0.10491567 0.08908739 0.03741248 -0.10583245 0.012119944 -0.09560125 0.12614916 0.13312057 0.06354214 -0.13551782 0.012959228 -0.08001798 0.14229065 0.19690062 0.045145888 -0.050332345 0.055880107 0.07260329 -0.095753364 0.11087687 -0.03589208 -0.02172017 -0.1496178 -0.015910223 0.012648394 -0.11417391 -0.06963878 0.13494052 0.13845259 0.08294205 0.029506702 0.13812076 0.005766211 -0.01457313 0.01224596 0.12985037 -0.100452885 0.06989002 -0.2587094 0.085054375 -0.034809127 0.104766876 0.087439954 -0.11085245 -0.16973127 0.20333047 0.040421695 0.15524949 -0.11632888 -0.17356953 0.32033533 0.06298805 -0.22865167 -0.115532495 0.0817022 -0.11265321 0.43721434 0.08661067 0.13854986 -0.0018825852 -0.0033767582 0.12034079 0.13567679 0.015195488 0.019672379 -0.23275296 0.03462009 0.1783362 -0.04195898 0.038025238 0.025170486 -0.033340074 -0.076510735 -0.032070722 0.042021476 -0.058912396 0.042356353 0.20811139 0.14755453 -0.016245209 -0.24537674 -0.1088476 0.02424761 0.08074119 0.09659837 0.07263437 -0.07783327 0.06694725 -0.19167222 0.03271875 -0.016819248 0.11482863 0.093668304 0.06156046 -0.21664968 0.24892947 -0.009507541 0.1473449 0.03276236 -0.021635225 0.015821226 -0.04996807 0.18497737 0.062441695 0.20199047 -0.05184299 0.07293734 -0.020350631 -0.090632856 0.047708675 0.006804219 -0.19263013 0.006435363 0.24517314 -0.015640708 0.0721256 0.11775965 -0.2865504 -0.020241048 0.22413373 -0.09130937 -0.29746738 0.037134673 -0.057189025 -0.086110115 -0.2130051
to -0.13204432 0.09614742 -0.024968559 0.21605413 -0.03551556 -0.3500778 0.0043665883 -0.018850673 -0.1076248 0.046346076 0.056347203 -0.07241357 0.07883173 0.030752322 0.24004595 0.19431227 0.14033747 0.23085444 0.089951605 -0.0558603 0.047595877 -0.033996847 0.0067954888 0.27732763 -0.033814315 0.15062016 0.24661507 -0.15353881 0.3124897 -0.09970155 0.31318775 0.19086677 -0.030148977 -0.1437033 0.082167946 0.07888549 0.27002707 0.045395363 0.073662534 0.08123161 -0.012601733 0.25056642 -0.13899226 -0.11290729 -0.0255927 0.06459482 -0.04309544 0.032795765 0.12193208 -0.008281965 -0.12821656 -0.04945756 -0.045930818 0.11796711 0.028961988 -0.11664647 -0.035911363 -0.17909078 -0.15218088 -0.032385785 -0.21045439 -0.11402827 0.026375676 -0.0106870355 -0.0004622799 0.056870617 0.15535156 -0.019636622 -0.16195177 0.11057136 -0.11478377 -0.06057908 -0.08033719 -0.14073129 -0.014243545 0.085974485 -0.2971487 -0.059294492 0.16003184 -0.23812476 0.024689717 0.06737271 0.21562923 0.12792704 -0.031999018 0.26819015 0.09430643 -0.15444927 -0.03524106 -0.10313372 0.0651935 -0.056621186 0.011319578 0.32862365 -0.11528906 0.11730993 -0.14278546 -0.17714316 0.32825556 -0.16429068 -0.21336828 0.093239956 0.06639257 -0.14161727 -0.2675113 -0.07649947 0.033592746 -0.16860595 0.09019284 -0.16416648 -0.018274331 -0.20143954 -0.008065488 -0.1429969 0.07682353 0.08023543 0.06641722 0.11191038 -0.21187669 0.16751115 -0.05469227 -0.13480987 0.14949192 0.02721857 -0.0041439487 0.041562863 0.05385089 0.05207864 -0.036174845 -0.30499923 0.20249404 -0.16668645 0.062103774 0.09646007 -0.27331698 -0.2476381 0.013985155 0.1782005 0.19369766 0.17799762 0.1834744 0.08268195 -0.22215936 0.09350889 -0.1205179 -0.058090713 -0.1322155 -0.20077161 0.14719637 -0.22691698
she -0.09402484 0.09112276 -0.060573265 -0.0911661 0.0004200098 0.061032157 -0.221733 -0.09527553 -0.15815231 -0.03411626 -0.11874811 0.08041688 0.038838807 0.026526246 0.1700409 0.13504755 0.03930796 0.11026912 -0.06066495 0.11285826 0.24927822 0.21997468 -0.10101521 0.21097358 0.04044748 0.06414285 0.2322074 0.07793358 0.33920345 0.13571988 0.1298749 0.30942446 0.06456877 0.025921484 0.16864574 -0.10455549 0.35967296 0.20026624 0.32679304 0.082890004 0.237894 -0.024732834 0.078345835 0.3442222 -0.23148124 -0.055512834 -0.015729476 0.11562899 0.2000075 0.38235053 -0.24372883 0.011305996 -0.3790204 0.18234114 -0.12119787 -0.05140962 -0.19944727 -0.24270678 0.02710067 -0.18147834 -0.21160525 -0.24251968 0.16353762 0.3018787 -0.21716851 -0.033051897 0.11191697 -0.19554202 0.05550413 0.29970947 -0.15355152 -0.043873373 -0.17167963 -0.06456045 0.27562386 0.27615428 -0.41817257 -0.22926535 -0.007959476 0.012722625 -0.06762213 -0.10068505 0.02456906 0.11331122 -0.17464025 0.12235511 -0.10927913 0.011998025 -0.20683897 0.23639862 -0.32270545 -0.19481257 0.08717255 0.41598362 0.33104935 -0.023963597 -0.23798752 -0.23684934 0.24152577 -0.25599977 -0.17480431 -0.08575781 0.094794035 -0.26383322 -0.4705433 -0.08531383 0.06324086 -0.14249675 -0.045053113 -0.103260264 -0.25955185 0.062057994 -0.22399934 0.051168904 0.20312567 -0.119532205 0.18645582 0.1547485 0.0417602 0.22503747 0.1652187 -0.47024295 0.2592078 0.17902866 -0.075393364 0.19718708 -0.035560854 0.35533792 0.35050413 -0.26097074 0.077702396 0.10419294 0.3350783 -0.24074146 -0.030170936 -0.41133362 0.15132223 0.1512869 0.25744703 0.25777104 -0.15118647 -0.14587699 -0.11686643 -0.05574109 -0.1340271 -0.04015986 0.18601462 -0.0044002593 0.24392833 -0.048896447
a -0.1480036 0.08336616 0.11080859 0.11328721 0.14423124 -0.09517278 -0.124127105 -0.2567664 -0.36059827 0.37930903 -0.15922782 -0.05589224 -0.09757236 0.06941723 0.02619967 0.13593662 -0.12666748 0.031384874 0.06470085 -0.13136522 0.016825698 0.38324785 -0.14907454 -0.22467029 0.077626705 0.107123576 0.09874541 -0.1492589 0.16529259 -0.09492316 0.07437624 -0.11020878 0.0018535467 -0.06918684 0.14639255 -0.034935802 0.24847311 0.10361486 0.16482615 0.022538912 0.207838 0.34419766 -0.1394367 0.14690231 -0.19984894 0.14671217 0.09794565 0.27689654 -0.24167518 0.1226395 0.24606255 -0.011537024 -0.08955586 0.01197851 -0.26221922 -0.046883017 -0.16989183 0.041370355 0.15903904 0.01672633 -0.041562136 -0.2373281 -0.037313644 0.107092455 -0.2826233 -0.036374666 0.022932816 -0.32568467 -0.24778906 -0.14103612 -0.28858405 0.079612434 0.10116118 -0.0377049 -0.12725298 0.2584285 -0.2022362 -0.027215304 0.07695589 -0.2546151 0.12497607 -0.09250287 0.1670162 0.23249134 0.07425523 0.48194623 -0.046645626 0.04013441 -0.2417862 0.087739706 0.0009132436 -0.03269883 0.28930938 -0.00961669 -0.24009566 -0.001318054 0.041862037 -0.34000266 0.076606914 -0.3151259 -0.20227379 0.014515241 0.2839949 -0.21153064 -0.104258746 -0.10638998 0.29074723 -0.031481467 -0.025327083 0.19797306 -0.086867504 0.08190107 -0.046895545 0.18609421 0.16385008 0.042527206 0.3511177 0.12265144 0.1304489 0.12855132 0.14335912 0.038750805 0.08630947 -0.029323794 0.028017703 0.11355187 0.12728384 0.28102282 0.27249944 -0.11760109 0.25483122 -0.27729005 -0.04304428 0.07740444 0.09256842 -0.1825659 0.16477846 -0.018943269 0.22315718 0.307049 -0.21587195 0.13099673 0.28024635 -0.030126799 0.044051822 0.23184833 0.34126616 -0.3070013 -0.07369204 0.17363799
i 0.063310005 0.25025085 -0.27003616 -0.09878043 0.24326017 -0.29468635 0.024848102 0.0059956824 -0.11977329 0.1382148 0.1542114 0.029472776 -0.19159193 0.28958687 0.3367647 -0.09533411 0.35616738 0.2739101 0.0284541 -0.27086097 -0.16600074 -0.06624321 -0.10542182 0.14023592 0.18363519 -0.0265432 -0.16142295 -0.06865434 0.16528754 -0.111422904 -0.28364247 0.2672938 0.01916894 -0.09247121 0.28606257 0.07163526 -0.053708673 0.44334093 0.27726617 0.29707804 0.2729789 0.28916115 -0.24086437 0.1947038 -0.3822905 0.0153559735 -0.52863795 -0.0939329 0.015817082 0.21633063 -0.16207783 -0.058463745 0.19151361 0.08860908 -0.115933836 -0.21764958 -0.37211686 0.29493287 -0.24176176 0.05208097 -0.34137902 -0.19466063 -0.36365515 0.08949676 -0.13879368 0.37951663 0.29200295 -0.24518539 -0.25646853 0.48772547 -0.056081023 0.008733212 0.0892747 -0.14571671 -0.093818784 0.17715237 -0.40675783 0.031429317 -0.030603524 0.08492253 0.058524866 -0.004292969 -0.05114364 -0.0371242 -0.0064218445 -0.22117789 0.26087195 -0.45531383 -0.0002645782 -0.34651738 -0.0038273246 -0.040919777 0.23660968 0.2251529 0.21435657 0.11796286 -0.29042953 -0.3421523 0.22776407 0.18705146 -0.109362535 0.13148744 0.036959503 0.2991488 -0.38108876 -0.009964815 0.20664778 0.1455293 0.16959749 -0.19330332 -0.29443642 0.35180217 -0.20174785 -0.08068565 0.0060531134 0.29071075 0.10732881 0.13040109 -0.20288616 0.26569054 0.36692873 0.073149286 0.26402497 -0.06797906 -0.31651464 -0.015790613 -0.010620975 0.32755342 0.013315456 -0.108285494 0.037470903 0.102223665 -0.18964805 -0.36715123 -0.114577 -0.35801113 0.18798366 0.16131741 0.25867823 0.35649273 0.4082748 -0.2912374 -0.23589498 0.14645861 -0.21706302 0.054288633 -0.012700453 -0.4275982 0.146712 -0.29212934
it 0.000735239 0.20213325 -0.19761308 0.00807236 0.052020535 -0.023211345 -0.19147927 0.025987754 -0.21927072 -0.031713717 -0.04221581 0.13306783 -0.13440078 0.062476255 0.104551755 0.068126515 0.10639918 0.14668478 -0.0066264807 0.031557437 0.028322343 0.20408806 0.03633712 0.25491962 0.029950257 0.16813666 0.06725198 -0.05210085 0.18665361 0.09467779 -0.099972755 0.13887717 0.101976134 -0.0702786 0.10466167 -0.060433894 0.11107225 0.12809907 0.26121515 0.15977235 0.23076375 -0.009617881 -0.0089107845 0.2108284 -0.261727 -0.02660199 -0.0324568 0.06498447 0.06946244 0.2836336 -0.2364169 -0.05567883 -0.23586306 0.27967143 -0.16865018 -0.12761985 -0.09061592 -0.081234165 0.060573325 -0.091194965 -0.25440568 -0.005465827 -0.0954496 0.1285137 -0.14506686 0.033619355 0.026806803 -0.24256039 0.06441407 0.40808377 -0.06186043 -0.06772075 -0.10648702 -0.043916855 -0.026391093 0.1980292 -0.27626923 -0.26302022 -0.08897093 -0.033342846 0.082689054 -0.081299156 0.16511317 0.0036417656 -0.052405562 -0.015603131 -0.10178196 -0.053935915 -0.05730008 0.096376084 -0.22758475 -0.14933752 0.14829743 0.20957033 0.29186246 0.059034415 -0.024878683 -0.18828665 0.12947519 -0.1120661 -0.10613625 -0.05582144 0.16310579 -0.044988412 -0.384083 -0.014066563 0.07080997 0.14800611 -0.13925417 -0.12944348 -0.13929407 0.1268714 -0.22972202 0.04658882 0.005791018 -0.019683199 0.082965486 0.07790082 -0.09607538 0.18421917 0.18936428 -0.07999102 0.14778508 0.12349456 -0.14884381 0.2683875 0.038557615 0.35312948 0.29390344 -0.23985551 0.06222152 -0.07324968 0.21015763 -0.32404354 -0.14418188 -0.2252426 0.2135541 0.0613974 0.32144186 0.07966356 -0.16162638 -0.016612131 -0.28166324 0.042825703 -0.19450015 0.103459015 0.07005634 -0.20987763 0.23699993 -0.17703639
of 0.24801852 -0.027933663 -0.31286642 0.36603218 0.076107144 -0.4739547 0.23660709 0.096554786 0.119606 0.010649638 0.34263462 0.08266155 0.16116387 0.0046960297 0.3109773 -0.042136732 0.24862579 -0.05988345 0.017844122 -0.3433741 -0.06436254 -0.0042318054 0.15333515 -0.012113928 0.084178485 0.26292658 -0.035437662 0.08811933 0.10977268 -0.18263818 0.0079034045 -0.08937917 -0.07900607 -0.2518541 0.07318646 0.22600073 0.07150549 -0.13780557 -0.17795046 -0.18053362 -0.1635177 -0.024056941 -0.3680339 -0.14152671 0.30845103 0.2644692 -0.41326496 0.06253706 -0.1202526 0.01253322 0.13490404 0.09897036 0.23048586 -0.03223576 0.054815426 0.21857563 -0.19004443 -0.086967714 -0.06482509 0.1665755 -0.0080101425 0.051066652 -0.04010329 0.04624072 0.026205981 0.34131068 0.27448294 0.03766056 0.10648668 -0.082183436 0.043047607 0.020244092 0.21355869 -0.36297846 0.09359026 0.022350468 0.032069504 0.05009893 0.3148832 -0.042250376 -0.089490764 0.18353207 -0.029604048 -0.13135594 0.07294211 -0.06373151 0.30228755 -0.27293402 -0.013433728 -0.26826835 0.069644906 0.011604836 0.019340392 -0.11585366 -0.4237129 -0.12745237 0.01966067 -0.03191111 -0.27735904 0.057962526 0.17910695 0.25160608 0.060508437 -0.080064565 0.046556227 -0.088232204 0.15861155 0.142559 0.2052254 0.038803507 0.028943622 -0.2713694 -0.024567707 -0.051884726 -0.32104096 0.16051497 -0.066747524 0.015034332 0.1288258 -0.08365188 0.0170938 0.13962679 0.032105643 -0.20618035 0.25690672 -0.1405022 0.3019207 0.06470648 -0.066654906 0.019589484 0.04303534 -0.2601575 -0.25193802 0.137876 -0.28392324 0.019257966 -0.20897466 0.3503625 -0.009427488 0.02623837 0.18509486 0.2042765 -0.34551907 0.2355703 0.019647969 -0.11827542 0.22004107 -0.04019485 -0.19832128 0.16029362
was 0.12816472 0.008132446 -0.073343396 -0.08456604 -0.066041425 -0.012166 0.08695119 -0.13263358 -0.09727601 0.027622618 0.10357354 -0.01186334 -0.08773869 0.10765816 0.08818133 0.22713342 -0.020525157 0.020751817 0.1541238 -0.06731892 0.27360138 -0.02478754 -0.1312932 0.09887272 0.020673709 0.071366504 0.10525202 0.031165054 -0.031555396 -0.03620016 0.21734256 0.058164913 0.019261498 -0.004031383 0.0033775736 0.018202363 0.041697685 0.19222905 -0.034932952 -0.16186754 -0.10657483 -0.06841149 -0.20055906 0.168803 0.02609107 0.050904606 -0.11092387 0.0856522 0.029531661 0.0192156 -0.015602378 0.016709533 0.089447364 0.108001284 0.09630539 0.123316675 0.002010229 -0.22742106 0.07573875 0.09997301 -0.016640281 0.18531431 -0.1872308 0.06984109 0.22677387 -0.017252352 0.099126756 -0.08679038 -0.007213949 0.102260225 0.07662124 -0.072750926 0.04056242 -0.090724684 0.24925417 -0.08604302 -0.13151853 -0.15528782 0.054325514 -0.06800831 0.24685964 0.13141519 0.12199884 0.061036855 -0.08784451 0.04106982 0.13460825 0.088069074 0.007877333 0.0050051645 -0.015615772 0.11005907 0.04419871 0.08165305 0.059418455 -0.024256425 -0.024001962 0.101154834 -0.06962157 -0.069784984 0.122122526 0.0588701 -0.0448523 -0.12827663 -0.07550283 0.013363905 0.08155064 -0.11262992 0.1080937 -0.011049375 -0.113318406 0.0063924585 -0.041802898 0.048587404 -0.06464308 0.29270205 -0.047254942 0.089624025 -0.12432169 0.058675203 -0.079140164 -0.07245768 -0.07893286 0.00036869186 0.21389887 -0.013930733 -0.014323831 0.10896933 -0.013310477 -0.15115619 0.053192157 -0.110387854 -0.20379877 0.07815629 0.0066923993 -0.10962126 -0.054065693 -0.03508767 -0.047237035 0.029057225 0.05271673 -0.20424448 -0.010741479 0.17332318 0.018970488 -0.18593824 0.13012818 0.023905944 -0.04759375 0.01096838
in 0.028254073 0.019689312 -0.22933944 0.15622242 -0.012756273 -0.30317047 -0.011441864 0.08771084 0.013297542 -0.07562727 0.1705175 0.21561602 0.031885732 0.048468508 0.2043757 0.11384851 0.119074106 -0.04498578 0.11109614 -0.13282146 0.14373316 -0.0068371994 -0.013938598 -0.13478895 0.067849025 0.14902805 -0.027905304 -0.01018659 0.11777092 -0.1911328 0.11140205 0.08209642 -0.13001682 -0.17242436 0.03602911 0.23436336 0.11709023 -0.1319075 -0.118036754 -0.07568058 -0.1387179 -0.030027166 -0.22780702 -0.12636508 0.05174366 0.029686872 -0.14398403 -0.033011563 -0.1547194 -0.070364594 0.012479867 0.21856155 -0.034293924 0.18567823 0.030881535 0.19623336 -0.11824871 0.023705339 0.020532593 0.014009825 -0.030335817 -0.067270316 -0.23735268 0.06796526 0.1423618 0.11561929 0.124321714 0.047033824 0.02588769 -0.08209938 0.080006056 0.04266801 -0.0022111307 -0.15515053 0.08555847 0.07829336 0.072864614 -0.060473744 0.2230455 -0.24186836 -0.06520865 0.07815346 0.06319118 -0.11549907 -0.06122935 -0.012890768 0.09853395 -0.03243322 -0.03460702 -0.16872713 0.14963381 0.04031668 -0.026192911 0.05518126 -0.27742696 -0.09140835 -0.08200498 0.11648336 0.010356544 0.008706528 0.14707357 0.12947637 0.10024482 -0.21293901 0.041434407 -0.08802858 -0.017079107 0.13654481 0.14660513 0.026234249 -0.017752018 -0.14310044 -0.08128042 -0.13272692 -0.1721789 0.044035677 -0.1553785 -0.057226133 -0.05617144 0.029858543 -0.06380631 0.07817194 0.040809322 -0.13512571 0.26416242 -0.114866 0.17783354 0.05943281 -0.01006342 -0.027026508 0.081454776 -0.1992166 0.029351462 0.20548573 -0.031230632 -0.10283643 -0.12963586 0.23744306 0.007813654 0.03911976 0.046188377 0.12001049 -0.15529616 0.071136884 -0.16751249 -0.08085436 0.014093811 0.022216273 -0.20092414 0.19923423
alice -0.20931092 0.050426282 0.04589303 0.11397873 -0.055101983 -0.04979339 0.021198643 -0.0937359 -0.08520765 0.2052063 0.029667035 0.11322066 -0.098724894 0.16250356 0.031634342 0.16438031 0.09251735 0.05357782 0.1206183 0.09866358 0.12791282 0.17658682 -0.11516119 0.14132258 0.0027326276 0.034370285 0.15390494 0.064908884 0.13277507 -0.01256097 0.04967145 0.14808136 -0.0010157244 -0.09129047 0.02420852 -0.033263486 0.16705658 0.18594776 0.041155413 -0.17495699 0.18249166 0.1893453 -0.009700583 0.13721734 -0.0701374 0.005269784 -0.02941054 0.13808604 -0.05141209 0.27611157 0.09123224 -0.050552547 -0.21345674 0.20411386 -0.115035355 0.05803531 -0.09012936 0.08340861 0.0769555 -0.09738394 -0.19274664 -0.015021021 0.03428866 0.046416342 -0.27516714 -0.014401934 0.09045313 -0.031795356 -0.257215 0.045352813 -0.0725218 -0.08408738 -0.085948065 -0.12660165 0.20513831 0.09552967 -0.20757486 -0.07487767 0.10085546 -0.11982918 0.029363668 -0.08844642 0.12563229 -0.02685691 -0.093312986 0.069480345 -0.10369092 0.051124576 -0.09495614 0.039125655 -0.10923834 -0.065736614 0.10541065 0.19494669 0.052801505 -0.024333855 -0.21913812 -0.13355017 0.20535535 -0.21434774 -0.0049976734 0.066011 0.04394535 0.07707017 -0.20770474 -0.16329058 0.16934605 0.0012248184 -0.09741596 -0.0411422 -0.093073525 0.068050444 -0.11152761 0.00458118 0.12511383 -0.105244726 0.10059361 0.15635589 0.010261824 0.036937248 0.061091617 -0.08225557 0.06523826 0.0142723285 -0.09376906 0.1605534 0.117198355 0.08061889 0.23184133 -0.20209792 0.15842679 -0.10786751 0.10710835 -0.26933318 0.002578604 -0.2120192 0.06200134 0.0650825 0.11079737 0.028969083 0.02426796 -0.007131749 -0.00963736 0.000690221 -0.25340456 -0.1415108 -0.020461729 0.046449445 0.1830742 -0.08726489
you 0.12167092 0.19324438 0.012590708 -0.17108762 -0.022239342 -0.0833876 -0.0316177 -0.0463817 -0.12249151 0.2217721 0.08316068 0.023295267 -0.16628903 0.18728024 0.17859294 0.005175241 0.20895992 0.1965362 0.051822197 -0.12575157 0.049821947 0.076312535 -0.23243046 -0.0010239861 0.076410376 0.1305741 0.14209439 -0.11678469 0.022648692 -0.03648608 0.034661293 0.21109217 0.08955654 -0.097633 0.2150149 -0.09668117 0.059593864 0.28991997 0.081468426 0.060380906 0.20997775 0.12949303 -0.14211336 0.11282444 -0.12994967 0.04638406 -0.24230424 0.07511264 -0.075336255 0.2709779 -0.09899121 0.04487184 0.08562103 0.10476329 -0.14014976 -0.025250103 -0.17977647 0.069011495 -0.13826069 0.03990593 -0.28930596 -0.023978848 0.10463807 0.2060289 0.0007038129 0.14271502 0.15716518 -0.165875 -0.11974266 0.24224138 -0.09594195 0.034714784 0.06964723 -0.17088501 0.022174358 0.095656656 -0.20821737 0.0077503994 0.020923618 -0.08121768 0.22762223 0.080624685 0.17048539 0.009904392 -3.3146003e-05 -0.026725946 0.055488672 -0.16240928 -0.14581317 -0.12527655 -0.06898479 -0.049026486 0.103243634 0.063122325 0.12277975 0.093239695 -0.113187164 -0.21752705 0.30450904 -0.04654289 -0.17928757 0.16334327 0.1051456 0.14563985 -0.22321264 -0.15037927 0.09676203 0.110234566 0.038601942 -0.0078976285 -0.17794381 -0.02907366 -0.1093352 0.11354821 0.037926145 0.07145633 0.16577417 0.18751568 -0.2581557 0.20762095 0.1273247 -0.12470831 0.12118221 0.06552476 -0.1419186 0.038893443 0.04606577 0.15077803 0.26937476 -0.056069214 0.041224346 -0.0351963 0.06252051 -0.21129121 -0.11900524 -0.0922361 0.09824838 0.0309177 0.2580841 0.1583784 0.14387889 -0.22596094 -0.11184729 0.03285154 -0.21288775 0.06597783 0.054939482 -0.15582725 0.13626923 -0.02781864
that 0.10610302 0.064175315 -0.016985422 -0.009723196 -0.025373599 -0.04402695 -0.038461313 -0.10154932 -0.11321587 0.104401655 0.038036864 -0.029116275 -0.13870482 0.048441544 0.027845208 0.06866422 -0.05154181 0.13990033 0.110353224 -0.059995137 0.04492071 0.049696438 -0.05476111 0.043985374 0.07702597 0.01687936 0.06217014 -0.05012167 0.030665843 -0.034166183 0.11753361 0.084673665 0.07284874 -0.03172169 -0.021706358 -0.014875562 0.17441478 0.09216391 0.01934514 0.040391967 0.15176825 0.07751335 -0.009178547 0.036357705 -0.051849533 -0.0014595205 -0.053237036 0.12790747 -0.060037907 0.061028708 -0.08292488 -0.010363269 -0.035680123 0.09713264 -0.08614076 0.0690475 -0.019118752 -0.14972745 0.037149005 -0.018451551 -0.11235082 0.014719814 -0.089385554 -0.0017608384 -0.05331684 0.040764786 0.020457774 -0.092865795 0.037385415 0.14102381 -0.054727245 -0.02034877 -0.095637396 -0.0754151 0.04542545 0.1219933 -0.08338382 -0.23923592 0.00849747 0.020877756 0.1031151 0.03820243 0.056867067 -0.066300415 -0.060080152 0.101987384 -0.054470647 0.047077585 -0.07277627 -0.030990371 0.05110355 -0.04354368 0.056631733 0.11690438 0.042018753 -0.03911822 0.008743499 -0.08226307 0.10989857 -0.15179797 0.03211538 0.016808378 -0.018226245 -0.015459126 -0.12405625 -0.024264721 0.014946373 -0.075727925 0.059264235 0.046408407 -0.016843451 0.10852792 -0.14729655 0.013060502 -0.036402352 -0.06117288 0.10258142 -0.021770593 -0.19667378 0.11736725 0.019369327 -0.045940787 0.07982931 0.04359544 0.000574174 -0.0010019686 -0.008439071 0.1219162 0.124744676 -0.046986345 0.17568612 0.010011022 0.043164603 -0.117046185 0.0020368493 -0.16426897 0.013039418 0.014585119 0.09300215 0.06997396 0.065375894 -0.07888027 -0.027755845 0.02650683 -0.15296917 -0.08844766 0.05008157 -0.044805285 0.03769517 -0.07098703
her 0.090266585 0.13141434 -0.018746054 -0.021052813 0.1323828 -0.024842761 0.06395462 -0.097141124 -0.22899072 0.1533824 0.076887265 -0.03612678 -0.07383866 0.10727287 0.034181297 -0.012580097 0.08627223 0.027846258 0.1735955 -0.024413042 0.3041551 0.17434579 -0.10250101 0.065419614 0.14125453 0.018996723 0.09439566 -0.16382688 0.026094353 -0.012374428 0.062704004 0.20607466 0.08015621 -0.13595338 0.2939616 0.058120184 0.015852958 0.07016211 -0.046141785 -0.03812666 0.19009957 0.068870515 -0.060377486 0.11926763 0.11853053 0.17466635 -0.049591087 0.046841014 -0.04559223 0.21504164 0.013729001 0.12485834 -0.09319806 0.11919742 -0.21708472 0.012631305 -0.11810193 0.06416876 0.13209657 0.033432685 -0.1925569 -0.10849898 0.029998954 0.07167292 0.017065661 -0.028279012 -0.115338996 -0.19104667 -0.12697981 0.121754356 -0.19468838 0.18271904 0.1374238 -0.11144246 0.0731539 0.06626038 -0.034154925 -0.11486632 0.08637415 -0.27130312 0.21748798 0.07267501 0.058172975 0.035335515 0.052233145 0.09399563 0.034948513 -0.018951604 -0.1353842 0.005493525 -0.024943447 -0.19945344 0.17626077 -0.05286807 0.014788658 -0.045056712 -0.1422743 -0.12712502 0.13018036 -0.14179702 0.043134566 0.10977569 0.04355434 0.022422684 -0.13566369 -0.12190014 0.14564303 0.11216348 0.033432897 0.072378494 -0.20452513 0.0004707821 -0.1984692 0.13642694 0.11550334 0.041303705 0.012347971 0.17552935 -0.09830975 0.12806989 0.058818858 0.13381314 0.0033386273 -0.021053117 0.050536018 0.051350318 0.07670985 0.09692178 0.19033645 0.0663732 0.2582198 -0.10567835 0.04306244 -0.063265644 -0.16083567 -0.06630693 0.00076677813 -0.001011251 0.16854574 0.23806436 -0.04252382 -0.00336806 0.0029945786 0.1364295 -0.105758525 0.07994709 0.0870679 -0.14276035 -0.07816378 -0.0022931858
as 0.0034139631 0.037494875 0.04360214 -0.025243817 -0.11224184 0.123889565 0.011856101 -0.12401625 -0.12439259 0.071430326 0.025748212 0.0144105805 -0.0759232 0.08654838 0.07157637 0.087906554 -0.013046094 -0.0007231687 0.11167208 -0.010196492 0.17558978 -0.1306917 -0.23127042 0.14820091 0.017078407 -0.024025675 0.010779374 -0.03358997 -0.06841522 -0.08138694 0.27657712 0.12660563 0.05851035 0.021592597 -0.009843756 -0.034258466 0.14521962 0.11608658 -0.026535504 -0.061761633 -0.020912489 -0.07090798 0.023531795 0.20015465 -0.1321051 -0.026329724 -0.13484071 0.019045206 0.073245935 0.015731268 -0.16982903 0.089443 0.029602474 0.07043901 0.012496833 0.04523343 -0.014096178 -0.10424768 0.16090278 -0.14421596 -0.08429957 0.13497464 -0.10466885 0.11220294 0.07454346 0.001568947 0.059492692 -0.019934123 0.06353064 0.067637876 0.0032155158 -0.118453845 -0.10676364 -0.049813986 0.3571794 0.04162469 -0.08299767 -0.110152476 0.11095321 -0.06582149 0.20069279 0.08381057 0.15507257 -0.07493283 -0.049508385 0.06756816 -0.0056248577 0.09371134 -0.021936236 0.057075646 -0.07236866 0.0064178095 -0.048056405 0.13436306 0.05280392 -0.063033104 -0.12072069 0.011421647 0.15001623 -0.008236036 0.012774327 0.06581995 0.056859147 -0.001547879 -0.13853408 0.042361535 -0.003589911 -0.20400636 0.050168008 -0.1157518 -0.12320815 0.1953339 0.071618624 0.0040084966 0.05094894 0.053486586 0.121641465 -0.022373322 -0.24562353 0.10216948 0.036599744 -0.16481532 0.06783451 0.11493592 0.06333975 0.10155757 0.026049323 0.08224548 0.14176239 -0.02511246 0.10774515 0.04900418 -0.040631358 -0.07852296 0.008123155 -0.13428363 -0.034462407 0.00793358 -0.021548592 0.018294586 0.16848171 -0.17196256 -0.041708473 0.08203335 -0.0050135246 -0.10846296 -0.030286027 0.019901026 0.09665446 -0.0957067
said 0.061148927 -0.10846922 -0.016598843 -0.0069943564 0.018644571 -0.1140286 0.04885827 0.091261946 0.0566012 -0.04734305 0.014809406 0.00091510586 0.02801014 -0.07324403 0.051152986 -0.009723522 -0.055009577 0.053231586 -0.0685 -0.02069712 0.024110885 -0.068868004 0.04056689 -0.04231944 0.010482095 0.057445563 -0.07009933 0.122857496 0.05633761 -0.15974173 0.110107616 0.0018100734 -0.12671757 -0.10182989 -0.016239408 0.06793299 0.06354613 -0.07917597 -0.00081434613 -0.08395515 -0.1532716 -0.029259557 -0.056111652 0.012599604 -0.017984215 0.016263181 0.017706923 -0.097499214 -0.07058094 -0.10344836 0.097470246 0.12322789 0.057108 0.024681821 0.16669399 0.053406708 0.017438736 -0.16159624 -0.12696612 0.08195694 0.029122505 0.08967825 0.16292928 -0.09563705 -0.032347217 0.027671775 0.033048913 0.091141135 -0.13659473 -0.09201665 0.053969324 -0.079832084 0.0663009 -0.0877509 0.15522519 -0.11433512 -0.026381226 0.05305908 0.10130666 -0.022831624 0.008874792 0.048524514 -0.09193813 0.011313503 0.077732526 -0.065104835 0.010833019 -0.056888103 0.012434894 -0.08537774 -0.027900957 0.10130209 -0.06064846 0.07528656 -0.02642376 0.012602822 0.02744553 0.068155296 0.0043967846 0.026910022 0.0970836 0.13174008 0.0028799046 -0.12507148 -0.031077858 -0.079472534 0.033307843 -0.04021618 0.007754538 0.055568673 0.08280281 -0.04096415 0.030478988 -0.13330042 -0.040347867 0.009128022 0.08908262 -0.018005604 -0.010781571 0.06764009 -0.14870358 0.0013892658 -0.07949769 -0.046756394 0.038560163 -0.04344174 0.08573682 -0.12995534 -0.0030128132 -0.10273079 -0.087591276 -0.040710315 0.02789352 0.024938295 -0.022747736 -0.08996848 -0.015264081 0.04863969 -0.11093917 -0.04466002 0.023634614 -0.01669169 -0.05315573 0.03523975 -0.059737764 -0.15551764 0.05242502 0.0854661 -0.12005877 0.056842286
had 0.08330652 0.01845197 -0.09704451 -0.027890466 0.017669443 0.009717356 0.06349451 -0.08189028 -0.022619445 0.022456042 0.062075038 -0.07522059 -0.16347578 0.03126157 0.09347765 0.013361692 -0.012112518 0.052832536 0.098655835 0.06997756 0.18713968 0.056900088 -0.06468016 0.036741525 -0.015614314 0.043890845 0.060765874 -0.061587274 0.035543155 -0.09705757 0.17061897 0.1427374 0.109069794 -0.05130218 0.034239214 -0.0025561976 0.07053564 0.042531922 -0.011332414 -0.11581674 0.008361092 -0.0102742165 -0.036028143 0.16042216 0.07288576 -0.030276082 -0.037043985 0.01673177 -0.033097804 0.021399133 0.013308112 0.09715919 -0.017533153 0.08272428 0.031431608 0.00476486 -0.041397292 -0.139757 0.032796405 3.083702e-05 -0.13118953 -0.024779001 0.01165088 0.11858517 0.11439049 -0.04468852 -0.02861365 0.006416268 -0.14259504 -0.026409796 0.04744508 0.009152139 -0.06989383 -0.0450715 0.057254244 0.024515385 -0.07556997 -0.03779874 0.11352513 -0.07769606 0.15279266 0.0332479 0.037606563 0.0009422792 -0.017356895 0.089018665 0.03314521 0.11265964 0.005075857 0.05251681 -0.025707945 0.023281291 -0.0402693 0.15621279 0.054253783 0.0106048575 0.008171623 0.09793694 0.01748176 -0.093168676 0.03864867 0.035182446 0.04610602 -0.0865561 -0.054343533 -0.024430374 0.032584604 -0.031667266 0.039447553 0.024653088 -0.07804753 -0.015679628 -0.11076936 0.00229447 0.07787908 -0.032655966 0.049537025 0.031150863 -0.06495664 0.15980045 0.03916298 -0.07311758 -0.044055954 -0.0071455175 0.03698094 -0.035918217 0.063298576 0.046602808 0.06570833 -0.03571761 0.07207707 0.069655746 -0.021227278 0.0060746 -0.0021761707 -0.12949108 -0.011889212 -0.04372227 -0.01672316 0.07977373 0.107112914 -0.15287271 -0.06548767 0.12063729 -0.16857356 -0.040159076 -0.056002755 -0.013446893 -0.01831507 -0.09800912
for 0.14458117 0.01998049 -0.086008616 0.08909622 0.03851268 -0.062279567 0.13091753 -0.08545028 -0.0132776275 0.103809975 0.09899303 -0.023604997 -0.087828375 -0.014013737 0.15746784 -0.03464618 0.09049215 0.062238898 0.065236226 -0.15676825 0.056702606 0.07200051 -0.03492567 -0.117023736 0.12821351 0.12614511 0.027442455 -0.1251991 0.07542728 -0.032870725 0.09826901 0.106227666 0.08119537 -0.030678436 0.023845462 -0.002252005 0.014061773 0.050249927 -0.123103365 -0.12272279 0.0242578 0.09265083 -0.1220948 0.030220678 0.067366354 0.033029113 -0.08234854 0.049062755 -0.022777554 0.040407654 -0.008449949 0.09720324 0.18387678 0.031445768 -0.07239899 0.06925384 -0.04258412 -0.102226645 0.04197894 0.10219158 -0.08991575 -0.00926096 -0.07329915 0.05243241 0.06730481 0.04093953 0.13567886 -0.03808416 -0.05586859 0.019124988 -0.051980823 0.1262855 0.08458246 -0.07816573 0.102919854 0.055846084 -0.044094935 -0.06289329 0.1106005 0.030692382 0.04735969 0.08895444 0.048579376 -0.05404914 -0.043003757 0.020660087 0.09894303 -0.04892055 0.0070168283 -0.07180941 0.09598376 -0.028818421 0.07629656 0.0234176 -0.08843927 -0.020147456 -0.12600668 -0.011583993 -0.06507155 -0.0062999986 0.11747748 0.12983233 0.014994299 0.015265469 -0.0063373004 -0.08154556 0.11059396 0.059371553 0.12135756 0.008698798 -0.035696376 -0.062093496 -0.07383742 0.08454961 -0.0752032 0.041924946 -0.012209981 0.09271288 -0.16275093 0.110641204 0.04951603 0.0123464195 0.099105835 -0.016813975 0.09184104 -0.07521028 0.06270835 0.039811805 0.028128853 -0.03633858 0.06086553 -0.09161105 -0.20447049 -0.0023188018 -0.02539549 -0.0587086 -0.13632645 0.04016404 -0.006925075 0.09633456 0.14161342 -0.14481722 -0.037702158 0.1608427 -0.073366396 -0.09945177 -0.014424931 -0.0871624 -0.027547946 0.027409224
but 0.09275341 0.17235643 -0.08764516 0.088825054 0.06904808 -0.095046066 0.14451157 -0.017686505 0.017421424 0.08348518 0.03643251 -0.045921385 -0.08142057 0.1640508 0.15829983 -0.08426794 0.08538966 0.066739365 0.045747034 -0.106817715 -0.010564578 0.027258717 -0.07325709 -0.101084344 0.08441518 0.04110522 0.050221246 -0.1912826 -0.008182713 -0.025094004 0.03437875 0.11569917 0.1410007 -0.027819078 -0.0029991232 -0.050455865 0.13216671 0.13002849 -0.011768741 -0.03927186 0.097548455 0.12104766 -0.11047263 -0.042365246 -0.033768583 -0.02656922 -0.028422 0.029330652 -0.08382112 0.06508514 -0.10881135 0.00831503 0.10732487 -0.0025856416 -0.067611754 -0.004004295 -0.0032340186 0.034883283 -0.102987096 0.10556641 -0.059840556 -0.05935931 -0.050549805 0.11929858 -0.046120483 0.10408685 0.090644486 -0.0779094 -0.042770915 0.06159662 0.03945908 0.022941083 0.034609657 -0.11385124 0.026741995 0.13228612 -0.08345512 -0.0014169231 0.10048476 0.021335157 0.05793118 0.086980365 0.10586249 -0.103711955 -0.026605235 0.053575628 0.13219224 -0.13481401 -0.06849071 -0.1617849 0.004493967 -0.025330633 0.10653095 -0.008751135 0.08808323 0.05111381 -0.12048446 -0.042748798 0.032391965 -0.015134366 0.04338444 0.17173399 0.085564286 0.08969292 -0.07659606 -0.15566741 0.091562636 0.04144542 0.15393244 0.013659438 -0.009619602 0.052032597 -0.08412839 0.07846103 -0.08870407 0.07038983 0.008696692 0.050570667 -0.15223615 0.07268926 0.09275167 0.026558695 0.11519589 -0.068341866 -0.06685962 -0.077813044 0.040762894 0.051574085 0.10695007 -0.09406322 0.054547187 -0.04746855 -0.13823959 -0.07916048 -0.17110275 -0.067511596 -0.048583772 0.14192246 0.13594392 0.11294865 0.16346088 -0.17328818 -0.10126215 0.08345476 -0.16205512 -0.035603575 0.0743802 -0.092590235 0.018412037 -0.021615112
be 0.029699672 0.11860511 -0.117407426 -0.020292291 0.06251953 -0.034235694 0.05190069 -0.11022758 0.028918566 0.20435335 0.04017276 0.10033329 -0.14614496 0.13438535 0.0055125635 0.015117648 0.01565588 0.02434152 0.14687598 -0.059088107 0.01219042 0.09076103 -0.049981486 -0.1365728 0.113084674 -0.007626527 0.0062486227 -0.056717694 -0.04699493 -0.014146056 -0.03005762 0.16749367 -0.013412704 -0.1654015 0.10367315 0.136178 -0.0053033903 0.05766832 0.029689983 -0.00262246 0.06758567 0.123670556 -0.055227093 0.06155355 0.018221347 -0.013434192 -0.11801732 -0.0339759 -0.082351364 0.053926535 -0.030186968 -0.042208944 0.06644727 0.056066565 -0.11537631 0.04890385 -0.09794891 0.1190752 0.039257806 -0.005832774 -0.14180414 -0.05843916 -0.028677186 0.007862894 0.010967353 0.08625083 0.043469753 -0.08750742 -0.07885251 0.033256557 0.02602281 0.02476686 0.041732304 -0.068621 -0.121080555 0.1162453 -0.0071841558 -0.049722597 0.045815084 -0.10223285 0.19743803 0.0626467 0.09088835 -0.07172697 -0.08615338 -0.061011273 0.021766948 -0.12772655 -0.1818097 -0.129872 0.034959372 -0.07685501 0.1807669 -0.0155094955 -0.006277384 -0.047721695 -0.037429966 -0.08005563 -0.02660746 -0.031982295 0.08108496 0.10459457 0.12034211 0.19156304 -0.12649247 0.06941455 0.13861988 0.16504057 -0.0014588368 -0.017769406 -0.0022528744 0.08042414 -0.09432468 0.12882887 -0.06180785 0.038513046 -0.07462552 0.090177976 -0.10956635 0.09179663 0.1708672 0.16331753 0.10269884 -0.066418186 -0.019803625 0.019792922 0.012813765 0.05305634 0.14741276 -0.016253218 0.092812896 -0.010298153 -0.08185876 0.052866913 -0.02057768 -0.025806246 0.09952812 0.040062416 0.06525913 0.14519182 0.119010106 -0.06374681 -0.04142533 0.15204594 -0.1604023 0.013821497 -0.12300257 -0.04068313 -0.06455172 -0.014269057
on 0.0016530969 0.098852 -0.080357 0.10131202 0.013363846 -0.021491291 -0.013382169 -0.04286823 -0.035083313 0.052906077 0.09457813 0.07791576 -0.06750688 0.068014085 0.074181296 0.038884833 0.036526565 0.041582488 0.11429375 -0.02579593 0.18286338 -0.014782604 -0.10380088 -0.046534386 0.10630728 -0.011642911 0.018268665 -0.02757253 0.04397779 -0.082385495 0.17324406 0.07850967 -0.02607594 -0.09887335 0.041977774 0.07546568 0.024798293 0.065973446 -0.084311835 -0.1610564 0.05406904 0.12457996 -0.074464485 0.04342654 -0.015931055 -0.028362116 0.045008153 0.088671386 0.034508068 0.027542194 -0.0075882315 0.07905177 -0.01155518 0.13301347 -0.016533185 0.13515337 0.023386598 -0.035075374 0.024624918 0.08099146 -0.0630009 0.065258645 0.050518565 0.08061582 0.07875947 0.044110555 -0.0008625224 -0.019862711 0.072279476 -0.022503838 -0.012559786 0.08010846 -0.016909594 -0.028969306 0.17350997 0.073438294 -0.09941149 -0.023953585 0.085605554 -0.021338116 0.12947427 0.05869135 0.12991062 -0.048226405 0.0064322203 0.050104126 0.07295121 -0.009567236 -0.07989968 -0.012059234 0.15704846 -0.020937024 0.026206411 -0.040859915 -0.06595263 -0.07101521 -0.05422935 -0.08590112 -0.03765891 -0.075875595 0.051341448 0.109023355 0.061706666 -0.064061694 -0.034018174 -0.11063578 0.048037577 0.02329023 0.09306641 0.06102377 -0.033717025 0.017153017 -0.021862546 -0.015127106 -0.09859364 0.08214152 -0.05011173 0.06967798 0.019968033 0.10131871 0.05242094 0.080961674 0.07590822 -0.066393346 0.110978864 -0.006460757 0.088814676 0.05501947 0.04031959 -0.004673688 0.06549968 -0.055376604 -0.12048327 0.06800334 -0.07010357 -0.13360932 -0.0481011 0.112583384 -0.01538258 0.09661528 0.09382385 -0.10146576 -0.030824268 0.084929526 -0.101985715 -0.013125075 -7.541699e-05 0.001043469 -0.0048905937 0.0139177255
all 0.13621807 0.10604801 -0.061243057 0.010208048 0.08539241 -0.063781634 0.059745252 -0.021019656 -0.069442436 0.03922883 0.09551628 -0.035740286 -0.031788997 0.06421378 0.14313331 -0.053601302 0.032286696 0.094213456 -0.023013625 -0.10521439 0.023206247 0.14715265 -0.03833948 -0.06263042 -0.035018638 0.0041678124 0.12939702 -0.16117235 0.018639214 -0.03337754 0.098652355 0.111598715 0.07369967 -0.10958004 0.012500345 0.028108668 0.07103751 0.17582211 -0.020676924 0.044733174 0.09794525 0.019748889 -0.04405516 -0.12731567 0.06597696 0.07254674 0.020732207 0.047297858 -0.022622602 0.0036622519 -0.10118526 -0.08651442 0.1358087 -0.009177326 -0.15959208 0.0120494105 -0.14296451 0.031938314 0.03865299 0.026780594 -0.055486266 -0.04801898 0.15333551 0.016723026 0.039057117 0.08192507 0.09770649 -0.11401303 0.02323107 0.117663644 -0.066697635 0.12944628 0.083948895 -0.021126928 -0.049711697 0.033997443 0.017808653 -0.02793038 -0.016612945 -0.019025475 0.102619514 0.07761135 0.0137990685 -0.09270256 -0.054667417 0.03227916 0.122596145 -0.16569854 -0.086657435 -0.05849121 0.080136135 -0.05654762 -0.0029280137 -0.009512054 -0.07992503 0.08251775 -0.17649187 -0.10584407 -0.0069151814 -0.10799097 0.047974437 0.072818436 0.0847863 -0.045886513 -0.0040118014 -0.10790348 0.017239349 0.06046471 0.09039536 0.07644873 -0.14795415 0.018611599 -0.08290422 0.041859277 -0.097917736 -0.0029940736 -0.014395257 0.027765494 -0.08543929 -0.028822932 0.08765021 0.099817276 0.035267845 0.022872422 0.015898721 -0.056403395 0.07875229 0.082859136 0.023040062 -0.038906682 0.062268004 -0.025978722 -0.040534187 -0.037878312 -0.08642837 -0.024417885 -0.020809777 0.13411695 0.06497067 0.12001275 0.13534644 -0.14371769 -0.13821317 0.04261459 -0.027696902 0.045698192 0.07175959 -0.15223931 -0.018676035 0.109417595
with 0.16772528 0.01458524 -0.2116901 0.05583751 0.12642322 -0.14206037 0.17725986 -0.009501003 -0.01675241 0.08211841 0.18214542 0.12588121 -0.055495024 0.043079242 0.19817044 -0.033547968 0.17872174 0.010221343 0.05829975 -0.2224721 0.100120895 0.0333819 -0.03586336 -0.10012191 0.101734675 0.1770681 0.10960557 -0.10244054 0.093895644 -0.12685513 0.08133583 0.042389497 -0.02409443 -0.20800775 0.13434957 0.119547546 0.04869217 -0.0029488043 -0.07117628 -0.12607472 0.056514814 0.12692356 -0.19253275 0.048312742 0.19887818 0.1555874 -0.042119145 0.02218527 -0.15481031 0.029199878 0.067100145 0.13619286 0.11081552 -0.0036741644 -0.031070396 0.20891207 -0.1538711 0.017959965 0.07057428 0.20164143 -0.016281154 -0.0016908376 -0.021043833 0.07860745 0.062632106 0.20213634 0.1585134 -0.017330194 0.018794497 -0.052482903 -0.113293424 0.064704 0.17353678 -0.15705453 0.042223305 0.021998446 0.057675347 0.05416852 0.149707 -0.038256522 0.04139008 0.12601073 0.042436235 -0.105816424 0.039012942 0.012256307 0.1229424 -0.12440924 -0.03400799 -0.112669505 0.09453017 -0.07238922 0.031451978 -0.03226667 -0.13741899 -0.1534289 -0.051711302 -0.034524195 -0.13418251 -0.0048657376 0.13774154 0.20322064 0.08110616 0.010485134 0.026574742 -0.14302287 0.11715939 0.107379474 0.17689799 0.1519546 -0.06981947 -0.0661908 -0.13322276 -0.0052395663 -0.16076769 0.17588395 -0.046098527 0.09615579 -0.036657874 0.08266076 -0.0340558 0.0550493 0.060104575 -0.14834112 0.18563811 -0.13406421 0.18912905 0.07854882 -0.006489281 -0.046405308 0.120684996 -0.14696047 -0.15776289 0.115974575 -0.076090395 -0.0004265883 -0.12857305 0.097676896 0.04706809 0.033156794 0.1275709 0.021619987 -0.06469549 0.15542687 -0.10854748 -0.013668444 0.18110879 -0.025110068 -0.18833926 0.14438789
little 0.006116069 -0.08342875 -0.19098522 -0.036774565 0.03255332 -0.19719976 0.022640629 0.05873126 -0.005182635 -0.07679506 0.12357365 0.10352291 0.018425629 -0.02811262 0.06293343 0.038391903 0.056849867 -0.008428978 0.0071038934 -0.108625285 0.076284364 0.0066715423 0.102153316 -0.14790928 0.0738501 0.11266578 -0.033225134 -0.0594034 0.12290135 -0.027474172 -0.058188137 0.004162316 -0.013515187 -0.06164445 -0.008520273 0.20458376 -0.016545441 -0.1156101 -0.013431753 -0.02922018 -0.11163 0.030475877 -0.11328989 -0.0067033703 0.041790448 0.07071199 -0.16463971 0.07541177 -0.1021765 -0.026723016 -0.012387259 0.034282945 0.039019965 0.08293348 0.052619223 0.1545176 -0.07745927 0.13020286 -0.024403604 0.07046049 0.012963878 0.06524332 -0.05265741 -0.018499238 -0.005940033 0.18679301 0.06085059 0.021980481 -0.0368922 -0.13400385 -0.006411962 0.0683362 0.055149123 -0.009094718 -0.035955984 0.050481517 0.087332346 0.019956106 0.019887235 -0.09624812 -0.003977388 0.108539306 -0.007226513 -0.09495581 -0.017294267 0.016062878 0.003482791 -0.0053233746 0.010841753 -0.07360339 0.1162433 -0.0028710573 0.031206915 0.030913293 -0.18229744 -0.07048525 -0.047441505 -0.03284509 -0.12862274 0.032992594 0.15246525 0.01542408 0.105996564 -0.082274154 0.043108497 -0.023672875 0.063017055 0.126684 0.08195573 0.018747818 0.06708066 -0.122075714 -0.0013374188 -0.008307958 -0.11755388 -0.00069516606 -0.10978947 -0.0833698 0.1616341 -0.06064201 -0.028018957 0.09509749 0.05793475 -0.08486199 0.08096914 -0.0027420388 0.1104478 0.051466316 0.027906314 -0.07066183 -0.08747384 -0.12510161 -0.004297953 0.054460052 -0.0009109973 0.040731195 -0.11871614 0.1524492 -0.03417715 -0.024751512 -0.0132728275 0.036508173 -0.03822766 -0.0014023754 -0.11309763 -0.05247145 0.0008532044 0.031428166 -0.1383342 0.24247375
mouse 0.032438476 -0.03311046 -0.14372706 0.1074677 -0.008655746 -0.09209653 0.08417318 0.07368234 0.13846256 -0.07397869 0.038333133 0.1237869 0.012070741 -0.03160414 0.059183132 -0.00097315985 0.16260338 -0.018907199 -0.018090298 -0.06457964 -0.031079337 -0.13479143 0.0890126 -0.11355843 0.01579784 0.12577754 -0.01733783 0.20445174 0.05603395 -0.09520113 0.055015747 -0.09814151 -0.1529107 -0.043586988 -0.15113963 0.02554376 0.030464217 -0.030850707 -0.03727941 -0.13121803 -0.04515076 -0.053955194 -0.12328528 -0.0775199 0.03802274 0.0040059458 -0.10468401 -0.09466261 -0.0055889445 -0.09076175 0.17074925 0.035351075 -0.030805053 0.015872788 0.08505965 0.090314046 0.006560917 0.0044564074 -0.11108104 0.032339837 0.065760694 0.023042737 0.086276196 -0.05214848 0.0073085628 0.1179255 0.157376 0.12693895 -0.036620528 -0.040788267 0.0555789 -0.042153034 0.055859357 -0.15272675 0.17421192 -0.017435968 0.08834927 0.18074973 0.041547667 -0.0024730477 -0.07506464 0.058233768 -0.08256921 -0.038992498 0.042920772 -0.08007701 0.04668985 -0.026760938 0.10545094 -0.17225142 0.05128947 0.17400014 -0.016192174 -0.060792804 -0.07580045 -0.13876913 -0.028342437 0.07612652 -0.005206279 0.085829794 0.10051495 0.07241522 -0.069577694 -0.05112021 0.053098746 -0.120148 0.0850948 0.14151329 0.059268765 -0.004387437 0.056078643 -0.09299155 0.046592943 -0.15364225 -0.0985508 -0.008432181 -0.064344086 -0.057164714 0.055107757 -0.09115319 -0.1262005 -0.07934817 -0.057506647 -0.11014212 0.09643003 -0.05785414 0.09211773 -0.13559642 -0.05921469 0.07041744 -0.017468216 -0.057044305 -0.04666887 0.075659096 -0.11901122 0.0016918647 -0.045474805 0.0886214 -0.032565042 -0.13575767 0.049097303 0.08766636 -0.11849624 0.03941104 -0.03610752 -0.1074012 0.035744555 0.16614264 -0.08941205 0.083739914
down 0.041560978 0.07046903 -0.04702453 -0.009213102 0.041405905 -0.04419003 0.05542406 -0.10095222 -0.029781941 0.0790393 -0.0115278615 0.045454483 -0.110444345 -0.071341395 0.17781793 0.058004893 0.0035989904 -0.017016646 0.042400446 0.044847563 0.06495759 0.02723939 -0.0667871 -0.047744922 0.07526897 0.027573919 0.078929126 -0.078632236 -0.042080693 0.062857814 0.04474112 0.056263223 0.079618044 -0.024495441 0.051583037 0.056167156 0.02932094 0.06218501 -0.075477585 -0.046109464 0.09312512 0.061214052 -0.00413113 -0.008944187 0.033325274 0.005305701 -0.10434676 0.084283575 -0.017786395 0.041802302 -0.06879112 0.07556493 -0.0100395605 0.047899835 -0.06523507 0.085056126 -0.010098016 0.020402025 -0.0548642 -0.016205788 0.0146298725 -0.07003139 -0.054017883 0.054311927 0.06985413 -0.00858794 -0.04052394 -0.10406431 -0.09146379 0.007518967 -0.03055984 0.046587914 0.10842708 -0.11097737 0.026461266 0.014271585 -0.0072821286 -0.0558262 0.0055375965 -0.041836854 0.010415481 0.095703065 0.083709285 -0.07322081 -0.12961905 0.013908716 0.015864126 -0.010481549 -0.020135367 0.008396182 0.079238825 0.02241895 -0.012180441 -0.0517848 -0.006118331 0.018346475 0.044470087 0.0072329473 -0.041067276 -0.08553044 0.11166146 0.09256028 0.011097005 0.046499435 0.019765785 0.0046819323 0.052652065 -0.00018966314 0.030904049 0.07950037 -0.07309279 0.099030584 -0.07936217 0.022735083 -0.09636963 0.09216054 0.012827085 -0.014769551 -0.06936612 0.14006436 0.030401869 0.14503065 -0.008884134 0.024317747 0.007788504 -0.016107472 0.10163197 0.071390845 0.017529754 6.1028055e-05 0.05237925 -0.08310303 -0.05734582 0.021979691 -0.042751558 -0.071369685 -0.13251054 0.035909023 0.082229726 0.04971127 0.016931074 -0.13854194 -0.060265232 0.08933141 0.00980564 -0.06419949 0.024157036 -0.10389703 0.0457259 -0.08481107
very 0.0134323165 0.09561883 -0.05826616 0.080844805 0.002515154 -0.02707661 0.072680995 -0.13503258 -0.11128511 0.06813216 0.06940947 -0.08912385 -0.08594071 0.11117026 0.12921333 0.028789097 -0.028749876 0.070409834 0.065081365 -0.020588674 0.12251575 0.1186402 -0.025380867 0.013402348 0.068974935 0.058111433 0.074464574 -0.17792031 0.1311998 -0.018054195 0.046842925 0.12035492 0.042087894 0.017586824 0.10362786 0.07226049 0.021296525 0.106477045 -0.029211719 -0.02850992 0.083621554 0.09322132 -0.025412276 -0.01669379 0.031971183 0.064338475 -0.015911248 0.10376237 -0.121448115 0.17803165 0.028232777 0.12528482 -0.0041292873 0.14715077 -0.06594936 0.13767949 -0.082571775 -0.0476762 0.10422912 0.075437486 -0.165455 -0.06840952 -0.020155365 0.06390402 0.04306118 0.0069865016 0.093070745 -0.1327566 -0.0652239 0.041311555 -0.039478473 0.05135375 0.040285353 -0.05172443 -0.025538934 0.105325714 -0.054517407 -0.09285813 -0.0012198593 -0.06820971 0.07033635 0.08625788 0.13890694 -0.08838082 -0.11634949 0.12633738 0.030820135 0.0024129886 -0.1189571 -0.010701006 0.05640805 -0.075642504 0.07096153 0.059482355 -0.03610498 -0.082583494 -0.043708894 -0.10029582 -0.084314555 -0.119793564 0.075595915 0.0155305695 0.0078777475 0.04544817 -0.06269369 -0.018947355 0.006291103 0.069529004 0.09206098 0.04786394 -0.11055961 -0.027305612 -0.10403107 0.12055023 -0.057696503 0.058173347 0.03397674 0.10468757 -0.1324045 0.10520223 0.1753208 0.06642208 0.0408996 -0.09650501 0.07394337 -0.07073663 0.10607192 0.07343674 0.0748727 -0.11337687 0.08032641 0.0051691234 -0.060410947 -0.059991594 0.029223293 -0.07817927 -0.062271953 0.013015515 0.112335585 0.19089393 0.006113997 -0.0711892 -0.020742897 0.07547609 -0.073089555 0.008941175 0.11470361 -0.09641318 -0.012950911 -0.013075162
this -0.043140933 0.0375915 -0.012960755 0.14960542 0.024263209 -0.0022173193 0.0025888402 -0.1250596 -0.118795134 0.061495956 -0.0047997036 -0.09075363 -0.048563514 0.14457588 0.056169912 -0.072347626 0.048084743 0.04866428 0.098817796 -0.047888964 0.013270976 0.049650364 -0.09694611 -0.0070326217 0.078659356 0.12568341 0.084257655 -0.07746575 0.035028096 -0.08282019 0.13317755 0.09218441 0.042712424 -0.02952817 0.12690298 0.00081038976 -0.0029031737 0.041944195 -0.040193245 -0.092829056 0.029951563 0.029418077 -0.10124314 0.11192042 -0.017343825 0.042779535 -0.06186534 0.07849962 0.012658447 0.07550199 0.037712146 0.008751839 0.11834367 0.080161504 -0.103719935 0.029342424 -0.06852869 -0.03192013 0.039379537 0.037731595 -0.03413819 -0.012352743 0.025901148 0.10638681 0.005119305 0.040710434 -0.04831979 -0.04656176 -0.07197989 -0.032999985 -0.08781336 0.057874877 0.13723645 -0.023440558 0.027091065 0.14689204 -0.1365555 -0.055959553 0.04780895 -0.104894295 0.06752988 0.040062968 0.07868028 0.031904124 -0.14465071 0.11972535 0.044664614 -0.0801845 -0.054076813 -0.044904295 0.05300705 -0.0888648 0.08610617 -0.029101746 -0.056928538 -0.041664366 -0.10982642 -0.09367689 -0.04161735 -0.13668297 -0.022556257 0.1337368 0.03760823 0.051624335 -0.057722043 -0.01630265 0.03184761 0.1002449 0.014031494 0.06860018 -0.067004494 0.02571264 -0.05014154 0.038184967 -0.03734695 0.0045519313 0.10341525 0.050770387 -0.06275565 0.118060425 0.15863906 -0.03674601 0.08161141 -0.06817883 0.010085179 -0.023499012 0.013175169 0.097725496 0.064716734 -0.107471846 0.047929104 -0.030406924 -0.056762043 -0.013890153 -0.095932096 -0.1370864 0.013869123 0.012076992 0.1442661 0.012665886 0.0025262986 -0.10023498 -0.09872025 -0.009655097 -0.11389123 0.057957504 0.069502614 -0.084251724 -0.07630324 0.05222778
not 0.031225992 0.076116286 -0.05530648 -0.039277352 -0.016487062 -0.054224517 0.052211855 -0.17187779 -0.058196753 0.1489003 0.08506116 -0.02463685 -0.1368191 0.09448361 0.11154353 -0.040337972 0.034346066 0.054135207 0.09259027 -0.020894494 0.06356792 -0.06660085 -0.10466767 -0.030239748 0.012337144 -0.021728585 -0.0009692347 -0.0078335125 0.06265076 -0.1003674 0.10574016 0.14387587 0.118066385 -0.042498272 0.0024835244 -0.002521151 0.09523334 -0.0018883707 -0.0343601 -0.080894195 0.057170738 -0.03188181 0.010351829 0.17474718 -0.0014174643 -0.078098886 -0.033965565 0.054206662 -0.07394608 0.026119307 -0.069059946 0.0384964 0.053050816 0.017518822 -0.085447185 -0.03517502 0.0150224585 -0.04205191 0.045576382 0.0037253667 -0.1306811 -0.023240875 -0.12820524 0.041362576 -0.076622844 0.01507301 -0.05343819 -0.053786926 -0.10528923 0.057030603 0.03969368 0.013941962 0.005346009 -0.054181505 0.016202286 0.10468033 -0.028210862 -0.015693372 0.06818332 -0.11113173 0.19000168 0.08459782 0.122823276 -0.102463774 -0.077575065 0.01913186 0.067107856 0.013612466 -0.056241706 0.010703351 -0.031510945 0.0045853243 -0.0067750425 0.0019167713 0.015200062 -0.11673727 -0.04482801 -0.012571802 0.06358695 0.03876706 0.009006112 0.12087755 0.06306146 0.032181807 -0.13919462 -0.06278197 0.043784015 -0.020479301 0.04247672 -0.014144042 -0.03280351 0.063938476 -0.1443319 0.074386194 0.002523629 0.016179284 0.0693718 0.06852825 -0.2507255 0.13903375 0.055900108 -0.020547692 0.05338151 -0.017566048 0.005847728 0.035086446 0.06342284 0.118755296 0.11824295 0.038020674 0.030708406 0.011598096 -0.0199763 0.020031773 -0.042828135 -0.11059131 0.032036908 0.04876447 0.043894097 0.07847588 0.107326604 -0.08324693 0.033184215 0.057444282 -0.13943264 -0.07944964 -0.026393253 -0.009119987 -0.049571916 -0.029510478
so 0.053333968 0.05767684 -0.0050762817 0.01600852 0.050165925 -0.038902685 -0.02064029 -0.06290228 -0.13164887 0.063414775 0.049136754 -0.0014662119 -0.118588865 0.04171299 0.031789348 0.082289815 -0.028650776 0.094782315 0.09538446 0.018501729 0.06755052 -0.012017807 -0.053854235 0.03587403 0.026569646 0.028808516 0.03746024 -0.12940568 0.043486778 -0.023550468 0.13300326 0.08392196 0.037237294 -0.017158749 0.068914205 -0.033323646 0.14852431 0.024081413 0.0058687725 -0.035717774 0.056012683 0.12411324 0.0123737985 0.109190315 -0.013375155 0.0070020696 -0.03745656 0.11405816 0.030784307 0.030035065 -0.11192774 0.044799265 0.018845221 0.07487493 -0.07788889 0.01046574 -0.09944307 -0.10010878 0.05422688 0.06274734 -0.14055699 -0.024675414 -0.0025497524 -0.0153663615 0.014284967 -0.013012415 0.055056866 -0.02559669 -0.026959954 0.049632605 -0.030396366 0.008611478 -0.008596408 0.012568392 0.13301773 0.047832 -0.13401893 -0.10748787 0.008907754 -0.101561256 0.100344904 0.056742813 0.118497685 -0.03721393 -0.019586926 0.0934464 -0.035766628 0.009587981 -0.08017231 0.021212837 -0.0010731103 -0.058270574 -0.032748256 0.041738514 -0.020380132 0.040813632 0.03597241 -0.03673279 0.012305442 -0.13559246 0.056019347 0.042818993 0.048206903 -0.022962086 -0.07956347 -0.0351476 0.028603496 -0.06816951 0.061350282 0.040293086 -0.05601493 0.024795664 -0.12304159 0.053620305 0.00075263507 -0.024577899 0.120921575 0.113594756 -0.12895532 0.016507491 0.14551559 -0.015628198 0.14135902 -0.061070587 -0.02307646 -0.033646047 0.06716025 0.05813745 0.12738714 -0.10111298 0.03504942 -0.056351412 -0.025857886 -0.079823054 -0.054436866 -0.12246658 -0.009785846 -0.013779884 0.1036647 0.109103635 0.08972113 -0.1513381 -0.09378471 0.090671785 -0.11722988 -0.088695504 0.011392246 -0.11517403 -0.027600005 -0.022655737
out -0.02743 -0.066500776 -0.006272292 0.12730771 -0.038951036 -0.05465851 -0.032392953 0.014398682 -0.035395604 0.019888561 0.074724056 0.057784863 -0.030980188 -0.012849806 -0.037979897 -0.032616116 0.034661304 0.023459723 0.11329284 0.009440125 0.012311693 0.100776784 -0.031692527 -0.05201556 -0.008163052 0.049533136 0.0062063048 -0.052941505 0.038278736 -0.050980724 0.071044326 -0.032384917 0.011750428 -0.028364362 0.05448028 -0.028853722 -0.046455365 0.012491687 -0.085153624 -0.081147544 0.04908863 0.07113159 -0.053259764 0.017031575 0.009584614 0.0759317 -0.15145823 -0.057477053 0.025114097 -0.00452785 0.063553676 0.028926704 0.02162154 0.033621877 0.006551221 0.03142452 0.05512943 0.018614711 -0.018280558 0.053509835 0.08583657 0.07987167 -0.0030672639 -0.016837861 -0.020300694 -0.034947317 -0.059446353 0.031560484 0.0024058511 0.024745835 0.016213445 -0.05020076 0.023862747 -0.024110453 -0.077107035 0.03264142 -0.032425553 0.09253758 0.06084285 -0.03937927 0.0653971 0.0026268526 -0.031622108 0.06561097 0.04665224 0.09116549 0.039695986 -0.117968924 -0.0121529335 -0.068704925 0.010816348 -0.0037843804 0.061640088 0.016957033 -0.079698764 -0.05072405 -5.8069825e-05 0.006477082 0.031353675 -0.02751513 0.02559925 0.02968148 0.012749571 -0.033145513 -0.060018174 0.026488177 -0.006049969 0.07527691 0.024990635 0.016942501 0.010679353 -0.021404713 0.07207319 0.058913082 0.03762479 -0.010302307 0.020530345 0.04245944 0.036880795 -0.03184953 0.07139907 0.104425736 -0.013031787 0.021046491 0.056744527 -0.08772245 -0.013319379 -0.08809293 0.06006523 -0.061133947 0.0014894546 0.027384236 -0.0046484214 -0.0025005182 -0.027564093 0.062830865 0.01264134 0.021708777 0.05225445 0.019748218 -0.058900252 -0.059545614 -0.005931188 0.015817987 0.06599169 -0.055899303 0.06433773 0.06479366 -0.04798877 0.026513588
if -0.024579804 0.08261783 -0.046751242 -0.0582423 -0.103621036 -0.04261739 -0.0017554685 -0.08992846 0.08763083 0.119869344 -0.04760561 -0.10965496 -0.20756023 0.074193 -0.014760132 -0.067436986 -0.042960383 0.15551218 0.0006688629 0.031330522 -0.05049697 -0.10959939 -0.11820288 -0.03655777 0.04874554 -0.08342274 -0.050899833 -0.112706475 -0.14773704 0.077991836 0.03529483 0.070621856 0.17089546 0.016445734 0.03555177 -0.13575952 -0.079590574 0.18364109 0.072436936 0.08828438 0.10081676 0.057000175 -0.01847407 -0.06632413 -0.121714614 -0.15243182 -0.13019411 0.0024481532 -0.025438415 -0.0007270456 -0.16278523 -0.02782616 0.1040986 0.10650118 -0.022348352 -0.099793315 -0.021377185 0.09656491 -0.14614612 -0.023080258 -0.045540646 0.048033934 -0.037706017 0.06317996 -0.053602073 0.091649525 -0.058705788 0.027664665 -0.08571684 0.14527978 0.10041131 0.061568674 0.005140894 0.091461256 -0.077843465 0.10076951 -0.06981674 0.011477768 -0.091711976 0.12608713 0.13124675 -0.00802298 0.10464599 -0.0744838 -0.10387239 -0.11879002 -0.08281343 -0.17327215 0.0030083447 0.0010656578 -0.13172662 0.0345787 -0.05041454 0.08053338 0.18881406 0.09002055 0.021464061 -0.1515173 0.09899994 0.08953921 -0.046496436 0.17690258 0.086723976 0.054175913 -0.08067972 0.003946482 -0.060076784 0.0034391815 0.048820384 0.009385396 0.0463112 0.06338606 -0.05216378 -0.037240632 0.02669022 0.010587263 0.071599625 0.079439275 -0.20355847 0.09299909 0.159855 -0.052071784 0.10541048 0.09211651 -0.11217303 0.059504773 -0.0123838335 0.05432626 0.07038808 0.05433482 -0.038964685 0.11798585 -0.09676399 -0.14471251 0.023015091 -0.10635541 0.06004519 -0.08792053 0.070353895 0.060836975 0.15564822 -0.17386852 -0.014982033 0.0280325 -0.1457881 0.003975183 0.009247724 -0.16695355 0.018371234 -0.0791943
is 0.024265548 0.041021686 -0.009733023 -0.043336608 0.016781028 -0.02981493 0.07693794 0.0053142435 0.02933541 0.0019938813 0.021488793 0.005724038 0.016188439 -0.0039055792 -0.009845069 -0.01491873 0.059339996 -0.023842685 -0.026826922 -0.06530976 0.006972587 -0.046038397 -0.03508922 -0.032674227 0.048836093 0.033099137 -0.020841595 0.047334548 -0.05372768 -0.039222743 0.00048108585 -0.061968546 0.035317816 -0.114232615 -0.00033576187 0.004661296 -0.040506426 0.027508145 -0.002974919 -0.051862665 -0.016947761 -0.010738612 -0.08539432 -0.032576296 0.049285486 0.04968764 -0.0740974 -0.03546583 -0.058406204 0.053415313 0.0450599 0.02912278 0.014634432 0.048643116 0.011041793 0.014269502 -0.033109583 0.11957928 0.06784238 0.081445254 -0.019366194 -0.044049405 0.05310581 0.006232811 0.13932016 0.022626985 0.041888546 0.016356105 0.020762097 0.007778976 -0.029969307 0.054180242 0.034289893 -0.06838831 -0.006576852 -0.09492502 -0.02052163 -0.011792876 0.05472118 -0.039466023 -0.015079386 0.07012013 -0.011449192 -0.061277613 0.08049798 -0.050212853 0.08177408 -0.0006268784 0.009059366 -0.13310577 0.059267215 -0.0073457872 0.06967192 -0.027061442 -0.078289665 -0.022824697 -0.020312788 0.05955021 -0.044793032 0.03710146 0.07036873 0.090588845 -0.007831161 -0.005573157 -0.037054 -0.026655458 0.071522035 -0.040449128 0.10506272 0.07048868 -0.01564741 -0.0237592 0.06545754 -0.0083989445 -0.09773593 0.0796734 -0.095517345 0.06038127 0.02167193 -0.0066078743 0.026841147 0.04126997 0.018899513 -0.099846765 0.074464515 -0.03321256 0.027825985 0.04309577 0.05593311 -0.013297475 0.06502029 0.04057362 -0.047567595 -0.021617964 0.0018743625 -0.031646892 -0.032129303 -0.0023528943 -0.013653911 0.028097477 0.05277063 0.08805634 0.0346318 0.055810653 0.009964379 -0.001081296 0.01660708 -0.0009247493 -0.039908018 0.067134984
at 0.07517616 0.061619494 -0.0211376 0.12504281 0.017157454 -0.12100277 0.083014846 -0.058402095 -0.1341325 0.063795336 0.039053656 0.10640783 -0.028828174 0.05787729 0.04190323 0.027560864 0.04296315 0.033102237 0.050513227 -0.04357196 0.118536845 0.12692788 -0.082430005 -0.0744846 0.017866949 0.09719974 0.016684474 -0.055423576 -0.0046173465 -0.04531863 0.1106132 0.07591949 0.052384064 -0.060161512 0.06496227 0.041120883 0.12091708 0.046199083 0.027035262 0.017835446 -0.0018378951 0.090166494 -0.10200093 0.097954586 0.05653702 0.036352284 -0.0479341 0.018016864 0.034696892 0.02933039 -0.059595175 0.07061016 0.014622044 0.05976104 -0.01172969 0.023196446 0.012524508 0.03159123 0.0045322333 0.03901496 -0.06958365 -0.058275703 -0.01892921 0.13269487 0.064634524 0.0260668 0.06268175 -0.13596107 0.002886025 -0.006834657 -0.06643551 0.10685036 0.09343565 -0.13117832 0.117238075 0.059096433 -0.08873469 -0.018665528 0.031067241 -0.09069176 0.058126368 0.02788721 0.08100888 -0.050377946 -0.04990352 0.097531244 0.13180313 -0.1593318 -0.0610843 -0.06494963 0.038030807 -0.0975846 -0.0004869107 0.0095612295 -0.07192023 -0.08839328 -0.04193954 -0.0133903455 -0.04067899 -0.010198778 0.019218387 0.053777624 0.03847126 -0.08662155 -0.014225917 -0.02974495 0.011547507 0.0069413893 0.0003170577 0.09831717 -0.12381126 0.0091909645 -0.10592794 0.06974893 -0.121954724 0.07812316 -0.045858733 0.031419065 -0.041449223 0.0965483 0.1260323 0.03645991 0.013875689 -0.061229344 0.12150206 -0.038042504 0.09348671 0.055999644 0.007941896 -0.057695795 0.090252094 -0.13872766 -0.015364761 -0.010682614 -0.05100752 -0.097085916 -0.054578297 0.039342698 0.036849476 0.056385648 0.09038081 -0.024237124 -0.13476665 0.09556058 -0.0507395 0.00051179325 0.18142559 -0.1261476 -0.0453684 0.040610824
t 0.09058118 0.19396223 -0.027328735 0.02952423 0.06472761 -0.077509955 0.10849712 -0.081196316 0.010583767 0.16127697 0.074890256 -0.15374799 -0.11403383 0.22821233 0.094651096 -0.10646855 0.031603668 0.21472813 0.039575327 -0.09251145 -0.091096565 -0.039239317 -0.16309088 -0.09804316 0.05211978 0.003747273 0.022313466 -0.16490512 0.070383355 -0.022147827 0.1302401 0.061096378 0.105299875 -0.02173001 0.12230535 0.07748311 0.05628446 0.14537951 -0.053887125 0.011675325 0.08904903 0.10866075 -0.11989261 0.003709863 -0.015576898 0.02723036 -0.12271351 0.038393497 -0.11154637 0.019963365 0.016735483 -0.0077517903 0.23331298 0.113807596 -0.118540555 0.02014598 -0.042117752 -0.071955025 0.109761365 0.055009205 -0.08782649 -0.039509084 -0.06725745 0.09738685 -0.0007503724 0.10393517 0.052814778 -0.007911929 0.065182105 0.04203556 -0.0855568 0.140117 0.08334023 -0.08107915 -0.073467895 0.08284527 -0.12529066 -0.11816112 0.054310948 -0.072790965 0.20421946 0.12668231 0.15012717 -0.16689065 -0.02660963 -0.0004528528 0.01642602 -0.16848983 -0.13084917 -0.03053287 0.074170485 0.0031953794 0.0020253342 -0.10793388 0.060068887 -0.0012184819 -0.053573795 -0.15278953 0.025858557 -0.0724952 -0.007350645 0.17478465 0.11527742 0.12353243 -0.15385681 -0.06386726 0.011709887 0.060368348 0.16421233 0.00977916 -0.013546953 0.036153242 -0.06297842 -0.004204296 -0.04193757 0.11889369 0.07027486 0.16349182 -0.18101126 0.12513058 0.20168145 0.07622209 0.14465816 0.0072138943 0.0025048237 -0.10162258 0.076806 0.14126849 0.052471455 0.039709188 0.039085403 -0.042962633 -0.20792672 -0.03439875 -0.0765935 -0.0503429 -0.06807258 -0.00018820753 0.07487481 0.12266685 0.24014547 -0.15480788 0.09246022 0.098429784 -0.17897889 0.014444374 -0.020184256 -0.22917752 -0.1040804 -0.053395346
s 0.061929006 0.060750615 -0.11384863 0.010228 0.024043536 -0.03736223 0.03792957 -0.085608155 -0.05213953 0.028329872 0.098076604 -0.07894168 -0.1213644 0.049077038 0.007556717 0.058504593 0.040593 0.10868522 -0.04287742 -0.028135773 0.10974943 0.07796703 -0.089115985 0.0017733546 0.011637407 0.016549174 0.077396266 -0.08657128 -0.033962652 -0.049512986 0.08252201 0.009281284 0.09771072 -0.018922282 -0.008370365 0.019156294 0.038360536 0.008515064 -0.024245538 -0.07486323 -0.05941187 -0.025417682 -0.03409262 -0.0620015 0.030328609 0.02087701 -0.028929368 0.092128634 -0.07919728 0.027180776 -0.072347775 0.022570347 0.0548984 0.08945548 0.048941612 0.12045025 -0.0053560208 -0.14118178 0.013010217 0.085834794 -0.08217789 0.016899059 -0.025478806 0.092776775 0.11598964 0.09282058 0.08250707 0.029642187 -0.032444764 -0.052036133 -0.009719795 0.06994166 0.032462247 -0.05296592 0.10396339 0.02642639 -0.0037888808 -0.07637689 0.09117272 -0.032258064 0.068006195 0.037081297 0.066395625 -0.019393174 -0.0103817955 -0.02005974 0.03379375 0.006790196 -0.0244997 -0.06461762 0.00095528446 0.0077987704 0.041120607 -0.03979244 0.049690843 0.042659696 -0.10076803 -0.044971157 -0.09858672 -0.00031947184 0.11028645 0.07880111 0.031329244 -0.07414761 -0.08229614 -0.031719714 0.045481954 0.007972134 0.07983005 0.03418087 0.0015584095 -0.093519256 0.00023969672 0.074078955 -0.13311377 0.1230874 -0.03853423 0.01365798 -0.0003513551 0.022215502 0.036683034 0.06491353 0.041941334 -0.06526817 0.047260195 -0.06335608 0.03285353 0.10830559 -0.017517356 0.0010934082 -0.031394634 0.025403054 -0.08563104 0.07019143 0.018256087 -0.03214238 -0.0522952 0.06825461 0.03985034 0.027167987 -0.006687664 -0.08464597 -0.013154297 0.06588067 0.008439678 0.014005215 0.019086946 -0.09071777 -0.072066374 0.043007467
ll 0.050462622 0.10223776 -0.0004335642 0.010403292 -0.016402664 -0.109068066 -0.03962542 -0.037199385 -0.0036143856 0.10034232 0.046499226 -0.09328195 -0.117359154 0.10320831 0.043917492 -0.051159315 -0.10276151 0.16189134 0.016244432 -0.022087663 -0.090504445 -0.007737845 -0.097391985 0.024742689 0.022958914 -0.013973942 0.012023539 -0.11783435 -0.10484037 0.046963636 0.05788791 -0.018168278 0.1659499 0.017313816 0.058307808 -0.042964127 0.038572118 0.22657514 0.12322653 0.14639191 0.040484183 0.12361477 0.0074381903 -0.10522931 -0.03547835 -0.04875725 -0.13791251 0.029131152 -0.036641803 0.017778046 -0.097042486 -0.08140911 0.040623147 0.014507466 -0.08324439 -0.010936331 -0.009133172 0.06694683 -0.018167567 -0.046100855 -0.03701605 0.03287553 0.08478624 -0.012937546 0.02547577 0.0180056 0.014094503 0.0030815112 -0.06266656 0.14927159 0.006460409 -0.0086377915 -0.013497967 0.05422409 -0.008828601 -0.014390452 -0.077229135 -0.061362546 -0.054840703 0.050836194 0.085011944 0.07040178 0.067622565 -0.034840036 -0.058227368 -0.078977846 -0.044250894 -0.12985337 -0.04412021 -0.00955313 -0.051777188 0.053691212 -0.055625413 0.09448251 0.018323444 0.07185842 -0.043297175 -0.15221895 0.02328294 -0.042617615 -0.057397068 0.0488017 0.00945815 0.1567155 -0.02642827 0.03897118 -0.014826531 -0.028038742 0.030794565 -0.088411264 -0.0059965802 0.040829923 0.004827768 0.011989946 -0.030113248 0.13069208 0.010723736 0.087347366 -0.176607 0.099684715 0.1454092 0.05814788 0.097525984 0.1103818 -0.10985744 -0.03665811 0.055765685 0.11304846 0.042968463 0.017422507 0.0049010958 0.003937764 -0.13220325 -0.08049691 0.09672795 -0.09002735 0.025414882 0.035926968 0.045501903 0.041533496 0.19562428 -0.14484987 -0.058292784 0.037511103 -0.10573735 0.07864014 -0.038167924 -0.10218896 -0.0026259948 -0.09693988
how 0.108555086 0.116887674 -0.038493875 0.03889435 0.04248311 -0.029196775 0.113092236 -0.083337165 -0.018555159 0.048157156 0.043499764 -0.06943837 -0.117066644 0.07463535 0.11623811 0.037323307 0.029232688 0.03530422 0.06714479 -0.08059255 0.09208866 0.05845787 0.0018664849 -0.0744361 0.14118098 -0.012117158 0.035821997 -0.009602927 0.010988886 -0.091273874 0.0054539246 0.051801585 0.023723895 -0.10179299 0.092535645 0.07924925 -0.038655117 0.017849471 -0.09096301 -0.10101666 0.011321196 -0.006284884 -0.01690323 -0.04165647 0.08028005 -0.011950176 0.012457744 0.046174575 -0.061934937 0.041745033 -0.043094903 0.081035905 0.05002345 0.021576112 -0.10523272 0.07627757 -0.06663853 -0.053938583 0.04504935 0.040425245 -0.04444829 0.0030088322 0.062250584 0.025497543 0.08584253 0.082562186 0.061718907 -0.019863421 0.0026948475 0.018081013 -0.007676325 0.03008567 0.060111023 -0.049398575 0.1077881 0.033851076 0.01841654 -0.012434488 0.070194535 -0.025470717 0.09018942 0.10547905 0.11060795 -0.136798 -0.063815445 0.00042628637 0.016442526 -0.11179999 -0.03747956 0.03520022 0.10813774 -0.02434319 0.068326525 -0.098528914 -0.06148278 -0.053212862 -0.0067711053 0.0178674 -0.09858109 -0.063617826 0.13985607 0.0631212 0.036136262 0.022775535 -0.024025224 -0.11473478 0.046677332 -0.027008757 0.06515924 0.037638776 -0.010879698 -0.0109976 0.024195138 -0.009237244 -0.058959786 0.09458507 -0.033198953 0.06718963 -0.1327303 0.03377221 0.089658305 -0.038219023 0.017951502 -0.12202657 0.10581499 -0.09748227 0.09539298 0.05542588 0.030546557 0.022488557 0.108007 0.057706993 -0.08698048 0.014077364 -0.013371069 0.019164165 -0.11083931 0.10087909 0.058916226 0.016434938 0.09191485 -0.10343986 0.045413 0.13418509 -0.026254827 0.05911951 0.03479326 -0.10623771 -0.11854897 -0.04928884
they 0.08218292 0.0937104 -0.09041795 0.087946564 0.09872512 -0.011239533 0.0671083 -0.098219335 -0.06984532 0.16300307 0.06614964 0.12978366 -0.2367291 0.0813875 0.08349662 0.03666475 0.08694051 0.037486006 0.12604912 -0.043337613 0.17014256 0.21904463 -0.10474928 -0.10093823 -0.00579441 0.1216342 0.17488351 -0.09055211 0.10681373 0.05029243 0.0738932 0.15703177 0.1176799 -0.050919548 0.17034395 0.0008981186 -0.0017265491 0.10700214 0.081447214 0.043842137 0.09061552 0.052905247 -0.11212955 0.041897308 0.008085504 0.11942672 -0.06379276 0.12855591 -0.035805654 0.13010864 -0.049211897 0.019497372 -0.050152063 0.06170879 -0.14963466 0.05681824 -0.08079653 0.03261091 0.01696103 0.13012661 -0.15168141 0.00658972 0.032773666 0.15647031 0.020171864 0.120638184 0.034268778 -0.19897826 0.026080862 0.13167214 -0.08871671 0.11614743 0.038425814 -0.12562084 0.083198406 0.10400481 -0.09154683 -0.036008645 0.07521438 -0.14124756 0.095034756 0.05791771 0.11952006 -0.08916715 -0.04597586 0.046558578 0.030574232 -0.10239104 -0.0783774 -0.08834562 0.02622006 -0.100336924 0.07206503 0.049519684 -0.046520863 0.04227805 -0.106862344 -0.07306646 0.05489058 -0.0005867814 -6.3059386e-05 0.09389446 0.040793084 0.08773407 -0.08948053 -0.043958593 0.020335797 0.126964 0.057443365 0.052837625 -0.108395234 0.0862817 -0.12701328 0.12520914 -0.09925365 0.02903552 0.028370356 0.011154856 -0.036702186 0.17060788 0.19267525 0.057160303 0.05886273 -0.025207754 0.036421686 -0.0057591265 0.074828796 0.09853382 0.07529586 -0.114301726 0.14559464 -0.11912362 0.021566635 -0.03355516 -0.025347786 -0.10006717 -0.027448699 0.083013065 0.095271476 0.14527889 0.05953476 -0.17169416 -0.1124309 0.054524682 -0.11567659 0.05263298 0.09966999 -0.08468634 0.014813926 -0.03328621
about 0.0472022 0.07523943 -0.011339579 0.016038626 0.08461728 -0.033308826 0.07225691 -0.031541124 -0.012212215 0.042986322 0.023175377 0.019881018 -0.06532193 0.08119221 0.020485189 -0.03527768 -0.004589561 0.058618125 0.071466014 -0.095906645 0.057767645 0.10316768 -0.0927075 -0.0069617517 0.063468345 0.045984503 -0.013563639 -0.066858746 0.014409216 -0.061423525 0.017800134 0.06362116 0.1184381 -0.048047848 0.13617492 0.10379957 0.03669118 0.051280137 -0.025463836 0.017046085 0.05988764 0.017651131 0.001497403 0.008821634 -0.033916667 0.06803637 0.049357552 -0.005006152 -0.019665824 0.008410875 0.0033426776 0.090993166 0.049814936 -0.02089545 -0.012998271 0.058887694 -0.019515594 0.0040379455 0.016121697 0.065856025 0.005597379 0.027621217 0.037705127 0.053321254 0.084549434 0.047421515 -0.010999119 -0.07649256 -0.10288435 0.012958486 -0.039180838 0.049319286 0.048039857 -0.00720766 0.052560367 0.094027735 -0.060459718 -0.030060181 0.014945038 -0.07068407 0.09213263 0.067649946 0.046075407 -0.05294896 0.015158506 -0.032611243 0.090343155 -0.028596448 -0.07371888 -0.073583774 0.054153726 -0.103537805 0.107081845 -0.112833604 -0.0717196 -0.06250954 -0.01919039 0.02581197 0.049205475 -0.003147184 0.0019339591 0.011944143 0.048914984 -0.06020866 -0.048757326 -0.11250639 0.0922349 0.019757211 0.07074728 0.051697787 -0.05990968 -0.009884963 -0.03541308 0.07440562 0.01940777 0.003166665 0.034680996 0.05378894 -0.084860116 0.006442574 0.039647494 0.0035388807 0.028143743 0.02154915 0.042027034 -0.06992768 0.038935553 0.021731637 0.018764503 -0.021110179 0.07452462 -0.028106635 -0.039429694 -0.03670538 -0.025374118 -0.09123258 0.026862347 0.08546617 0.10527282 0.021716008 0.13116968 0.022816077 -0.07796322 0.034188874 -0.05332213 0.084468365 0.06828813 -0.105138436 0.026315836 0.035014495
herself -0.026495222 -0.0024133858 0.14955556 -0.06237761 -0.043994274 0.06316406 -0.019104062 -0.026908677 -0.018702976 0.030850612 0.05071298 0.08388344 -0.036777873 -0.012806564 -0.0326225 0.025330149 -0.026100088 -0.05296688 -0.0030493045 0.072266966 0.0826957 0.001992336 0.0047472543 0.07871429 -0.04572753 -0.013395334 -0.02340543 0.048833024 0.014116445 -0.06129005 -0.002952424 0.100524984 -0.04299101 -0.07334303 0.017987574 0.0024012444 -0.005320637 -0.05194757 -0.0616078 -0.089067064 0.010078407 -0.03900164 0.039106816 -0.017287178 -0.004420753 0.027690625 0.005321743 -0.023493541 0.033696234 0.032746673 0.10672202 -0.0012436194 -0.032777417 0.015462415 -0.044914618 -0.034841277 -0.040463228 0.121434465 0.0496673 -0.07694462 -0.017738027 0.014928047 0.008196396 -0.027195254 0.0088114245 -0.057196844 -0.08921939 -0.022255495 -0.09557161 -0.06254557 -0.028684497 -0.021249 -0.1342385 -0.040550068 -0.032816418 -0.098233536 -0.009047003 0.09527875 0.028685575 -0.13155004 0.11693596 -0.09420068 0.06074803 0.06352551 -0.024038099 -0.010585065 -0.07055539 0.12812884 -0.058036562 0.03801485 -0.057020187 0.041653868 -0.0020978341 0.005877269 0.03115228 -0.07758758 0.080007546 0.077032425 0.053781293 -0.0730369 0.06375058 -0.06857872 -0.014263155 0.044359215 0.006608092 -0.07215066 0.045995314 -0.038123287 -0.106750034 0.012568971 0.06779542 0.0053988514 -0.10651131 -0.046630193 0.04891632 -0.092778675 0.04311322 0.068635404 -0.043991975 0.01496691 -0.009298467 0.013086761 -0.1439638 0.012172829 0.057235405 0.031727917 -0.041368425 -0.060306117 0.1597391 -0.06808426 0.0943633 -0.045910493 0.09293241 -0.027966041 0.026881512 -0.011627576 0.07436831 -0.079189435 -0.048566736 0.043415803 -0.14935367 0.050003037 0.059930723 -0.017618824 -0.051165633 0.0072538415 -0.0021647338 0.082369275 -0.011888173 0.03910063
me 0.033210285 0.11892325 -0.10891952 0.05490403 0.105296284 -0.0580128 0.0023222435 -0.022195669 -0.115098014 0.10354437 0.11596166 0.054186445 -0.10380647 0.12266071 0.12878135 0.05840649 0.17387132 0.13583273 0.14762963 -0.070159584 0.07062743 0.057728227 -0.07965322 0.051870834 0.11373949 0.10078758 0.078846775 -0.06717869 0.07747152 -0.040042758 0.023311986 0.11382195 -0.030545162 -0.020570094 0.10598838 0.09582181 0.060031854 0.058473073 0.031763423 -0.00032754592 0.032029763 0.109284244 -0.07287785 0.03740487 -0.0070150825 0.13349316 -0.0030291462 0.051755622 -0.06718402 0.059496086 -0.01353029 0.07038532 0.093697436 0.0831171 -0.054592103 0.061635014 -0.08326289 0.026963176 0.0067759813 0.08763553 -0.12799133 -0.052832365 0.04958811 0.024118124 -0.011075359 0.111155495 0.13007542 -0.07496051 0.01602379 0.07262526 -0.050920285 0.17236574 0.04531069 -0.13451298 0.0117167765 0.08844571 -0.12131475 -0.0387462 0.037509445 -0.052445594 0.06600197 0.10472865 0.07712768 -0.04261301 0.031978942 0.0059917495 -0.021146178 -0.1388967 -0.06790262 -0.13223083 0.021509968 -0.05504461 0.04752729 -0.04618961 -0.12143305 -0.03057187 -0.08965227 -0.035528354 0.032933906 -0.15005851 -0.033504628 0.07736979 0.05683129 0.14972255 -0.13637257 -0.09094305 0.10836238 0.12319424 0.032015536 -0.003496814 -0.013749608 -0.036756728 -0.009401075 0.030797688 -0.074658364 0.12088984 -0.06965085 0.04721569 -0.12125868 0.091079876 0.094970345 0.05269578 0.07766936 -0.08954129 0.0059699886 -0.028831188 0.070697814 0.123023935 0.04307576 -0.11708508 0.11428257 -0.12039434 -0.011361182 -0.06900649 -0.089308515 -0.03964257 0.020690763 0.03994993 0.12798436 0.12115873 0.08820239 -0.058122788 -0.029691795 0.089802966 -0.12382894 0.010661416 0.018971277 -0.057566576 -0.0366553 0.020017568
up 0.003360172 0.017426897 -0.038993556 0.032168202 -0.004798474 -0.09713139 0.025175653 -0.010178663 -0.057719383 -0.037677534 0.09296049 -0.01920152 -0.05355088 -0.058456235 -0.015085922 -0.032337863 0.043931454 -0.019168463 0.055574305 0.0028046211 0.04138504 0.07445123 -0.01974663 -0.054180287 0.07859246 0.09347335 0.0046913642 0.07501365 0.05879848 0.010183525 0.0056463555 0.011513134 0.03062327 -0.053652834 0.056876678 0.10265161 -0.0071760486 0.03493606 -0.09646573 0.02442054 0.019656353 0.03567174 -0.0771893 0.06883189 0.083141565 0.068297826 0.038643595 -0.0066162534 -0.024341818 -0.0075673116 -0.036888115 0.0891082 0.0059234146 -0.010461192 -0.06997145 0.096206084 -0.08630698 -0.040978495 0.029295132 0.08861968 0.006215264 0.010892557 -0.07866241 0.06789727 0.017132659 0.0976858 0.061683748 -0.08370463 -0.023835588 -0.04260866 -0.012717525 -0.012831295 -0.0018497773 0.001649096 0.025303014 -0.0040076063 -0.035127264 -0.057308972 -0.022383956 -0.03400594 -0.0045035603 0.07000628 0.0016931854 0.011169778 -0.069402345 0.032443684 0.07105977 -0.005789937 0.020783683 -0.08717615 0.1200613 -0.06257231 0.024046384 -0.037031144 0.028922835 -0.037045404 -0.057882793 -0.00026869547 -0.05609331 -0.009187354 0.036704734 0.0841758 -0.07451075 -0.06614213 -0.0032069595 -0.04629225 0.08184744 0.0055524525 0.052196898 0.006785586 -0.076025695 -0.030329846 0.004881616 -0.0007363166 -0.093110576 0.05682592 -0.055970762 0.029525483 0.03499942 0.016873151 0.027797027 0.046217 -0.0025906875 0.03750965 0.031406227 -0.04342798 -0.02427624 -0.006230421 -0.004625608 0.034473557 0.02638985 -0.0010098945 -0.035568252 0.02336198 -0.042656347 -0.0037016978 -0.061880946 -0.004651107 0.043677073 -0.051342268 0.007354478 -0.02601881 -0.11012398 0.031685315 -0.023739874 -0.014334781 0.050007157 0.007777458 0.014623803 0.0698493
what 0.01848528 0.036843754 -0.009198375 0.051336266 0.03399496 -0.10125084 0.06780847 0.03557422 0.028796827 0.011482169 0.071859606 -0.10160288 -0.01636604 0.019919496 0.07540782 0.02803309 0.045573823 0.07389801 0.03947861 -0.047928356 -0.05615214 0.032508593 0.028326655 -0.05221775 0.083761886 0.066974655 -0.045190725 -0.08160988 -0.034308482 -0.01960917 -0.05498918 0.013661792 0.019947747 -0.06425511 -0.02446689 -0.005040823 0.013602288 0.013483106 -0.053021032 0.043967366 0.07948163 0.042356167 -0.010444424 -0.0035753334 0.036882874 -0.020138303 -0.093545504 0.02916802 0.017621955 0.03638074 -0.04659122 0.028410878 0.03200775 0.0414396 -0.047160503 -0.021055073 0.012489753 0.07582384 -0.03317446 0.03843695 -0.019301116 0.029080477 -0.094418235 -0.011063474 0.035441782 -0.0041668294 0.040435407 0.013100893 0.030551424 0.07425088 -0.0014536751 0.040660836 0.019946367 -0.04828729 -0.012284502 0.028852902 -0.06656579 -0.013948293 0.014876502 0.07256935 0.030733941 0.030128649 0.04959979 -0.09399437 0.011242432 -0.09576703 -0.03056344 -0.0698935 0.013438186 0.010467541 -0.050779726 -0.046341952 0.05235536 -0.02619748 0.05273971 -0.010534126 -0.063331835 -0.022733595 -0.027154654 -0.039819725 0.044765994 0.09781534 0.0054874467 0.015876876 -0.00888785 -0.0011292379 -0.016550597 0.037583005 0.020916097 -0.004615465 -0.004882771 -0.023863861 -0.06698267 0.020261664 -0.053945817 0.033141796 0.035374098 0.042179998 -0.028472032 0.050513674 0.0851992 0.00028593035 0.072011545 0.025714347 0.0139469905 0.014429729 0.027052453 0.061166547 0.027810272 0.045949426 0.04712461 0.031683363 -0.06893645 -0.07335525 -0.0843938 -0.0654134 -0.018957058 0.06904225 0.04041496 0.06657308 0.046249915 -0.016792193 -0.023944467 -0.010303303 -0.04964492 -0.03370476 -0.024858072 -0.04458132 -0.0019535632 -0.007818509
way -0.028709367 -0.011048301 -0.08645343 0.050066657 0.046567213 -0.05247387 -0.031164916 0.03597116 0.065389484 -0.017622858 -0.017306615 0.080336906 0.077149644 0.0032933676 0.034477748 -0.07447693 0.10325139 -0.009546306 0.030709714 -0.029709052 -0.077536486 -0.02067008 0.017722243 -0.11243669 -0.016003558 -0.0066162487 -0.0004954509 -0.01098346 0.0142089175 -0.032504328 -0.03056125 -0.03914756 0.005320128 -0.018750854 -0.035025455 0.051290683 -0.09089763 -0.017148182 -0.07274582 0.0054648197 -0.040177982 0.02321681 -0.0034494963 0.0069262115 -0.029398741 0.04201753 -0.12428422 -0.08736732 -0.04028329 -0.007968636 0.0389615 -0.00054972194 0.06617348 -0.039982475 0.018693354 0.028431019 0.05488183 0.034658287 -0.02903305 0.029102843 0.08178666 0.006983199 0.06293404 -0.03666911 0.022200366 0.07013715 -0.012589918 0.049215674 0.069078356 0.016210249 0.047432043 -0.03601582 0.03863323 -0.015360271 -0.027579514 -0.009817648 0.059160184 0.017171543 0.04375762 0.055497292 0.06748922 0.009339767 -0.07204517 0.053553708 -0.020583095 -0.031213451 0.028771076 -0.06777306 0.044148237 -0.08551664 0.0031255265 0.10183472 -0.0023787157 -0.057402804 -0.059848845 -0.005677363 -0.035272446 0.045676935 -0.033931375 -0.0053407233 -0.010673731 0.02050531 -0.009708157 -0.027872153 0.057535794 -0.013973061 0.028583998 0.03907701 0.02800669 0.0006352274 0.005977438 -0.024435095 0.034551837 0.0041404394 0.0067651104 0.02664719 -0.06621224 -0.08731453 0.02725232 -0.07389437 0.0033828318 0.07958714 -0.052968718 -0.04579585 0.020649465 -0.053153455 0.023178266 -0.041754704 -0.048291266 -0.014565747 -0.050890345 -0.04012879 -0.06298392 0.015112465 -0.018564312 0.04795175 -0.049472213 0.07976653 0.045778215 -0.08044505 -0.0012586855 -0.023924338 -0.06458334 -0.016316205 0.06935835 -0.0130579155 -0.030237298 0.06020597 -0.005500556 -0.030624965
when 0.009324066 -0.0068722353 -0.04597557 0.014316464 0.05384374 -0.07650672 0.06728747 0.003155977 -0.027091296 0.05604338 0.0565316 -0.029486086 -0.056619465 -0.01261715 0.10654739 0.0021190485 -0.0099838935 0.004944044 0.015000093 0.0028081986 0.0060294177 0.017201852 -0.05070387 0.024518548 0.06642821 0.009742332 0.012011267 -0.04714382 0.023554323 0.008569685 0.06881248 0.067655675 0.02473119 -0.06652168 0.043099 0.02471476 0.073537126 0.018498594 -0.06610185 -0.06822436 0.048952337 -0.010068502 -0.12273241 0.0754075 0.03556743 0.031656448 -0.0972241 -0.024229167 -0.022125516 0.0038674627 -0.06802024 0.06454343 0.11954364 0.07622291 -0.0025384328 0.034888767 -0.079246074 -0.09242257 -0.0036907988 0.009737888 -0.049550083 0.008790282 -0.012076958 0.055797886 0.08014007 0.03607484 0.027803604 -0.07583813 0.023413243 -0.054513454 -0.01880062 -0.017146379 0.016486373 -0.050763045 0.056575693 0.0479371 0.01199339 -0.07331293 0.07107539 -0.02127327 0.062309917 -0.0032947513 0.07222857 -0.027638072 -0.07892765 -0.017493436 0.07240722 -0.0994536 0.018866127 -0.020947428 0.090709254 0.04794416 0.03268715 0.010243529 -0.036935978 0.02692319 -0.034069568 -0.039861776 -0.055808417 0.0013211495 0.009350831 0.07072518 -0.026792241 -0.030840587 -0.003011136 -0.070048936 0.033012327 -0.0338432 0.11483634 0.019390568 -0.01716362 -0.06248116 0.036612507 -0.044242006 -0.08824299 0.020392215 -0.011096321 0.03268716 -0.06732295 0.07866364 0.04916965 -0.022343164 -0.005988666 -0.04568462 0.04229836 -0.07308883 0.042273305 0.05026541 0.041567296 -0.001277498 0.054985136 0.008536801 -0.075506926 -0.036541548 0.00013033487 -0.030474456 -0.0013679645 0.11537182 -0.015276059 -0.042173956 0.12205099 -0.06531017 0.0024338465 0.0899877 -0.04461747 -0.04893696 0.015656441 0.0143650845 -0.025372814 -0.091967024
like 0.010134298 0.09678239 -0.053032666 0.02219385 0.022128876 -0.0735768 -0.057354838 0.04299066 -0.0062343543 0.07351861 0.08840811 0.043814946 -0.014204717 -0.000527233 0.014699705 -0.0975024 -0.008302948 -0.0010524233 0.0040414846 -0.043735936 -0.021857847 0.05127471 -0.04259096 0.003000529 0.05200157 0.039818007 -0.0072661676 -0.09935404 0.10618786 -0.06447579 -0.008925072 0.04622668 0.033978473 -0.065904796 0.06034376 -0.022016887 0.0785004 -0.007187522 0.046571054 -0.08757233 0.035735015 0.08419257 -0.0482105 0.019610165 -0.017878965 0.0056978506 -0.11295444 0.02569517 0.0074378112 0.06652996 0.10100633 0.0037169047 0.08399374 0.07435823 0.0136426715 0.022948455 -0.063938215 0.12418558 -0.038397536 -0.016271308 -0.063295506 0.057536036 0.066275775 0.058100414 -0.041446954 0.015826037 0.01163069 0.026752997 -0.05878462 -0.0016138995 -0.02662823 0.04308832 0.030410262 -0.020548414 0.010071988 -0.00344538 -0.0061387136 0.019535473 -0.0077704247 -0.0981227 0.024445131 0.033563063 -0.013389621 0.02441755 -0.0027484375 -0.05573127 -0.02684662 -0.093374155 0.0007084511 -0.059258804 0.027684031 0.022203252 0.032493655 -0.011850506 -0.089364566 -0.015011208 -0.008652516 -0.012478867 0.06841151 -0.0077273604 0.06629297 0.03547928 0.11248974 -0.0028555463 0.008666627 -0.07544344 -0.028183738 0.02546719 0.0871596 -0.011350602 0.022030808 -0.04833005 -0.089822516 0.0017155629 -0.022681922 -0.0023085526 0.012781044 0.050398987 0.025971591 0.07384523 0.06098192 -0.0496112 0.07212284 0.037711523 -0.012316186 -0.041460566 0.08131345 0.04483712 0.012858588 0.06953738 0.032315508 -0.06384779 -0.03160049 -0.05613839 -0.015747314 0.007862072 0.051446356 0.0698915 0.0048666415 0.06189108 0.04508095 0.04040719 -0.08550872 -0.008747874 -0.15160382 -0.02959818 0.013260837 -0.026081115 0.031013375 0.02979484
one -0.06691846 0.048982337 -0.05318251 0.07597678 0.022132605 -0.052199975 -0.024778722 0.03601448 -0.03663812 0.08378955 -0.0009015447 0.034501188 -0.011183805 0.015289463 0.056471538 0.022613209 0.050780725 0.0049131615 0.1309354 -0.09251139 0.03831525 0.090898536 -0.012015721 -0.033447586 -0.008522915 0.08652334 0.052858945 -0.07585892 0.013291315 -0.111464955 0.019182626 -0.051912982 -0.0027345398 0.008077743 0.034476176 0.05136117 0.013383009 0.060233906 -0.0069003226 -0.060506806 0.09431134 0.0681435 0.009768205 0.006042305 0.039295346 0.011406372 0.006389207 0.0800226 0.046665296 0.06688887 0.03093454 -0.036317248 0.050585195 0.11241508 -0.05744823 -0.03725839 -0.07883193 0.09008433 0.049242824 0.038130283 -0.019505665 -0.081462026 0.07369502 0.06305364 0.033550575 -0.030372504 0.030654097 -0.010051167 0.065353595 0.012606963 -0.052641112 0.012901682 0.047513966 -0.05485233 -0.0736954 0.10927863 0.032409593 -0.07243984 0.02487274 -0.08029834 0.07598277 -0.030608328 -0.021941168 0.049513586 -0.05634549 0.086273395 0.013518736 -0.10589469 -0.10875778 0.06943954 0.035407975 -0.043145604 0.09689543 0.046712756 -0.034860488 -0.047002245 0.0017133385 -0.061240017 -0.029880067 -0.11494226 0.048224602 -0.035734545 0.07721863 0.02414684 -0.020485548 -0.041531004 0.035242274 0.08785826 0.015849328 0.07423855 -0.07253943 -0.032986324 -0.062204182 0.08343659 0.023636483 -0.010879854 0.086807765 -0.039117604 -0.03297064 0.06376008 0.11304698 0.008310699 0.013124956 0.009610918 -0.005530686 -0.009853095 0.024690723 0.0020414353 0.073229544 -0.07278733 0.030621532 -0.122649334 -0.010701308 -0.10232155 -0.038620606 -0.02332683 0.03135264 0.13091482 0.040376585 0.07679112 -0.03108182 -0.01419988 -0.02450787 -0.047126524 -0.021650026 0.020838011 0.014028791 -0.060135745 0.00985139 -0.03729718
do -0.035212897 0.02124604 -0.006083696 -0.040562887 -0.030807855 0.049766246 0.0034320536 0.018799864 -0.0154458275 0.073013574 0.041982 -0.028257135 -0.08058975 0.06088362 -0.055374417 -0.083142504 -0.06270392 0.07758154 -0.02098996 -0.04700776 0.020247126 0.090188056 -0.014820919 -0.037571225 0.008825794 0.053659547 -0.018167738 -0.08476826 -0.074983954 -0.028750889 -0.036655318 0.056767877 0.030184422 -0.02812016 0.06990537 -0.045863666 0.01292542 0.0025773076 0.033576846 -0.05677934 0.038807295 0.048176643 -0.08474549 0.012801539 -0.022217602 -0.01413652 -0.03927704 -0.05223151 -0.051791243 0.06306709 0.02884109 -0.027249532 -0.021465141 0.062358357 -0.0544164 -0.046143156 -0.047200512 0.081965365 0.013502214 -0.011366146 -0.09908182 0.018498963 0.059923958 0.033024598 -0.04803451 0.03803261 -0.011355004 -0.047723416 -0.0033851624 0.12341603 0.04503305 -0.006912114 0.058038007 -0.031716067 -0.048648898 -0.011156512 -0.007334974 0.04022472 -0.016602296 -0.013476258 0.06441182 0.05238069 0.00840371 0.019926382 0.025906876 -0.04610129 -0.0036978885 -0.08788937 -0.052634295 -0.0068887 0.035677426 -0.01390014 0.03803485 0.07693504 0.05819929 0.053462 -0.009465009 -0.0444965 0.096499234 -0.00036680276 0.010307861 0.04117015 0.009971306 0.122564495 0.030288715 -0.005881191 0.023309534 0.053038135 -0.047519296 0.008161318 -0.07729639 -0.015284585 -0.032561842 -0.0011233565 0.043840434 0.021537753 0.047729317 0.10811612 -0.07361458 0.0765613 0.061327618 0.07709283 -0.014925803 -0.016363174 -0.06102371 -0.0021286593 0.014959091 -0.027627507 0.027930547 0.016483484 0.08398451 -0.059433818 0.046122417 -0.040064484 0.017575983 -0.04599667 0.03462459 -0.057099726 0.071268834 -0.0025582963 -0.0056992765 -0.042349894 0.044224367 0.01507152 -0.009422198 0.08666776 0.048455816 -0.10471 0.044733446 0.0312451
no -0.0027284045 0.08217841 -0.001980214 -0.051873747 0.008123714 0.03933584 0.0018475718 -0.07115051 -0.04684937 0.11378684 -0.05421915 -0.024353001 -0.109837666 0.037812073 -0.05573204 0.10453838 0.043982618 0.023066657 0.043911025 0.017211664 0.005906128 0.13692077 -0.07786412 0.028941162 0.04757694 -0.023292381 0.017476114 -0.028993232 0.014043956 0.06753216 -0.07711047 0.051933944 0.022961948 -0.09110086 0.009029482 0.031316545 0.10827049 0.07548712 0.022323385 -0.0012655347 0.009644583 0.051229898 -0.08554068 0.04377798 -0.0014299881 -0.011434248 0.019792287 0.053768594 -0.007994406 0.062323306 -0.046766356 -0.0019295736 -0.012380335 0.09797388 -0.10843402 -0.016835112 -0.049046744 -0.012609715 0.053278692 0.047905575 -0.006918304 -0.0354013 -0.05957219 -0.018166292 -0.006639786 -0.007837095 -0.032071553 -0.079676576 -0.062820144 0.12018801 0.02298574 0.00940201 -0.007332062 -0.031765644 -0.12276172 0.12036978 -0.10322468 -0.08874411 -0.057062916 -0.027686652 0.12120643 -0.07911777 0.03668348 -0.01469315 -0.087617785 0.051233776 -0.016290868 -0.019410918 -0.09499273 0.003782779 -0.006762384 -0.08994568 -0.020527806 -0.010013664 0.11511413 -0.019543895 -0.016594982 -0.07967924 -0.028784664 -0.034710098 -0.02514433 -0.012145752 -0.0019816733 -0.011543649 -0.15261982 -0.03404279 -0.014980264 0.0424663 0.021219492 0.0494934 -0.02904848 -0.010328642 -0.09267002 0.013346491 0.033572394 0.050861597 0.03777645 0.118235335 -0.08140263 0.017328018 0.109449744 0.033397593 0.034326654 -0.016097367 -0.0441101 0.12949657 -0.0018665775 0.093090065 0.12493424 -0.08174916 0.0474177 0.0064844857 -0.051009465 -0.011153345 0.060417287 -0.035668623 0.06450808 -0.08446478 0.074266106 0.08036269 -0.047291484 -0.0543265 -0.03175506 -0.042562112 -0.07614058 0.027814994 0.07285053 -0.051231828 -0.0038493942 -0.082655855
oh 0.05023155 0.12714191 -0.09310847 0.10044052 -0.0068333307 -0.14736998 0.014477917 -0.13643806 -0.054657735 0.09360116 0.10339719 -0.053757817 -0.053903237 0.043008573 0.013801987 0.06007214 0.055623997 0.03112486 0.054431327 -0.06856268 0.024828948 -0.015416873 -0.1380201 -0.086288586 0.048191022 0.011222949 -0.0015502756 0.01631983 0.01672614 0.0085665295 0.041316535 0.0037553222 -0.014758904 -0.06279673 0.038726892 -0.033415057 -0.008189451 0.044159815 0.01745058 -0.037882663 0.03647738 -0.011995896 -0.12520854 -0.08837832 -0.016117483 0.039187852 -0.059421536 -0.042712044 -0.017549252 0.028139481 -0.0031959978 0.07934182 0.05965856 0.03621573 -0.060632374 -0.043981127 -0.05008406 -0.008997073 0.0068325535 0.053013917 -0.06561104 -0.051185355 -0.117395915 0.03918655 -0.013395113 0.07218234 0.0641945 0.045046534 -0.101115115 0.0727033 -0.032610305 0.05492644 0.109212264 -0.047427952 -0.09679086 0.054426353 -0.072928384 -0.041067015 0.057550665 -0.037389003 -0.048403423 0.02945064 0.04513269 -0.058490362 -0.020207508 -0.010378439 0.040773075 -0.13741112 -0.02356118 -0.118723184 0.04722068 -0.018859357 0.012329595 -0.03247909 -0.035618506 0.05175816 -0.08246428 -0.044620354 0.028475836 -0.027197782 0.09859369 0.12702613 -0.0031776458 0.08009793 0.022250757 -0.06439426 0.053136475 0.013005667 0.059568238 0.008334409 -0.027426576 0.09063049 -0.048534445 -0.0052654883 -0.071073376 0.10570694 0.07406507 0.09185366 -0.026619753 0.035128083 0.103473924 0.03850331 0.024909915 -0.03753352 0.002826798 -0.093583316 0.08622458 0.09603328 0.0050843325 -0.053564403 -0.027563715 -0.023072284 -0.10016346 -0.06163201 -0.039915837 -0.097610116 -0.04988569 0.100419775 0.0886084 0.10714606 0.06938996 -0.022661239 0.01287819 0.0566969 -0.013691241 0.019887231 -0.04491381 -0.01398502 -0.002821837 -0.041162215
went -0.11543334 -0.012808798 0.102268025 -0.047886822 -0.09124084 0.093805514 -0.023404727 0.023235977 0.020760171 -0.040570017 -0.102340356 0.07922686 -0.04344979 -0.017865274 -0.006489379 0.10402537 -0.09076 -0.015620761 0.00077783735 0.071166165 0.0054805516 0.005576943 -0.088873275 0.09348577 -0.07426439 -0.046770502 0.028670356 0.022774665 0.07585319 0.02114915 0.093721636 0.03647782 0.1235445 0.03190839 0.025915101 -0.056084663 0.073411845 0.061629165 0.07726189 0.087970994 0.009827619 -0.019771092 0.08815793 0.12839009 -0.07977792 -0.03497266 -0.115147755 0.030597828 0.123000234 -0.03666514 -0.07725387 -0.111802556 -0.037806276 -0.0017062704 -0.016488649 -0.12454251 -0.036011487 -0.0019352736 0.028173257 -0.092141345 0.010682979 0.10137068 0.003840908 0.016734697 -0.09262963 -0.06752923 -0.05222646 0.065964356 -0.10054998 0.07182316 0.06266261 -0.10740626 -0.09540891 0.1273442 0.14315867 -0.09150276 -0.134613 -0.079336286 0.01940976 -0.022615544 0.053575072 -0.012963925 -0.0061067347 0.07920026 0.0064055463 0.14315161 -0.1194126 0.034403894 0.035714127 0.070513986 -0.0030384124 -0.019648833 0.0042907763 0.08264906 0.07846585 0.08431255 0.07486453 0.0911504 0.0406223 0.000270759 0.005635564 -0.039517585 0.04362577 -0.05567281 -0.02295243 0.010824285 -0.108843036 -0.05680201 -0.03456348 -0.06236886 0.008977445 0.07761893 -0.07247554 -0.08203804 0.070108496 -0.046706364 0.08734697 -0.04772005 -0.011945723 0.09310626 -0.04905882 0.052014124 -0.035238195 0.06002097 -0.053113732 0.064579256 -0.060563434 -0.018011894 0.035877313 -0.10703608 0.06088706 -0.012100856 0.08354043 0.025519943 0.041573614 0.0043422645 0.09057197 -0.12528248 -0.04185885 -0.04120604 -0.036633547 -0.088492125 0.013955224 -0.012904142 -0.011133289 -0.012123031 -0.013116075 -0.04424403 0.06545517 -0.13754678
thought -0.034740902 -0.050759796 -0.01096278 0.036053464 -0.048783418 -0.022179449 -0.032131974 -0.0013904984 -0.021434786 -0.010501705 -0.031719252 -0.030885946 -0.09032539 -0.014356351 -0.0140682645 0.0013624416 -0.09057828 -0.029458722 0.022316713 0.03647279 0.018438188 0.05752947 -0.011264295 0.026379058 -0.0020629398 -0.030135345 -0.03361197 -0.017551618 -0.008927197 0.031979673 0.0666342 0.071283355 -0.026292665 0.0123936 -0.0016470375 -0.038289413 0.09890237 -0.023471795 0.016772117 -0.021812242 -0.06468171 0.008057401 0.009730238 -0.0027898839 0.009334158 0.002001139 2.5089306e-05 -0.0074080243 -0.049966536 -0.07758069 -0.043685764 0.014114047 -0.011836012 -0.0015924142 0.0722309 -0.019109624 0.07740547 -0.13170859 0.051677153 -0.0686525 -0.0371776 0.00927864 0.003101668 -0.0046329577 0.05331423 0.006075242 -0.06978977 0.023936816 -0.13345693 0.0032466364 0.08970667 -0.077673756 -0.063901104 0.014753842 0.04828785 -0.060052074 0.016895177 -0.018903106 -0.008422799 0.0001912493 0.01835099 0.043404926 -0.051778715 -0.013114531 -0.079419196 0.018061655 0.007880517 0.011912523 0.008630083 0.00635252 -0.041026272 0.06365112 0.031209253 0.008937555 0.09405446 0.043814898 0.05364959 0.03491069 -0.037704535 0.006700625 -0.03233047 0.03051209 -0.02474194 0.000997771 -0.10666509 -0.017120304 0.0009920013 -0.04216483 -0.020710079 -0.046138126 -0.017613601 0.05631373 -0.072989196 -0.014923524 0.06502252 0.023277143 0.015439453 0.08049868 0.023132604 0.0027414318 -0.067621484 0.060505107 -0.019888211 -0.031023255 -0.010324264 -0.004600903 0.023292152 -0.014481901 0.033615325 -0.019248234 -0.0041855327 0.05337224 -0.008236155 0.056029532 0.07062332 -0.1033132 0.0045474092 -0.06492949 -0.04250623 0.043892726 -0.06296954 -0.1169494 -0.018786678 0.010672264 -0.05187102 -0.060722664 -0.070424825 -0.03213225 0.03217114 -0.0579598
again -0.038385797 0.07817692 -0.007106163 -0.014972729 -0.055476725 0.00012421777 0.0063842847 -0.05595181 -0.07652611 0.061285943 0.05053799 0.031270217 -0.07962822 0.046817448 0.046239126 0.07499374 -0.005885826 -0.013136313 -0.0018896374 -0.04985066 0.08248564 -0.042568065 -0.00497953 0.058461513 0.012681074 0.0034381363 0.054892354 -0.017317267 -0.010620336 -0.0699309 0.02104694 0.060268182 0.017109517 -0.061310332 0.0019398822 -0.007137466 -0.011208704 0.06799126 -0.03515048 -0.061629575 -0.021352889 0.008665321 -0.044037275 0.049909573 0.05838633 -0.010953963 -0.06154883 0.0044412035 -0.008835509 0.03871673 -0.027802326 -0.028021136 0.031767175 -0.022114273 -0.06058849 -0.034298167 -0.06575858 -0.008930851 -0.04160981 -0.023238396 -0.036916964 0.056600414 -0.027592342 -0.010449532 -0.023005493 -0.010380151 0.057405625 -0.03690592 -0.029216072 -0.007828649 0.025855914 0.046341836 0.060186908 -0.037006103 -0.02854923 0.0531233 -0.07762991 -0.100681 0.021007212 -0.06722316 0.11646691 0.030688895 0.013096805 -0.065000586 -0.007491244 -0.03441236 -0.017671037 -0.06593187 0.002021579 0.022893757 -0.036821876 -0.051655523 -0.039778806 -0.008958183 0.04658428 -0.029352704 -0.03520952 -0.00878815 0.009502689 -0.062290613 -0.0041659535 0.05730023 0.05105114 0.024192067 -0.05778547 0.033504415 -0.037448216 0.03875102 -0.0009135018 -0.023861095 -0.07135022 -0.012898385 -0.010565965 0.015358462 -0.0019327546 0.058416024 -0.039328728 0.010227921 -0.053693827 0.0576385 0.014784115 -0.07033799 -0.025850015 -0.0026219694 0.0058887317 0.026625575 0.054468207 0.091758 -0.018311528 -0.022901548 -0.0036975117 0.027140355 0.01111724 -0.00433029 -0.06709857 -0.03282072 0.0019262858 -0.011030461 0.041661337 0.044996526 0.064955816 -0.078448564 -0.04938714 0.047110017 0.03044119 -0.01934369 0.022092259 -0.03625657 0.040626395 -0.078309864
there 0.052657027 0.06724114 0.0072714817 0.012271302 -0.00040067022 0.0034693123 0.017006682 -0.086376645 -0.11517776 -0.008335832 0.016601352 -0.050050303 -0.04043302 -0.032045543 0.06429947 0.10920345 -0.004736394 0.0801677 0.04032268 -0.027213318 0.011928215 0.091554575 -0.048065066 0.038310528 -0.013410624 0.08534572 0.06960464 -0.023163674 0.0125365555 -0.022000294 0.039374333 -0.00947327 0.081768036 -0.081732735 0.023458919 0.017059797 0.07679902 0.09813854 0.027826345 0.02844543 0.11809513 0.086534664 -0.01655567 -0.02631051 -0.028334785 0.027967207 0.030669494 0.08904105 0.032319013 0.17068693 -0.04289209 -0.0158433 0.03876535 0.08407865 -0.020913603 -0.022785481 -0.082748555 0.024936194 0.08626206 -0.046555646 0.004970152 -0.06229429 -0.01840939 -0.03065754 -0.051347837 0.0049150614 0.06286186 -0.039613184 0.06978651 0.09805051 -0.027158266 -0.001133623 -0.04273707 0.025313381 0.004473802 0.09184457 -0.09087866 -0.11563441 0.016812678 -0.021659583 -0.03592361 -0.021792458 0.067514844 -0.04558629 -0.08762541 0.027708298 0.007329527 0.025479553 -0.07541202 0.051625855 -0.084014386 -0.039157208 0.054918163 0.024585186 -0.025521839 -0.04968108 -0.037873205 -0.017029185 0.042947736 -0.08149904 0.03457036 0.022771582 0.064320065 -0.05749389 -0.113635354 -0.036806863 -0.0053040623 -0.0014845583 0.013313777 0.027564056 -0.08751598 -0.0047133835 -0.07978054 0.033329077 -0.057713605 0.026563117 0.07266607 -0.03209274 -0.072522454 0.1216345 0.02896815 0.07329709 0.13733594 0.057503972 -0.06122932 0.009732233 -0.01542096 0.14305545 0.0524124 -0.122346394 0.10799584 -0.012261845 0.03867326 -0.045895297 -0.035193495 -0.107582405 0.025342308 0.06393442 0.1096851 0.056019034 0.005889077 0.06855101 -0.035735242 -0.030330386 -0.12023035 -0.03912882 -0.002735727 -0.12801522 0.011812362 -0.08115886
