1182 50
the -0.27383608 -0.22660322 0.37501803 0.30783638 -0.30122977 0.52666235 0.37723872 -0.11898078 0.43400982 -0.53579456 0.0671092 0.2160466 0.04405349 -0.0030482272 -0.28432482 0.017606715 -0.1938799 0.12373415 0.24082854 -0.29528564 -0.44346786 0.17613435 -0.31480816 0.36427295 -0.42136964 -0.07631585 0.4389635 0.41044882 -0.6507327 -0.09568265 0.28394443 0.5034658 -0.37732518 0.16886243 0.0024578378 0.20506613 0.19221786 -0.1255457 0.5271934 0.21063158 0.08877717 0.022963619 -0.39388204 0.18962075 0.40576908 0.07764941 0.11030253 -0.4065467 -0.37871218 0.5087763
and -0.041639257 -0.2783738 0.0039817756 0.1023822 -0.25505638 0.08477278 0.23820432 -0.25993586 0.11364901 0.020363837 -0.307203 0.08681754 0.19247667 -0.1199598 -0.21780309 0.16281246 -0.075623155 0.1278316 0.26134866 -0.2655202 -0.07181626 0.12641878 -0.088649236 0.13587458 -0.12380548 -0.16357581 0.12799734 0.02264031 -0.09535574 -0.063118935 0.21680637 0.058575913 -0.12570748 0.037145264 -0.083412044 0.1019002 0.1802428 -0.12312283 0.12268815 0.19413856 -0.094709806 -0.23104599 -0.20904793 0.0012285342 0.28775078 -0.12339785 0.30629513 -0.16088729 -0.11624262 0.08574569
to 0.0777855 -0.28965697 0.27026927 -0.07757415 -0.3743402 0.35394785 0.27831006 -0.19735149 0.22762321 -0.24935624 -0.16599312 -0.011700137 0.19989808 0.03416762 -0.3403615 0.35228413 -0.16880406 0.17308101 0.23102966 -0.29627168 -0.0040759733 0.22427222 -0.1241869 0.1519781 -0.38157904 0.14353852 0.3104974 0.12740672 -0.16511792 -0.22531193 0.23033702 0.19436969 -0.28516918 0.086425595 -0.17593129 0.050868403 0.20943388 -0.09574286 0.0918357 0.27539104 -0.0020151648 -0.23894024 -0.31058234 0.1335291 0.39330062 -0.2168301 0.3016868 -0.29073265 -0.35738778 0.20678408
she -0.12545791 -0.110969745 0.08969085 0.33521056 -0.16672635 -0.00076382153 -0.006188582 -0.24858753 -0.136394 -0.023222575 -0.3234406 0.10508133 0.3834981 0.1454525 -0.16340986 0.47343773 -0.17711754 0.21822016 -0.0019765396 -0.2799464 -0.19975236 0.15103379 -0.13985051 0.377245 -0.055711187 -0.067329355 0.3463543 0.4068346 -0.04595744 -0.2082584 0.18352026 0.29494914 -0.17941964 -0.17922093 -0.29703778 0.32755947 0.281783 -0.21891789 0.18982294 0.2094832 -0.13974771 -0.07648226 -0.0591261 0.24463557 0.11834595 0.027078222 0.11721595 -0.29825428 -0.11556548 0.066364184
a -0.038810592 -0.25569886 0.29736283 0.22419935 -0.42836374 0.44087997 0.2837693 -0.26105615 0.3090145 -0.33326635 -0.21786141 0.33080414 0.108672455 -0.22732536 -0.3661734 0.16064638 -0.2600897 0.18692476 0.32674748 -0.12637278 -0.22758943 0.21026301 -0.3211748 0.39320192 -0.31307468 -0.060847078 0.4484557 0.37082866 -0.19783928 -0.18238647 0.361057 0.43558133 -0.26364642 0.16154593 -0.01085571 0.33244 0.39856365 -0.17501287 0.57727593 0.33141008 0.020412607 -0.0105988365 -0.30873984 0.17348376 0.38560578 -0.011191199 0.2025058 -0.3445454 -0.40849984 0.4776756
i 0.07552536 -0.33045095 0.4688009 -0.14435498 -0.2723309 0.2600778 0.32830986 -0.23196757 0.16362128 -0.40151763 -0.32058078 0.0153019745 0.32831472 -0.11231186 -0.35905588 0.034789227 -0.19119236 0.2715306 0.26871437 -0.29515758 0.18993953 0.21707386 0.1083694 0.36633912 -0.2981253 0.11686472 -0.18780382 0.05459579 -0.043475565 0.26081127 0.35446692 -0.15324552 -0.3676677 0.15085739 -0.19909729 -0.06983574 -0.05019731 -0.081097335 -0.085954785 0.29329035 -0.14511123 0.14486639 -0.22395305 0.2034636 0.32054844 0.24233252 0.28247195 -0.29596484 -0.26036945 0.24537522
it -0.023404796 -0.24367967 0.073733844 0.24998277 -0.2107571 0.18529248 0.106668375 -0.21102035 -0.048755452 -0.2544914 -0.23555313 0.22961374 0.16765755 -0.10741218 -0.18507245 0.30595326 -0.25649518 0.2280373 0.121865645 -0.23805943 -0.21539971 0.13711397 -0.08424644 0.23685151 -0.122985244 -0.0033061889 0.25158307 0.28236756 0.015370809 -0.09354866 0.2160512 0.23794818 -0.11584098 0.01243613 -0.22822817 0.20406163 0.13228743 -0.21960089 0.16544557 0.2930774 -0.13171557 -0.121750996 -0.24189217 0.20639747 0.1773975 0.14267552 0.08596609 -0.29244936 -0.24012454 0.0648008
of -0.112619914 -0.06436449 0.11338225 0.0735168 -0.113492 0.0540606 0.15747696 -0.15948406 0.13723303 -0.09459363 0.1827522 -0.14552781 0.09510833 0.16101249 -0.05268386 0.13993873 0.056527726 -0.0049238103 0.12546068 0.011007836 -0.11380185 0.023271166 -0.11172882 -0.027442353 -0.0800525 0.22530755 0.17055267 0.12171183 -0.19153987 -0.06920635 0.19196552 0.13141829 -0.15755439 -0.04031713 0.12572187 0.09004331 0.07723954 -0.069612384 0.14483511 0.13115554 0.10195767 -0.2456656 -0.15796193 0.036575593 0.13842377 -0.33682048 0.20414776 -0.2150381 -0.12900427 0.18868437
was -0.21659793 0.024751442 -0.014539526 0.29950926 -0.088959254 -0.08505291 0.06642516 -0.11916439 0.18032771 0.0927294 -0.18640323 -0.022091525 0.1710616 0.22367133 -0.11604443 0.06375442 -0.038231492 0.10484077 0.15015708 0.023112662 -0.20023707 0.11054506 -0.17466532 0.068580166 -0.07309547 -0.0048629567 0.21973768 0.021158535 0.07077084 -0.1694055 0.06007509 0.006852133 -0.056828663 0.07561767 -0.18127327 0.2401811 0.04979419 0.03656558 0.14060578 0.12786129 -0.06825913 -0.1994424 -0.019076563 0.116615996 0.19487521 -0.11730494 0.14624289 0.04781104 -0.10938287 0.005919099
in 0.00365429 -0.042872217 0.114879765 -0.022005968 -0.15621127 0.052526474 0.1459711 -0.17983654 0.1236025 0.042435754 0.04046012 -0.1455256 0.16776726 -0.02687915 -0.17651935 0.073102355 0.06879544 -0.042024497 0.121131174 -0.05854093 -0.082989 -0.05556536 -0.043957777 -0.090525165 -0.17020997 0.08349503 0.055514783 -0.02951368 -0.18915299 -0.12232547 0.2069944 0.049168292 -0.107239395 0.026059007 0.016215757 -0.034855377 0.11888139 -0.033493385 0.075032726 0.07961131 -0.020530093 -0.16228503 -0.13098262 0.042609192 0.18987143 -0.10167093 0.16025274 -0.1291353 -0.07757156 0.05330285
alice -0.07983105 -0.17553787 0.09843283 0.18467563 -0.16166726 0.1315895 0.17193767 -0.11578251 -0.004683096 -0.08480686 -0.19445056 0.03222939 0.06221298 0.050101172 -0.08821723 0.31844473 0.007087635 0.048935533 0.15531844 -0.2200732 0.043387037 0.062390104 -0.07399776 0.11203741 -0.104171716 -0.017084977 0.28900617 0.06478078 -0.27603883 -0.13152799 0.08987774 0.32991424 -0.10531802 0.014756226 -0.18027718 0.1553649 0.2628079 -0.13290459 0.13769585 0.112722546 -0.009475824 0.0053317132 -0.080739096 0.088513516 0.119498484 0.06282517 0.07276086 -0.17849821 -0.10027452 0.1600993
you 0.07788624 -0.26034656 0.21251771 -0.034718227 -0.20764731 0.1484911 0.20274685 -0.15754335 -0.013294996 -0.2747493 -0.25279477 0.15027656 0.11063408 -0.10248514 -0.23770657 0.16475187 -0.21878217 0.12661877 0.14034142 -0.16066472 0.115056016 0.00265344 0.03132671 0.26776138 -0.25377697 -0.11229677 0.17681408 0.2121461 -0.21075794 0.16600496 0.22973153 0.24914847 -0.2461008 0.028534986 -0.08813107 -0.016208062 0.13039908 -0.19030006 0.09168514 0.14594989 -0.13173239 0.02463973 -0.1423583 0.14816248 0.20802034 0.26038986 0.114929736 -0.2845239 -0.19670656 0.1788074
that 0.043589983 -0.18599848 -0.034327593 0.05145064 -0.15100418 0.07411829 0.027786529 -0.13959397 -0.068173744 -0.04210017 -0.19917977 0.05323089 0.03725502 0.033571485 -0.117158286 0.15468697 -0.095565796 0.013290792 0.05994284 -0.102800556 -0.050482288 -0.003034268 -0.06705032 0.16524379 -0.06917806 -0.032545574 0.09556135 0.092721194 0.0016699955 -0.12508048 0.13369781 0.06380873 -0.03161094 0.0256555 -0.022897255 0.05170049 0.018425042 -0.10628506 0.018657172 0.053975414 -0.0273681 -0.018764045 -0.1090721 -0.009618055 0.107217774 0.07352805 0.050325707 -0.12093999 -0.067870006 0.09197093
her 0.058817845 -0.14958233 0.06805675 0.19227909 -0.26529652 0.3162467 0.17953885 -0.27087015 0.059696004 -0.1545251 -0.29352534 0.07839201 0.0083686365 -0.09875436 -0.18973343 0.2946307 -0.21024914 0.088486165 0.15931621 -0.1470203 -0.15570424 0.0951882 -0.09738121 0.09404376 -0.1800299 0.1327117 0.34129983 0.10350586 -0.18246756 -0.14514588 0.2547542 0.3525214 -0.23267163 0.096197195 -0.08106707 0.074292816 0.26758444 -0.13917062 0.23879969 0.20039213 -0.087699786 -0.08067501 -0.20467195 -0.05310192 0.25468734 -0.027935205 0.15679233 -0.20499161 -0.17746943 0.36016375
as -0.02542614 -0.06871399 0.05268866 0.15131983 -0.13646646 0.032775305 0.11225073 -0.10514852 -0.04146385 -0.034069695 -0.20735155 0.072659664 0.14798929 0.048407547 -0.1797884 0.16012974 -0.20124991 0.095982894 0.052727997 -0.1279147 -0.16087174 0.10277919 -0.037313342 0.18961996 -0.090140134 0.027055636 0.16921543 0.13829985 0.07025693 -0.18549447 0.1633964 0.069914535 -0.14679156 -0.054749265 -0.19911967 0.12198782 0.062323477 -0.035062242 0.10366527 0.11281792 0.011960799 -0.11588618 -0.14667183 0.04854563 0.23836273 0.0061910907 0.038074322 -0.11875885 -0.18736082 0.074377194
said -0.15358089 0.07770365 0.01012094 0.06378336 0.0764703 0.060225967 0.016711999 0.025298087 0.073402755 0.021646759 0.0679003 0.010889154 -0.023105484 0.17814653 0.05639442 -0.050917175 0.016002301 -0.045632746 0.0015212968 0.0010933866 -0.032360137 -0.046426643 -0.06789712 0.020623375 -0.058709864 -0.023142353 0.08686265 -0.031403072 -0.17398897 -0.034138028 0.043960933 0.05935313 0.03665082 0.015960703 0.06549925 0.07552395 -0.12863094 0.0274475 0.06283642 -0.07437069 0.099525966 0.0374496 -0.0399715 0.035979398 0.037700303 -0.010449342 0.016866112 0.011172885 0.009540843 0.01603914
had -0.12910627 -0.004504642 -0.09376094 0.16891691 -0.1161486 -0.019043986 0.016643832 -0.08633314 0.032473687 0.00085753907 -0.13289173 0.015428621 0.075537845 0.10263588 -0.08511857 0.1088313 -0.03983523 0.028299833 0.074819535 -0.08689242 -0.14333269 0.057590168 -0.06687411 0.010109146 -0.04364889 -0.022301678 0.06154021 0.08755193 0.023414519 -0.155028 0.06380983 -0.0037207198 0.031821292 0.007295341 -0.11871746 0.11667839 0.03376921 -0.11296508 0.036807254 0.0917906 -0.08418566 -0.12174873 -0.09876269 0.08075805 0.11475535 0.024957644 0.037099227 -0.09609792 -0.17289153 0.07401281
for 0.064395756 -0.11617495 0.025107715 -0.03883429 -0.13688132 0.092542015 0.17325185 -0.059813328 0.08292002 -0.11839748 -0.08971361 -0.03801022 -0.020086017 -0.081377946 -0.17589523 0.12587582 -0.04067568 0.013967363 0.1563959 -0.14189664 -0.008252672 -0.031682793 -0.030099498 0.06038664 -0.14170901 -0.07414024 0.048088744 -0.03606813 -0.17766623 -0.08402144 0.093906015 0.104315124 -0.14251272 0.008266825 -0.11453457 -0.044075366 0.17614305 -0.06945569 -0.02063449 0.115322374 -0.088564165 -0.08418877 -0.17799947 -0.022395717 0.17628919 0.02377553 0.13885197 -0.13874012 -0.10016682 0.1513424
but 0.07586032 -0.17385112 0.06899226 -0.05973741 -0.08385848 0.16346566 0.1634535 -0.15671514 0.07614762 -0.11062936 -0.13753794 0.014704909 0.11669831 -0.047002565 -0.12277007 0.18597491 -0.0147266975 0.010524125 0.16596715 -0.08635482 0.0813623 0.07451104 0.014664424 0.032882206 -0.084906444 -0.036801606 0.051062573 0.07583142 -0.06539719 0.055029627 0.19047157 0.0037076275 -0.121827476 -0.021560855 -0.048406377 -0.009134547 0.15880108 -0.10093432 0.005135511 0.16903129 -0.14119743 -0.115986705 -0.15501745 -0.048499715 0.095335335 0.08727022 0.19085634 -0.12250978 -0.107251264 0.11544799
be 0.07867259 -0.19426778 0.00093227986 -0.0014933691 -0.13755009 0.18987966 0.13692123 -0.13359763 0.08139391 -0.074736565 -0.08618802 -0.00022508937 0.03615812 -0.13976671 -0.07507525 0.0763463 -0.13389303 0.08341655 0.11720206 -0.24157836 -0.057776593 0.0014435698 -0.018994963 0.10399429 -0.08683942 0.04138492 0.06251579 0.12531765 0.0062944475 -0.026921507 0.12601155 0.010208964 -0.1722263 -0.052025728 -0.010312232 -0.0042660395 0.0445104 -0.13179563 0.090070374 0.073674425 -0.11473984 -0.032238014 -0.11298307 0.0671362 0.18288237 0.022629516 0.09356995 -0.19488262 -0.1106693 0.21922252
on 0.011909335 -0.1440023 0.082771175 0.084490836 -0.2044572 0.10129116 0.10221351 -0.11687642 0.084373415 -0.07164124 -0.067231245 0.0022951956 0.09130657 0.010037682 -0.18862686 0.13304162 -0.03112693 -0.00094155135 0.14939156 -0.109287255 -0.05188203 0.05898752 -0.05919479 0.045027435 -0.17347156 0.10393582 0.114061534 0.039906923 -0.0920449 -0.19209652 0.19401483 0.17297605 -0.1087646 0.008454919 -0.12835975 0.10673341 0.1743364 -0.120975465 0.0066235615 0.15669152 -0.013040951 -0.08871026 -0.149134 0.009930069 0.18444565 -0.14598018 0.124656565 -0.12166208 -0.14622505 0.15020736
all -0.013905234 -0.086552195 0.02748725 0.11393733 -0.16150172 0.17116046 0.1406727 -0.07769606 0.109378055 -0.09119127 -0.09214004 -0.016327119 0.033922188 -0.05499318 -0.17412855 0.16733491 -0.027200144 0.0019840861 0.086850055 -0.16458148 0.07900891 0.07215677 -0.06685796 0.1233539 -0.1527402 -0.07422129 0.09073258 -0.004463412 -0.12744786 0.016080258 0.18692847 0.13116355 -0.0702329 -0.018090352 -0.1100904 -0.00046338548 0.06336894 -0.094023705 -0.017217344 0.14290388 -0.09400207 -0.07791185 -0.06605364 0.0090419315 0.13167505 0.050925184 0.16489421 -0.19055791 -0.15020752 0.07426718
with -0.06949198 -0.0895049 -0.030562297 0.046067026 -0.11041524 0.044899184 0.20616254 -0.1874734 0.16562496 -0.00478574 0.018768897 -0.034343008 0.0028788417 -0.0208665 -0.17109904 0.08146219 0.029423852 -0.043887995 0.12310439 -0.004496379 0.049979564 0.02381763 -0.05449767 -0.0070325513 -0.20198436 0.016266119 0.1677927 0.07404145 -0.20773542 -0.085817404 0.14395581 0.08341195 -0.18116131 -0.10216316 0.017444143 0.062348913 0.17292605 -0.14573567 0.08339987 0.19224982 -0.012451148 -0.12837619 -0.15891495 0.020688396 0.20562266 -0.0533474 0.19482902 -0.060942356 -0.20561996 0.14673305
little -0.08501676 0.0046775993 0.048926577 0.045622934 -0.07093365 0.06099079 0.04771659 -0.035990607 0.046768907 -0.003173736 -0.011775283 -0.019648317 0.0066604614 -0.08846044 -0.11420485 -0.013220724 0.025305843 -0.021488668 0.12416245 0.012116018 -0.11369517 -0.09474767 -0.039092146 -0.018206881 -0.05282821 0.053029317 0.0832487 0.083184816 -0.104687184 -0.0733163 0.06670759 0.061912596 -0.055077523 -0.0028976589 0.08358878 0.015782626 0.115687184 0.038162738 0.18325892 0.07662046 0.072870426 -0.116791524 -0.12042166 0.04072396 0.113329746 -0.121240415 0.041449532 -0.03144625 -0.065037735 0.07249244
mouse -0.046942316 0.060443677 -0.06678248 0.0027944378 0.08654388 -0.08523857 -0.039326508 0.103925645 0.026591491 0.16719975 0.10433747 -0.10654254 -0.04346814 0.119184315 0.03207596 -0.058048043 0.13145016 -0.074585795 0.03176336 0.06964062 0.057484683 -0.106611915 -0.012585057 -0.1282781 0.024401842 0.025119144 -0.060451906 -0.05719484 -0.11121585 0.07149739 -0.0066844537 -0.10890781 0.03990892 -0.08469612 0.088730946 -0.10785637 -0.016080825 0.072645746 -0.12364483 -0.008174874 0.06571578 -0.11005828 0.100639604 0.009755497 -0.11444663 -0.11850835 0.018600924 0.06995292 0.06991402 -0.052406326
down -0.024843495 -0.10124799 0.007939715 0.074301064 -0.09620718 0.061551303 0.050086174 -0.06640364 0.099073336 -0.009646818 -0.058073103 0.056115955 0.10701091 0.091546185 -0.091768324 0.050058104 -0.06660319 -0.004926908 0.10800323 -0.14521569 -0.07161914 -0.007994592 -0.025987834 0.05239048 -0.03934776 0.046952117 0.13458753 0.14583966 -0.059906583 -0.15035991 0.14559475 0.032095734 -0.052580897 0.09610764 -0.1083213 0.13933696 0.106474966 -0.024400163 0.06703847 0.08369934 -0.025204735 -0.11718544 -0.08142418 -0.033977903 0.17978953 -0.087059446 0.085744075 -0.07988892 -0.05155168 0.14323974
very -0.013265967 -0.18950671 0.042800616 0.23564775 -0.19210294 0.16144836 0.08541719 -0.17731975 0.08843084 -0.10955262 -0.23058473 0.09085155 0.0832122 0.103645034 -0.18727519 0.21922915 -0.06997211 -0.009933351 0.10412254 -0.14070804 -0.12835051 0.00880829 -0.022981359 0.11908358 -0.08573349 0.071579084 0.27999228 0.13464196 -0.040502574 -0.14869738 0.12831157 0.24052392 -0.16482426 -0.042356018 -0.115675166 0.12150357 0.12712564 -0.2133431 0.20046133 0.18726005 -0.08935227 -0.011399615 -0.1635614 0.0082051195 0.18197742 0.04371763 0.073614135 -0.20451984 -0.1561844 0.19045964
this 0.0439578 -0.18935166 0.11289128 0.11704286 -0.15034585 0.18442526 0.14037141 -0.14566766 0.08424756 -0.15491861 -0.14991596 0.08269945 0.011919752 -0.15805107 -0.1837061 0.12447649 -0.08886453 0.039956234 0.1713687 -0.16458048 0.03227143 0.12164502 -0.1313754 0.053677227 -0.14563906 0.024187038 0.13104904 0.061902236 -0.067730136 -0.07587526 0.12901312 0.053960945 -0.16993394 -0.056536313 -0.008239031 -0.047591608 0.119390994 -0.08348518 0.022067674 0.084261194 -0.08327661 -0.14802416 -0.11170995 0.09448648 0.19143124 0.06392886 0.19363701 -0.16528597 -0.19254927 0.1424409
not -0.022717826 -0.013914186 -0.0031392574 0.055655338 -0.17615025 0.116111755 0.095493145 -0.13006048 0.06545196 -0.026335133 -0.04412557 0.03140168 0.0131562445 -0.05497441 -0.049968094 0.15113664 -0.07366268 0.022519037 0.12500302 -0.086617224 -0.06965086 0.044334266 -0.087731004 0.0047866385 -0.04631316 0.044422638 0.09626313 0.04309074 0.007271381 -0.10274888 0.15554164 0.03634043 -0.0977965 0.011818519 -0.049226835 0.10095265 0.1274557 -0.05701504 0.040919848 0.08044244 -0.00083040533 -0.054955363 -0.12788501 0.060785625 0.09966825 -0.05348896 0.07646789 -0.07679817 -0.04649089 0.15776674
so 0.002912591 -0.14291754 0.026556853 0.13952672 -0.08903363 0.13810894 0.053778764 -0.109342866 -0.014042376 -0.040151402 -0.16569215 0.10629824 0.053963438 0.024707513 -0.0441226 0.1707335 -0.011027993 7.324311e-05 0.15651503 -0.15039743 -0.14691517 0.004234302 -0.037494116 0.14774214 -0.08236047 -0.0027886662 0.06936983 0.099526025 -0.08584407 -0.08419488 0.107106715 0.1316455 -0.03784481 0.10499762 -0.05161009 0.02037893 0.08604252 -0.062188286 0.05960802 0.1416594 -0.049077168 -0.06930515 -0.13587156 -0.004774483 0.096821174 -0.032324634 0.07950765 -0.11002171 -0.060371287 0.15099756
out -0.043594807 -0.07266813 0.0144912535 -0.017755982 -0.0019403804 0.15478353 0.03457228 -0.016518615 -0.014090972 -0.09713013 0.009865704 -0.026656276 0.006381453 -0.07052605 0.030426146 0.033138845 0.025778942 -0.018871306 -0.03136064 -0.052441746 -0.03456077 -0.04864687 0.005232307 -0.04756318 -0.048707638 0.0072136866 0.028376922 -0.04445289 -0.049816176 -0.0066812057 0.022735689 0.058265768 0.015169126 0.034320403 0.07527365 -0.034224566 -0.020482942 0.020380756 -0.012849656 0.004880766 -0.0449353 -0.071912706 -0.048709597 -0.05629794 0.075986855 -0.011463571 0.004692943 -0.029475197 -0.028778063 0.09728624
if 0.038005106 -0.07845833 0.07600606 -0.021278393 0.0016500317 0.17709059 0.070093244 0.09602878 -0.02893156 -0.096669145 -0.115956634 0.03534428 -0.047419347 -0.09271583 0.06343797 -0.021214582 -0.015613655 0.005197752 0.0018762725 -0.121063806 -0.033578835 -0.027976712 0.05904998 0.0670335 0.00925504 -0.037081383 0.014916897 -0.03235873 0.0026848074 0.06503334 -0.037450023 0.06561705 0.017376352 -0.00831529 0.02156963 -0.039582033 -0.104079746 -0.021696748 -0.04592043 -0.02075379 0.003931471 0.08927028 -0.11592545 -0.009706715 0.0023724276 0.12012881 0.103424154 -0.079489775 0.03095354 0.034895442
is 0.021119125 0.033643093 0.09536604 -0.079437904 0.008787137 0.013572104 0.096233346 -0.008897824 0.043041293 0.0017908384 0.09308809 0.016592743 0.023188882 -0.051909216 0.007914881 -0.0630071 0.0049609165 0.011208855 0.026083298 -0.013109412 -0.015354202 -0.026601693 -0.012514369 -0.04673827 -0.0990592 -0.042842966 -0.015334227 -0.023926377 -0.011549766 -0.01843921 0.057391662 -0.004255477 -0.08643357 -0.01424113 0.026783463 -0.018963894 -0.05971603 -0.02538164 -0.025682954 -0.0015735597 0.049756173 -0.04319644 -0.03302776 0.03183758 0.06512018 -0.082515284 0.0945428 -0.014225378 -0.02049187 0.06503443
at -0.1126864 -0.049851846 -0.012501481 0.23369056 -0.059262797 0.07693899 0.09615355 -0.15115231 0.029981203 -0.0051212385 -0.07755767 0.085969836 0.028307855 0.16518478 -0.097611256 0.05065334 -0.016986612 0.0055110515 0.09222517 -0.087492846 -0.06418896 0.013941192 -0.029390458 0.14655516 -0.0668047 -0.019076604 0.18384874 0.16639808 -0.110193156 -0.15373059 0.1279666 0.13611434 -0.0039685536 -0.06769246 -0.13634858 0.075473055 0.13091008 -0.13486381 0.13531984 0.16262744 -0.04140599 0.0071979943 -0.077505104 -0.007581777 0.0681271 -0.09551724 0.026834827 -0.017477054 -0.1161878 0.17372352
t 0.056114364 -0.10569253 0.063480265 -0.044463962 -0.1367476 0.14974537 0.11466564 -0.11168463 0.048013188 -0.12052301 -0.15779988 0.007145618 -0.019116774 -0.16994147 -0.1507726 0.17326277 -0.08291016 0.05138985 0.14373575 -0.21321377 0.04754901 0.013871524 0.034218192 0.07130932 -0.15561926 -0.0216439 -0.021385847 0.018324697 -0.07263719 0.07999721 0.09537595 0.14085379 -0.13524643 -0.008266078 0.019568518 0.02725327 0.13216099 -0.11402682 -0.01162362 0.0794186 -0.06488551 0.022854257 -0.13433363 0.034804344 0.15014783 0.0891462 0.065665096 -0.11287371 -0.16767827 0.095952615
s 0.0076445607 -0.11452648 -0.029147316 0.11384482 -0.057414196 0.1822537 0.063164085 -0.09879333 0.018447444 -0.034147933 -0.0926189 0.0019684192 -0.02945443 0.0015191818 -0.06170462 0.15114495 0.010652701 -0.0026376196 0.07925662 -0.06111195 -0.070436016 0.0153510645 -0.01800146 0.03681334 -0.04995939 0.012600605 0.07248318 0.031534538 -0.06988858 -0.063176304 0.052615512 0.086220294 -0.011755414 0.045569826 -0.10205979 0.09041901 0.016764276 -0.018747272 0.06406325 0.11278123 -0.036854234 -0.10081075 -0.098039575 -0.037143156 0.09437225 -0.08601209 0.08832262 -0.078761205 -0.021147601 0.055753537
ll 0.114769354 -0.15506874 0.05867289 -0.033912964 -0.039976254 0.1296643 0.055030156 -0.012001337 0.0024606085 -0.1564089 -0.12089426 0.021935465 0.08791513 -0.15433854 -0.032400846 0.06887558 -0.10513131 0.10923095 0.0266291 -0.1481191 -0.0034112309 0.10955093 -0.0028581661 0.082314216 -0.05171102 -0.038048916 0.03165926 0.048167773 0.07706512 0.05006822 -0.010070553 0.026600983 -0.01885612 -0.018150136 -0.001628628 -0.052514583 -0.033683646 -0.11932498 -0.011923613 0.064964436 -0.12807673 0.08502308 -0.063317604 0.032650225 0.10507832 0.11340075 0.110655874 -0.14687645 -0.08369681 0.08512409
how 0.07861793 -0.08030895 -0.0152922 0.07646845 -0.13125996 0.116002716 0.054701973 -0.06546922 0.036817476 -0.104892276 -0.05000477 -0.02869353 -0.021848848 -0.071264684 -0.13795592 0.047819737 -0.08027136 0.033512656 0.09130833 -0.14502455 -0.04788545 -0.022792261 -0.036160473 0.03556979 -0.048700236 0.11136454 0.022887267 0.06441559 0.028603317 -0.08533041 0.080366924 0.023914225 -0.12700851 -0.03834643 0.0057779443 0.033348504 -0.0010661809 -0.053985342 -0.0038684686 0.105021276 -0.050379872 -0.09516224 -0.08841324 -0.026914787 0.12276894 -0.015954828 0.0877754 -0.065640025 -0.097549416 0.116740674
they -0.0024164678 -0.2197388 0.07022448 0.112164445 -0.2159937 0.17913352 0.15696311 -0.19763279 0.06612752 -0.14675313 -0.2032652 0.09080582 0.08142781 0.021118235 -0.2500084 0.20475817 -0.09864651 0.013008442 0.11768121 -0.1897406 0.015216798 0.07344936 -0.04375386 0.13153972 -0.15275085 -0.07383044 0.2175156 0.07992575 -0.16500065 0.011910173 0.22647133 0.20380463 -0.11845558 -0.0009147675 -0.07790756 0.08372787 0.05120396 -0.12101981 0.05398243 0.19487377 -0.094304636 -0.040408418 -0.18343839 0.04260798 0.18844458 0.12809144 0.09035315 -0.19553705 -0.20494947 0.08850754
about 0.010392562 -0.05044322 0.015009282 -0.029498937 -0.060444824 0.026412958 0.053804778 -0.09942558 0.070933014 -0.05943544 -0.123580165 -0.03388022 0.072100125 -0.0648785 -0.081559 0.16286571 -0.07016278 0.038541477 0.081549436 -0.15159026 -0.03229277 0.032964375 -0.0026110616 0.0055114925 -0.09253777 -0.041024175 0.07574032 -0.02341293 -0.06388588 -0.066923276 0.15419015 0.049157396 -0.023021631 0.051183093 -0.05247612 0.038858663 0.15593112 -0.08492595 -0.06663836 0.14685768 -0.02505697 -0.11629279 -0.0934411 -0.015226361 0.12783882 -0.0035208077 0.120090164 -0.14190057 -0.106943324 0.023345966
herself -0.008399398 0.016963055 -0.06396305 0.1269075 -0.022353977 0.1019133 -0.02808397 0.018283239 -0.029431382 -0.06852013 -0.12477335 0.062615596 -0.05927527 0.032422166 -0.012394084 0.01531672 -0.0402604 -0.037478328 -0.026691513 -0.042464647 -0.035457026 -0.07934568 -0.011212821 -0.042339556 0.050597843 -0.051955383 0.13234197 -0.007691132 -0.0062964535 -0.12746377 0.05965527 0.07583477 -0.07103638 -0.0327105 0.020952178 0.017535683 -0.0002762898 0.004620919 0.041136734 -0.023630038 0.01620379 0.018745871 0.004774426 -0.035041228 0.12083713 0.10280547 -0.09159878 -0.01321311 0.021643389 0.09208819
me 0.03696588 -0.15237251 0.12995535 0.021180045 -0.19568582 0.16589962 0.18484782 -0.13419011 0.051681444 -0.16715147 -0.021186115 0.09274716 0.004243697 -0.08370441 -0.14989056 0.045501146 -0.15296645 0.05297691 0.1425444 -0.09684274 -0.03193461 0.041816056 -0.035190452 0.1764472 -0.17836739 -0.04742134 0.14778207 0.08816709 -0.15983278 -0.059210356 0.16653349 0.09126761 -0.15477045 -0.00839512 -0.075221 -0.0037982026 0.14984527 -0.09505847 0.056824647 0.20163883 -0.036226097 -0.11901407 -0.2005847 0.00096356205 0.16905764 0.044907253 0.15901725 -0.14310205 -0.116096616 0.10476488
up -0.026088452 -0.07646214 0.06024535 0.027194524 -0.05898859 0.08553833 0.05238855 -0.013845124 -0.01358322 -0.08752891 -0.09413327 0.020308854 0.004579109 0.010317409 -0.03558315 0.050928436 -0.05273208 0.010268544 0.04368127 -0.09675881 0.0073115053 -0.06607571 -0.07554353 0.011849351 -0.015820866 0.07223696 0.07266214 0.0061471 -0.0631016 -0.11623718 0.074828975 0.008843448 -0.0136983935 0.08792056 -0.02752755 0.018292828 0.07543607 0.0099164555 -0.0030835122 0.08225313 -0.028544007 -0.027724613 -0.0023863625 0.03855108 0.14021038 -0.01982612 0.010046158 -0.019997034 0.004158503 0.08127139
what 0.055009075 -0.038613807 -0.0023441229 0.04050513 -0.044048697 0.066313215 0.12370134 -0.06269316 -0.046921737 -0.04267825 -0.0059463014 0.002461663 -0.0046723722 -0.05762467 0.019837426 -0.019104771 0.005234254 0.018840203 0.094112724 -0.051300004 0.050059635 -0.05119224 0.03361638 0.023183824 -0.095569916 -0.042908512 0.036642443 0.05950193 -0.028792486 0.033335257 0.10393582 0.05738195 -0.08585189 -0.055131238 -0.018939296 0.06422601 -0.06258967 -0.005217647 0.07681312 0.013331379 -0.011074361 0.036088873 -0.10236717 -0.025241598 0.07287923 0.05439768 -0.020995438 -0.069511846 -0.05043138 0.08942061
way -0.03978657 -0.011632391 0.026543241 -0.083697036 0.007539557 -0.0005193506 -0.0030853325 0.0040739104 0.020052679 -0.036116477 0.013174185 -0.004945007 0.008275731 0.008265272 -0.07576506 -0.03937349 -0.031038783 0.018154861 -0.022606242 -0.007500743 -0.028044915 0.039769925 0.009265424 0.0028199898 0.022291737 -0.03293647 0.013912275 -0.051414832 -0.048969455 -0.0064876294 0.00885806 -0.021553004 -0.016791409 -0.05697384 0.024386132 0.0057629985 -0.027484847 0.030107107 -0.0028160494 -0.01949795 -0.09338679 -0.11247719 -0.07475121 0.05389559 0.049484674 0.022375511 0.07251063 -0.036643766 -0.04780326 0.015781919
when 0.035510074 -0.072430246 -0.062355302 0.042185925 -0.0099764615 0.043574717 0.047389075 -0.025140092 0.026381738 0.010252598 -0.1004538 -0.061921902 -0.0106943585 0.012447872 -0.07827983 0.10319765 0.003959981 -0.017155357 0.0116177825 -0.037038025 0.07320782 -0.07573485 0.0826572 0.04205912 -0.036296558 0.02395058 -0.003511945 -0.0961293 -0.10376227 -0.072630644 0.044727046 -0.08682683 -0.040626276 -0.08949542 -0.033219434 0.0009771716 0.059305478 -0.07205378 -0.11658496 0.09607523 0.0070734816 -0.074489385 -7.2187395e-06 -0.04855171 0.06918369 0.039426904 0.07665436 0.0076295696 -0.06493956 0.030363014
like -0.02389425 -0.0011387141 0.03209262 0.009464176 -0.08519301 0.08920233 0.08868538 -0.060500458 0.057925366 -0.0794597 -0.005346282 -0.0063319397 0.024386352 -0.044284817 -0.08166651 0.020981742 0.031719454 -0.06329692 0.030971402 -0.037075136 0.030445602 -0.015559047 -0.015034173 0.0033445586 -0.12141359 -0.06559446 0.07608933 -0.009384808 -0.09520723 0.005168977 0.07753292 0.10011854 -0.08647998 0.028198944 0.053916667 -0.03142208 0.088127844 -0.03414664 0.04019891 0.03020133 0.014704942 -0.03448627 -0.07759624 0.017858025 -0.004165927 0.07448574 0.049928628 -0.08227641 -0.10909634 0.111200735
one 0.022265295 -0.0494568 -0.033560712 0.025357679 -0.018220805 0.06865933 0.12283922 -0.103726424 0.0065272683 -0.09475512 -0.09116634 0.04291973 -0.040406223 -0.001373328 -0.07409054 0.0973967 0.0103938775 0.029156158 0.10615995 -0.13935539 -0.013869455 0.045743965 0.0305264 0.055824626 -0.07232211 -0.06639629 0.1647763 0.111709975 -0.12003098 -0.055920772 0.07918226 0.121217385 -0.04026496 -0.04481253 -0.015089155 -0.02050485 0.03053686 -0.066161476 0.020316374 0.1099482 -0.06879078 -0.018666854 -0.1327492 -0.006398324 0.11903761 0.056343254 0.002422248 -0.08888101 -0.103931725 0.09632589
do 0.051248707 -0.09154044 0.010164891 -0.04201523 -0.08819051 0.13416256 0.056125853 -0.05582752 0.014552964 -0.0017071972 -0.10271271 0.0017136096 -0.006821254 -0.03665949 0.007155934 0.049481295 -0.016068315 -0.052350394 0.043751568 -0.11558629 -0.0114353895 -0.006777163 0.001594642 0.01428661 -0.08309552 0.017605767 -0.0050580497 0.044307083 -0.059388503 0.038076963 0.032020483 -0.0001771336 -0.075145386 0.047010675 0.06336751 -0.07002144 0.041134793 -0.02787707 0.035014186 -0.0008649876 0.027171472 0.02063802 -0.120365225 -0.042000394 0.14418255 0.06693457 0.040021766 -0.0744554 -0.11522606 0.024876593
no 0.03066335 -0.05316654 0.062931344 0.044850633 -0.14757325 0.09241109 0.07364172 -0.068600446 0.069115676 -0.13046315 -0.09499281 0.0399269 0.005732564 0.05366869 -0.0786046 0.11365202 -0.052093524 0.0044618174 0.085591234 -0.1457119 -0.0042918436 0.075470194 -0.09273282 0.07047636 -0.010074054 -0.07194562 0.06576295 -0.0012091986 -0.023923313 -0.063288346 0.06812588 0.1832884 -0.058225345 0.035576895 -0.10589351 0.06497548 0.024580345 -0.06210669 0.07069073 0.09333257 -0.0446665 -0.021862444 -0.10527307 0.0020421292 0.16778134 0.019925991 -0.0027472829 -0.061512474 -0.09643295 0.052721035
oh 0.008690306 0.001771776 0.08697539 -0.053437483 -0.07775545 0.0497077 0.11691472 -0.090506606 0.11192118 -0.07030377 -0.0057911137 -0.029503174 0.028974308 -0.09405284 -0.068086766 0.12623546 -0.029502684 -0.0010785658 0.0929503 -0.051384456 -0.007885695 0.08179886 0.034246314 -0.046011835 -0.09839573 0.04473115 -0.06751472 -0.0297921 -0.06158863 0.01284203 0.08861114 0.05315389 -0.13641383 -0.029669734 -0.044063542 -0.037003793 0.16324109 0.014895133 -0.020480562 0.08289953 -0.0861051 -0.0764453 -0.12540425 -0.001819327 0.08691003 0.028110692 0.1500987 -0.06744107 -0.07956326 0.015337227
went -0.03716878 -0.023232408 -0.008255542 0.13679257 0.028802706 0.045784 -0.077731855 0.036469135 0.037813276 -0.0001766783 -0.11337533 -0.027529705 0.00838417 0.042550802 -0.028245173 0.022197135 -0.019340048 0.005823719 -0.026942886 -0.0371671 0.0033273164 0.025921518 -0.040613342 0.08053723 -0.038838867 -0.023789268 0.007094657 0.0953615 0.04585777 -0.013035226 -0.06168691 -0.029891022 0.0101428535 0.044994332 -0.06757354 0.121217884 0.0012612843 0.012188415 -0.009600323 -0.039325546 0.015202888 -0.05294047 -0.017783906 -0.00975125 0.04116879 -0.048069518 -0.022397662 -0.011188271 0.004159711 0.0071171205
thought -0.017831394 0.019390343 -0.015960105 0.029896853 0.025505511 0.012620199 -0.05360986 0.0072275773 -0.008205617 -0.01687279 -0.009210622 -0.06998664 -0.02027486 0.031922508 -0.041500263 0.020492781 0.03853449 -0.021470368 0.033944346 0.0011033576 -0.0338109 -0.010199456 -0.02518789 -0.02018686 -0.0046051694 0.004993424 -0.020228634 -0.058187623 -0.027083807 0.02510209 -0.005159295 0.07093458 -0.0055228793 0.008969003 -0.049334727 0.03890619 0.031248698 0.052294273 -0.023718666 -0.046890613 -0.043519404 -0.05280388 -0.019443918 0.006709255 0.008145959 0.076439 0.045742728 0.015682999 -0.053230822 0.0027045612
again -0.01897723 -0.03323002 0.027744079 -0.021529993 -0.06575633 0.052419223 0.04278458 -0.057368796 0.06592471 -0.04383874 -0.02696997 -0.045397934 0.0021134766 -0.015251534 -0.07613651 0.11366474 -0.05532442 0.0013336015 0.09045086 -0.0071547762 -0.030713798 0.00770572 -0.0023817408 0.038817856 -0.07527595 0.015515289 -0.021504434 0.05034661 -0.021076502 -0.019680753 0.060822718 -0.055512067 -0.072671935 0.015034406 -0.04410536 0.0069534043 0.016858235 -0.03678191 0.009982227 0.04364253 -0.054317296 -0.06579747 -0.08092193 0.025475904 0.10475658 -0.03268201 0.07509817 -0.08334282 -0.10135241 0.08338483
there 0.028592588 -0.0693184 0.03766858 0.103286065 -0.026273586 0.047895636 0.00915704 -0.09777898 0.005518228 -0.068033494 -0.117998734 -2.1279986e-05 0.041689724 0.054807264 -0.1038425 0.11109212 -0.08202417 0.024311313 -0.00067129027 -0.11923621 -0.051981747 -0.0048703654 -0.050898574 0.102796584 -0.0022564945 0.045931242 0.07134466 0.025521686 -0.004565303 -0.047998156 0.084154196 0.103502914 0.0055778953 -0.0072002853 -0.07570626 0.0016245882 0.11979962 -0.08752682 0.052508485 0.107577756 -0.037135083 0.01867987 -0.10184157 -0.013004138 0.119575344 0.0031516587 0.044959042 -0.044217687 -0.11196989 0.028349709
see 0.044020474 -0.10199224 -0.022286477 0.017126953 -0.050814725 0.00665884 0.011290392 -0.0013674696 -0.013943071 -0.021320479 -0.030126002 0.024055911 -0.016527003 -0.010032363 -0.058881402 0.08183647 0.0084073655 0.016896397 -0.019289214 -0.04225078 -0.023866965 -0.022264108 0.013798473 -0.007980045 0.0005081487 -0.014718046 0.07389296 0.023995994 -0.013071525 -0.04294849 0.0363415 0.023465125 -0.017647995 0.036868725 -0.0887287 -0.02503052 0.0018281739 -0.04590341 -0.0111389905 -0.016068993 0.019824617 -0.030198928 -0.08558251 0.026646735 0.107727766 0.03157774 0.004513352 -0.019026134 -0.0579521 0.04620674
or 0.063589476 -0.05484707 -0.044851597 0.008611335 -0.13694641 6.2407285e-05 0.11714203 -0.13322091 0.051429536 -0.10171445 -0.13049465 -0.022192612 0.019309143 0.005974181 -0.057588503 0.07239954 -0.029894428 -0.06541305 0.09814427 -0.0832631 0.011318752 -0.020140242 0.058915485 0.05305379 -0.02728776 -0.008079778 0.061037563 0.022446103 -0.001320264 0.012658144 0.118737906 0.045583535 -0.055097345 -0.050047696 0.015025826 -0.03978979 0.046178937 -0.029366104 0.0034442092 0.08947951 -0.07178996 -0.07241654 -0.06800016 -0.048804272 0.07276774 0.05782479 0.07299504 -0.07703452 -0.06647671 0.09923643
could 0.0424811 -0.030996453 0.029447477 0.047602676 -0.10030984 0.058605388 0.023362547 -0.048139248 0.008778745 -0.06424532 -0.10491698 0.011342071 0.0091809565 0.02728218 -0.0024283065 0.0015175691 -0.055002257 -0.050281852 0.048905704 -0.02430702 -0.0697772 -0.06087655 -0.008103554 -0.015205674 -0.008734027 0.0672374 0.013795456 -0.048442036 -0.014586657 -0.030792104 0.03632141 -0.040187396 0.0032043192 -0.012481332 -0.04082338 0.022021098 0.017350364 -0.010781035 0.009047232 -0.007688067 0.01361956 -0.09990633 -0.0059361984 -0.030984087 0.10234495 0.018650528 0.001710547 -0.08098848 -0.077984154 -0.028269095
would 0.044948623 -0.09461396 0.03772065 0.05867625 -0.047380768 0.11105289 0.11315421 -0.018270114 0.081841685 -0.02182861 -0.10938425 0.0007410407 -0.021881802 -0.0256532 -0.0693582 0.057559837 -0.013320432 0.062589176 0.05830762 -0.0748605 0.00016533589 0.016856609 0.021511918 0.05425036 -0.12598927 -0.018629033 0.03649778 -0.010762218 -0.055162977 0.022125915 0.01358103 0.10977528 -0.016805027 0.0040019527 -0.0809509 0.010965047 0.018765556 -0.057784032 -0.023486456 0.104116976 -0.06466843 -0.08329041 -0.07038686 -0.041502766 0.12901455 0.024304919 0.11791709 -0.06369987 -0.12044379 0.027902588
think 0.036906 -0.02991097 0.013897093 -0.07594105 -0.031656805 0.057858374 -0.031838264 0.049802847 -0.023921123 -0.023876553 -0.08432463 0.046244513 -0.034578875 0.019069467 0.017536284 0.032766152 -0.002265731 -0.033975482 -0.078952886 -0.012467578 0.020188358 0.006140331 0.0075551597 -0.012366519 0.0018018853 -0.049195074 -0.025577297 -0.012711899 -0.04287753 0.08447039 -0.027260551 0.03195474 -0.0044845976 -0.045071945 0.068679504 -0.0059872787 0.03585428 -0.0032150545 -0.070171915 0.016246479 -0.06964761 0.0016355438 -0.015059955 0.016876861 -0.009696369 0.016144466 -0.0352723 -0.0013180858 0.0043318598 0.032575827
them 0.016732823 -0.030222122 -0.020293294 0.038035486 -0.09834749 0.07442801 0.045391075 -0.017058225 0.026427362 -0.07577878 -0.084178284 0.07026371 0.03724505 -0.01685793 -0.08184087 0.056921627 -0.058785748 -0.0060373703 -0.010990543 -0.058897134 0.02361952 0.056030657 -0.0597421 0.079800725 -0.006505173 0.07835054 0.058191035 0.058562092 -0.056104627 -0.04724838 0.0052952208 0.08472215 -0.039615117 0.04409892 -0.09127535 0.04600989 0.044955343 -0.012653171 -0.039976165 -0.0107581755 0.0015812906 0.025043957 -0.06746317 0.060088903 0.112852454 -0.00032208406 0.007973409 -0.0751125 -0.058312133 0.08065638
know 0.0031699776 0.007501045 0.09673751 -0.1030042 -0.009897883 0.049077578 0.023042189 0.022541672 0.00041446695 -0.031733338 -0.06914843 0.01725167 -0.057061195 0.004471567 -0.07604443 0.021892108 -0.073324844 -0.024955088 -0.010488506 -0.032585617 0.008408506 0.029887967 0.056162298 0.072074726 -0.0040891645 -0.064009935 -0.010316024 -0.0075892024 -0.09114212 0.020394098 -0.035076108 0.07306837 -0.026152961 -0.022601493 -0.036112554 -0.032701533 0.079572804 -0.04291366 -0.059080143 0.01958608 -0.034359552 -0.025967943 -0.04632813 0.04717157 0.077356055 0.021285487 0.021652695 -0.091442 0.0046525886 -0.0026331653
rabbit -0.047549736 0.081775986 -0.05753172 0.024233181 -0.046035573 -0.046026763 0.06470426 -0.020558465 0.0784466 0.005991556 0.055499274 -0.082203515 0.048700087 0.02310874 -0.00888508 -0.056063764 0.05445369 -0.012626873 0.03552784 0.09875876 0.07391891 -0.042583387 -0.10285286 -0.03691484 -0.014733579 0.020634048 -0.009338475 -0.043015964 -0.11110355 -0.0791262 -0.015854571 0.028059235 -0.029112354 -0.047256272 0.043482587 -0.028750772 0.01948475 -0.013429047 0.033673134 0.032442473 0.04019279 -0.12564746 -0.060277283 -0.03768406 0.010959869 -0.057673384 0.090137616 0.045966644 -0.0055446913 0.01486827
dear 0.047487117 -0.15104109 0.03096665 -0.026328186 -0.12896298 0.13188618 0.14480929 -0.06389304 0.14972456 -0.059833374 -0.091792054 0.056584924 0.06027428 -0.11321107 -0.08077334 0.08639516 -0.0941902 0.016577657 0.12452738 -0.09265436 0.05569411 0.0051002675 0.009831235 0.052424695 -0.08740831 -0.031945564 -0.071118385 -0.034129985 0.0050256457 0.027504958 0.09521077 0.065857135 -0.12806174 -0.041303486 -0.096633896 0.033980347 0.12657918 -0.02712923 -0.055549398 0.10657459 -0.11105077 -0.0650976 -0.1286778 0.009448089 0.086996615 -0.09403673 0.13097553 -0.08988013 -0.09196575 0.11803333
were 0.020817658 -0.011183543 -0.020339819 -0.0099059725 -0.07812705 0.0557647 0.01809507 -0.07397697 0.06067593 -0.09494889 -0.113543466 -0.06773468 0.024340954 -0.019152708 -0.051777277 0.033050887 -0.043986592 0.037014388 0.12492121 -0.105367646 -0.00877362 0.048956577 -0.044980533 0.015909135 -0.13254349 0.019528976 0.0016502717 -0.03235976 -0.032422874 -0.076694876 0.09001527 0.012839528 -0.01914164 0.0156475 0.045002148 -0.06103181 0.08976091 -0.095338285 -0.036207225 0.12933122 -0.010898911 -0.115391955 -0.02134878 -0.004449829 0.011352105 -0.022055253 0.14146942 -0.068931215 -0.07364261 -0.024941528
time -0.042627282 0.026680626 0.0032984437 0.008471739 -0.022317355 -0.090664856 -0.012589134 0.011684884 -0.031433303 0.01911114 -0.050532483 0.033430908 -0.042896688 0.054217175 0.048457667 0.011474509 0.054320086 0.021653498 0.029653316 -0.025086394 0.024872158 0.059691 -0.0049928473 -0.03763947 0.09391668 -0.029469648 -0.0005743577 -0.0380722 0.0067420574 -0.056573916 -0.006226893 -0.029073207 0.0126260035 -0.047589395 -0.029349428 0.012136148 0.06401382 0.012181685 0.0165578 0.0046522315 0.0027444193 -0.03228158 -0.024153454 -0.009973794 -0.0015880476 -0.010595522 0.021148013 0.059893113 -0.0027809432 -0.007919299
get -0.026481666 -0.13847177 0.068239406 0.09655238 -0.114068784 0.0910849 0.066195145 -0.116163686 0.014114176 -0.08076111 -0.01772718 -0.014861823 0.07637781 0.07969924 -0.005188818 0.041242704 -0.04739135 -0.023935767 0.07122796 -0.05194793 -0.039706867 0.029390719 0.0006950768 0.114800654 -0.08875383 -0.048464455 0.09270109 0.07167927 -0.06506811 -0.0967592 0.047930907 0.05803976 -0.10738939 0.013754628 -0.032279078 0.051948525 0.034283217 -0.109184965 0.068385206 0.018985055 -0.10705581 -0.077238195 -0.020549163 -0.022552509 0.16185443 0.02738881 0.034511935 -0.12914152 -0.13209635 0.14055511
here 0.04835993 -0.05134274 0.03438625 0.018299056 -0.07765477 0.1000074 0.028621845 -0.031098582 0.049435336 0.062467705 -0.11890271 0.04910549 -0.034358058 -0.007254781 -0.052644957 0.12617783 -0.03025503 -0.027191633 0.05773351 -0.007860579 0.0054323357 -0.017162027 0.045428876 0.026824612 -0.09001049 0.03295044 0.07082059 0.045246445 -0.086319156 -0.03964942 0.018579358 0.0320124 -0.043524403 0.0047176634 -0.07172598 -0.033716157 0.08911176 -0.011083864 0.005742925 0.107665025 -0.0009149682 -0.05798406 -0.10947265 -0.0366 0.045290537 -0.08425307 0.021042971 -0.055242795 -0.04467211 0.025333686
must 0.0029850162 0.023179898 0.041046776 -0.06830992 0.047320448 0.06624589 0.09101921 0.06147082 -0.036897402 -0.058043025 -0.031618483 -0.0024944576 -0.04214024 -0.06772612 -0.02644861 0.016459625 -0.0012309074 0.06138779 0.010168133 -0.039601363 0.019174593 0.029071484 0.032022677 0.036851615 0.017820584 -0.071743816 -0.031626765 -0.01650293 0.013207523 0.015465203 -0.074348 -0.0110488525 -0.016234424 -0.025974812 -0.03814204 -0.005003179 -0.052200656 0.02434936 0.007661619 -0.05913753 0.0026261716 -0.0012348731 -0.010437913 -0.03443304 -0.04817696 -0.005371928 0.033211973 0.026396645 -0.009072311 -0.01052044
my 0.09128359 -0.16818812 0.100185044 -0.04181673 -0.101527445 0.15064228 0.13499025 -0.10571608 0.16458717 -0.066272706 -0.09708096 0.07126246 0.022713222 -0.14787322 -0.19444005 0.049365357 0.017932987 0.05824389 0.07880167 -0.084610015 0.11223504 0.048557546 -0.012312485 0.079718105 -0.15693465 -0.10412809 -0.079049714 -0.039284017 -0.17305095 0.13448521 0.16721562 0.09004112 -0.12558036 0.046959817 0.012057947 -0.08818601 0.20229013 -0.07451015 -0.016344434 0.14456202 -0.13056374 -0.032287557 -0.18804751 0.033868447 0.12608089 -0.00949295 0.16918185 -0.15522847 -0.09553399 0.118554905
by -0.008319038 -0.06628914 0.037164174 -0.04520142 -0.052208934 0.12214634 0.07311265 -0.06666575 0.09501799 -0.041110784 -0.05193706 -0.10250865 0.0044735004 -0.07886928 -0.12569988 0.032102387 -0.024152925 -0.03355619 0.026204912 -0.07562886 0.06242885 0.060013697 0.018152613 -0.013784253 -0.11436685 -0.04368522 -0.030906066 0.014812709 -0.10838676 -0.022765895 0.02498393 0.02151139 -0.1005118 -0.03447761 0.08479236 -0.06853768 0.061054543 -0.04722401 -0.065920964 0.012402311 0.03326668 -0.070025034 0.0032322977 -0.051852 0.051559035 -0.016470408 0.1341226 -0.067569554 -0.07709731 0.03730365
into 0.007307728 -0.024966123 0.07367633 0.08150355 -0.10652704 0.010105768 0.039483882 -0.11339664 0.05856772 -0.009382978 0.080703594 -0.051420674 -0.0082702935 -0.047461398 -0.042614862 -0.0791168 -0.038276795 -0.036152564 0.07119108 -0.02644791 -0.07348239 0.059684705 -0.13386479 -0.042979736 -0.06323891 0.05127401 0.07776439 0.011595502 -0.029416714 -0.08663453 0.110144556 0.046694722 -0.054080468 0.021223577 0.054001134 0.02121931 0.06846987 -0.01765782 0.0344021 0.115903385 0.01793157 -0.05358847 -0.08153809 -0.0146854445 0.06896863 -0.11790222 0.04505987 -0.02798843 -0.06768785 0.030542932
found -0.08688936 0.07030665 -0.016671997 0.073804036 0.03977003 -0.07894975 -0.115843296 0.010736127 0.105877936 0.08333737 -0.02385078 -0.032706365 0.11072167 0.122507766 0.053268585 -0.018041339 0.01415026 0.05924014 -0.07635692 0.055274047 -0.07470404 0.081953846 -0.07064406 -0.054384615 0.09721592 0.06083605 0.035989724 0.038482424 0.10005974 -0.0020867412 -0.03539241 -0.07600712 0.030317264 0.041323762 -0.14236356 0.055940293 0.008394287 0.07257145 0.035255894 -0.011073503 0.07488509 -0.025132544 0.029593447 0.034417942 0.013250306 -0.048439734 -0.07819376 0.061002303 -0.0025876248 -0.011072349
such 0.039140828 -0.020437125 0.009846792 -0.00019055017 0.018393453 -0.040418755 0.041083828 -0.033837404 0.013194225 -0.013419888 0.053593528 0.02498102 0.027280178 -0.023383701 -0.040198665 -0.012501286 0.041969504 -0.02412073 0.060652986 -0.029115938 -0.06239705 -0.039918505 0.038984384 -0.0029902128 -0.03446609 -0.03759524 0.015669884 -0.026129834 0.04505074 -0.022318846 0.0031699438 0.042815477 -0.0702243 -0.07849772 -0.051484626 -0.029313315 0.061861314 -0.04453223 0.012874778 0.06856943 -0.0077575604 0.006288587 -0.04360525 -0.014389229 0.016290113 0.030929208 0.031318706 -0.010734982 -0.054884147 0.061515003
began 0.032444343 0.04816351 -0.025511205 -0.0015694035 0.04785132 -0.06225501 0.020312613 -0.051439483 -0.011720156 0.017760456 -0.065762155 -0.009688675 -0.021365969 0.022755144 0.0025847214 0.02831112 -0.0053765355 -0.06889579 0.03571654 -0.033652045 0.030686159 -0.034870878 0.06856241 -0.008204158 0.029854322 -0.09496551 0.027278302 -0.04226344 -0.048441112 0.0210546 0.025265496 0.015680563 0.019649997 -0.058323573 -0.010451938 -0.015491115 -0.011755564 -0.023300862 -0.06123094 -0.03744704 -0.049666137 0.016556112 -0.055082157 -0.04670326 0.05197042 0.04982975 0.014225042 -0.004495981 -0.024532173 0.0028393907
soon -0.033163626 -0.07916261 0.041265115 0.11172359 -0.07434452 0.025402723 -0.0870482 -0.0552967 -0.057831913 -0.08166878 -0.13820761 0.08891696 0.03529691 0.04749308 0.029472837 0.0962678 -0.046194118 -0.0030233487 -0.021089884 -0.05374557 -0.0759464 0.0013378175 -0.071171716 0.05446587 0.08245157 -0.021993572 0.048804887 0.12900716 0.01240282 -0.021636926 -0.0234763 0.0073067443 -0.0064908788 0.053960353 -0.023234436 0.07439507 -0.01808125 -0.0326049 0.044530377 0.008515026 -0.07059152 -0.0048152683 -0.011529641 0.07817512 0.065488435 0.0352473 -0.072592564 -0.023314856 -0.060819965 0.038165867
m 0.10965012 0.053585693 0.048155922 -0.14044221 0.025183616 0.081286915 0.06804297 0.09153819 -0.05219018 -0.032796152 0.053196054 0.03665237 0.024213362 -0.070895426 0.11682156 -0.04398351 0.026990177 0.053032447 -0.0431329 -0.08562887 0.012907725 -0.010687165 0.036334943 0.0147309005 0.03876746 0.012620116 -0.076300986 -0.049214646 0.07233829 0.14728923 -0.08651458 -0.004139765 0.08719323 -0.08597001 0.10525846 -0.06214403 -0.1263878 -0.016735407 -0.015800439 -0.10357301 -0.035615437 0.14652093 -0.033898387 -0.026703574 -0.120939426 0.09663202 0.04355073 0.07679726 0.02198373 0.027888969
quite 0.04950419 0.005065532 0.053039502 0.08740114 -0.039417226 0.033923984 -0.021892888 -0.075247206 0.06374488 -0.09593741 -0.04500056 -0.03041225 0.069027 -0.014927045 -0.038154367 0.038346358 -0.052383877 0.040062383 0.01703612 -0.07650468 -0.09476613 0.0075671924 0.0022268647 0.08987423 0.009683927 0.03213643 0.11685852 0.10247868 0.059459776 -0.03825566 0.06994434 0.07505019 -0.0747937 -0.029219324 -0.05233458 0.09554966 -0.024706045 -0.043808974 0.11736431 0.0441116 0.010589944 0.033474393 -0.112703934 -0.0033485047 0.04393843 0.03230217 0.032103863 -0.020944454 -0.078632385 0.06952485
then 0.008278364 -0.06461422 0.0069921813 0.044695117 -0.020701889 0.011048869 0.050664477 0.010709809 0.040371332 -0.07528681 -0.003050158 -0.019717237 0.028450573 0.00056638615 0.010775516 0.017770838 -0.01857865 0.037985716 -0.009016739 -0.062151648 -0.109680966 -0.00686728 -0.009785172 -0.02434906 -0.0330032 0.04987831 0.03199424 0.051870476 0.035233535 -0.07541469 0.014137312 -0.028514521 0.0012267248 0.043648586 0.019266328 0.06393652 -0.020446973 -0.021949101 0.04096958 -0.023907315 0.0068441005 -0.024203783 -0.0423676 -0.02497282 0.028125491 -0.010444964 0.049695075 -0.07278162 -0.036379077 -0.010993251
off -0.007322223 -0.06753639 -0.06504275 0.06390125 -0.061515745 0.025874555 0.0028568176 -0.02881919 0.030841298 -0.028615406 -0.017017137 0.017152743 -0.035226207 -0.05090127 -0.0024554809 -0.013463338 0.017022036 -0.03242102 0.079577945 -0.0912675 -0.035887457 -0.04314178 -0.0072620474 0.08139965 0.009041723 -0.0057967138 0.048391357 -0.026898088 -0.04349548 -0.09263583 0.04137948 0.0389271 -0.030386832 -0.08337743 -0.034554683 0.017240185 -0.028419346 -0.062411144 -0.04798082 0.08054967 0.0030875779 0.0003998211 0.017142618 0.054531097 0.055236265 0.06345076 0.04223662 -0.033354566 -0.06856027 0.0117134275
now 0.072541684 -0.049116857 0.06857635 -0.08707537 0.040632777 0.060137723 0.07293489 -0.05542613 0.023771055 -0.02604543 0.00657102 -0.012489494 -0.009335696 -0.077807434 -0.035191916 -0.0038816065 0.028045073 -0.01854138 0.01489491 -0.0069021136 0.05112731 -0.024696631 0.0039329603 -0.0492191 0.0037254225 -0.07328206 -0.107579 -0.034778178 -0.1108158 -0.0026532614 0.058121815 0.015215987 0.023979636 -0.0029647783 0.06782137 -0.050703686 0.023493472 0.061417613 -0.020927642 0.026479002 -0.045216694 -0.06543749 -0.0011181512 -0.007059907 0.043107018 0.015185375 0.031402763 -0.07549869 -0.005456737 0.015340118
go 0.029165167 -0.056541394 0.05289891 -0.040833417 -0.016830904 0.050520297 0.03416501 0.016960032 0.029923122 -0.010066952 -0.13059925 -0.038293235 0.0012451241 -0.024077086 0.008611763 0.104837485 -0.01835288 -0.022503825 0.019669121 -0.11414448 0.05060876 0.015469923 -0.023487227 0.059590876 -0.04728592 0.0115567865 -0.029555904 0.04031273 -0.043431535 0.007118673 0.07848314 0.02981593 -0.06113418 -0.07388407 0.029801855 -0.034457322 -0.015775688 -0.043113112 -0.002292424 0.066774614 -0.07587326 -0.046634775 -0.05699434 -0.019483369 0.039171997 0.0038790796 0.0792657 -0.08127932 0.004217525 0.07632822
say 0.08520518 -0.053910367 0.06970918 0.03838027 0.00040488318 0.07678234 -0.00013345628 -0.065494366 -0.02461725 -0.0022517466 -0.021946765 -0.017260797 0.014573301 -0.015821595 -0.04451471 0.018146986 -0.07222644 -0.017562035 -0.0021968172 -0.09829097 0.051832844 -0.01621788 0.04588085 0.062317867 -0.007175361 -0.0189755 0.0076451087 0.024648383 0.06174372 -0.01921183 0.016955063 -0.008557891 0.027447019 -0.0306498 0.040327515 -0.05932954 -0.06424771 -0.049243476 0.04306475 -0.01160993 -0.017097725 0.06220288 -0.07031025 0.041782167 0.03238142 0.06415956 -0.023867892 -0.08169222 0.03131388 0.07887224
have 0.09104453 -0.052989636 0.05411888 -0.012397128 -0.069908455 0.13187319 0.106258415 -0.0023349503 0.042551808 -0.1468507 -0.051755335 -0.04230103 0.015570495 -0.03476779 -0.054217283 0.05277156 -0.051004596 0.023791224 0.059512332 -0.120639175 0.056003284 -0.04041627 0.059272833 0.065033235 -0.050623048 -0.020062933 0.055749018 0.006521931 -0.015297889 -0.011054011 0.043050904 0.028320769 -0.108298756 -0.07944273 0.0744158 0.00408091 -0.026595604 -0.08056836 -0.013136434 0.0751864 -0.07087353 0.013850436 -0.05119984 -0.024104074 0.086088546 0.039739653 0.05410351 -0.07708709 -0.03990519 0.12495088
which -0.026495455 -0.08348948 0.058902565 0.030429784 -0.09419839 0.034267746 0.06859452 -0.07146702 -0.06436632 -0.010635207 -0.06576813 -0.05065489 -0.010313088 0.046552584 -0.048455108 0.06415951 -0.07254238 -0.031163791 0.054077722 -0.089124106 -0.0899423 -0.024286257 -0.046208043 0.05342154 -0.026949422 -0.060139485 0.036916513 0.012267953 0.010447915 0.014056984 0.061811976 0.036922 -0.09748079 0.011506954 0.030306071 -0.01607158 0.02188007 -0.08075367 0.09383081 0.026761346 0.006050066 -0.056341432 -0.06808185 -0.021207074 0.09756588 0.046079542 0.06856157 -0.029614339 -0.048172545 0.058130056
come -0.010037225 -0.1178019 -0.023619412 0.021114372 -0.026758691 0.12557992 0.122011304 -0.020956308 0.08621334 -0.027237527 -0.054749288 0.0018387424 0.021654194 -0.09166014 -0.072873175 0.098716766 0.05804486 -0.032848418 0.07178223 -0.04656595 0.06413676 0.039035816 -0.024403874 0.073607795 -0.11305678 -0.0098387925 0.03741083 0.03524899 -0.040394265 0.011819709 0.040749907 0.102375254 -0.10231991 -0.028815756 -0.07616003 -0.059178263 0.10227689 -0.11497324 0.046220828 0.054733835 -0.020324951 -0.01663411 -0.10758361 0.032172114 0.038140025 0.07041227 0.10659457 -0.10760057 -0.02903174 0.017010361
dinah 0.090183124 -0.071237564 -0.023021175 -0.058441997 -0.05369692 0.034052953 0.09415493 0.015312047 0.019253884 -0.048520785 -0.08298493 -0.0037948207 -0.03186084 -0.025626877 -0.0811315 0.015171809 -0.00827517 -0.03688594 0.083364315 -0.06240869 0.044918206 -0.015779816 0.04734524 0.054597024 -0.006166188 -0.02970678 -0.07070042 -0.06364832 -0.01703621 0.095628135 0.017492494 0.0066482066 -0.067739636 0.024508812 0.04409133 -0.057617165 0.043657545 -0.050227642 -0.010311579 -0.0046105697 -0.06828008 -0.007664364 -0.029642325 -0.05315919 0.07075106 0.044704832 0.086761266 -0.09674667 -0.014758788 -0.027214717
your 0.0893788 -0.16622163 0.039948985 -0.045845058 -0.10888789 0.14042471 0.09770914 -0.058152165 0.046831787 -0.15628377 -0.116231024 -0.014544752 0.030756751 -0.08606644 -0.069728225 0.10212502 0.0071767196 0.005423534 0.063851655 -0.1644787 0.104864515 -0.049227905 0.08671617 0.067460194 -0.07761337 -0.12604867 0.09682669 0.04795128 -0.14249834 0.046319433 0.09163364 0.10727849 -0.1394109 -0.0054455954 0.0018975257 -0.046474602 0.13380767 -0.05996173 -0.01680904 0.06731757 -0.13178045 0.062449787 -0.15576872 -0.030004973 0.14609802 0.075006284 0.03369495 -0.12761812 -0.16335092 0.13801701
thing -0.001539875 -0.035449684 -0.0054305727 -0.0053377557 -0.0150132105 0.02205273 0.083128326 -0.0014592418 0.029898662 -0.0254714 -0.007609511 -0.02308064 0.010960192 -0.0012330994 -0.048590675 -0.0676757 0.027209494 0.007969471 0.0035495143 0.011896915 0.01195629 -0.08263743 -0.008316345 0.003113445 -0.09277065 0.041142587 0.06382042 -0.056470647 0.0136692645 -0.0012156984 0.010915043 -0.028303195 0.048170544 0.018099867 0.06824705 0.02928947 -0.049139753 -0.033466566 0.017491043 -0.011181461 0.011321992 0.026969451 -0.006212377 -0.022277286 0.040271316 -0.029113196 0.043621745 -0.009137844 0.028466 0.02105694
dodo 0.018670216 0.07082533 -0.0030034808 -0.036535773 0.105713904 -0.061337773 0.019244723 0.057770513 -0.008617469 0.05870304 0.07771238 -0.01465464 0.0033728098 -0.023044234 0.010566356 -0.071617365 0.07475375 -0.08892478 0.0034033053 0.030583983 0.091028735 -0.012999234 0.07225216 -0.01648977 -0.029496659 0.029559013 0.0060953773 -0.07298855 -0.00054472603 0.007402621 -0.0059602847 -0.08551602 0.031828925 -0.01784271 0.056005493 -0.05980527 -0.06155054 0.0012136311 -0.056176405 -0.08084328 0.028772999 -0.007778225 0.034943562 -0.053391173 -0.0822618 0.0045051863 0.07628064 0.075459234 0.09038205 -0.046901096
much -0.0054295585 -0.08078362 -0.07393237 0.0018938544 -0.0733739 -0.0247497 0.061063353 -0.014346395 -0.025304772 0.026885852 -0.098123506 0.044703647 -0.010712949 0.013004362 0.002482034 0.064367905 -0.028466506 0.018138468 0.02990269 -0.057903256 0.014009764 0.015304003 0.02167797 0.06051537 0.028753508 -0.03194318 0.024863537 -0.02384075 -0.02335356 -0.058671426 0.033181082 0.032160897 -0.07735798 0.020637678 -0.023448808 0.0075773112 0.036246624 -0.052570757 -0.03667863 0.026814722 -0.033624668 -0.014694335 0.0023011249 -0.024831248 0.025562087 0.05942753 0.017705996 -0.022274124 -0.07495092 0.029137548
shall 0.10182249 0.03230928 0.077933565 -0.086308025 0.053056665 0.11273398 0.024036134 0.036294956 0.044994876 -0.08973975 0.024431257 0.05814449 -0.028504014 -0.024367077 0.0010446811 -0.088996395 -0.04824436 0.023036083 -0.033285584 -0.048823345 0.044913583 0.010598203 0.023206906 0.0030734178 0.012540313 0.005610668 -0.09063094 0.064769894 0.062266577 0.023293536 -0.08235574 -0.029044721 0.0020321712 0.007856664 0.06169258 -0.0066198013 -0.06372565 0.019362308 -0.04258593 -0.07184869 -0.06051117 -0.0008314709 0.02998798 -0.03767029 0.0019129729 -0.054043423 0.037032515 -0.042964607 0.011467799 0.03701235
things 0.0067052697 -0.020472595 -0.0044364235 0.0057515088 0.01421427 0.044105798 0.09253887 -0.06551437 -0.010912499 0.017389018 -0.07094127 -0.04433298 -0.030888682 -0.00018063921 -0.06957902 0.107818894 -0.008560709 -0.009606489 0.014018284 -0.11843243 -0.026943976 -0.004223184 -0.037473932 0.051792126 -0.07101146 -0.016921848 0.04910828 -0.014304434 0.01648118 0.104526006 0.07798724 0.04319338 -0.046253785 -0.05389644 0.03330773 -0.031618606 -0.005405914 -0.08869701 0.0155469095 0.03441393 -0.074205026 -0.016916245 -0.05828085 0.04030898 0.0804961 0.07974585 -0.008309104 -0.07130013 -0.025780663 -0.027181484
long 0.05165686 -0.017207319 -0.0057685897 -0.027497286 -0.029756136 -0.05426824 0.06386201 -0.056367964 0.033702154 0.02033129 0.007114675 0.021421308 -0.0021639422 0.00066333474 -0.051388886 0.034781773 0.06350998 -0.024674792 0.062395453 0.011506217 0.046257313 -0.035958733 -0.045266137 -0.07647899 0.009519959 -0.019168623 0.072239526 -0.08426438 0.0633257 -0.0049210177 0.017771292 -0.013950712 -0.013070661 -0.0491948 -0.019631099 0.038432013 -0.014680385 0.00594588 -0.018609757 0.042325683 0.012143591 -0.045108255 -0.09521216 -0.03471706 -0.010307489 -0.052188177 -0.034684822 0.0009712409 -0.02390878 -0.042681802
door -0.04261514 0.053710964 0.03256144 -0.030323576 -0.036345307 -0.037216116 -0.060923066 0.044786997 -0.022062838 0.016241465 0.07396748 -0.06088535 0.0034960108 0.02664707 -0.040642485 -0.044134885 0.062010333 0.03282448 -0.01934913 0.010257865 0.011188695 -0.049957015 -0.011049059 -0.072264425 0.052964263 0.057317402 -0.017476024 -0.05281123 -0.003549013 -0.0015336722 -0.0076164366 -0.08280982 -0.011433989 -0.024750551 0.00891739 -0.051802274 -0.034775183 -0.0083695175 -0.077813454 -0.048953474 0.018880857 -0.086108 0.027615685 -0.052028317 -0.019300045 -0.029349705 -0.013978899 -0.011618053 0.030453889 0.013995738
who -0.031648617 -0.078025416 0.021694178 0.06699628 -0.050497714 0.050870646 0.037201155 -0.06750767 0.05061563 -0.05257899 -0.08099838 0.015524511 0.021125387 -0.00062446494 -0.09747618 0.09885715 -0.06781491 -0.049625773 0.07779034 -0.106986985 -0.023127243 -0.0035942781 -0.017436525 0.07782301 -0.010373905 -0.019147884 0.076937 0.022979863 -0.03318913 0.0069151516 0.05366461 0.13303739 -0.045868013 0.033902805 -0.047562182 0.05833656 0.119132265 -0.048132744 0.012683147 0.11030389 0.0085626105 -0.013832366 -0.035992064 0.017234202 0.022717822 -0.01423629 0.027115626 -0.060263738 -0.037697718 0.03312903
can 0.09218105 -0.108013764 0.120822914 -0.057265595 -0.042750984 0.12708257 0.08585226 0.014028795 -0.01800583 -0.10921708 -0.0848318 0.08443114 -0.016302694 -0.12365636 -0.0132772 -0.02179563 -0.02259956 0.080515966 0.013149641 -0.1169059 0.030236248 0.04541143 0.009124151 0.114508145 -0.058124702 0.06940888 -0.03261354 0.0031329247 0.041741263 0.016950058 0.0027513138 -0.039041214 -0.009022625 -0.03480852 0.03096456 -0.034295496 -0.067158684 -0.08303344 0.042848833 -0.001234323 -0.12025035 0.013013646 -0.13082027 -0.00043188344 -0.0050130715 0.04822169 0.08965813 -0.12479729 -0.028355638 0.08198261
once -0.084955975 -0.045267355 -0.0012159505 0.07262271 -0.024005707 -0.023392256 0.016853258 -0.008895272 0.03968662 -0.014833116 -0.059877563 0.0058007864 0.008241195 0.080728926 -0.060623355 0.027451875 -0.008140463 -0.021816466 0.0887648 -0.03229582 0.014490018 0.04546043 -0.083633505 0.09610862 -0.0036343127 0.017991133 0.044844504 0.05988095 -0.03530964 -0.077065066 0.056742366 0.011819234 -0.07239349 -0.031991128 -0.028850893 0.08136366 0.032655157 -0.07478755 0.031266317 0.05503463 -0.009411761 -0.05178195 0.003679889 -0.018512748 0.12333031 0.057378292 0.06727808 -0.107284956 -0.0364275 0.084768824
did -0.074263595 -0.019069172 -0.037632428 0.0229024 -0.076481074 0.03857932 0.021352865 -0.032788463 0.035427183 0.059230607 -0.0042765043 -0.08478978 0.027468372 -0.014200033 -0.04796828 0.011431083 0.001840949 -0.08751581 0.104376055 0.017770512 -0.057301503 -0.03386702 -0.003094913 0.036094505 -0.10758167 0.009503334 -0.024772234 0.024406832 0.012522316 -0.074941486 0.070332766 0.037087735 -0.04842587 0.032875657 -0.032151043 -0.021977926 0.021807525 -0.029330682 -0.020307263 0.03516079 -0.030199094 -0.05807094 -0.035785545 -0.029783476 0.058840748 -0.040357333 0.046748918 -0.051190432 -0.0014738711 0.027868513
over -0.04376747 -0.011683093 -0.0041256016 0.04506921 0.052504003 0.0057073412 -0.009079252 -0.0029193796 -0.0102175865 -0.022543823 -0.072553806 0.057023764 0.076914296 0.0720254 0.00044737803 0.03124733 -0.021550486 0.05027054 0.0076097506 -0.01238046 -0.018216904 0.028045623 0.06004337 -0.010035291 -0.04042204 0.023603437 0.040448647 -0.025779773 -0.005305135 -0.0146351475 0.00753684 0.002109416 -0.022631327 0.022651857 0.037574165 0.036358476 0.040853813 -0.040595096 -0.011070306 0.0280329 -0.015804509 -0.03935542 -0.038991116 0.029698173 0.00254981 0.045037534 -0.053211205 -0.025969917 0.053185783 -0.06213236
feet 0.05596751 0.0048145633 0.090312995 -0.045259867 -0.009780712 -0.0077032726 0.027616907 0.021860775 0.011280904 0.011154776 -0.06531678 0.017587736 0.03311788 -0.017214566 -0.0049745017 0.10727185 0.02570937 -0.022580644 -0.021431293 -0.0501725 -0.05200429 0.043092776 0.055563085 0.035779767 0.06453609 0.06012582 0.0012885055 -0.019524578 0.034326866 -0.02660479 -0.025110846 0.05680958 -0.035836782 0.052738123 0.00470612 -0.0034292347 -0.048128698 0.04236179 -0.048919346 -0.02186728 -0.039940704 0.027624732 -0.036021978 0.036079567 0.0081553785 -0.052132256 0.011322478 0.03752544 0.014092975 -0.036980625
after 0.026103433 0.010255037 0.029927088 -0.05047491 -0.01807509 -0.060520936 -0.02982696 0.03996319 0.023232132 0.020726003 -0.027929163 -0.029706609 0.043317582 -0.014255866 -0.026286254 0.022096412 0.05957262 -0.002875484 -0.0654503 -0.0020388286 -0.08724058 -0.05117306 0.04378343 -0.027577072 -0.009840272 -0.00893119 0.036260962 0.05956254 0.0075411135 -0.055715024 -0.0135304695 -0.0013601249 0.03824175 0.006869328 0.0042186724 0.019833183 -0.0010306074 0.053723607 -0.001293015 -0.022579355 0.027369834 0.01065794 0.030345239 0.04399552 0.012881064 -0.0075758756 -0.021857455 -0.02191817 -0.028528806 0.0032951604
wonder 0.030197816 -0.018450113 0.091247305 -0.037262056 0.040862706 0.057270866 0.026079329 0.066021904 0.01254047 -0.058193337 -0.028212203 -0.047966056 -0.013368991 -0.057389125 0.08114715 -0.044836327 -0.03096585 0.026205145 -0.06898556 -0.02450115 0.029808795 -0.027581379 0.05585574 -0.07415812 0.014374815 -0.046367843 -0.08094479 -0.001185525 0.022674419 0.09758686 -0.10052479 -0.02525703 -0.02571835 -0.035141412 0.03530053 -0.023994869 -0.052666903 -0.035394527 -0.07333537 -0.035793785 -0.039080277 0.08614716 -0.009430143 -0.0045296294 -0.071546115 0.08899565 0.00475669 0.016467715 -0.003395416 -0.07736974
first -0.04835463 -0.03223067 -0.01817505 0.06121558 0.010312933 0.052124884 0.03887887 -0.013694319 0.014214372 0.013206491 -0.013314968 -0.026656508 0.01880003 -0.021671949 0.010550901 -0.03114113 0.012042972 0.012367118 -0.02852807 0.003919855 0.005509156 -0.011891423 -0.053826798 0.09798472 0.018462317 0.03965746 0.020753674 0.0942761 -0.0012220928 0.046970192 -0.0028048703 -0.030347288 -0.0023858575 0.04198138 0.03141798 0.026548756 -0.01371338 -0.022030111 0.08083176 -0.024026351 -0.036162972 0.009606799 0.050677158 0.059908446 0.07881002 0.011242374 -0.0049518724 -0.011262229 0.0096124215 0.03912083
let 0.015141463 -0.111261465 -0.03940705 -0.006366043 -0.12750877 0.04917755 0.10678565 -0.12808579 0.07663543 0.048423756 -0.09731078 -0.043520205 -0.02783219 -0.021616219 -0.09426488 0.1004124 0.022074714 -0.028934525 0.09472866 -0.0544269 0.105526745 0.03867731 -0.02473043 0.027306791 -0.03651317 0.009109088 -0.040180787 0.015743347 -0.007581083 0.03990128 0.023406312 -0.05421835 -0.114758365 -0.038323592 -0.10328717 -0.023923628 0.14311138 -0.07496718 -0.08074648 0.12511589 -0.009470716 -0.072734885 -0.06647333 -0.026684 0.01036777 -0.016020399 0.1069172 -0.10021784 -0.10005027 0.05284526
are 0.08019997 -0.093831405 0.018402677 -0.039942726 -0.031301122 0.05400179 0.124811366 -0.09463261 0.018488802 0.0022026997 -0.051502347 -0.010583069 -0.032459468 -0.045392714 -0.07056724 0.08342415 -0.007224938 -0.05404492 0.08878521 -0.07509945 0.08471361 -0.018080587 0.006281933 0.0783477 -0.11607363 -0.10641201 0.08775978 0.04284313 -0.06888708 0.059464134 0.12167594 0.11191647 -0.07705186 -0.06958271 -0.002128026 -0.038179044 0.065138325 -0.061211202 0.009723016 0.1146704 -0.09231325 -0.008783201 -0.12709413 0.006690392 0.058009822 0.012312162 0.019839535 -0.100041665 -0.11932266 0.069493696
cats 0.059685662 -0.07604539 0.04954315 -0.040554892 -0.08446172 -0.0044827373 0.07294539 -0.061921615 0.09584541 0.0032703984 -0.036319148 0.038686074 -0.02839532 -0.060469367 -0.064952604 0.095241964 -0.057820544 0.03903224 0.048967328 -0.090644635 0.021493906 0.07168069 0.044360235 0.058158617 -0.108058706 -0.040977385 -0.050707996 -0.010535585 -0.11016401 0.021286497 0.066314004 -0.023065342 -0.040612448 0.0144105265 -0.07703778 -0.08694331 0.094696075 -0.07697763 0.02494261 0.015041946 -0.036118977 -0.042708274 -0.1159799 -0.016777217 0.07767868 -0.028238222 0.05712502 -0.07204167 -0.13412735 0.008442569
round 0.0047787116 -0.061800256 0.016402148 0.050152298 -0.081050664 0.09031163 0.05110368 -0.069531396 0.108912945 -0.020679593 -0.10188859 0.12235271 0.047355507 0.0061213006 -0.06014767 0.08740033 -0.088340685 -0.011118783 0.017233187 -0.023730945 -0.037520133 0.048658963 -0.0071094013 0.07975825 -0.06651583 0.021346623 0.016513843 0.11577126 -0.027217615 -0.05767476 0.01617338 0.082957424 -0.029389061 0.06184942 -0.042028066 0.042360973 0.026665336 -0.062206957 0.032225206 -0.016746407 -0.031022627 0.07891779 -0.010470665 0.013339873 0.08878134 -0.0105027035 0.032225415 -0.07775262 -0.08440286 0.09318909
poor -0.008067624 -0.023480287 0.0047800024 0.028686367 0.04902122 0.04817574 -0.06264136 0.036178015 0.04957267 -0.009163115 -0.018896826 0.009393255 -0.026060823 0.040545154 0.057727333 -0.028275725 5.6041405e-05 -0.017312676 -0.04196216 -0.016893754 0.051371094 0.00027599442 -0.020547034 0.042985663 0.012964095 -0.050335824 -0.003016829 -0.023550563 -0.05053645 -0.011951521 -0.0042305156 -0.04274566 0.009829465 -0.006326535 0.062022924 0.045576394 0.03150189 0.023932233 0.01944945 -0.034372117 0.021601489 -0.042937886 -0.028684981 0.04502991 0.022271825 0.016777363 -0.0354129 -0.014496182 0.07082892 -0.048216168
back -0.014863245 0.044311214 -0.028984044 -0.072913006 0.019944387 0.02272102 0.03463517 -0.068149954 -0.015776927 0.0674809 0.012789634 0.010482463 0.005231604 -0.050844133 0.0550262 0.013831908 0.0081110615 0.0017370129 0.027481727 0.049929935 0.06531532 -0.0008247658 0.028227258 -0.024119336 -0.04037643 0.059078466 -0.07969072 -0.00081065355 -0.029483655 0.0545854 0.016676806 -0.024127375 -0.039991196 0.027252195 0.002667895 -0.017709693 0.03644905 -0.006210997 -0.081728786 -0.01861835 -0.03462322 -0.011209345 -0.022850558 -0.06362895 -0.019980878 -0.011543275 0.022272589 0.02755717 0.014913558 -0.017097894
he 0.038529027 -0.047036972 0.040381003 0.041359812 -0.10211509 0.05661865 0.07315466 -0.07282919 0.12819959 -0.043994423 -0.10635402 -0.0021563233 -0.015493965 -0.016059566 -0.11275497 0.084515825 -0.08620971 0.04113206 0.10174987 -0.032983568 -0.040527944 0.006963616 0.024505818 0.06446799 -0.122505635 -0.0070700916 0.049364354 -0.0119293975 -0.013769152 -0.10425527 0.06973426 0.06825574 -0.08981527 -0.019828958 0.0025676396 0.029375844 0.053067587 -0.09206958 0.010615167 0.124429315 -0.035169147 -0.08093123 -0.10173532 0.0065838285 0.123238824 -0.05900857 0.065740295 -0.09815888 -0.14339387 0.109345384
nothing 0.022127695 -0.053975366 0.012872704 0.07247089 -0.027441721 0.030492267 0.0012821604 -0.044495758 -0.035900373 -0.06011001 -0.0107815545 0.06759035 0.029362723 -0.019806199 0.027084872 0.054323822 -0.07064795 -0.00012690572 -0.06553498 -0.041718494 0.013718908 0.068308264 -0.09650674 0.055676088 0.012779281 0.055634767 0.08088894 0.06655109 -0.037081674 -0.018491779 0.00046007318 0.02441919 -0.050886296 0.017088009 0.022312835 0.065729015 0.02515955 0.0012323004 0.047389854 -0.028480511 -0.008140137 -0.040422436 0.014412879 0.05409875 0.020092506 0.041982476 0.041590948 0.006866491 -0.036495667 0.057630368
seemed -0.0460432 -0.030581977 -0.02484506 0.019300008 -0.028274935 0.04810352 0.022356771 -0.052055158 0.05024894 -0.029579293 0.013437119 0.00904177 -0.033170283 0.021357778 -0.014307486 0.041377913 -0.0067755757 0.00489083 0.008591926 -0.08940407 -0.0054748654 0.058688756 -0.05789565 -0.029367534 -0.009011896 0.0547204 0.09024088 -0.02099177 0.0154087 -0.099225484 0.050072324 -0.0013802224 -0.015916111 -0.06500503 -0.027458785 0.09671864 0.08193465 -0.041229747 0.025735738 0.051058803 -0.03964284 0.027436342 -0.01634357 -0.04148179 0.071304776 -0.024458257 0.0101128705 -0.02912722 -0.0063940855 -0.019808255
its -0.030624505 -0.045552306 0.01205807 0.103379875 -0.13542989 0.06321141 0.046215188 -0.07477395 0.07393909 -0.043647025 -0.061457537 -0.011535204 -0.00849519 0.05063513 -0.03357471 0.12345411 0.038530983 0.035063684 0.05408124 -0.03377825 0.021972397 0.016386973 -0.04782304 0.019606344 -0.007965385 -0.0060122088 0.110939294 0.0555516 -0.07498645 -0.01672299 0.09365948 0.057329252 -0.082026586 -0.018344438 -0.12982424 0.07310419 0.04201575 -0.047276184 0.04618238 0.045676507 -0.079410665 -0.046584185 -0.06328573 -0.04519353 0.040375315 0.018639395 -0.012015797 -0.02868915 -0.070709646 0.08686383
never -0.014118604 -0.015916316 -0.00995184 0.06379887 0.012023839 0.08360085 -0.018602328 0.027525852 0.04998962 0.020755418 -0.05448643 -0.018361026 0.008827876 -0.021390818 -0.012795341 -0.054270748 -0.07140544 0.02101877 0.02221837 -0.033837244 -0.03773679 0.021291986 0.016900755 0.010324111 0.028473172 0.021578021 0.06857264 0.06933129 0.0002048295 -0.044082403 0.036708362 0.025016842 -0.05008516 -0.028947946 0.011010866 0.0503534 0.034785196 -0.019016651 0.010549318 -0.020193616 -0.04140669 -0.007353037 -0.023271918 0.004813279 0.029401217 0.018719647 -0.015538137 0.0036025827 0.03641061 0.08931144
going -0.022747243 0.015490969 -0.008898103 0.02082936 -0.0070947865 0.08869113 -0.032385107 -0.027504833 -0.06347631 -0.10030163 -0.023486158 0.04667185 0.035588108 0.02970365 -0.05331142 0.044157952 -0.068830274 0.05984165 0.013440352 -0.03641107 -0.023443501 0.013120422 0.007581655 0.041303746 0.033786803 -0.022965347 0.045059357 0.07030872 -0.004382024 -0.053734086 0.044567578 0.033785325 -0.056117874 -0.0036399718 -0.006392118 0.086803414 -0.045656905 -0.01906572 0.033298362 -0.0025293552 -0.045655604 0.013583889 0.006439128 0.060941458 0.04023845 0.040995456 -0.060799878 0.013131041 -0.018151436 0.07119256
great 0.0002592398 0.06803975 -0.012508992 -0.007361667 0.014441808 0.012888809 -0.052364055 0.056849573 0.004796413 0.012356168 -0.03194086 -0.050449774 0.007755372 -0.00126995 0.027306939 -0.021695271 0.042093318 0.0260342 -0.06298142 0.062340673 -0.024538713 -0.030726874 0.010786298 0.00012878573 0.08121044 0.01796553 -0.017525425 0.034983233 0.023406345 -0.043471057 0.02171118 0.0647642 0.07443196 0.00035445066 -0.026649823 0.0072501493 -0.068037145 0.017752776 0.0069594854 0.0058366223 -0.003354371 -0.04927619 0.044319943 -0.0035484112 -0.049134504 0.022523507 -0.013821286 0.053592626 0.020375405 -0.030841514
got 0.04073268 0.015037258 -0.016629456 0.010020425 -0.014229386 0.030740384 -0.075851046 0.035717186 -0.014445409 0.046117328 -0.02815473 0.013511923 -0.027564399 -0.0012211527 0.028712368 0.021174565 0.04733311 0.02777397 -0.038471628 -0.03890556 -0.028255172 -0.037360024 0.055452205 0.0038530536 0.019146191 -0.04451736 -0.010963022 0.018827332 0.070360735 -0.015168879 -0.02222476 0.038891044 0.027321015 0.010391118 -0.022676805 -0.029190708 -0.023426613 0.030548021 -0.018800898 -0.054364555 0.027187467 -0.0038999305 0.0017302403 0.016203713 -0.070583925 0.046040077 -0.044452626 -0.032167602 0.016696546 0.018256065
ever 0.0728257 -0.1013481 0.039607543 0.038014792 -0.11881031 0.12003941 0.019136496 -0.029146144 0.016438188 -0.07788823 -0.11803551 0.08361684 0.042706307 -0.050796025 -0.072731204 0.022117743 -0.11171015 0.02225035 0.051777005 -0.099166885 -0.0462978 0.024070079 0.040535595 0.075549394 -0.004160255 -0.07255105 0.08503178 0.06111214 -0.006931196 -0.044942 0.073360726 0.14589626 -0.04153306 -0.002026109 -0.064026296 0.0367038 0.051936492 -0.09574619 -0.003145082 0.097696856 -0.073766105 -0.029037653 -0.0710938 0.01400359 0.06948651 0.01682623 -0.0064022737 -0.12370295 -0.091560654 0.12862387
table -0.068475924 0.033618774 -0.04794896 -0.0229065 0.04660997 -0.015103081 0.018880721 -0.0062198658 -0.033295814 0.016039079 0.07154544 -0.02283131 -0.032258783 0.048111215 0.0032277028 -0.0077629862 0.07155232 -0.072415315 -0.0014613131 0.028692514 0.06607751 0.02174263 -0.012901761 -0.031234508 -0.00749602 0.076883614 -0.06348825 -0.040271275 0.012859284 0.037004635 -0.04569625 -0.019452581 0.011875825 -0.013626561 -0.021886067 0.011929791 -0.04570504 0.004361308 -0.06617337 -0.025449077 0.08208685 -0.06593513 0.083499506 -0.03528216 -0.084567904 -0.08546084 -0.022510337 0.08296887 0.067101516 -0.043405708
any -0.05085744 -0.07534181 0.07324722 0.07034791 -0.10860731 0.18688484 0.06804534 -0.02059888 0.044616878 -0.06251803 -0.09985898 0.074275725 0.05339902 0.01621345 -0.07854635 0.116223365 -0.073718295 0.0026202952 0.00097499497 -0.07143861 -0.02284323 -0.009885119 -0.007849385 0.07651462 -0.027961126 0.0039273277 0.12624861 0.079449065 -0.08244933 -0.03182635 0.020584522 0.088277064 -0.013514279 0.07698455 -0.053463895 0.017701043 -0.0055251243 -0.039467905 0.020607846 0.060889833 0.030974418 -0.01165099 -0.04925044 0.031398486 0.12233148 0.003354477 0.015478857 -0.080007866 -0.07195834 0.061447214
only -0.032881808 -0.024330504 0.016992213 -0.039753377 -0.04055092 0.038936004 0.010857485 -0.05890929 0.06926745 -0.058338523 0.019213807 -0.027764779 -0.017527204 -0.01646849 -0.022630874 0.013639556 0.004999193 0.027736168 0.050406683 -0.044951204 0.027860139 0.0036951192 -0.056471087 0.0028398263 -0.051144924 -0.026639447 0.0246185 0.0341015 -0.04805634 -0.043796062 -0.013018482 -0.0039757956 -0.024050647 0.0021018777 0.05545766 -0.066189334 -2.9575458e-05 -0.06564115 -0.05426523 -0.015122825 -0.016080301 -0.03255035 -0.046939354 -0.020064568 -0.008313018 -0.055899687 0.07501493 -0.08796984 -0.011769944 0.03221489
more 0.036190137 -0.09074362 -0.015137942 0.0723815 -0.07917535 0.008467172 0.08360082 -0.06796971 0.075974725 -0.008251966 -0.009485677 0.02062754 -0.009731438 -0.041825812 -0.041501395 0.034661736 -0.0069375774 0.042723093 0.028669113 -0.039694585 0.022698035 0.04534301 -0.03103866 0.045791533 -0.03762837 0.02433291 0.05459427 0.005686042 -0.054629978 -0.01788897 0.07450591 0.0056630736 -0.047400273 0.040225353 -0.008777949 -0.0075783245 0.04232452 -0.086548775 0.04469924 0.06311581 -0.054330416 -0.06388444 -0.049097665 -0.017276626 0.09361542 0.045185827 0.07063343 -0.07635353 -0.039823834 0.03297362
cried -0.03902777 -0.008456409 0.0038070413 -0.014714998 -0.08121353 0.062425822 0.0442959 -0.0017071052 -0.025894895 -0.07022011 -0.07014507 0.008033148 0.034342974 -0.026554948 -0.017234588 0.08695729 -0.022610907 -0.04333482 0.03775883 -0.072587356 0.055964973 -0.06814662 0.07565621 0.03538603 -0.0271175 -0.03663447 0.005386303 0.020771686 -5.512382e-05 0.05909517 0.060398106 0.008828633 -0.027251614 -0.0011190333 -0.033291355 -0.027070638 -0.016376898 -0.011598139 -0.017334409 -0.01653445 -0.021539979 0.04557757 -0.0010957401 -0.020609558 0.02063786 0.037923977 -0.030629713 -0.03675799 -0.07168541 -0.026409663
gloves -0.03512352 0.04765756 0.03187548 0.017184926 0.009368731 0.005314974 -0.0008642223 -0.014342585 0.02805358 0.0052517494 0.038647447 0.027099224 0.01929183 0.07710367 0.04510319 0.061492994 0.05499498 -0.037402693 -0.0237874 -0.023015143 0.053803023 -0.032974556 -0.033735655 -0.025877895 0.0055505224 0.056556873 0.022977402 0.037013594 0.05488571 -0.042469706 -0.04693525 -0.038371917 0.022491053 -0.0027641281 -0.091797374 0.07106821 -0.03385803 0.04926286 -0.010393995 0.013405815 -0.05947966 -0.03354549 0.015313847 -0.024037428 0.039780196 0.04269098 -0.055810586 0.03066383 0.01843076 -0.027872372
fan -0.022819128 0.06165454 -0.023172509 -0.035023455 0.112199455 -0.13613328 -0.06427863 0.13733311 -0.10749188 0.12065939 0.05037581 -0.026310183 0.03205158 0.02242721 0.10301883 -0.042507343 0.029864827 0.0036568437 -0.045837708 0.030563641 -0.028326506 -0.046672612 0.07139763 -0.07568038 0.08610879 0.009330251 -0.07345208 -0.04268982 0.09678293 0.032378104 -0.0640787 -0.040904816 0.13460039 -0.04014282 0.040505458 -0.020009184 -0.03997466 0.06824532 -0.03828963 -0.1170757 0.037142314 0.006815359 0.15307605 0.011118799 -0.06387618 -0.024194904 -0.08849561 0.12363916 0.08693584 -0.09645811
well -0.032290544 -0.059155464 -0.0012384085 -0.035387274 -0.019510334 -0.009550394 0.018193066 -0.043830514 0.027232578 -0.007276814 -0.024946183 0.020479422 0.02862363 0.022227192 -0.016777432 0.06063261 -0.022729091 0.013207923 0.004668199 -0.012226337 0.03630451 0.023624646 0.022725888 0.033942122 0.018426677 0.027215634 -0.010943941 0.004707428 0.03927283 -0.016506242 0.051717784 -0.016257422 -0.06723945 0.006344715 -0.020224925 0.07879417 -0.044406734 0.04921774 0.008194313 0.0037840914 -0.01371459 -0.04017626 -0.09026636 0.065323174 -0.02284386 0.0010554715 -0.004793477 -0.0427676 -0.04757494 0.021629194
white -0.01629984 0.041432403 0.0061803344 -0.052858576 -0.10044246 0.01924327 0.032858923 -0.05613053 0.10513844 0.008972231 0.0070403893 -0.09615029 0.024028458 0.031512287 -0.04249768 0.06907358 -0.00815498 -0.032551978 0.053011484 0.03331983 0.060982645 0.037823156 -0.051056404 0.0063617732 -0.09294648 0.018578049 0.033557985 -0.017495917 -0.041279912 -0.08120655 0.07101141 -0.009018087 -0.033920802 0.010925072 -0.04774476 -0.009726623 0.07919228 -0.070256256 -0.06938937 0.081775725 0.033641472 -0.044965193 -0.045829907 0.00089818455 0.07121375 -0.034690037 0.019610431 -0.012191894 -0.053223222 0.07256184
looked -0.0012208133 0.04815316 0.019039888 -0.0109970225 0.010114097 -0.0024665336 0.01626959 0.03146437 0.031336356 -0.015554724 0.051587347 -0.056194738 0.0076794843 -0.0037286407 0.04241219 -0.03141728 0.042897478 0.034190424 0.01711969 0.040042005 0.013363955 -0.0139618255 0.03643486 0.023680922 0.016817212 -0.013011519 0.04765155 0.0026002568 0.02607482 -0.01901839 -0.07673545 0.0029168862 0.039266884 0.025636274 0.0043754485 0.034050193 -0.015951533 0.07902859 0.011967736 -0.055266365 0.045937605 -0.05743552 -0.010805829 0.024264684 -0.045863654 -0.06871568 0.012808462 0.06719263 -0.011923226 -0.047848538
before 0.0076708994 -0.050911885 -0.013748264 0.047200657 -0.021481656 -0.020548852 -0.040118393 -0.068447664 -0.024719076 -0.0031036506 -0.06772623 -0.0064686015 0.07430777 -0.0052139787 -0.058885958 -0.0005660033 -0.04160407 0.06077564 0.023455229 -0.06717957 -0.07501845 0.005020408 -0.0018577091 0.054416608 -0.0015051248 0.013790997 0.05753607 0.07755645 0.07262314 -0.027646534 -0.013829078 0.07589868 -0.05148137 0.0035544178 -0.07295074 0.050232228 0.016725952 -0.009016628 0.07795375 -0.0052737654 0.021725701 0.019176241 -0.016567485 0.048300024 0.079698645 -0.03192014 -0.02907612 -0.011763434 -0.04679 0.03865541
moment -0.023895856 -0.013249696 0.06970963 0.035744697 0.029732164 0.009575775 -0.012185913 0.064034425 0.033687934 0.060265873 0.055074193 0.005617542 0.030212713 0.08900586 0.082760304 -0.01547145 -0.008389023 -0.019189645 0.00046640873 0.06564363 -0.020499695 -0.001993302 0.04595539 0.018574279 0.016897773 0.06745154 -0.04837459 0.010814584 0.034069937 -0.03523542 -0.06266258 -0.0613085 0.028268868 -0.03713194 -0.011155477 0.045409292 0.0005960783 -0.004403322 0.007204401 -0.067489624 -0.051487785 0.051964168 0.027528927 0.010689699 -0.00061512116 0.0068735247 -0.069791436 0.026475392 0.064328596 0.017609669
why 0.08996603 -0.008406821 -0.008212437 -0.13421297 0.011798989 0.016306615 -0.015543081 -0.0566457 0.016032957 -0.056405034 -0.009288133 -0.045995045 0.022267569 -0.07182936 -0.017865043 0.07729614 -3.3655146e-05 -0.014169109 0.023518585 0.0025232383 0.023821054 -0.049880076 0.020828081 0.028309667 -0.02568497 -0.043456867 -0.080026984 0.01635169 -0.039954383 0.029873462 0.053403355 -0.032972842 -0.018781852 0.02047113 0.054104898 -0.079160646 0.04317629 -0.06272631 -0.08080366 0.034372788 -0.00783596 -0.011346987 -0.0034884333 0.006720057 0.049695343 0.0151397595 0.00063645747 -0.055736862 -0.033343695 0.04384296
an -0.034881465 -0.020058494 -0.06353765 0.08185756 -0.035361733 0.04617969 0.034408804 -0.098985285 0.017726844 0.0061128354 -0.07836495 0.033995774 -0.03155855 -0.024554892 -0.06589708 0.08996191 -0.005455193 0.004224873 0.029552747 -0.043799296 0.04096288 -0.019480964 0.050532445 0.055238508 0.006647812 -0.083131365 0.104708284 0.007628603 -0.006400814 0.011958176 0.09818644 0.067319684 -0.061022386 -0.07236504 -0.011881254 -0.008017335 0.015846705 -0.050788634 0.030478623 0.016585007 -0.031888273 -0.021667268 -0.09851666 -0.034265503 0.03500199 -0.040819786 0.040414777 -0.08409434 -0.028836118 0.017689899
eat 0.051734947 -0.06156841 0.06429972 -0.07528565 0.032520175 -0.003900499 0.03360797 0.014699155 -0.054757264 0.030246425 -0.035653073 -0.037246622 -0.00988062 -0.019092064 -0.0035856555 0.03507789 -0.020752791 0.020051634 0.043955535 -0.078600794 0.03583326 -0.03452618 -0.008503503 -0.02671409 -0.026998688 -0.006024255 0.0037325795 -0.03084047 -0.010763598 0.101517096 0.017105745 -0.066789135 -0.055764183 -0.030427773 0.09636087 -0.046976928 0.06548514 -0.016297428 0.02101308 -0.05068106 -0.056787524 0.011319533 -0.062980704 0.0023622387 0.03182314 -0.010236835 0.054518778 -0.076628275 -0.045053862 0.049292136
however 0.01813514 0.0063438015 0.036905136 0.023794342 -0.05909945 0.08242094 -0.02251697 0.0077765863 -0.017507728 -0.014071388 -0.047580004 -0.014166695 0.0061647743 0.0026829147 -0.039914567 0.030477308 0.004718237 0.015978208 0.049814768 -0.0058193128 -0.04787343 -0.013792119 -0.05328718 -0.014325926 0.0023842268 6.280595e-05 -0.001999001 -0.009804429 0.017793901 -0.018998485 0.050567802 0.012627689 -0.020339062 -0.0011844067 -0.0015882096 0.038379885 0.07868245 -0.035877503 -0.027425962 0.05999901 -0.024515538 -0.07501076 -0.0198041 -0.013644103 0.0864353 0.04302758 0.034001127 -0.057285137 -0.016097855 -0.012680693
sure 0.06847581 -0.03504437 0.09890807 -0.08277219 -0.055076998 0.050801918 0.086501956 0.050143544 -0.050359983 -0.049370375 -0.007900471 0.015598002 0.043862235 -0.08006261 0.006829319 -0.033983987 0.008196386 0.02673834 -0.035968658 -0.018826857 0.06265971 0.05600706 0.061807293 0.0048199394 0.0042741117 0.015341073 -0.043420833 0.047821052 0.017313274 0.04332569 -0.014899114 0.020016177 -0.041324005 -0.024499202 0.030125037 -0.038678255 -0.08937017 0.017083272 -0.033469625 -0.021357873 -0.05812389 0.06816172 -0.064282134 -0.029234454 0.04520834 0.052984394 0.060134366 -0.008570654 -0.02588881 -0.0049312334
pool 0.018795924 0.10651294 0.0063983006 -0.0094672525 0.01738827 -0.05226892 -0.06344542 0.058748517 -0.00023662526 0.05385301 0.041227516 0.0027401766 -0.044026364 -0.023733685 0.075964525 -0.02488787 0.065592796 -0.008593038 -0.0902066 0.057174113 0.011704531 -0.039360143 -0.00059101405 -0.047389656 0.022526233 0.064897686 -0.099687986 -0.063923396 -0.042021826 0.029996237 -0.10842422 -0.103123695 0.06976346 0.06390746 0.07499183 -0.10561074 -0.02245799 0.09048868 -0.076648764 -0.024162319 0.056753423 0.012522364 0.022707807 -0.016167797 -0.08378432 -0.04447834 0.000120807206 0.046282902 0.107181564 -0.10372286
getting -0.06844421 -0.049736314 -0.038974266 0.064362764 -0.02118749 0.051588435 0.053090494 0.028221142 0.04904325 -0.08064984 -0.048079956 0.020259846 0.025537774 0.047865547 0.024690371 -0.014332684 0.0207347 -0.023739526 -0.010345238 -0.0009089152 0.0057099424 -0.04453541 -0.010327894 0.048237555 0.028298164 0.014370517 0.012255019 0.029172657 0.022247715 0.03453678 0.075105116 0.046613872 0.037613563 0.07534925 -0.026799772 0.06262961 -0.03130809 0.014147386 0.07246689 0.04323687 -0.0125612365 -0.005492045 0.0063224183 -0.009656865 -0.012638482 0.055969607 0.0077284323 0.036202226 -0.062356815 0.028661469
took 0.049117003 -0.028440293 0.03521888 -0.015739342 0.00073880306 -0.023747114 0.044859216 -0.029282046 -0.009877708 0.024339197 0.031820048 -0.037751157 -0.05483925 -0.004168187 0.038684785 -0.033717763 0.020713644 -0.06908845 0.04065975 -0.0056563956 0.048473507 -0.013434963 0.013845965 -0.004015307 0.05766565 0.03416363 -0.037514724 -0.008840071 -0.039885428 -0.031208951 0.0126111405 -0.019263763 0.030064018 -0.05156379 -0.007316389 0.036358148 0.023842702 0.022584459 0.04018603 -0.030420482 0.030166602 -0.057147406 -0.03638117 0.0156027805 0.021907866 -0.034728922 -0.011277938 0.04895146 0.039770074 -0.015700081
either 0.0168875 0.008929068 0.07874438 -0.00087678776 0.016852602 0.083288066 0.045674864 -0.09384788 -0.030178254 0.01786742 -0.0044123614 -0.028595455 0.017565941 0.0038331626 -0.099665344 -0.03222268 -0.012244394 0.013950268 0.053274754 -0.04623199 -0.017343054 -0.00982127 0.014137602 0.08389529 -0.0123218605 -0.047604114 0.041711576 0.06942418 -0.030814752 -0.0644826 0.026384959 0.025131838 -0.019516487 0.011406586 0.0092584565 0.009748202 0.03805086 -0.05176297 0.03762197 -0.0024264692 -0.013048641 -0.041454747 -0.06770857 0.0072846725 0.023081433 -0.049781237 0.07231832 -0.06497634 -0.055422686 0.05639898
just -0.08774502 -0.07342334 0.052014362 0.12939666 0.014666628 0.05982512 -0.0133235175 -0.039589737 0.00029977516 -0.003403606 -0.04436181 0.091104776 0.013248296 0.045295045 -0.05492185 0.06321131 -0.074047 0.052248716 -0.014051783 -0.06046242 -0.14504106 0.0024078696 -0.011855911 0.06386881 0.026818534 0.060531937 0.13515194 0.11872352 -0.031630125 -0.084860615 -0.008693305 0.13856435 -0.024478128 0.04087499 -0.077688195 0.120991096 -0.016818957 0.029009646 0.15957895 0.028999968 -0.047952913 0.038368423 0.026128152 0.057916883 0.07367845 -0.010629607 -0.014679578 -0.083942324 -0.02072019 0.04655429
upon -0.008760593 -0.047701005 -0.037305467 0.027924186 -0.06665019 0.010036382 -0.03064659 -0.060955245 0.050712578 0.023573196 -0.018796392 -0.04282266 -0.07476231 0.017405828 0.030093824 -0.009317545 0.010488004 0.016068585 0.058069732 0.037730172 -0.016163647 -0.014115671 -0.0023217371 -0.013691688 -0.039610602 -0.041198052 0.04363424 0.038905807 0.06544812 -0.06890957 0.025552904 0.04437592 -0.059874658 -0.033394918 -0.09688187 0.04003762 0.020561697 0.010054275 -0.028386932 0.06371857 -0.059682075 0.0061460305 -0.06420764 -0.010851221 0.010014007 0.008804467 0.018375725 0.011558809 -0.06521014 0.03455241
ve 0.022712817 -0.003181017 0.115342975 -0.10002437 0.02832664 0.10460066 0.059767455 0.05194447 -0.030220777 -0.13567533 0.0069611147 -0.020725317 0.027543612 -0.07853867 -0.007448376 -0.024194209 0.0031960527 0.02942922 -0.007268259 -0.06646782 0.011117951 0.03332422 0.033960696 0.028246338 -0.0020866613 -0.062345468 -0.024752252 -0.02741263 -0.014304343 0.08955 -0.05157195 0.022623746 -0.0062187896 -0.051785715 0.021026177 -0.0113347825 -0.018958036 -0.051126916 -0.00864217 -0.046860576 -0.02644146 0.09339621 -0.0712263 0.021013161 -0.0060522775 0.012332545 0.08488291 -0.022693845 0.021573529 -0.0059866915
through -0.03425949 -0.0039656768 -0.023561088 0.010278628 -0.06170232 0.009220954 0.049045447 0.006658503 0.0116932895 0.017431408 0.0107876705 -0.07745641 0.034218 0.043838825 -0.06620231 -0.05281565 0.01864285 -0.056145076 0.009198772 0.036959678 -0.03935367 -0.029605549 -0.004047215 0.035027314 -0.041973513 0.06401659 0.040388905 0.019467333 -0.05905664 0.016816553 0.055879682 -0.01377418 0.045257594 0.036604498 -0.0016132818 -0.0036330416 -0.021835025 -0.009462556 -0.023530276 0.038990032 0.059185967 -0.060632017 0.012850962 0.045213 -0.0026543825 -0.0026318883 0.08915825 -0.03257317 -0.023853185 0.06211751
wish 0.0127049405 0.017331894 -0.0045382977 -0.022145042 0.045153443 0.011347591 -0.002043666 0.07225487 0.010447868 -0.006473172 0.019389106 -0.007494064 -0.020431595 -0.019791987 0.043801364 0.009620092 -0.015963754 0.06059692 -0.03831476 0.06011326 0.04877672 -0.017573088 0.020832812 -0.07281309 0.087579615 -0.040614557 -0.056909643 -0.0022075633 0.012198545 0.03654173 -0.07581337 0.065645546 0.04556321 0.023328701 0.102775775 -0.05561627 -0.015537748 0.08029651 -0.031764492 -0.08372612 0.026168112 0.044919454 0.028490031 -0.0038452675 -0.029983308 0.044267207 -0.031269584 0.052950524 0.025369562 -0.07337944
tell -0.017066216 -0.082689606 0.030075235 -0.019220715 0.026781235 0.023839505 0.026866678 0.013415075 0.047324322 0.032529376 0.009758349 -0.039310925 0.012392454 -0.020914363 -0.025522212 0.016716065 0.06519736 -0.029935787 0.02113533 -4.0105893e-05 0.049867343 0.047453534 0.00764119 -0.07580619 -0.010527966 -0.030597214 -0.07677452 -0.075052135 -0.046573836 0.012456108 0.028225781 -0.035444964 -0.07120906 -0.04981547 0.019483387 -0.036376487 0.06850363 -0.015374269 -0.0351344 0.036749847 -0.09155896 -0.002561856 -0.094766796 -0.036198225 -0.0030477238 -0.032593604 0.057651356 0.0051935026 -0.06904796 0.046217382
hall -0.083381385 0.021337695 -0.05741256 0.052476052 -0.009188892 -0.032453384 -0.009628647 0.031146454 0.0035849763 0.08396038 -0.0009814994 0.0036454566 0.07562477 0.01731147 0.05709561 -0.0278018 -0.016082967 0.00232515 -0.016288973 0.021741847 0.055042885 0.017187959 -0.055986855 -0.060727265 -0.0003381949 0.02176179 -0.0053939624 0.0009847817 0.028416608 0.04037205 0.022001226 -0.07745839 0.08944516 -0.074414805 -0.056565206 -0.017473938 -0.0150184985 -0.024721896 0.031039 -0.046809237 0.03306897 -0.012478981 0.011527825 0.021848392 -0.01985909 -0.052843716 -0.03340116 0.025090646 0.092605054 0.013092865
key 0.0015844253 0.04132717 0.028005151 -0.010044064 0.039075367 0.015993778 0.018304203 -0.021941157 0.077692166 -0.020958005 -0.020320084 0.031888563 0.062670015 0.03931566 0.015597987 -0.036721144 -0.06335783 -0.0013457318 0.041358303 0.042828314 -0.048302554 -0.016360216 -0.083948344 0.026922632 -0.020517157 0.07357075 -0.0052402276 0.0017580601 0.01932805 -0.002768004 -0.0025846923 0.03888462 -0.0060856855 -0.010826336 0.041982714 0.06363378 0.030999638 0.042068154 0.0952964 -0.03948665 -0.017354837 -0.014810312 -0.03497667 0.05180191 -0.001513071 0.0058321897 0.035504993 0.03971767 0.010142665 -0.013293874
half -0.06228956 -0.06310498 -0.06815672 0.008485195 -0.05857054 0.016036708 -0.0016691537 0.0029795293 -0.030562159 0.022970008 -0.031543385 -0.063518934 0.023892343 -0.011268365 -0.07276351 0.039473005 0.012101557 -0.041587416 0.013638665 0.022736788 -0.039562855 -0.007083789 -0.0545482 0.030274108 -0.08240118 0.0004120462 0.09213956 -0.041071735 -0.09818353 0.007473248 0.058916554 -0.003403788 -0.056738935 -0.05274566 0.005090009 0.022232413 0.02983161 -0.0058251875 0.0068523623 0.012775446 -0.07529165 -0.05084895 -0.029204076 0.015982294 0.03449233 -0.0018092813 0.0691417 -0.08267402 0.005851858 0.06822333
find -0.032009423 0.04028619 -0.03429443 0.03595812 -0.01825009 -0.04191988 0.021102866 -0.0021891182 -0.075419046 -0.025172243 0.025032507 0.009321835 -0.00714138 0.054645494 -0.034882795 0.05953834 0.048165012 -0.019237557 0.020967305 -0.008315302 -0.0015425739 -0.023258695 0.0107700275 -0.005843454 3.135146e-05 -0.049300056 -0.025502222 -0.037097283 0.02594904 -0.05047123 0.043824952 0.0014530348 0.025287455 -0.056129344 -0.02503638 0.052031748 -0.016633699 0.0176617 -0.005779856 -0.0035596832 0.016701799 -0.021418734 -0.016843554 -0.011414324 -0.015568026 0.010097361 0.033872783 -0.031000542 -0.012983246 0.0066888314
his 0.08445538 -0.063957 -0.0032185204 0.0044289837 -0.12125285 0.087261505 0.032257397 -0.065936446 0.06774875 -0.0471083 -0.07109928 -0.033554755 0.04352734 -0.06859458 -0.015232346 0.09496341 0.022995817 0.020810176 0.02037323 -0.09937938 0.020325145 -0.012052711 -0.04961414 0.014273762 0.0109078735 -0.027495965 -0.014850327 0.034359332 -0.09388136 -0.10011586 0.060612075 -0.015364695 -0.06358696 0.035218336 -0.051124126 -0.010888536 0.1013629 -0.06403827 0.01892908 0.004111603 0.0019905297 -0.049552046 -0.05949003 -0.024060393 0.12867771 0.011172843 0.02719857 -0.088211104 -0.037077293 0.020118484
use 0.01018089 -0.0074533434 0.02315719 -0.06166984 -0.124180906 0.09678767 0.03397268 -0.060307425 -0.0045055724 -0.10636535 -0.06333152 -0.028563121 -0.0018089578 -0.04601141 -0.086936496 0.052782487 0.044469517 -0.026357993 -0.0007667791 -0.09440642 0.0065749567 -0.007373331 0.04446253 0.029424164 -0.0364067 -0.036179595 -0.057089083 -0.10094325 -0.01949146 0.029192219 0.06671464 0.075734094 -0.0056754937 0.061839953 0.07716241 -0.0109513225 0.031468373 0.014657877 -0.02394538 0.05856443 0.022418741 -0.032730173 -0.017843643 0.023971759 0.11210269 -0.0018533573 0.009395343 -0.118710004 -0.05322173 0.00048878323
large 0.048952658 0.0717069 -0.025329744 -0.02006434 0.018181914 -0.028918305 0.0076274513 0.062466364 -0.04948313 0.022442574 0.035026994 -0.06479915 -0.035953857 0.026220871 0.016932553 -0.04640127 0.05333004 -0.0037399526 -0.00939018 0.044490155 0.021291995 -0.06262252 0.05604752 -0.022458633 0.047770783 0.004155803 0.018361159 -0.017400393 0.026900647 0.028563999 0.0017347824 0.021735054 0.06359649 -0.020417739 0.073404655 -0.044954833 -0.10086003 0.05978524 -0.0068490203 0.017367674 0.047875892 0.023486765 -0.01478278 -0.024780102 -0.015222737 0.037034553 -0.027878197 0.011462497 -0.0078071975 -0.012075039
look 0.033554293 0.01202005 0.05834288 0.021141639 0.010759685 0.0675107 0.0033737877 0.001626354 0.03611588 -0.003339328 -0.012680076 -0.030158829 0.021703335 -0.008923141 -0.02258662 0.009805435 0.027692601 0.05348202 0.020847648 -0.042340823 -0.070786916 -0.014024506 0.020103348 0.030781627 -0.01894576 0.05147812 -0.04458631 0.029938059 0.019401995 -0.02352903 -0.017128753 -0.040525135 -0.03343714 0.08038607 0.002219836 0.033209022 0.010769588 0.00045057829 0.026214208 -0.003275371 -0.00082070404 -0.030116294 -0.047606867 -0.023602322 0.0732059 -0.0015660366 0.009813133 -0.012913648 -0.027845893 0.027418027
too -0.0041152677 -0.009765003 0.063240424 0.11944327 -0.07753483 0.06570917 0.014554937 -0.05725904 0.06978177 -0.06034381 -0.03407643 -0.015690064 -0.010250538 -0.024028534 -0.03731019 0.065516874 -0.06129749 -0.013431238 0.03578977 -0.03437572 -0.09542827 0.03889594 -0.0814383 0.08159094 -0.009190788 0.06826904 0.07368282 0.029755333 -0.006440212 -0.11994533 0.06957583 0.115101635 -0.005008889 0.01618438 -0.0479859 0.10135829 0.055863038 -0.038110558 0.07699905 0.027279947 -0.03130464 -0.030376177 0.007198922 -0.0108154025 0.008980113 -0.05246185 0.035808053 -0.06198902 0.0007080536 0.07572059
house 0.026282098 0.023595465 0.07762955 -0.0035193553 0.013526791 0.033223264 -0.03524362 0.023964027 -0.030269895 -0.03186289 0.06846599 -0.054395217 0.027032211 0.028036244 0.0140544865 -0.0035820361 -0.015603044 -0.011900089 -0.05052526 -0.026887732 -0.009798285 0.00857534 0.041034847 0.012478543 -0.0033172474 0.021180829 0.0038261926 0.02500527 0.061619554 -0.00019732397 -0.059045814 -0.05761775 0.045194287 0.034892526 0.055730976 0.01641203 0.0032391017 -0.0024076898 -0.048853267 -0.03529615 0.051740598 0.016829984 0.022738948 -0.029188894 -0.012785744 -0.00422844 -0.051987696 0.03704598 0.050614234 -0.015036762
good -0.05201198 -0.08212319 -0.035836738 0.056149926 -0.0759381 -0.00034673372 0.07351138 -0.09707131 -0.011008794 0.0074785883 0.019180266 0.002644012 -0.03358338 0.018845236 -0.05560539 0.092272736 -0.053187568 -0.02131665 0.021851622 -0.01739836 -0.028206335 0.027864626 -0.041118696 0.013501657 -0.02723151 -0.018684637 0.0722979 -0.0019231067 -0.022804799 -0.10521179 0.022532929 0.07519986 -0.061656162 -0.017370325 -0.0583051 -0.0060045943 0.025773386 -0.07299725 0.0116388155 0.015944703 -0.00077493384 0.0027987233 -0.08788961 -0.03122824 0.10431983 0.008251141 0.08176849 -0.0673677 -0.07356421 0.08090188
right -0.031094166 -0.032683875 0.024521923 0.031548865 0.01622536 0.0057226615 0.083835445 -0.08123061 0.0021422184 -0.025583625 0.027847927 0.0031174505 -0.041559957 -0.0034615556 -0.018640285 -0.032689415 -0.03445414 0.0011428728 0.034821335 0.025052616 -0.021786047 -0.037846044 -0.07003832 -0.016531682 -0.019219859 -0.007923614 0.031316027 0.016230637 -0.09206917 0.014950158 0.016913032 0.024940595 -0.024664678 -0.0067311795 -0.008666408 0.03790303 -0.022174025 0.0082533695 0.03862759 0.017157024 0.06332857 -0.050813112 0.022326292 -0.009224197 0.025163831 -0.084244035 0.07261396 0.01736051 -0.062271383 0.062172804
words -0.07223824 -0.0030574596 0.008846147 0.08222361 -0.028046321 0.03813212 0.064723335 -0.09710351 0.041393735 0.023217704 0.032022472 0.043063324 -0.009546582 -0.007992126 -0.09068359 -0.022118106 0.0071472893 -0.020834941 0.042315457 0.017091122 -0.029101398 0.028318467 -0.023937734 0.031601883 -0.03847908 0.09202066 0.080097675 -0.040220927 -0.053970817 -0.010299743 0.094061345 0.07623879 -0.009236395 -0.032350633 -0.028713936 0.054659862 0.008044329 0.018933102 0.02278492 0.021925384 0.0074073966 -0.07064051 -0.004200466 -0.009910255 0.0010566028 -0.012031634 0.07477335 0.0013072578 0.016379742 0.019923776
am 0.0659523 0.009374642 -0.010305632 -0.029218333 0.015764428 0.061844822 0.0734923 0.004710151 -0.0045507667 -0.06917463 -0.028888429 0.034767535 0.025769487 -0.10490829 -0.035312723 -0.007957449 0.018572962 0.031765997 0.00823356 -0.007089256 0.020938957 0.0032193612 -0.008416558 0.024316296 -0.028579045 -0.012336707 -0.029527415 0.011907909 0.052993987 0.021026455 0.04202926 -0.033756796 0.02887246 -0.012588645 0.036227297 -0.028840069 0.039255425 -0.036745355 -0.04356331 -0.008970892 -0.071056604 -0.03254047 0.019341065 -0.025617337 -0.0060378397 0.046842933 0.03834441 0.014268979 -0.0029710028 -0.028521862
might -0.02064306 -0.019832248 0.045898635 0.0044733384 -0.029342081 0.07191256 -0.0054382496 0.034793727 -0.077054776 -0.036144927 -0.0937558 0.015363935 0.009653721 0.024620298 -0.034224585 0.004318084 -0.03600416 0.009753496 0.022739427 -0.08272287 -0.015339392 0.016034106 0.02231385 0.0051523503 -0.007231241 -0.018863894 -0.013119609 0.03566388 0.057636943 -0.030678293 0.03349593 0.021909866 -0.023774335 -0.039616477 -0.04467681 0.035986353 -0.01095338 0.052081153 -0.021924438 -0.00772294 0.011854944 0.03406972 0.01647761 0.06991814 -0.028166573 0.07291061 0.026028452 -0.07357706 -0.0069299852 -0.042934302
question -0.027236698 0.01772308 0.042692028 -0.049569923 -0.05118736 0.028251626 -0.0007643348 -0.035281207 0.026730608 0.04978399 0.065544836 -0.002676386 0.002037157 0.066292755 -0.06966313 0.0001831248 0.03654367 -0.01283041 0.05858763 -0.035647783 0.0563319 0.01050363 -0.03547269 0.0118214395 -0.076652326 0.06737025 -0.06533165 0.0082731 -0.10387577 -0.01877586 -0.0010473926 -0.03871493 -0.016600663 0.027095156 0.015132049 -0.0048716925 0.016368104 0.016692841 -0.007560348 0.07049072 0.07780042 -0.046525225 -0.0037898002 0.042546585 0.023502573 -0.037870195 0.05071225 -0.038021997 -0.026681526 0.036422014
came -0.027194148 5.5622775e-05 -0.010274716 -0.024856266 0.01706747 -0.038627405 -0.035436913 -0.06169754 0.055850815 0.0042123906 0.028308675 -0.04862781 0.057910707 0.037256636 -0.05640232 -0.025135258 -0.025375878 0.038790744 0.041826356 0.04651954 -0.06671783 -0.0702463 -0.043307032 -0.020258587 -0.03950505 0.071365766 -0.0060515427 0.02769405 0.062740386 -0.07669309 -0.018332211 -0.06541947 -0.05097782 -0.017713748 -0.0031561162 0.016011514 0.0016235525 -0.04119763 0.088012286 0.078560755 0.04862524 -0.010870029 0.009819011 -0.032435663 0.032115 -0.0344036 -0.02582777 0.016711071 -0.0016238333 0.011847495
