1182 50
the 0.0013461816 -0.008259337 0.01261318 -0.08593627 0.12497067 -0.054676123 0.05963034 0.038626745 -0.01633521 0.044888206 -0.03945622 0.13089485 0.034606475 -0.0026250593 0.03371521 0.13169591 -0.018162867 -0.07141375 -0.05978013 0.029022455 0.07683918 0.040097717 -0.02454561 0.027475629 -0.015067749 0.047691546 -0.106945746 0.13813666 0.003110354 0.08660003 -0.13711987 0.00040502823 -0.00013604929 0.039551876 0.049049255 0.04717111 -0.039565258 0.046162803 -0.031816173 -0.056430303 0.024714012 -0.049730957 -0.017784998 -0.069721505 -0.037557676 -0.034963865 0.04178951 -0.015003901 0.09634951 0.09235729
and -0.055889927 0.008179469 0.034540456 0.025322737 -0.0078004804 0.041748933 0.05895058 -0.032931007 0.0774197 0.0037995605 -0.01742977 0.0929263 0.08875966 -0.019625697 -0.0026489422 -0.0053062844 0.045619614 -0.07008336 -0.0517858 -0.050934877 0.03860641 0.020213526 -0.016297238 0.016746584 -0.05491302 0.012394378 0.023326447 -0.0049983 0.10033803 0.058476537 0.052911572 -0.0846072 0.021157663 0.032942962 0.08687397 0.061963912 0.08545911 -0.02260691 -0.0044357586 -0.027489193 0.009673825 0.022061452 -0.025656028 0.080363266 -0.0671337 0.035930432 0.014113916 0.028933471 -0.031057926 -0.10610087
to 0.049409594 0.019898696 0.010708222 -0.06573706 -0.028749062 0.015599505 0.08493165 -0.078764506 0.040389154 -0.00939427 -0.051178694 0.05264102 0.016163733 0.007935936 0.018054243 0.03793503 0.056230634 -0.06704226 -0.073016904 0.019004818 0.009617493 -0.062032532 0.0065222206 -0.050137274 0.0048061013 -0.05056274 -0.019340174 0.03957268 0.011736229 -0.067029335 -0.08835708 0.081816144 -0.058737855 -0.058307726 0.047091227 -0.018823871 0.059113327 -0.029163683 -0.0025325841 0.023661824 -0.13799192 -0.07477218 -0.11946703 -0.013995009 -0.037540685 0.111030184 -0.094638065 0.08088437 -0.09176642 0.11568653
she -0.054796547 -0.009651358 0.06472146 0.0074032135 0.020026634 0.04945098 0.030911524 -0.0065026483 -0.0006222311 -0.035684053 -0.008745459 0.027581824 0.08541569 0.07479156 -0.00766099 0.071020044 0.07605228 -0.016596764 0.025692914 0.102009855 0.008717293 0.0024688146 0.06264936 0.01906735 -0.00316579 0.121596724 -0.061178934 0.13196827 -0.076989554 -0.095698506 -0.06615317 0.030620893 0.102276735 0.03488995 0.100074016 0.053684175 0.0056970892 0.053769294 -0.06644164 0.05783704 -0.048042387 -0.034775537 -0.09054511 0.020427903 -0.0020871584 0.04656507 -0.12541288 -0.008686222 0.048780665 0.0731978
a -0.04675468 -0.03335242 0.06664783 -0.1314553 0.03548164 -0.13530816 0.054743197 0.016010568 0.024946878 -0.06717036 -0.015823271 0.06144448 0.021627652 -0.0063104136 0.099463575 0.0827862 0.041846663 -0.0016108329 -0.07761782 -0.0733768 0.067957014 -0.014399771 -0.08421676 0.084490694 0.054605 0.07680363 -0.12246654 0.08131599 -0.044482797 0.07049477 0.05185712 0.03621499 0.03708875 -0.051440604 -0.047504783 0.07071505 0.044175733 0.0752498 0.04985684 -0.0883499 -0.101241395 -0.10385862 -0.040473826 -0.05340204 -0.0040954608 0.037834667 -0.031288363 -0.06883296 0.009088139 0.044996012
i -0.025699126 -0.10876548 -0.045710396 0.020255717 -0.09220026 -0.1238354 0.040672895 -0.16548306 0.16404915 0.112662435 -0.14801957 0.046064656 0.08323717 -0.05468217 0.0463332 0.039942496 0.18018612 0.10824606 -0.03150275 0.11399244 0.04540271 0.03239165 -0.08050892 -0.021073164 -0.115494095 0.01631426 -0.08585561 -0.072986655 -0.019752119 -0.034148302 0.034394816 0.016478477 -0.0073329206 -0.099413455 0.17964964 0.108342536 -0.10610201 0.08858215 0.07596279 -0.077096716 -0.07306381 0.01384404 -0.021000411 -0.02437229 -0.12548612 -0.009764726 -0.1896299 -0.08239691 -0.09907989 -0.014868454
it 0.024035234 -0.044298142 0.041318417 -0.062083982 -0.035150595 -0.010326904 -0.011783926 -0.062229145 -0.029592533 -0.081387684 -0.059666444 0.016958041 0.09510929 0.052376486 0.02235532 0.0007054858 -0.0113030765 0.036585983 -0.017221022 0.04052921 -0.062461942 0.09356953 -0.021034835 -0.0073452955 -0.047261663 0.08527442 -0.06355385 0.0035515293 0.07757123 -0.09298451 -0.010115829 0.044504657 0.046980176 -0.0036470494 0.1476557 0.039190985 -0.049692053 -0.0028807565 -0.09891958 -0.033918552 -0.095679395 0.0070748897 -0.073224425 0.054046594 -0.04574832 -0.001765017 -0.114993826 -0.047280457 -0.015201956 0.004783826
of 0.0780707 0.03056439 0.09829382 0.028449092 0.11222741 0.047434922 -0.002252028 0.079559185 0.05674063 0.05800345 -0.026947374 -0.014445656 -0.0037480297 0.014235063 -0.037418123 0.08801592 -0.0083995275 -0.08148391 -0.056401055 -0.048527453 0.038112864 -0.03202506 0.05855971 -0.030144824 -0.019060794 -0.038310807 -0.061719414 0.02493994 -0.00817924 0.0169318 0.05650754 0.02695908 -0.0018151548 -0.080253325 0.04872451 0.059375316 -0.062314264 -0.017065672 0.07816955 0.032728385 -0.049503516 0.038164835 -0.094617344 -0.04223476 0.04425903 -0.05247518 -0.021746613 -0.015189465 0.02596635 0.08285115
was 0.0068493877 -0.022418786 0.054642007 -0.019157194 -0.06874596 0.063628465 -0.0062902886 -0.022806907 0.04567187 0.077518746 -0.034761313 0.04880726 0.10397297 -0.042416893 -0.031946152 0.05132122 0.04877221 0.014061194 -0.070671946 -0.04366749 -0.018482361 -0.010363154 0.027449805 -0.011821773 -0.040149774 0.028791066 -0.0085626235 -0.02322431 0.09352841 0.012972475 0.057141308 -0.06185622 0.04276461 0.026113022 -0.06647461 0.074178115 0.011737127 -0.06368224 -0.041249637 -0.037175998 -0.0051584914 -0.010244458 -0.043808956 -0.03948228 0.058702707 -0.031437308 -0.12794319 -0.014725468 0.009414941 -0.042846754
in -0.034166954 0.009323772 0.06867647 0.01509094 0.06796758 -0.005174559 0.018865248 0.009736504 -0.008418749 0.043470483 -0.0026259306 -0.060044 0.023934629 -0.013992144 0.01774122 0.05046419 0.0053045116 -0.064479806 -0.034330454 -0.06472897 -0.0036800401 -0.053027105 0.03815573 0.0066721193 -0.11831957 -0.041139837 0.062168602 0.028916996 -0.0002099328 0.030885495 -0.04004434 -0.0038265595 0.026554817 -0.08369484 0.034644872 -0.029907016 -0.043413017 -0.0824563 -0.041442253 -0.006637535 -0.057449453 -0.026321605 -0.06795548 -0.030232817 0.034160156 0.07546079 0.03453295 0.04624671 0.026254373 -0.059755202
alice -0.0077214716 -0.0037654948 0.025157489 0.00639516 -0.013508992 -0.0029737034 0.07970468 -0.00785367 -0.054058086 -0.03597732 0.008631886 0.058323152 0.021687042 0.08437483 -0.0074783107 0.11022887 0.0054243896 -0.017461998 -0.048402365 0.07995601 -0.046651687 -0.03856919 -0.03215227 0.07330437 -0.079626314 0.09632592 -0.0041693575 0.04268827 -0.016393214 -0.11196925 -0.06833155 -0.0044552796 0.052007087 -0.06663678 0.05791258 -0.012880481 0.04276597 0.034157824 -0.02443813 -0.004984428 -0.05411057 0.0031702083 -0.025293468 0.03361069 0.06511175 0.018656556 -0.02638582 -0.052877825 0.004929929 0.013605017
you -0.004484999 -0.07440053 0.013132537 -0.055984512 -0.021510765 0.0191026 0.0076222275 -0.000265982 0.07795368 0.021759547 -0.09253644 0.055397145 0.11454608 0.036862448 -0.030941928 0.01943628 0.0256195 -0.032412957 -0.013413894 0.06110948 -0.06681786 0.09128151 -0.01592929 -0.07900154 -0.07208701 -0.07071384 -0.059081443 -0.0489998 0.041032363 -0.057062574 -0.04672397 0.082553685 -0.09100062 -0.041345607 0.032389283 0.06423233 -0.09784448 0.012830579 0.053988643 -0.023961516 -0.07894257 0.021792475 0.0066829827 -0.028734617 0.00065764785 0.0726318 -0.05678783 -0.11765529 -0.00023230049 -0.06977728
that -0.0186469 0.032632716 0.0018383877 -0.059702903 0.018873269 -0.09368368 0.05796336 -0.0014128782 -0.02251321 0.040107165 -0.016294653 0.02674673 0.085686326 -0.07374674 -0.053187907 -0.035423838 -0.03308827 0.02313199 -0.013592187 -0.029704943 0.002837702 0.075667985 -0.060166325 0.042537592 0.0034303553 0.09194209 0.060995046 -0.030743172 -0.03674218 0.0020754365 -0.019356405 0.032407463 0.01756146 -0.048197154 -0.021041213 -0.020100262 0.13946961 0.049704406 -0.031798158 0.016321804 -0.055014882 -0.033421494 -0.051398937 -0.019539816 -0.046986904 -0.00039316254 -0.029756164 -0.015760075 0.059476927 -0.035446014
her 0.0065331655 0.0456476 0.04574185 -0.09236368 -0.062261865 -0.06995314 0.10375477 0.0023351111 -0.09478863 -0.011501856 -0.079193726 0.12299716 0.005418022 -0.015766852 0.08381188 0.061805874 0.04636144 -0.10119764 -0.096556164 -0.0029467852 -0.055573504 0.08147376 -0.058724243 0.011131276 -0.021057272 -0.05687681 -0.053260773 0.061333947 -0.09482532 -0.053359628 -0.014829954 0.014674845 0.06053024 0.021421079 0.019924141 -0.053438216 0.0757844 -0.003860991 -0.02781776 0.012717081 -0.115749 -0.022247681 0.06304955 -0.060650665 0.05497671 -0.042011734 -0.06420652 0.03564675 0.012824491 0.060179804
as -0.037467293 0.03436918 0.0048587816 0.027677497 -0.07126972 0.08969938 0.054445554 0.030833047 -0.003987971 -0.037167326 -0.027882356 0.056529038 -0.0027823905 -0.013370568 -0.021305947 -0.055941477 0.013227762 -0.029158194 0.031781223 0.0010895506 -0.05212281 0.0077943727 0.045082554 0.011939036 0.0068500144 0.09876287 -0.06677538 0.08679823 -0.0545533 -0.010928451 -0.07415521 -0.056285985 0.028665652 0.058693424 -0.05508113 0.036248505 0.0120737 0.050661176 -0.03253524 0.02857395 -0.03059664 -0.038186535 -0.06790429 -0.037015203 -0.045927834 -0.01578174 -0.06672251 -0.009512797 -0.06286999 -0.08539404
said 0.01956451 0.024800042 0.05599239 -0.018211043 0.013751584 0.06828795 0.0022388347 0.053919412 -0.05344532 -0.041038457 -0.04411717 -0.026577016 0.005378953 -0.041582607 -0.020912135 -0.015858658 -0.025791792 -0.07999642 -0.09380333 -0.018175598 -0.044884305 -0.06110203 0.00221221 -0.0076379282 0.01705517 0.036492303 0.029780108 0.06437094 0.064900234 -0.10491529 0.019704796 0.009463474 -0.05264469 -0.0686505 -0.068935975 -0.07177941 0.017272614 -0.004098689 0.010872653 0.04168584 0.049010366 0.04336598 0.029375233 -0.05009784 0.05869752 -0.054143205 -0.044550013 -0.011863522 -0.023448292 0.08331661
had 0.01966622 0.05249833 0.02621286 0.08869945 -0.056188792 0.015132187 0.018509915 -0.0491846 0.09367189 0.082356855 -0.034514364 0.08898051 0.01937702 0.07971392 0.005812143 0.061932992 0.0007019853 -0.035689946 0.026581256 -0.000999434 0.02298761 0.08383648 0.018766176 -0.047995456 0.014199764 0.048030168 0.059548862 0.03484457 0.034847893 0.036344558 -0.08026192 0.054194864 0.0223858 0.023128577 -0.075742096 -0.006034823 -0.029674422 -0.025054406 0.07900181 0.026589856 0.009012347 -0.04948407 -0.040007275 0.021860866 -0.0042490913 -0.03747913 -0.023695124 -0.064367406 0.018253192 -0.07024536
for -0.08971477 0.07639132 0.057742953 0.055895496 -0.00389135 -0.031985953 -0.027351726 0.024328424 -0.010917199 0.033959236 -0.018200492 0.049644466 0.0006825237 -0.069269255 0.04411076 -0.065512426 -0.0046418784 0.05669545 -0.02268088 0.011070757 0.05322902 0.017076373 -0.028577033 0.0010724864 -0.050427448 -0.03726354 0.044375777 0.007446404 -0.02099486 0.073090754 -0.0068207183 -0.051939707 -0.070114 0.08212291 -0.031453773 0.07642641 0.018626228 0.066045284 0.07349666 0.06445504 -0.023541788 -0.014845489 -0.08174208 0.019673362 0.063031636 -0.030638471 -0.0880619 -0.05353882 0.037969317 0.005642879
but -0.07856138 -0.010062724 -0.0074856644 -0.035772573 -0.03863737 -0.05255538 -0.021213206 0.061463658 0.052635334 -0.061349433 -0.01387959 0.052436296 -0.02215803 0.011209646 0.029226214 -0.036892854 0.053667195 -0.100693256 -0.015466724 -0.07383879 -0.025697632 -0.03103697 -0.009763123 -0.022576565 -0.022956435 -0.053270027 -0.053245682 -0.040932436 0.0456018 -0.058964822 -0.06012674 -0.088119924 -0.03326808 -0.012346452 0.020431453 0.008776528 0.021770436 0.019086 0.037600517 -0.032473475 -0.022465883 0.03984209 -0.00544321 -0.00401076 -0.00062312756 0.040859744 0.049838908 -0.059728894 -0.04389442 0.04751851
be -0.023898318 -0.08214265 -0.046749353 0.009590687 -0.060562257 -0.084582984 0.057651557 -0.08403932 -0.0609753 0.051511224 -0.001548194 0.04255665 -0.037939657 -0.04359639 -0.0067144674 0.015446215 -0.020911284 0.062217418 0.0012241314 0.0396585 -0.043690223 -0.035035945 0.029682364 -0.08277338 -0.07942943 0.0011080597 0.034832112 0.026411436 0.015441543 -0.0840307 0.074049085 -0.051411025 -0.05821015 0.05598029 0.013949064 0.09999091 0.06472736 -0.017802645 0.08408363 0.03119054 -0.017288331 0.04637677 0.073104545 0.059729174 0.07298203 0.013214538 -0.026724009 0.04357635 -0.0336706 -0.04288285
on -0.10358462 0.033500984 0.09712545 0.06880539 0.027662307 0.08995637 0.08228914 -0.015117461 -0.037853282 -0.035655327 -0.020433377 0.0057713506 0.02946804 -0.052332547 -0.046385296 0.0012583642 0.021338988 -0.023113789 -0.0021476664 -0.050635263 -0.041623116 0.054256972 0.031054722 0.0011028411 0.032541096 0.014552861 -0.037115134 -0.053076 0.00811408 -0.003977503 -0.022482647 -0.06611538 -0.045556623 0.02606198 -0.077538274 0.052716576 -0.014825814 -0.021660682 -0.046237975 -0.0051750722 -0.050887983 0.033212855 -0.04729085 0.020092878 -0.051342633 0.07114568 0.027496189 0.012796845 -0.021796376 0.04113801
all -0.03535001 0.05887804 -0.069960386 -0.010184201 -0.04433327 0.003927102 -0.016691534 0.03749034 0.0081058545 0.010957608 -0.08425274 -0.04883771 -0.019008448 0.010214291 0.016421488 0.08011382 0.012861524 -0.06878577 0.052703932 0.06302044 -0.03341529 0.077013366 0.09935085 0.009029787 0.056516424 -0.054815114 -0.07731235 0.06015455 0.031816684 -0.04943151 -0.07283809 0.0023964508 -0.01111244 -0.06385804 0.050179664 -0.039855354 0.025049236 0.0655589 0.0781887 0.04237525 -0.009726028 0.0024956712 0.03236283 -0.017404258 -0.033034623 0.005032533 -0.018908031 0.0009974726 -0.029291412 0.10062483
with -0.061838094 0.06035418 0.045362413 -0.032888234 0.0029882058 -0.067824 -0.03789172 -0.031050783 -0.005112095 0.05994884 -0.02617902 0.020856524 0.060583226 -0.06663318 -0.02777618 0.02266917 0.049752273 0.008871434 -0.055866152 -0.065990165 0.043574892 -0.08955817 -0.019502997 0.004820112 -0.017724788 -0.07384882 0.03793092 0.016261872 0.06494893 -0.028371751 0.09590102 -0.00282444 -0.03612921 -0.06563041 -0.0113261305 -0.03011486 -0.021445977 -0.0048039984 -0.020316835 -0.021571016 -0.044000443 0.012394657 -0.10479059 -0.018618116 -0.0020960185 0.00015561609 0.031023262 0.01949952 0.03174572 0.041705344
little 0.06711932 -0.060575522 0.045558687 0.053693164 0.042388562 0.030239793 -0.081248656 0.052958474 -0.017507307 0.026497403 0.024318058 -0.023774486 0.08130385 -0.054174412 0.0123742325 0.07527618 -0.047725514 0.07952542 -0.0054714875 -0.05376572 0.06894091 0.0027802098 -0.003304476 0.08564925 -0.037949324 -0.03662919 0.047538828 -0.018856913 -0.067570366 -0.018665304 -0.033485293 0.061066646 0.050617017 0.007163249 0.04612021 0.005408061 -0.036194414 -0.019896489 0.041545242 -0.03429511 0.00024932832 -0.042970914 0.010694113 -0.049786896 0.04050377 0.034579765 0.048459128 0.0846293 0.0063373237 -0.03905365
mouse 0.028637689 0.053664118 0.023669556 -0.011718652 0.012999073 0.0069394317 -0.041987713 0.06544226 0.024436042 0.018403841 0.011331688 -0.071454205 -0.02405469 0.018298518 -0.014498172 0.02533639 -0.006250602 -0.037352916 -0.012385182 0.056902666 -0.043917477 -0.015389645 0.007783256 0.027531032 -0.058347978 0.02585818 -0.019667454 -0.051202584 0.06683819 0.007344363 -0.016870674 -0.06357585 0.02021867 -0.03355302 0.0033357176 0.060010266 -0.06839214 0.00393458 0.023565542 0.05764162 0.029654713 -0.03939237 -0.053877633 -0.044353843 -0.016398136 0.06528551 0.013268894 0.07261556 -0.011520315 0.030953228
down -0.071402624 -0.052343637 0.08590788 -0.027449723 0.062377308 0.0023623966 -0.065532565 0.033282794 0.07383566 -0.046146166 0.04583 -0.04830639 -0.0070944782 0.0070797536 0.004334727 0.047982212 -0.00031332078 -0.034313902 0.081334054 -0.053762376 -0.0452923 0.005967203 -0.015201772 -0.056692492 0.037105612 0.060102664 0.019549761 0.02126334 -0.01725801 -0.02252995 0.053574774 0.050435048 -0.02442487 0.041718423 0.03539221 0.036169235 -0.051147975 0.028133828 -0.017983949 0.037282046 -0.08510415 0.02099389 0.06313723 0.027985435 0.021299098 0.040437505 -0.08084347 -0.0678297 0.04978827 0.053624205
very 0.02624455 0.052668467 0.036451105 -0.007006122 -0.06278061 -0.012690134 0.040720556 0.01748113 -0.018400077 -0.070367016 0.01774368 -0.033184286 -0.013413946 -0.03142527 0.06253288 0.0941605 -0.01493104 -0.014036037 -0.08121816 -0.04531078 -0.030468179 0.031035865 0.051107205 0.07196699 -0.036809858 0.08577863 -0.053105943 0.055743594 -0.050200652 0.015320575 0.045641717 0.07291658 -0.003498709 0.042054266 -0.020659568 0.028599402 0.024548603 -0.048888586 0.02426731 -0.062069345 0.019074026 -0.034568552 0.042498603 -0.020213997 0.018237093 -0.01972981 -0.0859798 -0.030658174 0.076491594 -0.026609771
this 0.005738558 -0.08525051 0.027659738 0.0022513175 0.060020357 3.2858457e-05 0.04605577 -0.032061126 -0.06205957 0.06638562 -0.03835597 0.08393088 -0.052040152 -0.010527551 0.055402853 0.056195844 0.0013789189 -0.06851476 0.04916395 -0.018892026 0.03878735 0.028064819 -0.006610094 -0.0073595243 0.01241118 -0.034363367 -0.012483054 0.011139285 0.007924735 0.06988825 0.038325977 0.07279545 0.0014274423 -0.026520029 -0.018325735 0.08057008 0.013465822 0.039966974 -0.027721789 0.019602017 0.034856834 -0.034343418 0.04129478 0.039715018 0.027216382 -0.017314808 0.05327214 -0.039591644 0.062387887 0.06537021
not -0.024996538 0.019254046 -0.056385446 0.005561726 -0.04162627 0.059738528 -0.046194736 0.0024301375 0.009869404 -0.03680631 0.035930365 0.09090353 0.09271548 0.040682897 0.034283962 -0.06021 -0.027594963 -0.008215689 0.043715205 -0.06707291 0.04373713 0.08325809 -0.072083935 -0.071730584 -0.017997254 -0.034446333 0.048132706 -0.06708859 0.012908088 0.0014013237 -0.007748657 0.03278413 0.019718697 0.04486565 0.03819332 -0.029407736 0.0013644353 0.07032007 0.066189416 -0.038442824 0.0024031154 -0.011988443 0.04774815 0.036626104 0.06548901 -0.023307662 -0.074878246 -0.0251087 0.028889433 -0.0005455385
so -0.015466708 0.037815273 0.045164146 -0.047922485 -0.0718789 -0.023208525 0.016910285 -0.016073264 0.008516512 0.030068403 0.057118516 0.057821907 -0.011179924 -0.04683827 -0.046240065 -0.0004027884 -0.06019911 -0.103289366 0.025473483 0.010525494 0.03213331 0.037203245 0.0039499947 -0.028933939 0.07484131 0.08157307 -0.018239034 0.04206556 0.044098422 -0.053324446 -0.042967882 0.079358615 -0.015782524 -0.050245646 0.008372436 -0.020811602 0.06893642 0.047333848 -0.032025576 -0.009035554 -0.07192593 0.033747524 -0.010223546 0.062082324 -0.03968774 0.05060094 -0.04469758 0.020400237 -0.05876227 -0.08746448
out 0.065188 -0.05295638 0.06619716 -0.0012406965 0.071653485 0.02716769 -0.041817848 0.057353027 -0.049726546 0.029670727 -0.041212235 -0.039073575 0.016578985 -0.055561353 -0.0031744046 0.0032435558 0.020597398 0.04043672 0.035932615 0.006766911 0.004162897 0.042473096 -0.021013984 -0.030619914 -0.06016787 -0.08152138 0.052851122 0.083867826 -0.00022148807 -0.0012794218 0.008401496 -0.05275029 -0.023981629 0.0524307 -0.06387354 0.046219144 0.0087688975 -0.0057734596 0.026380125 0.06732116 -0.009372848 0.06889734 0.023268886 -0.019784689 -0.04801578 0.017087538 -0.032685895 0.06036853 0.039856154 -0.047638938
if -0.06891393 0.041163333 0.0096864365 0.034719247 0.026857778 0.009153694 -0.04119849 -0.020943686 -0.041782983 -0.044396106 0.02159522 -0.021250285 -0.034477174 -0.013528221 -0.04756839 -0.04165061 -0.038988065 -0.056404795 0.030392023 0.033689953 0.01808247 0.07049062 0.037456475 -0.10387055 -0.06824207 0.04445152 -0.06286492 0.026731724 0.036995143 -0.0510203 -0.029115304 -0.024168123 -0.047020454 -0.011847332 0.009527835 0.049374036 0.03447312 0.0112801455 0.0321224 -0.010152103 0.01502219 0.06368359 0.06637063 -0.06172919 0.0077069257 -0.09028655 -0.0315441 0.020529682 -0.0018586073 0.033836503
is 0.0045673614 -0.078646086 0.054967754 0.043798745 -0.026441472 -0.02676055 0.009535101 0.07093127 0.060067534 -0.034811772 -0.016658325 -0.013354544 -0.034954526 -0.01618043 -0.008383426 0.0244242 -0.024200348 0.011216965 0.051451437 -0.014977251 -0.05553822 -0.010472031 -0.043731466 -0.05697018 -0.03513342 -0.04668703 -0.025757384 -0.026214067 -0.029290346 0.0013407344 0.04100132 -0.028440284 -0.034867838 -0.080302745 -0.027855512 -0.029855585 -0.015914734 -0.027689068 -0.033849914 -0.02934418 -0.018119477 -0.03715071 0.01809123 0.022265911 -0.023755064 -0.029192606 -0.07842192 0.015412836 -0.010268038 -0.035910845
at -0.057659406 0.03295156 -0.028818116 -0.009671737 0.0059643374 -0.010787957 -0.032373894 0.046208836 0.027957171 -0.020768559 -0.015621791 -0.04153214 0.053460214 -0.06837017 0.0483686 0.08140234 -0.059972476 0.0011470591 -0.018496674 -0.01828363 -0.03670099 0.007960283 0.040094618 0.08373903 -0.0032963834 -0.043468583 0.027521487 0.013911355 0.051388428 -0.025024626 0.022818876 -0.026498938 -0.03250732 -0.026216 0.05580008 -0.016353682 0.0036635017 0.07194125 0.01919832 0.058197673 0.057214163 -0.04667372 -0.03232414 0.04446084 -0.0075548165 0.0020053566 0.054978505 -0.03790401 0.030026373 0.059188057
t 0.039933342 -0.07554227 -0.05018018 0.07197831 -0.008386726 -0.005430077 0.016488416 -0.016097179 -0.06473291 0.010116972 -0.057908036 0.038332857 -0.024374394 -0.041736383 0.0038776714 -0.04457942 0.09168977 0.04126096 -0.03900843 0.07371621 0.06562733 -0.0437762 -0.0059280116 -0.030505016 -0.030902708 -0.048196256 0.036230225 -0.0793493 0.010029092 -0.06278577 -0.0010773585 -0.03194055 -0.086964935 -0.028302291 0.048567317 0.052178975 0.030334786 0.091663934 -0.012317073 -0.010311259 -0.0066731125 0.0069754645 0.025043301 0.06476723 -0.03628505 -0.056745913 -0.01971401 -0.014463173 0.04959146 -0.0013460555
s -0.056594487 0.04037875 0.008713773 0.0022129794 0.027787404 0.06366967 0.017635737 0.029889202 0.07472719 -0.04165797 -0.068961255 -0.028872961 0.07716937 -0.035074025 0.020459082 0.017965425 -0.03271431 -0.07076224 -0.015428957 -0.053974926 -0.05900604 0.01916983 0.048815753 0.0033581327 -0.04628146 0.009547397 0.019859863 -0.009398373 -0.009776032 -0.04233173 0.022336977 0.034485538 -0.06360305 -0.019046359 -0.0054754047 0.039706912 0.017275698 -0.035501897 -0.046980575 0.02538757 0.063692026 -0.04099908 -0.03983233 0.050933212 -0.003525747 -0.037189912 -0.07575242 0.018092973 0.06725948 -0.08462813
ll 0.0091001885 -0.020689813 -0.098729 0.043485213 0.010657611 0.028592182 -0.04639866 0.00079326413 -0.051971756 -0.08126428 0.049458407 0.045169584 0.025294729 0.10332713 -0.0048740497 -0.056527726 0.031972274 0.0032693795 -0.010993714 0.075002246 0.039216872 0.01820084 0.053673223 -0.01618764 -0.07165816 0.023143467 0.019550439 -0.036136195 0.07009821 0.029065153 0.03563985 -0.048068825 -0.05833058 -0.014793686 -0.0401785 0.051351964 0.09088957 0.058314197 -0.04520742 0.009463045 -0.029769264 -0.03415567 0.037313815 -0.024656251 -0.073102064 -0.0035655713 0.03139331 0.017968986 0.04048322 0.029688485
how -0.08365002 0.06252602 -0.034280904 0.06935282 -0.085735105 -0.024338473 0.06345179 -0.030702341 -0.023910865 -0.055929273 -0.0020489192 0.06390866 -0.04482238 0.028845776 -0.03157719 -0.071325764 0.02408088 0.0005460343 -0.044943936 0.029525544 0.010691467 0.060741495 -0.059895564 -0.05209883 -0.018506503 0.07470316 -0.051339556 -0.04951559 -0.015448442 -0.0005741549 -0.06834647 -0.009346915 0.0059006307 0.017951395 0.023579009 0.026065791 0.014135724 0.06615143 -0.025715943 0.02982068 0.020768547 -0.016654825 -0.021556769 -0.042036038 -0.041636143 -0.028510667 0.041469306 -0.034395665 0.0117902225 0.019532355
they -0.013171449 -0.019672502 -0.015266451 -0.039081804 0.04956241 -0.01953041 0.070483014 0.030121427 -0.007203592 -0.007189215 -0.05706381 0.016206367 0.09104155 -0.009763125 -0.04280302 0.07354238 -0.040340696 -0.012077982 0.017584212 0.026055433 -0.021693502 0.04197893 0.079090156 0.024122063 0.026918508 -0.07168123 -0.009763983 0.06974034 0.074181445 -0.056481164 -0.037150867 0.0038626394 0.043231074 0.04324225 0.06887064 0.072839655 -0.07274037 -0.004250376 0.004151074 0.020197209 -0.0072479593 0.039735015 0.05225552 0.07876903 -0.07234187 -0.042958252 0.009883411 -0.012305621 -0.021656953 -0.050543223
about -0.019444376 -0.009561074 -0.052308198 -0.022065125 -0.05637056 0.061015945 0.09621282 0.065909036 0.09417785 0.0143955005 -0.06762634 0.050101075 0.051898856 0.016278269 0.051202856 -0.046900578 0.038939167 0.017771907 -0.052823115 -0.022266882 -0.042585794 0.050943967 -0.020777855 -0.064753056 0.039199594 -0.024562983 0.008359735 -0.064661674 -0.013967692 0.05458164 -0.047644872 -0.07094123 -0.056847095 0.055987343 0.0064212377 -0.041593943 -0.08913154 0.022840492 0.00061241514 -0.026947707 -0.040341113 -0.08664419 0.042516347 0.028032197 0.035794396 0.048040748 -0.06823791 -0.059662703 0.021876182 -0.048868608
herself 0.019851146 -0.0410166 0.056952156 -0.013661221 -0.036983933 0.0068019475 0.047970574 -0.041357946 -0.02783782 -0.06616224 0.033754773 0.0070289015 0.02090014 -0.02723653 0.0048666345 -0.00081494683 0.043256354 -0.020358821 0.024918646 -0.02726261 0.045157354 0.043624397 -0.053669143 -0.06356457 -0.035349336 0.0779145 -0.027723331 0.06881396 -0.056152854 -0.06772283 0.043775886 -0.060162265 -0.0073082326 0.0015709926 0.03392924 -0.0057597663 0.08919126 0.033379767 -0.048272196 -0.027064208 -0.026002562 0.057153016 -0.027252251 0.0015222484 0.049464375 0.07291392 0.020592544 0.06548192 -0.04122907 -0.060229547
me 0.054211196 -0.0077184886 0.05237429 -0.10000132 -0.028801002 -0.02040965 0.04267647 -0.061320625 0.036458205 -0.0025717546 -0.07750056 0.03702745 0.04002731 0.022050818 0.025347956 -0.06079584 0.009075239 0.032001726 -0.044591155 0.041650895 0.03307882 0.00013081846 0.06917006 -0.05944242 -0.038544364 0.03079519 0.005169956 -0.055582296 -0.008235784 0.011349593 0.0239333 -0.0626653 -0.032330755 -0.0065137623 0.01221933 0.060222384 -0.008428041 -0.021408219 0.070453264 0.04154603 -0.0032337902 0.018799298 -0.03206422 0.03251865 -0.07647069 0.03702603 0.049453173 -0.056962535 -0.053009234 -1.6002334e-05
up -0.034148872 -0.07263393 0.0043975473 0.037049673 -0.03242763 -0.058599565 -0.016339937 0.030650446 -0.031542554 0.087408274 -0.042287953 -0.00393438 -0.0019230399 -0.051815625 -0.025602272 -0.010763254 0.03545753 0.0014561262 0.06183019 -0.07871543 -0.059202828 -0.0044866786 -0.059179537 -0.019691434 -0.0543853 -0.056022257 -0.02837774 0.0038809725 0.003240834 -0.018958801 0.05871074 0.02630207 -0.06495822 -0.074793935 0.0110703595 -0.057367604 0.0006032521 -0.010629365 -0.06446755 -0.060815815 -0.030970443 -0.06810089 -0.04649748 -0.050782964 0.06012291 -0.052773923 -0.02062066 0.009317393 0.032763854 0.063465305
what 0.023062862 -0.01463709 -0.004905023 0.053865347 0.024149602 0.049065243 0.050170813 0.03189597 -0.087644875 -0.06675545 0.020970006 -0.06495393 -0.016486023 -0.03574462 -0.039434347 -0.00914169 0.008270616 -0.020399474 -0.01989046 0.023657272 0.06647508 0.015194022 0.014480888 0.072747685 -0.0138277905 0.057266936 -0.013491243 -0.042276856 0.0058069215 0.019104037 0.043441445 -0.04241954 -0.06753105 -0.044329163 0.010106329 0.017855842 0.054885127 -0.014318561 0.038223844 -0.0014590814 -0.036418907 -0.018157212 0.049465477 -0.008261297 0.061153248 0.0655318 -0.012835213 -0.0385169 -0.046330504 0.05997972
way -0.01967413 0.016096707 -0.017031863 0.024348315 -0.017832778 -0.009455757 -0.052096605 0.06566165 0.059307534 0.06430058 0.030642549 -0.06722753 -0.04573233 -0.04817651 0.0070982547 -0.032719664 0.015636088 -0.038336005 -0.038347725 -0.013828637 0.053084075 -0.025468303 -0.04148022 0.06113384 0.062489826 -0.026901975 -0.05196282 0.055169374 -0.024524111 -0.032506317 0.022903046 -0.039391473 0.032369774 0.065426044 -0.0067631565 -0.036578227 -0.05030784 -0.054721333 -0.050513532 0.0144334175 -0.037441052 0.0018412468 -0.042053837 0.046959206 -0.020036053 -0.026131533 0.056300882 -0.0042863595 -0.06701217 0.00018131605
when 0.0070205973 0.06457155 -0.005022607 0.073002785 0.007971028 -0.027172586 -0.03954966 -0.039876886 -0.020811742 -0.015825601 0.019443518 0.05534125 -0.05325268 0.06271894 0.018697865 -0.055079166 -0.021530373 -0.0162821 0.017262064 0.008310275 -0.06798292 -0.010226081 0.005131533 -0.0688288 0.05070238 0.03311095 -0.051978003 -0.054794647 -0.031976297 -0.025880003 -0.0033483938 0.07505932 -0.014810278 0.004638564 0.007722443 -0.014381677 -0.033263624 0.00026816735 -0.037287235 0.06832759 0.059525743 0.05616113 0.0084013175 0.010818129 -0.023985395 -0.021741921 -0.012987869 0.018230824 0.032684475 0.009515028
like 0.08171684 -0.05343052 0.007402822 0.062063355 0.043630674 -0.03061191 -0.00037097128 0.00035084784 0.05861029 -0.066368975 0.058581013 0.0035033247 0.08270557 -0.012529036 -0.008491291 0.076105855 0.037250176 -0.016369568 -0.04103508 -0.061002787 0.037099622 -0.0015202067 0.043686662 -0.018781709 -0.022604248 -0.036894824 -0.05188732 -0.033375915 0.07179578 -0.03617406 0.045807566 0.0026561907 0.06705546 -0.00895524 -0.042114787 0.064143516 -0.053717818 0.01458543 0.0065295408 -0.016190631 -0.0468039 0.04393249 0.023879021 0.044159554 -0.060696255 0.05447052 0.06797543 -0.058360975 0.016296253 0.0726029
one -0.022303196 -0.003232602 -0.022851197 0.009005811 0.071535215 -0.09493369 -0.025902754 -0.05933764 -0.019350823 0.021696081 0.017820746 0.021650594 -0.024397476 -0.0975959 0.07632386 0.051198207 -0.055831153 -0.03630512 -0.05460329 -0.028094472 0.007104192 0.0747341 0.054261338 -0.03907952 0.0137634035 -0.055309664 0.039932106 0.0020037289 -0.0580513 0.05980515 0.034041274 -0.030763594 -0.010250612 -0.06913572 0.048036717 -0.028155476 0.03493367 0.063652135 -0.083921015 0.0740029 0.038468767 0.023402989 0.056330316 0.026772816 0.0766322 -0.00565902 0.060633283 -0.049686346 0.007868513 0.042309202
do 0.035610233 -0.03822038 -0.06436178 0.0051279548 -0.01739505 -0.023203874 -0.028255336 -0.0013837052 -0.026865305 0.014201714 0.024910351 -0.05235645 0.021079302 -0.008425944 0.03465437 0.049766522 -0.04146071 -0.05043841 -0.0044710664 -0.008601084 0.013696846 0.066719934 0.012936194 -0.027403489 0.036380198 0.008682807 -0.055454277 0.00284028 0.019916356 -0.025412917 -0.018155517 -0.0071829157 -0.04241143 0.03042873 0.05889327 0.038088936 0.019670192 -0.051269136 0.07924123 -0.0693452 -0.01478926 -0.0064906115 0.059577286 -0.05396801 0.013337698 -0.020155156 -0.012251653 0.00013741897 0.0061031664 -0.058849487
no 0.012819634 -0.061319422 0.03692076 0.030947631 -0.07847434 0.050711088 -0.035408106 0.042874303 0.008975209 -0.07091375 0.022233255 0.012588079 0.05533753 -0.00066402997 0.078935236 0.069288835 -0.06837888 -0.07035624 0.046031047 0.06222524 0.06433388 0.09396803 -0.0810185 -0.042346325 -0.07599122 0.07612843 0.018277405 -0.03283655 0.021010276 -0.0137946755 -0.07967255 -0.054878663 -0.015505411 0.06106716 0.049552996 -0.0024093892 0.031497758 -0.03830979 0.022687908 -0.013302596 0.0062090917 0.001508625 0.017506745 0.071306355 0.070823185 0.09826098 -0.005776846 -0.020566523 -0.031194536 -0.008078522
oh -0.004725445 0.0397288 0.01656857 -0.08053268 -0.0058124126 -0.043770116 0.015248424 0.029633762 0.030974893 -0.05996094 -0.06338444 -0.084752396 0.04047035 0.0321874 -0.045774285 -0.06780067 0.004238544 -0.030925054 0.05780052 0.044932805 -0.056328192 0.06435221 0.044757187 0.010022958 -0.08836499 -0.009123213 -0.0058787432 -0.031167485 -0.019490493 0.0043505975 -0.048322827 0.07354498 -0.0361144 -0.060391314 0.023632728 0.004205389 0.021203702 -0.07635287 0.04094029 0.023635088 0.03804401 0.0397212 0.03442658 0.06238149 0.017344648 -0.023036275 -0.08756959 -0.01746871 -0.051189885 0.06362648
went 0.009512029 0.045590933 -0.015438853 0.0051389304 -0.077953994 0.028863128 -0.011652061 0.008061051 0.07639897 -0.024630887 0.039553534 -0.00903105 0.022701642 0.019765794 0.00493128 -0.05085229 0.024445547 0.03990524 -0.023287361 -0.071110114 -0.01059027 0.06003297 -0.026203297 0.0068426523 0.021296455 0.0461395 0.02278794 0.030819446 -0.06838788 -0.021346949 -0.02165707 0.054855697 0.049070895 0.018550422 -0.021152122 0.054565925 0.07041846 0.04066716 -0.08578624 0.08022901 0.022196064 -0.037399963 0.0008861355 0.0133480355 0.042153608 -0.060489234 0.014474967 -0.056697432 0.04031379 -0.059514876
thought -0.009346015 0.01968993 0.0038437014 0.022076122 -0.02991901 0.04150676 0.015464956 0.007622005 -0.021234354 -0.017813578 0.08056395 0.010786557 0.021447873 0.0041224468 0.027166897 0.006987025 0.017273966 -0.009256524 -0.04934532 -0.0006676826 -0.04506466 0.04767434 -0.07129033 -0.040542558 0.015627936 -0.03761606 -0.027191436 -0.029967478 -0.03386308 0.004619015 0.034991667 -0.07026803 0.027640566 -0.05780446 -0.023995781 -0.0076412554 0.007784682 -0.049815618 -0.07065777 -0.0740029 0.0058919266 0.0453773 0.038678948 -0.042243432 0.043875203 -0.051068187 -0.072201096 -0.051080655 0.007796212 0.05712283
again -0.026806027 0.01074292 0.012286311 0.039909195 -0.040057115 0.070794314 -0.022051152 -0.027563184 -0.015435779 -0.008818096 -0.0329453 -0.024273545 -0.049399097 0.06723883 0.06712463 -0.045137674 -0.064984754 -0.070721574 -0.030450987 0.06556718 -0.04255712 0.05819798 0.011319959 -0.00845729 0.042293105 -0.0104475785 0.041780975 0.029692639 0.026296685 -0.025941938 -0.04032295 0.042247318 0.030639874 0.057475913 -0.0050740796 -0.0065966924 0.068764195 0.013560674 0.07551332 -0.024466634 0.0030562489 0.010592828 -0.030435538 0.017502762 -0.012060126 -0.024979357 -0.018648937 -0.037600037 -0.05517812 -0.019940607
there -0.08469256 -0.019231139 -0.028787402 0.000520198 -0.055458654 0.019295027 -0.0116781825 -0.007929752 -0.06523774 0.011128897 -0.06786276 0.028118515 0.073314436 -0.067121506 -0.01552187 0.0058523305 0.016869696 0.013585722 0.029205136 0.018943507 -0.012303401 0.09483384 -0.06643926 0.015870161 -0.028709406 0.00438504 -0.08399043 -0.020282464 0.025619853 0.010384094 -0.08162355 0.020353582 0.07703563 -0.043503262 0.11217153 0.049926154 0.050205532 0.05258405 -0.026652673 -0.006071538 -0.102656245 -0.055682153 -0.0665559 0.010558988 -0.013946151 -0.03796588 0.043906655 0.031993564 0.036854997 0.040591624
see -0.07228859 0.010493769 -0.027307684 -0.016705036 0.02520516 0.018900579 0.058365397 -0.06213355 0.04939048 0.041468937 0.015080124 0.050113227 -0.0013689384 -0.03665611 0.057690803 0.014164239 0.0072605563 -0.070816495 -0.030776765 0.04177209 -0.07186323 0.06412036 0.038713593 -0.0690513 -0.036284998 -0.0316179 -0.021110758 -0.00082466064 -0.016839702 -0.07601818 -0.020620886 -0.047670618 0.0065509384 -0.03644831 0.040624883 -0.009979906 0.036383346 0.048177134 0.059449174 0.03531718 -0.010635956 0.025351964 0.0059176954 0.0050611524 -0.057468746 0.052987393 0.051692247 0.033405628 -0.06705363 -0.030007895
or -0.018942507 0.057829298 -0.019029696 -0.028840484 0.015877375 -0.07478801 0.06570041 -0.030588582 0.009555114 -0.008588979 -0.010109064 -0.012566465 0.03069853 -0.050664503 -0.025173401 -0.049947623 -0.043736942 -0.049717925 0.05569692 -0.0020871442 0.07080047 0.0625135 -0.06612035 -0.07827897 -0.009008104 0.026876807 0.027367132 0.010153392 -0.056131236 -0.025591213 0.026272649 0.033540037 -0.060140956 -0.040977463 0.07552918 -0.009281127 0.062572025 -0.049395643 -0.024523156 -0.056882344 -0.03688973 -0.011461219 0.033601377 0.023576213 0.013280998 0.03222248 0.039184008 0.0023472563 0.07647283 -0.039519746
could -0.0671735 0.04723159 -0.0038679852 0.046792503 -0.06789266 0.056152914 0.03254654 -0.04255608 0.025226891 -0.0038317237 0.021230983 0.04049994 0.011678288 -0.023318648 0.014974646 -0.031952396 0.068792626 0.027951801 0.040865496 -0.03710898 -0.0585278 -0.014571468 0.06097892 -0.008156303 0.023205336 0.0045431913 0.023522684 0.017090442 0.02020865 -0.05317355 -0.014095082 0.065658644 -0.037966233 -0.025857937 -0.044661853 -0.0011549263 0.0416397 0.017870294 -0.011893991 -0.0008894333 0.044277824 0.04588195 0.0046221744 0.011588983 -0.027784113 -0.008822261 0.017853266 0.00013387646 -0.07532419 -0.07703299
would -0.032354485 -0.0007501397 -0.07676668 -0.01998365 -0.07594974 -0.03485524 0.043770432 0.006299972 -0.04352016 0.016675267 -0.04832474 0.0058172066 0.023702545 0.08088739 -0.05956677 0.006418539 -0.035263173 0.06566637 -0.04277282 -0.065954156 0.0103092985 0.03364862 0.005972988 -0.05674313 0.049102772 0.046038017 0.018321896 0.016844604 0.029732369 -0.060170628 -0.03143934 0.045817994 -0.032182734 0.045819335 -0.04624148 0.07241818 0.046588395 0.0535999 0.012912156 -0.022246044 0.05375223 0.063753925 -0.00087809004 0.071004376 0.0066852346 0.0059990105 -0.010672894 -0.03836395 -0.049961705 0.020104494
think 0.0042351233 -0.029699527 -0.05605082 0.015551183 -0.02195059 -0.06624946 -0.0059221108 0.014011643 0.03650063 0.034090627 0.018286949 -0.032463156 0.029862663 0.03167736 -0.05911715 0.031313915 0.061187048 0.0016606302 0.071860634 0.055610597 0.019345209 0.09634553 0.053905975 -0.06330726 -0.019262366 0.059113726 -0.04255021 -0.023692189 -0.060972873 -0.064671144 -0.05480222 -0.059316456 -0.08161869 0.047260765 -0.014846219 -0.044097077 -0.015266312 0.020622797 0.054296274 0.021850348 0.051189728 0.08344291 -0.006431227 -0.011374712 0.05011006 -0.010181655 0.0438856 -0.05607506 -0.004714336 0.018336184
them 0.042460363 -0.03137079 0.0661819 -0.004131091 0.025033701 0.07116547 -0.00019371277 0.026066156 -0.04483207 -0.0030263704 -0.06661319 -0.020043947 -0.036032744 -0.01887681 0.041338496 -0.018261064 -0.048963506 0.006049615 -0.031247167 0.028942661 0.001156255 0.03746807 0.014807756 -0.040587455 0.035302732 -0.06591972 -0.03338141 0.031095581 -0.044180192 -0.029253958 -0.04995598 -0.014488357 -0.013394752 0.04779088 0.0018226472 0.012003238 0.063849784 0.056410342 -0.06275304 0.02647234 -0.04567762 0.068100914 0.051700253 0.0006256539 0.0033974154 0.049193725 0.052594047 0.02593382 -0.004539519 0.01316989
know 0.016152672 -0.05884093 -0.04887563 -0.013688083 -0.004591599 0.021570472 -0.0078034583 0.06518797 -0.025044976 0.004376859 -0.04582397 -0.016529277 0.0011610751 0.009953559 -0.01158819 -0.048732758 0.049288213 -0.0675111 -0.0032678463 -0.009873294 0.035893694 0.05491149 0.07252051 -0.08849664 -0.05409735 0.013758885 0.0468735 0.027004879 0.0711908 -0.05544322 0.032061078 0.00877532 -0.07250206 -0.06202257 0.0442235 -0.020741282 0.041697036 -0.0021630963 0.0030433324 0.0113471225 0.04693614 -0.025801504 -0.03550029 0.0011806572 -0.07887336 -0.062121198 0.023335764 -0.07706169 0.014077699 0.017770614
rabbit -0.05673939 0.0811742 0.06392342 -0.050016798 0.022971008 0.010285273 -0.08216274 0.016612498 0.065694526 0.010167737 0.0797525 -0.021979958 -0.06289025 -0.0712295 -0.034666087 0.055217866 0.06385499 -0.035999876 0.02039206 -0.04825777 -0.014876966 -0.017470269 -0.043954115 0.024369832 -0.0570674 -0.017439805 -0.010879185 -0.038676873 0.030648058 -0.0054024635 0.06821032 -0.050738756 -0.021211246 0.034245476 0.0661736 -0.05318036 -0.005903003 0.0070302333 -0.009965305 -0.033540588 0.03184348 0.058275204 -0.022747053 0.0054199216 0.015610443 0.01751753 0.034957632 0.007853755 -0.010056452 0.06969506
dear 0.068202086 -0.056113195 -0.0045895907 0.019205412 -0.06301178 -0.06958409 0.05965063 0.05258571 0.077907406 -0.005143368 -0.06651028 0.0006879325 -0.031444598 0.04800184 -0.002615638 0.06968754 0.028864989 0.0069825514 0.07144061 0.065018296 0.031618036 -0.0015986369 -0.07767046 0.016173327 -0.06752531 0.029441152 -0.030944588 -0.05267474 -0.045658804 0.051849592 -0.06255134 0.081498004 -0.03565129 -0.028611274 0.06349748 0.010231114 -0.01750565 -0.02415842 0.010828256 0.07874594 0.010176189 -0.052845027 0.07200203 -0.05525973 -0.024777785 0.01142475 -0.057405017 -0.018702704 0.034565184 0.04840673
were 0.028237514 -0.01760914 -0.0178128 -0.047423225 0.021154415 0.03206749 0.057931505 0.009378772 -0.0066296705 0.012752494 0.05258091 -0.010787637 -0.033027053 -0.02416201 -0.006712268 0.04815214 -0.045843128 -0.012990824 -0.025123697 -0.049858373 -0.05277777 0.044437908 0.011378777 -0.04885276 -0.069532245 -0.011647074 0.017815873 -0.01657806 -0.019743739 -0.045422353 0.045462243 -0.067913346 0.04877935 0.03766862 0.07134409 -0.010458851 -0.062157318 -0.030729905 -0.021561598 0.023194889 -0.05241495 0.065940715 -0.061664924 0.07045915 0.012431745 -0.067574054 -0.02038179 -0.037046842 -0.034846082 -0.00035891798
time -0.02912096 0.020177776 0.084372886 0.006518983 -0.0668189 -0.012556603 -0.037379887 -0.027661977 0.004968992 -0.037113912 -0.04053113 -0.020061657 0.07421308 -0.040509157 0.0072540957 -0.0671677 0.04932953 -0.033193827 -0.004312872 -0.06667901 -0.05595358 0.030249763 -0.031298783 -0.055422284 -0.0022003874 -0.06485792 -0.031284936 0.007715122 0.013891071 -0.05805298 0.021224441 -0.060051512 0.06255274 0.027569953 -0.054038875 -0.05177323 0.05722683 0.051003046 0.053923804 0.049650658 -0.04060756 -0.014793424 0.017793382 0.034851506 0.041532036 0.02510012 0.044850945 0.00248153 0.010324201 -0.0033090739
get 0.051175613 -0.03873876 0.091587394 0.047322586 0.004713518 -0.0071561737 0.014291656 -0.0635568 -0.06492063 0.017129622 0.0060796104 -0.01762409 -0.0082713505 -0.0032503526 0.026819117 0.052411824 0.031359427 -0.063360445 -0.03509974 0.08559041 -0.014218488 -0.030271541 0.0013073273 0.023752216 0.036469888 -0.043365337 -0.029101886 -0.016028248 -0.003853216 -0.06538979 -0.0069629797 0.013694226 0.055460673 0.08144997 0.04750227 -0.04606666 0.04348111 -0.013093405 -0.038702317 0.015667731 0.033875257 0.04689436 -0.006099616 -0.01948792 -0.0865109 0.050498266 0.046523627 0.032126512 0.07815788 -0.009563281
here 0.046419058 -0.031120082 -0.0680901 -0.02374885 -0.019934775 0.057495784 -0.019271959 -0.0074084266 -0.028734084 -0.0036401378 -0.015508032 -0.036441132 -0.015856186 -0.018658403 -0.058760226 0.07703343 -0.03840268 0.0077970666 -0.017969985 0.026954746 0.026881298 -0.015726862 0.037147287 0.049059343 -0.047547463 0.0016835016 -0.059380308 0.0111460015 0.0341559 -0.023426615 0.0050056293 -0.03561139 0.040207397 0.030669335 0.06289777 -0.045905765 -0.048134044 -0.02535999 -0.033754535 0.044023193 -0.076559395 -0.0030427258 0.045316603 -0.028766617 -0.07129082 0.06589275 -0.06552171 -0.05006423 0.05387972 -0.059490662
must 0.018148957 -0.05040864 -0.08967391 0.07994224 0.0044543874 -0.070837416 -0.001927236 -0.08159506 -0.054690536 -0.022265779 -0.03806276 0.052337326 0.02996885 0.03069289 0.0117507335 0.005092228 0.058605675 0.04377782 -0.019034022 0.031101186 0.05693612 -0.026404923 -0.021618007 0.014194423 -0.027165137 -0.017354704 0.07228191 -0.0212684 -0.02934926 -0.025298595 0.05339477 -0.039282024 -0.013713747 0.038647946 -7.7896286e-05 0.07555226 0.038631037 0.07809632 0.02251687 0.03081532 -0.05257526 0.017418789 -0.024030432 -0.07140071 0.06063891 -0.026276493 -0.02063532 -0.043255042 -0.04327452 0.085700564
my 0.06209856 -0.034602 0.006055671 0.026344933 -0.027569672 -0.008743349 0.025485234 0.010695304 0.014676965 -0.004499211 0.043120585 0.07700387 -0.0075578834 -0.036628917 0.066710316 -0.05649241 -0.05583467 -0.075956106 0.0421667 -0.012377009 0.078714855 -0.03036038 0.03796617 -0.07521729 -0.03823642 0.009133241 0.02689309 0.0569063 0.039471496 0.06626545 -0.04394471 0.013328432 -0.06412373 -0.041375548 0.08529768 0.042198457 0.026808951 0.00024541735 0.04413973 -0.03474808 -0.038380265 -0.03503226 -0.055153087 0.041850932 -0.05754253 -0.040409084 -0.07970252 -0.025280459 -0.0042264936 -0.0042505735
by -0.06059282 0.04206079 0.060022328 0.0345982 0.010557166 0.056351975 0.0476915 -0.0073936787 0.028736053 0.06771045 -0.044080436 -0.07515827 0.0049203695 -0.006357009 0.001472609 -0.022323523 -0.015083988 0.018899938 -0.093060896 0.047972213 -0.02345493 0.015888155 0.0021407695 0.06394007 -0.039894056 -0.06923907 -0.002114301 0.018176535 0.077832796 0.035247494 -0.014652984 0.061096016 -0.0627899 -0.0220261 -0.0032241207 -0.063047364 -0.042390555 0.036816753 0.009461193 -0.03745587 0.03448937 0.039277736 -0.03886001 0.01444438 -0.055901255 0.010777987 -0.014980215 0.025147524 -0.0783716 -0.012257157
into 0.044004817 -0.0026618056 0.06346327 -0.003510476 0.051160324 0.01803087 -0.024858644 0.07356918 -3.861368e-05 -0.05547683 -0.053083222 -0.023988783 -0.02838383 0.021156559 -0.0068388483 -0.014472416 -0.041751184 -0.028399255 0.0071677803 0.032197285 -0.0062548877 -0.03075685 0.022445327 0.025828497 0.027870595 -0.05948587 0.055213753 -0.07289469 0.02578168 0.036321133 0.042459343 -0.074130125 -0.0128007475 0.03794299 -0.06521749 0.02819127 -0.04103655 -0.0027143722 -0.040133562 -0.033142585 0.0181146 -0.048074383 0.007907965 0.039811682 0.010301992 -0.021988405 0.018387878 0.06163367 -0.0546578 0.010223137
found -0.002899671 -0.0005880288 -0.01047722 -0.008523465 -0.043861907 0.06974369 0.05181917 0.021126335 0.010919752 0.02115828 0.0057695787 0.03403845 0.058314253 0.067438155 0.0053315707 -0.0692952 -0.026937466 -0.03361368 -0.026822446 -0.049951788 -0.075510524 0.0075305654 0.041782003 0.0045312303 0.0028459898 0.01976726 -0.01767811 0.05235228 -0.03546406 0.026208516 -0.022267418 -0.0010955461 0.06375936 0.0064609717 -0.06618413 -0.069413766 0.07073404 0.0429644 -0.055673227 -0.010896191 0.023842879 -0.041494176 -0.0001952661 -0.017680945 -0.020725066 -0.025034891 -0.054498345 0.028159171 -0.079180144 0.03652046
such 0.050350986 -0.04510067 0.041103598 0.08042853 0.060013644 -0.027573349 -0.07905043 -0.06324473 -0.032209095 -0.016350107 0.0019696392 0.05596208 0.084503934 -0.061095104 0.022709325 0.07130386 -0.018909305 0.05339132 -0.013414734 -0.002921075 0.083505705 -0.017591689 -0.04768147 -0.007525284 -0.08132322 -0.04019589 0.034995195 -0.008648764 -0.018710257 0.018658832 -0.055970274 0.0011609655 -0.0104299765 -0.058214486 -0.002867369 -0.068100065 -0.0459976 -0.009941277 0.008002837 -0.03559363 -0.036046144 0.028170966 -0.07624944 0.05497851 0.06306627 0.038305517 -0.004943069 -0.023102235 0.005402134 -0.06871798
began -0.07058932 -0.020018658 -0.011684309 0.005216624 -0.016026163 -0.023113158 0.07808214 -0.01901224 -0.05381741 0.015647622 -0.01231373 0.01854591 -0.040963694 0.057441905 -0.013314293 -0.013119349 -0.008539571 0.046172265 0.06599742 0.020162517 0.024019169 -0.0085444795 -0.027834969 -0.05793096 -0.033797715 0.0065788394 0.0105650425 0.01852418 -0.01664155 -0.06674909 0.018954512 0.018740343 0.03432474 -0.0044417377 -0.04582941 -0.059003193 0.030625466 -0.042144924 0.022765078 0.10142191 -0.040687207 -0.03637001 -0.034139104 0.028611045 -0.022401668 0.019454557 0.06718289 -0.05612019 -0.0591715 0.00612269
soon -0.04307347 0.051495768 0.034531944 0.060606513 -0.012881579 0.019120682 0.07017938 0.046053026 0.019340651 -0.02169955 0.058955356 0.04930816 0.040900063 0.04121311 -0.057253916 -0.051607583 0.039554246 -0.043250017 0.007384387 -0.014652003 -0.0412563 -0.011445492 -0.02823166 -0.021056738 0.030289263 -0.013813449 0.0065619266 0.069860265 -0.009743398 -0.044529706 -0.014218902 0.06458516 0.052664984 0.08658305 -0.074026406 0.038444534 -0.0066051376 -0.004256546 -0.035750095 0.0635102 -0.06117294 -0.031000469 -0.02312558 -0.055609606 0.022190576 -0.06428474 0.0055383528 -0.05482976 0.029073756 -0.059991267
m -0.011088666 0.04029841 -0.078770496 0.02975888 -0.036998257 -0.06346154 -0.05830794 -0.07114574 -0.022144187 -0.028252691 0.003503732 -0.08943801 -0.07750654 0.066863015 -0.042101037 0.0015156734 0.062476467 0.086114734 -0.016992448 0.08398011 0.09086978 -0.019588176 -0.050041936 -0.038385913 -0.060307667 0.0365489 -0.042797357 -0.008267304 0.07612213 -0.07409334 0.005377934 0.008537576 0.0094700605 -0.057274617 -0.05343064 0.035583504 0.037953544 -0.0060228216 -0.012343858 -0.07992853 0.060217474 -0.019625776 0.047111098 -0.033030365 0.032844175 -0.022418762 -0.018399606 -0.03497466 0.035252374 0.0016781533
quite -0.04621404 0.034648024 0.044003766 0.032966074 -0.0020180587 -0.052980363 0.011160109 0.017168587 -0.08620296 0.033154618 0.06477089 0.0382505 0.011226508 0.029212194 0.042020623 0.0148128355 0.04154741 0.023972375 -0.027781073 0.011773514 0.052583322 0.08926419 -0.012988841 0.051193513 0.041429434 -0.026968315 0.052043125 0.011637156 -0.00013725925 0.0348545 -0.0014499548 0.0024060444 0.06550246 0.045944132 0.021290388 -0.0042649824 0.025063982 0.07867098 0.04455951 -0.073902726 -0.012339356 0.018243209 -0.031073548 -0.056417715 -0.050659385 -0.041677896 -0.020056736 -0.0012341373 0.07791599 -0.021735374
then -0.07428311 -0.015660655 -0.028297134 0.060133204 -0.011087609 -0.011589877 0.028792735 -0.017768688 0.04006348 0.010987476 -0.026904792 0.066320404 -0.042410888 -0.021546453 -0.0011018781 0.053136803 -0.08556803 0.04052655 0.035982344 0.002691643 0.051333267 -0.060567893 0.055606775 0.03102017 -0.07888534 -0.068153925 0.056849845 0.008162962 0.054006364 -0.084570885 -0.016035728 -0.030649647 0.039660927 0.027113046 0.04676705 0.043764748 0.023150606 0.025311133 -0.017113626 -0.025259186 -0.06645138 -0.02505302 0.0081096515 0.012532754 0.00936469 -0.01852444 0.0404786 -0.025664646 -0.029015925 0.0016493034
off -0.038679708 -0.01748952 0.041820962 -0.06227027 0.04334232 0.04289253 0.07133376 0.054806706 0.034242254 0.060699325 -0.066197775 -0.0506071 -0.022254933 0.026401404 0.0087080365 -0.026157375 0.009441426 -0.018208427 -0.026641477 -0.062392276 0.05323425 -0.019626757 -0.06805173 -0.040767193 0.039264582 0.024397446 0.05972038 0.054004136 -0.026920661 -0.053697944 -0.057061754 0.010199751 0.050412964 0.0057532955 -0.030978628 -0.010742078 -0.0069732796 0.051271252 0.036330536 -0.01830565 -0.0005970298 -0.046634994 0.000968511 0.061431337 0.0048758024 0.008139226 -0.0148722995 -0.0184646 -0.014828539 -0.062069207
now -0.001202183 -0.030628739 0.063005954 -0.04186096 -0.064912416 -0.017624814 0.059061714 0.007033934 0.028588168 -0.02637512 -0.04624339 -0.01064083 0.022816243 0.042999525 0.048532564 0.02283665 0.06174685 0.0011829095 -0.05929003 0.05255997 0.013411862 0.0112680895 0.018321091 0.03712403 0.06525244 0.03017477 0.044335693 -0.020748788 0.032888684 -0.015954893 -0.06624885 0.0038652085 0.009730082 -0.015034389 -0.05192016 0.043506704 0.04779203 -0.03469501 -0.045925323 0.050683886 0.055676054 0.047672227 0.08799124 0.06067356 0.07134041 -0.07804678 -0.02597358 0.032704055 0.053372767 0.0572694
go -0.06770966 0.009887559 0.023701739 -0.002010664 -0.05247236 -0.03084758 -0.017042866 -0.05943999 -0.007630045 -0.012304081 0.03313968 -0.023297843 -0.023913428 0.016011288 0.03852066 -0.05423396 0.04711017 -0.062002957 0.0038735531 -0.0010524793 -0.046518613 0.0046988213 0.0640583 0.0028228324 -0.024599887 0.006767957 0.041705817 0.05465679 0.048703935 -0.079137474 0.009415341 0.039570414 0.05704745 0.046217635 0.07836605 0.02420715 0.003653689 0.053055122 0.056407105 0.05031176 -0.055707175 -0.037368294 0.043751694 0.06587284 -0.05180586 0.029764827 0.07776686 0.023423811 -0.03533454 -0.06766642
say -0.03926914 0.044728413 0.047046717 0.045979112 -0.032523204 0.01457322 -0.0292195 0.040602677 -0.029281221 -0.024928797 -0.055387508 -0.025146589 0.004285118 0.01658548 0.017651243 0.01156653 -0.057634506 -0.06545665 0.057831015 0.015569164 -0.045187645 -0.033780135 -0.09183629 -0.03257107 -0.07054407 -0.030888066 -0.023403391 -0.04248186 -0.0198037 -0.029722054 -0.014018057 -0.05241356 -0.04698167 -0.009640175 0.0042377613 0.072879516 0.02760585 0.036940217 -0.017008727 0.013739504 -0.0095487805 0.04947271 0.060437612 0.06752318 -0.013574123 0.036288664 0.056857932 -0.06355738 -0.008335322 0.061452415
have 0.037849683 0.052936558 -0.023984544 0.048275724 0.0063730474 0.03601972 -0.038684405 -0.05864812 -0.07397005 -0.058665223 0.067996986 -0.011907357 -0.03508167 0.07302011 0.023626622 -0.0246294 -0.046039272 0.06826386 -0.00288741 0.00073261606 -0.0166566 -0.034702197 0.059809983 -0.04503263 -0.0053931978 0.06263473 0.012561047 -0.043903995 -0.00433704 0.0103356745 -0.0072486545 0.0442322 0.015102738 0.032093138 0.029126799 -0.062150225 0.0036934505 0.01064033 0.018229805 -0.030546458 0.0075719096 0.057846535 0.018297972 -0.046021666 0.049971506 -0.038432278 0.05594142 -0.0017661678 -0.006929638 0.06685649
which 0.0641767 -0.047607504 0.039046656 -0.071934536 0.013687517 0.053375825 -0.009548089 0.038757715 -0.051256582 0.010181795 0.04151186 -0.04707048 -0.059786018 -0.054117665 -0.040150635 0.02761267 0.019371103 -0.079745464 0.01609274 0.031743836 0.06148017 0.033112258 0.00011263334 0.0028396726 0.034890916 0.00582989 -0.008954284 0.030232785 -0.06656237 0.0761565 -0.022628874 0.002186623 0.059226774 -0.04823953 -0.064810306 -0.011213473 0.06492605 0.019113068 -0.002400454 -0.026705153 -0.06104998 0.033698868 0.025957327 -0.0378144 -0.011402267 -0.0069995075 0.0761147 0.02203715 -0.0116896285 0.04402832
come -0.038158357 -0.04205088 -0.016642481 -0.049970083 0.039235666 -0.018445652 0.04337165 -0.025001833 0.044480864 -0.023987869 -0.0029885892 -0.05249106 0.010387078 0.035469517 -0.0469242 -0.036570996 0.036885917 -0.06668006 -0.054149825 0.004456591 0.033468697 -0.010386772 0.06444388 0.017305294 -0.038033735 -0.03347393 0.0446767 0.0003833545 0.031432062 -0.040387526 0.013091548 0.074302204 0.014542737 -0.06737322 -0.004797031 -0.0102565475 0.032311916 -0.05883072 0.0637856 -0.052782092 -0.0027413764 0.0007837869 0.0023701715 0.0040152213 -0.026137825 -0.03912789 -0.048325393 0.027461156 -0.035360835 0.05886492
dinah -0.03641858 -0.015069687 -0.012885887 -0.053608697 -0.06777617 -0.060657613 0.011947915 -0.018417899 -0.060891863 -0.06377708 0.026443182 0.002820339 0.05730314 0.032842603 -0.010433888 0.029511848 0.07039377 -0.016740661 0.04677419 0.008912332 -0.043023393 0.02088329 -0.07402645 -0.07484054 -0.014108295 0.064343154 0.044382267 -0.079546705 -0.028757231 0.056178693 -0.048897482 0.026554462 0.05476977 0.02309357 0.03215841 -0.012927923 -0.044078354 -0.05417568 -0.045155678 -0.0777482 -0.046908274 0.048408233 0.07074315 0.03591874 -0.049588658 0.032829687 0.026336588 -0.03048912 -0.028079676 0.009323417
your -0.036748387 -0.022330653 -0.071073085 -0.007486948 -0.059886973 0.017116917 0.0042002443 -0.075670205 0.00648142 0.030497633 -0.015165527 -0.045202073 0.05751401 0.000104640494 -0.06598574 -0.08422994 0.07159137 -0.017031888 0.04531818 0.078559645 0.010145002 -0.0365915 0.020435244 -0.050311983 -0.092437714 -0.039537497 -0.04694923 -0.026814453 0.050783373 0.010365052 0.010854657 0.058386303 0.017212363 0.00088501023 -0.025045965 -0.05964177 0.035055682 0.00752094 0.04496364 -0.06415519 -0.01725873 -0.019206896 -0.013988739 -0.018760845 -0.03850946 0.02413457 0.046312775 0.050868884 -0.0465905 0.04017263
thing -0.00316707 0.04129723 0.08257906 0.006707052 0.020272708 0.012652245 0.037478417 -0.022832407 -0.02163065 -0.0111495685 0.029944364 -0.06775144 0.015685089 0.016753357 -0.048049834 0.014950351 0.02243883 -0.027306909 -0.072300114 -0.022474874 0.0058736396 0.013630864 0.03993726 -0.038020663 -0.026706332 -0.00026960054 -0.018182224 -0.069563694 -0.000652169 -0.046923142 0.012990962 -0.02438621 -0.049311396 0.023592265 0.029041782 -0.054398276 0.00092873396 -0.051783647 0.004742505 0.0018640939 -0.018912472 0.034354933 0.011812459 0.054351225 0.042912308 -0.030332819 0.05545389 0.021905473 0.0089380415 0.059177138
dodo -0.020811705 0.009223265 0.026818734 0.08008701 0.025080303 0.043858822 0.03491026 0.015442075 -0.02634074 -0.02405953 -0.05965756 0.03227391 -0.05564529 0.017186537 -0.049014222 -0.003043506 -0.008258602 -0.02768315 -0.0011943816 0.015349639 -0.02266695 -0.059075452 0.0067601437 -0.0032794592 0.046057258 0.03302144 -0.033114582 -0.0068791537 0.05472062 0.030252924 -0.039336413 -0.03693645 0.038183887 -0.051112525 0.04385472 -0.01240739 -0.06291221 0.06676623 -0.033315092 0.07464045 0.009931471 -0.01793964 -0.08779567 -0.070264965 -0.04597979 -0.03417684 -0.0025967872 0.05295154 -0.01517692 0.050562646
much -0.040640183 -0.033178255 0.009143295 -0.06501008 -0.051358882 0.050567098 0.031522863 0.02635404 -0.03442 0.019862624 -0.0037683924 0.06624809 0.037388284 -0.041668423 0.023753555 0.007401719 -0.029331319 -0.013295158 0.0064274576 -0.0071911803 -0.03357035 0.012082539 0.05200997 0.055316612 0.02740119 0.039078288 0.019932697 0.010336623 -0.040010393 -0.03985139 -0.05283866 0.049932215 0.078599125 -0.0005242982 0.016262751 0.049647633 0.06442073 0.0047041737 0.028265018 0.00951597 -0.026452059 0.022050984 -0.07759922 0.014600695 0.048182417 -0.042074762 0.014153096 0.026940448 0.04496413 0.031705543
shall -0.021808287 0.0025536437 -0.004267321 0.013413701 -0.011428041 -0.019536126 -0.0053113718 -0.038092542 -0.008554119 -0.055603247 -0.039105505 0.006964053 -0.030676425 0.073390394 -0.023754984 -0.050029032 0.06463873 0.006500375 -0.013809717 0.008777934 -0.03666418 0.028034385 -0.0015855475 0.021346672 -0.0055664377 0.004006191 0.048306294 -0.07338154 0.05618986 -0.07286274 0.03200659 0.027274348 -0.083487034 0.049957182 0.0494568 0.010571051 0.041362572 0.043693893 -0.015945382 -0.07545583 0.03576894 0.052526426 0.07318125 -0.0864128 0.00041927595 0.03788131 0.01901707 -0.025099158 0.027987098 0.043457586
things 0.0035188398 -0.009369687 -0.042988393 -0.043705154 0.058350895 -0.07251479 -0.026010567 0.033168778 0.01992457 0.028370686 -0.06222886 -0.0113726705 0.015629979 -0.07080414 -0.028509041 0.014274576 -0.07942753 -0.048729107 -0.061166923 -0.0353797 0.0046658227 0.062445693 0.0028215395 0.018834809 0.045317855 -0.052411772 -0.020590942 0.060829688 0.007487643 -0.059497442 -0.05067261 -0.022800421 -0.057004694 -0.016990045 -0.024394287 0.042108424 0.022739813 0.022638058 0.022342147 -0.06406622 0.06962257 0.07141909 -0.043556556 0.014921323 -0.0037062368 -0.029653843 0.016348494 0.027971003 -0.0033098904 0.0059546125
long 0.0161579 0.02538589 -0.01921885 -0.06499487 0.02127755 -0.069758736 0.04530074 -0.010463956 -0.074060366 -0.028502394 0.028040564 0.009104062 0.022527248 -0.041047245 0.038390607 0.05940158 -0.032728713 0.03556598 -0.029230988 0.018664202 -0.024197113 -0.042815484 0.040729523 -0.036085814 0.04651484 -0.05307205 0.016205825 0.006740934 0.017911542 0.02821697 0.07031271 0.0036308733 -0.021801978 -0.060803626 -0.040313274 -0.054269273 -0.06313277 0.0050746454 -0.015066762 0.019557025 0.034456246 -0.09028485 0.029439582 0.011348313 0.083039664 0.06392673 0.06625001 0.050467383 0.023650883 -0.06672244
door 0.048364166 -0.016756495 -0.036248628 0.040104255 0.07445054 0.045637414 0.041324385 0.072642386 0.037491374 -0.0023209264 -0.036704868 -0.0046276753 0.028306717 -0.029732676 0.021789642 -3.3986988e-05 -0.032457113 -0.03113819 0.04215351 -0.07037611 0.0031864308 0.029657803 0.035300862 -0.03357356 0.056835342 -0.013141695 -0.004535327 -0.06933771 -0.021275492 0.06278935 0.0836941 -0.046190668 0.07294806 -0.081871726 -0.020874055 0.031261556 0.043069024 0.016145341 0.056551803 0.028912976 -0.044756256 0.014671229 0.02055072 -0.06848982 -0.0558594 -0.054777667 -0.066073924 0.05183505 -0.07020528 -0.008382368
who -0.05099828 0.009652358 -0.07009737 -0.055045705 -0.0099326335 -0.052390695 -0.045760572 -0.02894576 -0.0020666271 -0.045178812 -0.033537798 -0.06713667 0.0062102843 0.05830333 0.031889983 0.009412095 0.07393206 0.053812783 0.067763746 0.013450038 0.040144574 -0.04321704 -0.02834905 0.062002 0.001216612 -0.050497398 0.05610768 0.056371965 0.014238546 0.029763708 -0.03729946 -0.006553525 0.043347765 0.0013546209 -0.014126758 0.04604689 0.008745117 -0.040746603 0.025406303 -0.04086694 -0.063659 -0.00028095813 0.061444502 0.0592285 -0.043493535 0.024674425 0.0008706872 0.061450142 0.036605913 -0.010894424
can -0.04799615 -0.04394273 -0.011647224 -0.00023817178 -0.01099608 0.017436579 -0.018444026 -0.012590091 -0.008054674 0.004507834 -0.03959422 -0.04070975 -0.019218536 0.033071578 -0.021765739 0.03334567 0.075460576 0.080737896 0.06804842 -0.0007261144 -0.04816907 -0.009135769 -0.022606537 -0.066080526 0.02120679 -0.016738437 -0.011909235 -0.082326554 0.06819785 -0.021687824 -0.044455845 0.012345797 -0.093196064 -0.016463801 0.072368115 -0.028743023 0.064937726 0.067309014 0.05359839 -0.0015807655 -0.054991268 -0.012775024 0.094208725 0.015033025 0.006342814 -0.049718495 0.04527446 -0.02479983 0.031819157 -0.031428732
once 0.031868152 0.06660174 -0.0018844291 -0.038780704 0.032453 -0.06310107 0.016819214 -0.0505907 -0.043124706 0.05560992 0.027073698 0.062097028 0.056622077 -0.031188173 0.046156757 -0.046835285 -0.022419084 -0.06915358 -0.079058096 0.017682863 -0.018390425 0.041916657 -0.0008242857 0.028305624 -0.0006758687 -0.04468994 0.064477466 0.01311035 0.0096424585 -0.034128442 0.01324825 0.0013110609 0.02043098 0.012031571 0.04348392 -0.021790188 0.017966677 0.0632883 0.03403892 0.08880854 0.023454262 0.04440519 0.043952916 -0.05106667 0.0024719727 0.05387945 -0.07983153 -0.043282807 0.0129284095 -0.030782819
did -0.016084364 -0.05087571 -0.025140002 0.023973925 -0.03800689 -0.035218187 -0.049383104 -0.05676471 -0.0505809 -0.032035653 -0.06308297 -0.011299007 0.062193077 -0.022288691 -0.012246225 -0.0437632 -0.01278229 -0.017775815 -0.05631085 -0.031002253 0.05682761 -0.051115487 0.05729994 0.027310513 0.017189812 -0.06478134 0.05944295 -0.060733393 0.035365306 -0.027156338 -0.027358418 0.055078886 -0.047449276 -0.049184974 -0.02493042 -0.015348926 -0.06377128 0.030074708 -0.022334123 0.0010785183 -0.013509712 0.0708423 -0.0726405 -0.036750846 -0.04857338 0.012924526 -0.049656857 0.034782648 -0.032348517 -0.014345936
over -0.0005830347 -0.07716728 0.038808692 -0.063857816 0.012029691 0.0012766826 -0.027424555 0.014751719 0.03138433 0.019338299 0.022435673 0.034184836 -0.009939387 -0.060964286 -0.0056043933 0.050974697 0.052924246 -0.07393505 -0.056357946 0.04631486 -0.0076889065 0.01094857 -0.0570425 0.053122908 0.0010066162 -2.716377e-05 0.0048508393 -0.058259647 -0.0012216319 -0.0734614 0.053434584 -0.03516929 -0.021171924 -0.0049392213 0.045702577 0.04899665 0.015074891 0.025499795 -0.0439791 -0.06072176 -0.007944039 -0.05949354 0.0121035585 0.06484705 0.04819261 0.028370747 -0.010807716 -0.021685326 -0.00046615617 -0.02254217
feet 0.031148497 0.058053203 0.057748973 0.019784212 -0.07156598 0.021972222 0.055653047 -0.03699155 0.020587182 -0.04336153 -0.06640472 -0.04252648 -0.016966788 0.037521683 0.023383329 0.06320443 -0.028155457 0.035080705 0.012455464 0.013654966 0.060135365 -0.038950644 0.05319897 0.04978476 -0.034926254 -0.04620279 -0.031599574 -0.035783898 0.025121056 0.028280003 -0.026335206 0.038637243 -0.032074988 0.03726789 0.06354691 0.036679793 0.020871954 0.06545193 -0.054106068 -0.05927023 -0.008287109 -0.03613763 -0.031410567 -0.07029323 0.018040303 0.051315263 0.021053817 -0.032504376 0.0049572736 0.058652736
after -0.02484944 -0.04505583 0.009994425 0.0004341714 -0.00060997717 0.016730776 0.00865472 0.04366619 0.029786715 0.012727768 0.0012097788 0.0143907955 -0.04659682 0.021893194 -0.079426736 0.05066992 -0.04794489 0.05555866 -0.05897542 0.008931879 0.03434184 -0.058150455 -0.036212154 0.06940897 0.014434534 -0.049143814 -0.008882357 0.008595834 0.023167739 0.021975119 0.03356769 0.03487967 -0.051113453 0.0041431305 -0.052963477 0.03854113 0.036763553 -0.04007576 -0.0016986846 0.013129054 0.034739014 -0.059970107 -0.079173036 -0.04132574 0.001828257 -0.048298586 -0.00058758317 0.051535174 0.031313933 -0.06184749
wonder 0.033034634 -0.032844387 0.023707032 -0.044415794 0.014936671 -0.082027815 -0.056029364 -0.034412894 -0.0047389725 -0.06971203 0.04931614 0.007224975 -0.061961003 0.00502434 -0.02439208 -0.056089815 0.059687562 0.05530742 -0.027594317 0.032373615 0.03551027 0.08909012 -0.030952565 -0.0850115 0.0054109106 0.044238847 0.049139623 0.038662873 0.021161439 -0.078418225 -0.023688292 -0.0063143615 0.018811358 0.06904683 0.020734401 -0.004134938 0.049628854 -0.008160163 -0.02130135 -0.051664636 -0.019610126 -0.013988289 -0.011026981 -0.051131647 -0.05601208 0.0544867 -0.052235804 -0.06970992 -0.042356696 -0.017787486
first -0.07164516 0.0116797555 0.021897405 0.03398106 0.024052266 0.035544965 0.0058796257 -0.015654912 -0.068008825 0.014749623 0.049721833 0.080969706 -0.0070899813 -0.05411891 -0.03622142 -0.069214344 -0.022588663 0.043788295 0.05959015 0.03221585 -0.032189738 0.059971105 0.041927468 0.042551205 0.064995736 0.04583588 -0.009442279 0.02782168 -0.0037464378 -0.01777546 0.0011345373 0.06465118 0.027449792 -0.020828966 0.020275595 0.04625719 -0.044036996 0.088994496 -0.02682191 -0.06746202 -0.02877617 -0.0687839 0.034527805 -0.0033535562 0.009157716 0.081862085 0.02135181 -0.062663555 0.03531482 0.055097792
let -0.035244234 -0.02870345 -0.0073820357 -0.050862197 0.021207424 0.022728967 0.057265837 0.009347134 -0.027722059 -0.005593122 0.006923139 -0.004296407 -0.0075536114 -0.057642538 0.026316999 0.05535457 0.07257867 0.025593935 0.046438657 -0.0034371451 -0.011807235 0.027316337 0.032439865 -0.028793039 0.020266742 -0.057373203 0.053714223 -0.07390308 -0.015652398 0.0062227603 0.05858297 0.023220863 -0.07138452 0.06067713 0.08199223 -0.011515042 0.009383103 -0.059176642 0.06145674 -0.02341147 -0.020461624 0.054167997 0.055384807 -0.0035595277 -0.062042195 -0.027430885 -0.0131368525 0.010427016 -0.06506768 0.04035127
are 0.044226795 0.029993441 -0.043314647 -0.05847543 -0.06752959 0.04604274 -0.057536148 0.023167402 0.029237466 0.0002419207 -0.06523396 -0.011483096 0.0056083165 0.045966033 -0.09014035 -0.030720863 -0.07232786 0.002525217 -0.0027075855 0.07768444 0.057114117 -0.06333134 0.020838132 -0.018319337 -0.013993127 -0.01632841 0.00047308707 -0.05126947 0.016548643 -0.08466184 -0.05347901 -0.045626584 -0.0010184894 0.019132009 0.05502663 -0.013379479 0.06337376 -0.070801 0.0042449525 0.064000964 -0.036007766 0.062258136 0.031910308 0.020730983 0.012949774 -0.06945579 0.048750844 -0.036700435 0.04855629 -0.0125391325
cats -0.0048081316 -0.07196824 -0.03837061 -0.02260238 -0.0077745207 0.010763615 0.04125244 -0.009099103 0.03819546 0.072341874 0.014553187 0.0040618577 0.011548378 0.06585413 -0.05561191 -0.017272063 -0.031091811 -0.017926661 -0.03996411 0.07048881 -0.06648612 0.028979713 -0.024090828 0.048609663 -0.03254891 -0.010896139 -0.01694702 0.0031764214 -0.04928383 -0.06281612 -0.00044477836 0.030089706 -0.03590739 -0.01960173 0.022242174 -0.007079144 -0.060488727 -0.05632095 0.09407789 -0.07373461 -3.607315e-05 -0.024019696 -0.005564447 0.056123056 0.032816067 -0.0647318 -0.00325208 -0.01631096 0.06874314 0.06191545
round 0.047817443 -0.053434584 0.010842964 0.024456175 0.03910684 0.0017675147 0.00788632 -0.029958788 0.07579875 0.07158685 0.033124615 0.06408978 -0.010688718 0.033979688 -0.063750066 0.03608742 -0.03265243 -0.031716954 0.0004589156 -0.01726101 -0.056257557 -0.027146863 0.03926056 -0.03747855 -0.0401891 -0.029435959 0.019744482 0.06028907 -0.054218262 0.014658377 0.011124248 -0.021719744 0.06265507 0.018306367 0.011896662 0.04733658 0.00986505 -0.039156444 0.066615626 -0.011849203 -0.0037045903 -0.024082683 -0.044957705 -0.058334805 -0.020519555 0.037453886 -0.020964948 0.04067363 0.013019052 -0.031140426
poor -0.013753394 0.03770802 0.0029269452 -0.0315503 0.032576382 0.004348041 0.003025882 -0.03739014 0.00821346 -0.056397166 0.01761446 -0.04014693 0.0660565 0.0109589305 0.02301761 0.023812186 0.027503774 0.017869854 -0.001135604 0.04358835 0.018951645 0.0038569914 0.0453078 0.06061019 0.008280055 -0.026201764 -0.056610905 0.02792445 0.03912529 -0.008336102 -0.03847634 0.02395714 -0.017193483 -0.05518688 -0.005529355 -0.01879408 0.019815005 -0.016049178 -0.042589746 0.01037069 0.028621333 -0.011948824 -0.0050367657 0.02736623 0.060639523 -0.060436185 -0.06597949 0.01835737 -0.032759912 -0.028089518
back -0.07241993 -0.005374576 0.060520273 0.04484798 -0.053583685 0.03787538 -0.05652915 -0.045193255 0.048817016 -0.044763166 0.023883723 0.0419098 -0.015094924 0.06344308 0.06499478 -0.043515358 -0.04560834 -0.039168622 -0.034395766 0.06942287 0.01058851 0.026878444 -0.0017600667 -0.06270085 0.05971982 0.057647828 0.04501229 -0.0045369808 -0.033191573 0.058358498 0.04256463 -0.014106264 0.037325777 0.047006123 0.06312989 -0.013754714 -0.061110806 -0.057184774 0.013692871 -0.028447952 -0.038132895 0.06402701 -0.05125938 -0.017727714 0.012724508 0.04336056 -0.029958894 0.02825367 -0.07361823 0.019584596
he 0.063676536 0.029806033 0.05149278 0.035245717 -0.08713685 0.043554366 -0.021901904 0.0013286128 -0.034004662 0.012622298 -0.06884356 0.040849876 -0.01137561 -0.028712843 0.06290255 0.023162138 -0.047457445 0.022933183 0.0073367185 -0.043783918 -0.0001915337 -0.0021524613 0.060638655 0.019535609 0.020995742 0.05294727 -0.052387163 -0.01990759 0.029787175 0.074152604 0.0106863305 -0.046274494 0.042097114 0.034877818 0.017658278 0.053695392 -0.046831578 -0.04987091 -0.017743152 -0.041281637 0.057304204 -0.039294753 -0.056911964 0.0496142 -0.018757872 0.06900913 -0.07204702 -0.057257965 0.007824181 0.0015038346
nothing 0.04683778 -0.062838316 -0.0008980583 -0.05599244 0.05518189 -0.042992804 0.027666824 0.015397176 -0.030399421 0.021415723 0.038206764 -0.036877498 -0.008846875 -0.05604901 -0.045235027 0.029133208 0.013719672 0.0058490327 -0.0689049 -0.049946073 -0.049363628 -0.008605873 0.04117642 0.010070656 0.034797743 0.042057797 -0.0654266 0.0044611646 0.036033835 0.007527663 -0.05534342 -0.05782579 0.013991081 0.06712677 0.0648409 -0.011600934 -0.014357751 0.06329223 -0.0635021 -0.023506453 0.07260644 0.013073903 0.015577602 0.029432252 -0.013986687 -0.02066509 0.0469927 0.019731704 -0.047223806 -0.044405963
seemed -0.07761569 -0.004476606 0.005395962 0.054329023 -0.092281304 -0.013092754 0.0009456661 -0.095531344 0.004216463 0.06754302 -0.028599886 0.06881906 -0.06678859 0.027053706 -0.017115375 0.07125746 -0.004650402 -0.02852848 0.0598825 -0.062858924 0.0069781216 0.06658464 -0.01873066 -0.0006700102 -0.07126826 -0.041439 -0.07034782 0.010283031 -0.057503764 -0.08072255 0.0707509 -0.074270315 -0.0374146 0.07090763 0.031863086 -0.016605008 -0.01982254 0.074774235 0.0829246 -0.033680737 -0.041006442 -0.0223741 0.05759014 0.06820727 -0.021103363 -0.01460057 0.061019916 -0.060985126 0.03570299 0.028832484
its -0.026497416 0.040707227 0.06955253 -0.08196891 -0.025837375 0.030123618 0.0020404584 -0.0696543 -0.07024077 0.069134586 -0.04300767 0.005139317 0.017287828 -0.07087333 0.008786924 -0.00955434 -0.011152044 -0.07991141 0.031390253 0.011340101 0.008809769 0.035617948 -0.012032793 -0.015138854 0.0024080318 -0.02354294 -0.019120762 0.077809535 -0.026743209 0.0030359759 0.058855385 0.0488115 0.049924936 -0.014412152 0.02946319 0.040567257 -0.03270837 -0.0632653 -0.051986977 0.0062191645 0.041527253 -0.03238628 0.026291817 -0.022699103 0.061879616 0.06613434 -0.00012890529 0.027757438 -0.04103595 -0.064656
never 0.011105794 -0.023269136 -0.07440864 0.017264463 0.0012846639 0.062895924 0.0323641 -0.008534817 -0.08321369 0.029230906 -0.03656977 -0.029543456 0.042397484 0.02120336 -0.029400626 -0.023771409 -0.010637261 -0.019633463 0.010360898 0.083026126 -0.06658398 -0.0027867667 -0.030147633 -0.022431813 -0.07336551 -0.02509592 -0.06452202 0.0425403 -0.04297167 0.044945836 -0.028545585 0.0065278187 -0.006836677 -0.050480306 -0.033959307 0.0296089 -0.04297808 -0.018159917 -0.015103244 -0.0001170038 0.07045849 -0.025809553 -0.040966112 0.012021597 0.002877323 0.052897684 -0.020172061 -0.021504736 0.014906363 0.042623132
going -0.050850514 0.040062644 0.03649314 -0.0734827 -0.042567905 0.019275079 0.024900975 -0.07672025 -0.0174598 0.0101569295 -0.030296754 -0.042580687 0.0075176624 -0.043652393 -0.012787678 0.0721363 0.008649479 -0.064085156 -0.05907294 -0.034811568 0.07015956 0.08553114 0.0037807121 -0.05299424 0.056261785 0.045616586 0.034024995 -0.0353892 -0.08190392 0.02099498 0.021725988 0.022827007 -0.010593974 0.03355132 -0.0343901 0.067367725 -0.008031708 0.039618645 0.04146733 -0.06128616 -0.025169702 -0.056119706 -0.03004643 0.056814425 -0.06359484 -0.01141611 0.06106361 -0.019326432 -0.011175765 -0.015828067
great 0.07373393 0.017512904 -0.033451997 0.024708182 -0.019622788 -0.08092443 -0.038189817 -0.05190525 -0.011306157 0.03739178 0.05704258 -0.021303821 -0.02274316 0.000496231 -0.042100128 0.0114416005 0.067117594 0.044119835 0.0030753454 -0.020023447 0.028884945 0.013782547 -0.059133545 0.04345305 -0.054888915 -0.06146166 -0.018983658 0.019058011 0.022050954 0.036294427 0.010977423 -0.050067294 0.06646456 -0.06709526 -0.0007675206 0.026863288 0.04347423 0.06108398 -0.0045141773 0.06526518 0.04487178 -0.050567206 0.038096905 0.025911229 -0.0077211144 0.06935661 -0.04036013 0.021027394 0.06602818 -0.00390855
got 0.027686214 0.036011893 0.011363508 0.057983182 -0.052511726 0.051794574 -0.020496184 0.009349686 -0.023795981 -0.04710152 0.01623509 0.012567485 -0.026409935 0.035461843 -0.043037895 0.0075285593 0.05336606 -0.020647459 -0.0095563885 0.04788711 0.026503747 0.050689522 0.06399295 -0.009225892 -0.039357413 0.037260585 0.003998056 -0.0059933458 -0.06543895 -0.038780086 -0.05207023 0.026937637 0.008795254 0.01720174 -0.018559122 -0.04675806 0.013307873 0.03907188 0.010133167 0.012202687 0.018217076 0.017118437 -0.035774726 0.032188933 0.046519347 -0.04398237 -0.054756332 0.013270035 -0.033501673 -0.0051502446
ever -0.05728157 -0.0038551814 -0.06314038 0.038631037 -0.044438604 -0.060932882 -0.05109398 -0.017140307 -0.025947241 -0.031268455 -0.05881401 0.08039611 0.007184974 0.07025838 -0.048989367 -0.035225365 -0.053307854 0.008092514 0.034095194 0.010469193 -0.04442325 -0.030026414 0.06402131 0.012620131 0.03371296 -0.04631017 -0.06251331 0.06249473 -0.06865874 -0.040008634 0.015463656 -0.040233973 0.011749391 -0.078274205 -0.029062808 0.040815033 0.0076142126 0.025993887 0.018408464 -0.00313085 0.041262507 0.0047620777 0.061486762 0.028645895 0.008346189 -0.0658741 -0.021206787 -0.07309778 -0.0321099 -0.031436007
table -0.021166097 -0.054807894 0.011734957 0.039294083 -0.04775068 0.038830947 -0.027202336 0.0384533 0.039204285 0.049949154 0.05910919 0.023601335 -0.058574405 0.039524183 -0.021351613 0.019527484 0.057693377 -0.0166666 0.0116372835 -0.060073804 -0.03246308 0.03712037 0.004904658 0.0546539 -0.007169901 -0.046906587 -0.008990146 -0.019494621 0.053283397 0.030625131 0.006190979 -0.04150498 -0.034346264 -0.036134448 0.03249416 0.059028897 0.019861106 -0.046936024 0.049476977 -0.012198715 -0.0140890125 0.016161641 0.012161646 0.029193189 -0.011183884 0.038279247 -0.015812207 -0.022591162 -0.06622812 -0.012097041
any 0.08370378 0.027183037 0.034673966 -0.046771944 -0.04318831 0.008593316 -0.027164076 -0.0024405313 0.012481787 0.0406495 -0.07586661 -0.014559313 -0.022213662 0.03623869 0.05542779 0.02691252 -0.05949285 0.012824823 -0.085344076 0.054224495 -0.0103244055 0.040234778 0.020648398 0.055839024 -0.02605784 -0.0091244755 0.018978527 0.027506465 -0.03722041 -0.030204391 0.011554148 -0.027260797 -0.05882939 -0.04688873 -0.057419386 -0.043190222 -0.036609575 0.0052392306 -0.028988298 -0.06867352 -0.06757778 0.03132978 0.0085829515 -0.015387417 -0.071794935 0.014060312 -0.032079544 0.014162123 0.06785088 -0.031292092
only -0.049279526 -0.041852046 0.04781396 -0.027643714 0.061744705 -0.032059632 -0.04673933 -0.07196366 0.026326986 0.028600382 0.0020134992 -0.039364606 -0.049267568 0.06659113 -0.021562772 -0.004856427 -0.0313759 0.030326236 -0.043004926 -0.05956415 0.029240549 0.016252765 0.067058496 0.023665557 0.01103361 -0.02062066 0.043937407 -0.022416554 0.028080901 0.029753854 -0.052068964 0.020517647 0.050808717 -0.016906213 -0.05991201 0.0744627 -0.020674344 -0.0006285587 -0.070129625 0.041137338 -0.035694793 -0.011023103 -0.05837703 0.067868374 -0.04216566 0.013494151 0.059181225 0.020624612 -0.048955426 -0.017373499
more 0.0011133113 -0.03643486 -0.012332265 -0.0061315 -0.050572637 0.01128917 -0.044018295 0.030803123 -0.013259901 0.02971455 -0.0073847757 0.03689927 -0.012843422 -0.025627576 0.05537863 -0.041773442 0.015459842 -0.01659198 0.042915437 0.07008178 -0.024737969 0.0024302998 -0.06907523 0.017844427 -0.0054296185 -0.0030477317 0.03908499 -0.06068584 0.06620583 0.06149355 0.003968414 -0.017543508 0.0022595124 0.006532271 -0.052344292 0.02919858 0.024339598 0.026303768 -0.005071415 -0.009100117 -0.016488854 0.0133760115 0.012885674 -0.0481231 0.027127188 0.0010043394 0.050876196 -0.06505556 0.014514171 0.002544222
cried -0.028965468 0.0053347605 -0.06761553 0.019646477 0.033532083 0.010928505 0.041437916 0.06666834 0.03307488 0.047370777 0.052359067 -0.02519894 -0.048394892 0.04546956 0.023325153 -0.03445266 0.05582058 -0.020473024 -0.046483573 0.07516148 0.030932792 -0.027060138 -0.04889767 0.0584411 0.036057863 0.0074218437 -0.04571026 0.036769684 -0.060328357 0.040560484 -0.020827658 0.007766615 0.01897592 -0.07481526 0.031822346 0.022869058 -0.05637551 0.01830149 0.05174219 0.06638899 -0.05508058 -0.012965197 -0.030325012 -0.064393535 -0.0067003556 -0.06568279 0.058025893 0.009694406 0.003209106 0.06271128
gloves 0.025863055 0.054188263 -0.018051 0.0006619687 -0.016487619 -0.06126941 -0.0031455671 0.043273006 0.06761176 0.027395576 0.057419613 -0.058443222 -0.06020277 -0.018456249 -0.05874697 0.055892475 0.040738545 0.059671976 0.02875282 -0.021369014 0.024326893 -0.021569604 0.058427356 -0.052108455 0.025557747 0.06343145 0.03818241 0.038100198 0.040275298 0.061034415 0.012246544 -0.046766426 0.07481995 0.052454837 0.008965263 -0.06379342 -0.037391342 0.06047779 0.019877834 -0.03614929 -0.032873683 -0.043600038 0.027933689 0.029221393 0.046550322 0.021776784 0.032566074 0.022032378 0.0383601 0.011531877
fan -0.056622088 0.05513702 -0.029868418 -0.0059665637 0.05086692 -0.056740306 -0.08458083 0.031090874 -0.048154842 -0.057572085 -0.026824925 -0.074398436 0.032105885 -0.009747008 -0.027188925 0.012943346 0.019246422 0.008310901 -0.07271954 0.017624872 -0.037233524 0.008663415 0.01021963 -0.011189343 0.028920772 0.048786335 0.057476893 0.05456614 -0.034269035 0.020309472 0.03601557 0.0052213436 -0.043309044 -0.011345367 0.04516604 -0.059550658 -0.06797173 -0.046930898 -0.017415518 -0.047757424 0.056852233 -0.035234116 0.01822086 -0.06535871 0.0041926266 0.04973075 -0.06756585 0.07063798 0.0031060185 0.05944211
well 0.060964867 -0.035080757 -0.048135366 0.012615308 -0.07879212 -0.04626088 0.077209555 -0.04333995 -0.0041378224 0.007232814 -0.026036317 -0.01757522 -0.008079798 0.01268932 -0.008111529 -0.039961573 0.032269705 0.03232705 -0.04170568 0.045700952 0.03551707 -0.029160473 0.06362723 -0.0053210845 0.022343874 0.06881312 -0.013536609 0.018976368 -0.0011517311 -0.061893865 -0.07159174 0.05567549 -0.075749464 -0.041214228 0.033024125 0.0043175207 0.05398756 -0.014727581 -0.035115823 0.069837734 0.029598722 0.042898078 -0.054622523 -0.046734974 -0.008639575 0.043167185 0.02386245 -0.04654748 -0.008977281 -0.034376014
white 0.00056220323 0.07717887 -0.028134163 -0.033656552 0.06783674 -0.039326157 0.03090893 0.04147528 -0.01851047 -0.006854679 -0.048604418 -0.028670961 -0.023670172 -0.03467006 0.0419634 0.067744724 0.04203463 -0.013231925 0.0057563786 0.022754049 0.005562862 -0.039567545 0.045127086 0.047557645 0.03765123 -0.029878011 0.06529548 -0.048682757 -0.02397327 -0.022134865 0.07269825 -0.032901462 -0.06649531 0.031054022 0.006653135 -0.015214031 -0.054744508 -0.014206079 -0.056423217 0.0275901 -0.011555189 0.028993098 -0.046275575 -0.041836917 -0.06715798 0.045372218 -0.014796533 0.025486711 -0.0065408014 0.0158821
looked -0.0014744886 0.057262816 0.022829354 -0.007845247 0.030609578 0.01215128 -0.00010049564 -0.017311793 -0.017521739 0.012824813 0.0449215 0.025633816 -0.030863091 0.025785405 0.04269913 0.011868391 -0.053669352 0.026758848 -0.013413471 -0.075953595 -0.044981197 0.07667115 0.063056655 -0.05834656 -0.037340548 -0.06387417 0.015841955 0.0077174855 -0.040845547 -0.072165705 0.019825773 0.051386744 0.024885163 0.01813109 0.020451523 0.012365212 -0.067296796 0.014752651 0.054490354 -0.01488343 0.052139275 0.0018486853 -0.061375815 -0.0064802477 0.0191371 -0.013843108 -0.058202043 -0.011747701 -0.080582365 -0.016066084
before -0.0024152342 0.05407014 -0.013653689 0.053888783 -0.04807144 -0.0019961111 0.009893971 0.029043933 -0.033133507 -0.037007667 0.02443945 0.013444332 -0.02101466 0.000390772 -0.05360772 0.04614742 -0.024985883 0.01812057 0.036375638 0.003554381 0.02724986 0.02867207 -0.022087714 0.015193373 -0.02885458 0.0043034526 0.0010979956 -0.025134385 -0.056571864 -0.027206928 -0.037507754 0.068993635 -0.029779207 0.026974605 0.03848954 -0.024627544 -0.04193673 0.0026140907 -0.048318498 -0.009696381 0.031292897 0.029573679 -0.075939655 0.05423747 0.060919557 -0.062215295 0.007980929 -0.05748183 0.042356133 0.024462923
moment 0.030908482 -0.007056293 0.0005382892 -0.014608259 -0.07301376 0.059475917 -0.05443922 -0.04136082 -0.004989014 -0.037763655 -0.0059842584 0.037777297 0.046659965 -0.0032400112 -0.054778226 -0.0019313963 0.05653003 -0.011184436 0.04446683 -0.040077407 -0.017787758 -0.07634598 -0.04955753 -0.0394178 0.015038126 0.03938031 -0.010522976 0.037655886 -0.053221114 0.023715194 -0.014990279 -0.00015879457 -0.017682903 -0.05649213 0.007163458 -0.06755722 0.05451099 0.026450243 0.001988247 -0.044232495 -0.045611445 0.06520918 -0.010224471 0.0039601377 -0.010581107 -0.041568886 -0.017616114 0.0097015165 0.062087934 -0.05642115
why 0.046137467 -0.042616993 0.0033243205 0.0028649415 -0.036876116 0.04971076 -0.03954768 -0.04338681 -0.0018971137 0.05962628 -0.029423952 -0.005278566 0.038167395 -0.049473904 0.055193745 -0.06627979 0.058392752 0.013778818 0.029181585 0.05633592 0.016140532 0.00047469093 0.06527082 -0.06935392 -0.03425572 -0.03744396 -0.021481253 0.00034991105 -0.009940018 0.04895687 0.035848394 0.022930276 0.0325241 -0.000865103 0.0674366 0.027896993 -0.022419076 0.047836438 -0.04378317 -0.06974977 0.053303737 -0.03571579 0.0062733376 0.021115659 -0.042475525 0.064308815 -0.028900124 0.053380582 0.0007014518 -0.0007720239
an -0.05592292 -0.056724254 -0.030978164 0.054269884 -0.022253256 -0.025266033 0.024283454 -0.03507882 -0.057974637 0.011559892 0.013946993 -0.018526046 0.069936804 0.035073236 -0.026701149 -0.044551216 -0.02736381 0.015279998 0.047251076 0.026081622 -0.014300751 -0.030924648 0.052495588 -0.053160973 -0.046836052 0.029274123 -0.03755546 0.061487485 -0.006945884 -0.06741576 0.07323409 0.045361955 0.03336544 0.04126584 0.029911496 -0.006654584 -0.03256204 -0.023998512 -0.051362768 -0.040163055 0.06393659 -0.06742509 -0.013418246 -0.079592876 -0.021114592 -0.03493684 -0.0385963 0.053529993 0.04302631 -0.06263429
eat 0.0064615547 0.036585193 0.029224925 0.0015343623 -0.07101181 -0.01665784 -0.032168373 0.049648155 -0.042783435 -0.014910219 0.054458063 -0.04150244 0.01967371 -0.05964263 -0.06409906 -0.033990182 -0.0060462845 -0.04905618 -0.055405032 0.010195889 0.0032995045 -0.017566925 0.038054362 0.042446554 -0.06696988 -0.0021700063 -0.031546183 -0.05940958 -0.0007660305 -0.013189821 -0.019185355 -0.055006187 -0.0061619384 -0.03969902 0.035623446 -0.025603866 -0.021980705 -0.04665977 0.062507346 -0.05895724 -0.05585863 0.014864553 0.057961013 0.017770493 0.017883474 -0.055770416 0.010652019 -0.0536158 0.015406388 -0.051970195
however 0.04233827 0.08098453 -0.036892023 0.03497554 0.016920138 0.049922448 -0.020566866 -0.008836408 0.02974385 0.06471706 0.037165202 -0.020865388 0.078583285 -0.047025103 -0.0002185728 0.04164602 -0.022147998 0.035565276 -0.06472079 -0.032649502 -0.020185351 0.041190714 0.0064726225 -0.004972938 -0.007330537 0.0051853103 -0.013932716 0.04523681 0.06563209 -0.005100255 0.03745845 0.019004548 -0.053098686 0.04787569 0.07615242 -0.016613113 0.049708728 0.07103378 -0.021003788 -0.06100636 0.020597761 0.03756335 0.010655751 -0.006633073 0.04632047 -0.008314299 -0.012169035 0.062431995 -0.0123740705 -0.07179583
sure -0.05566303 -0.063048154 0.006473064 0.057739016 0.015243745 -0.054699756 0.051097903 0.03473867 -0.005313073 -0.05839637 -0.062345076 -0.03945656 -0.039750706 0.005831278 0.029312376 -0.033836495 0.027187634 0.030653726 -0.0052349563 -0.031930543 0.007776619 0.041022953 -0.06070623 -0.021561611 0.037673227 0.046686046 0.055043954 -0.07946327 -0.0630547 -0.08450519 -0.0034413724 0.03751353 -0.07198659 0.030045483 -0.024673916 0.05628991 0.047545828 0.055855982 0.04662714 0.052048873 -0.050937016 -0.033650376 0.05389964 -0.06472315 0.022814248 -0.031027531 0.009685483 -0.016761228 -0.07812752 0.0069941003
pool -0.019277444 -0.009885656 -0.030393302 -0.054881245 0.07225363 -0.024046745 -0.053760752 0.059564803 0.06404419 0.04071694 -0.04328347 0.036697663 -0.031183898 0.02410149 0.031104822 0.014517642 0.025659872 0.015032843 0.026529778 -0.0035903314 -0.03643669 0.037054505 -0.009616457 -0.035480384 -0.008623577 -0.004635755 -0.007996499 0.04835392 -0.0076350328 -0.013368132 0.03400959 0.017304584 0.013897293 -0.009415741 -0.040028837 0.037444923 -0.007950285 0.056239672 0.037427247 0.018772695 0.050205227 0.030736554 0.0048943236 -0.022672266 0.0240166 -0.041499887 0.03071279 -0.00034718786 -0.03602342 -0.010398911
getting -0.030563315 -0.0014954645 -0.024313543 -0.07567696 0.07260167 0.07443243 -0.03306057 -0.039076958 -0.003391929 0.05141979 -0.03498404 0.046999622 0.029042384 0.053733137 -0.07789777 0.04826671 0.016264057 0.059480038 0.047470454 -0.04541957 0.0661716 -0.019791596 0.08629 0.010984537 -0.0034319665 0.019131191 -0.068610966 0.0043373033 -0.05399568 -0.010953562 0.06486993 -0.06114334 0.0076153153 -0.06501377 0.020540452 -0.046388388 0.068747684 0.014305443 -0.064093776 -0.013147579 0.016258234 0.051682513 0.051035933 0.020024903 -0.07718119 0.0028472128 -0.06261359 0.066823006 -0.00044592016 -0.029110804
took 0.003852249 -0.03029835 0.0045264047 0.051512882 -0.006611676 0.05581498 -0.071888134 -0.027649 -0.001677863 -0.010289591 0.025138995 0.04224954 0.05437229 0.022314204 0.028476175 -0.043747213 0.015950264 0.04197186 -0.04325736 0.028410636 -0.06878474 -0.07448397 -0.034112882 0.038508773 -0.05411409 -0.044175316 0.039402906 -0.020852707 -0.0058681862 -0.013919306 0.022340678 -0.022424223 0.010618176 -0.027293421 0.001588869 0.03421367 0.04676606 -0.04718785 0.045304798 0.048552997 0.03852449 0.025371576 0.04686656 0.019715054 0.06636488 0.04270124 0.033475146 0.0027549493 -0.014332481 0.081270166
either -0.014096612 -0.016008478 0.05407641 -0.048992187 -0.026389595 0.04470107 0.0077071902 0.0011427518 -0.008232637 0.07518742 -0.047015686 -0.028135726 -0.053973798 0.06399758 -0.06279883 0.027475324 -0.048980944 0.012052522 0.031527285 0.025264068 0.024004674 -0.06361418 0.055218976 -0.010756293 -0.045210037 -0.0045564533 0.026650935 0.015076734 0.027585423 -0.020301126 0.060193278 0.0034250147 0.0068537355 -0.0696479 -0.020611182 0.0055235364 0.011492377 0.0050002853 -0.051157404 0.045890898 0.022201989 -0.06164752 0.010742835 0.047019407 0.043933634 -0.0193535 -0.054710057 -0.06493229 0.037463814 -0.031505693
just -0.027051859 0.039785165 -0.032313276 -0.07525373 0.03211817 0.05227785 -0.04348242 0.03608492 0.0004297013 -0.042625368 -0.03648309 -0.04001079 0.090372175 0.015609595 -0.06384023 0.06072107 0.003078049 0.055015247 -0.04186578 0.029753191 -0.03339452 0.082192875 -0.04816767 -0.022681592 0.071582995 0.038430102 0.034017883 -0.0151101565 0.044959158 0.051712997 0.030583428 0.061666496 0.0911499 -0.045854975 -0.05531219 -0.0038544652 0.013490254 -0.010780984 -0.00012858899 -0.032960575 0.017658763 0.003682659 0.03519933 0.051511433 -0.040050935 -0.009022628 -0.030570887 -0.013691066 -0.04842789 0.016164776
upon 0.036554184 -9.30184e-05 0.060027737 0.077038825 -0.011511963 0.050291047 0.06815075 -0.07237748 0.005114616 -0.012853412 0.069014706 -0.059427045 0.091298245 0.03673539 -0.0031095156 0.053751796 -0.027872132 -0.04043671 0.04513158 -0.047288146 -0.06274579 -0.051785268 -0.02620674 -0.05231059 -0.067417726 -0.02078717 -0.03833962 0.04784254 -0.007591404 0.04760878 0.0011469986 -0.026390444 -0.018639501 0.023420503 -0.028047737 -0.04077727 -0.07082991 -0.011248697 -0.009901058 0.02681354 -0.016000342 0.055786878 -0.006586275 -0.005528882 -0.04245894 0.05551606 0.037457306 0.0216422 0.009355538 -0.05614305
ve 0.021801034 -0.06928816 -0.044625513 0.039697938 -0.059920922 0.021482274 -0.0029340694 0.0049144393 0.048662014 -0.059988897 0.040319074 -0.042925738 -0.02779501 -0.0144478325 -0.0269286 -0.0037223424 0.049884338 0.026104432 -0.040278986 0.041148078 -0.0379885 0.0825376 0.005906602 0.04918279 -0.0287731 0.04357746 -0.050154362 -0.053064503 0.05395014 -0.020959467 -0.004405059 0.0016863085 -0.06191584 -0.008669306 -0.023921741 0.034542225 0.041117173 0.057084654 0.06887014 0.035189003 0.055834055 0.034668405 0.07805437 -0.040290777 -0.043713752 0.034119762 -0.0047222595 0.027710207 0.04593335 0.048314545
through 0.06372818 0.032606844 0.06359228 0.031126084 -0.027387002 -0.05716051 0.036951054 0.023601962 -0.04208681 -0.028146895 -0.009287489 0.05772728 -0.05972029 0.02018482 -0.06831734 0.0011081967 0.022081032 -0.041719094 0.049486145 0.03164755 0.052976772 -0.07732159 -0.015732415 0.018969132 0.024805015 -0.040860683 -0.045092016 -0.074130975 0.04986406 0.020195642 0.08243226 -0.044110242 0.039398093 -0.031418003 0.024723534 -0.032120306 0.001186413 0.0326901 0.06653023 0.025947377 -0.038777426 -0.0174083 -0.019912608 -0.008109455 -0.021741375 -0.047855232 -0.018759297 0.0632318 -0.0103924535 0.06687215
wish 0.022032754 -0.0031393645 0.01151344 -0.0038221816 -0.024875376 0.04911142 0.005061348 0.04386057 -0.04528133 0.011358161 -0.039993253 -0.055358093 -0.043123614 -0.042588234 -0.007565907 0.040052745 -0.009434531 0.06869013 -0.037074383 0.07643679 -0.033669133 0.080693334 -0.06533135 -0.08088149 -0.08191012 -0.033601448 0.016397372 0.035167888 0.051867567 0.013202434 -0.04743554 0.02278651 -0.044779442 -0.008515584 0.02147729 0.011867703 0.02018115 -0.058898356 0.026081376 -0.012108371 0.055719312 0.07167253 0.08113403 -0.06747795 0.04122851 0.041933253 -0.052264895 -0.04877777 0.008486383 0.038740784
tell 0.039951794 -0.06870791 -0.03784436 0.07186866 0.0061021447 -0.046788406 -0.031723574 -0.06739857 -0.08085223 -0.009118485 0.033438094 -0.0072044437 0.02983184 0.061200198 0.06277915 0.04813387 -0.029257946 0.05617947 -0.0073148753 0.0074516507 0.043993324 0.024289543 0.0014833945 -0.01464963 -0.009577765 -0.035938535 0.06192292 -0.080135114 -0.0067220037 -0.079195045 -0.06555509 -0.0050123055 -0.025076661 -0.033144362 0.021678722 0.056730483 -0.0074391137 0.021973379 -0.025130415 0.056095123 0.08031465 -0.030162802 0.05186083 -0.047127463 -0.0599461 -0.029502098 0.031194568 0.0035442142 0.027687438 0.027621312
hall 0.058721367 -0.029888839 0.067399204 0.05982925 0.05152549 0.058192685 -0.042122755 0.0026219897 -0.046213288 0.041907996 -0.0074510775 0.006916034 -0.065233335 -0.000187119 0.05197591 -0.02445908 -0.07064458 0.027758434 -0.037635647 0.037530635 0.034696404 -0.04624057 -0.019821264 0.055180907 -0.014819817 0.017428571 0.04773577 0.022733064 -0.02309044 -0.039718788 0.0120793525 -0.047093254 0.0738813 -0.013338529 0.051228404 -0.052824512 -0.033620574 -0.04962363 0.011666657 0.024120543 0.045052074 0.0008605481 0.045461264 -0.062911175 -0.044560455 -0.03197309 0.04298759 -0.007340953 -0.007617804 0.022081532
key -0.06599788 0.032184597 0.018292649 -0.0040811747 0.05220385 -0.05840456 -0.028838644 0.07579756 0.0513656 -0.051071182 -0.006830395 -0.020242894 0.0028366237 -0.025882171 -0.02401375 0.034369525 -0.054657932 0.026150825 -0.033370774 0.017798692 0.034030866 0.03345325 0.011012359 0.04425988 -0.044059765 -0.013209131 0.04106546 -0.026474586 0.019836236 0.016595943 -0.06943344 0.054139704 0.026061958 -0.06454003 0.07168217 -0.043382242 0.031078003 0.07856022 0.051033985 -0.034421016 -0.023710312 0.03638398 -0.025419395 -0.0050102724 0.060248785 0.032644846 -0.003757285 0.05680185 -0.016038235 0.045262944
half 0.032060593 0.021095255 0.016391212 -0.06485687 0.04647921 0.0432041 0.035382528 0.024642415 0.05837681 0.07864999 0.02078776 -0.0066276076 0.03363775 0.0112514105 0.048040845 0.061695278 -0.014456033 -0.034060296 0.05955419 -0.0558141 0.0035647992 0.024261322 0.011204393 -0.015399416 -0.03589132 -0.05999146 -0.046098106 -0.034606658 -0.058160804 0.07221553 0.06837532 -0.045731053 0.026572961 0.027415965 -0.06277154 -0.047527496 -0.018650008 0.059974045 -0.0044797007 0.0455466 0.0053740824 0.058744907 0.0313698 0.033839375 -0.0048606163 0.07134146 0.048597295 0.056894053 0.071612515 0.024709294
find 0.04154931 -0.06345126 0.045795456 0.03337748 -0.04273566 -0.064589925 -0.0012191328 -0.016595328 -0.029160557 -0.041799515 0.04603277 0.042025004 -0.017456092 -0.061215255 0.03453843 -0.063284345 -0.004910955 0.00745818 0.03371702 0.024345627 -0.063912265 0.036914527 -0.04635307 -0.037343163 0.022092197 -0.0015520485 -0.0055071954 -0.022950262 0.04602207 -0.08248339 0.049654596 0.02344864 -0.03973536 0.008648872 -0.061640415 -0.032716423 -0.044336054 0.05064563 0.0010590972 0.041512564 0.016298413 0.0038637426 0.021046778 -0.032569736 -0.05047738 -0.010543839 -0.025985852 -0.046064127 -0.056910858 0.03506552
his 0.05238149 -0.013578846 -0.047757335 -0.061051298 -0.00043745356 0.046324536 0.04566577 0.013401218 0.028639657 0.03825298 -0.020189414 -0.036862195 -0.045612022 -0.024683794 0.0025566127 0.06159749 -0.045868106 -0.0131011745 -0.051011413 -0.055331036 -0.017145535 -0.023443624 0.022980511 -0.013505679 -0.02316954 -0.056001857 0.06561922 0.02781453 0.002761845 0.009876945 -0.044048455 -0.024889613 0.061379947 -0.05255745 0.04931055 -0.021641878 -0.022521118 -0.03355792 0.053670257 -0.07198959 0.014848022 0.04012826 0.05613998 0.029319597 -0.036442738 0.038400058 0.016616706 -0.07566594 0.06086892 -0.06519587
use 0.06886656 -0.07311434 -0.030306252 -0.06013019 -0.017872218 -0.058179203 0.02778767 0.057623878 -0.06772114 -0.06697423 0.02254285 -0.01897493 -0.017740004 -0.045997884 0.032317568 -0.023321657 0.010912474 -0.0027417955 -0.01727705 0.012961897 0.06862533 -0.042768948 0.018713145 -0.06422997 0.0520039 -0.008183252 -0.04400348 -0.0569284 -0.037731122 0.034671467 0.06080945 -0.010126923 0.018732036 -0.027727542 0.03162893 0.010893441 -0.06477009 -0.008940111 0.061023876 0.012868574 -0.067659765 0.061295446 -0.06425129 -0.017060071 -0.069490165 0.045361325 -0.05946521 0.03774928 0.011326235 -0.05568716
large -0.0043706303 0.010557321 -0.009517509 -0.015363986 -0.0027346916 0.008994777 -0.062632054 -0.017130557 0.0557727 -0.040694416 -0.019571135 0.032246534 0.06942493 0.00478792 0.032579307 0.0033675947 -0.0034569995 0.031803813 0.06230821 -0.058019344 -0.0451917 -0.04225098 -0.0040617934 0.026478468 0.021491913 -0.010174891 0.054981485 0.036139004 0.029959936 0.04857639 -0.022398189 0.044810414 0.056184106 -0.031412486 0.05779642 -0.057738524 0.0043832073 0.025041305 -0.067873254 -5.4465258e-05 -0.0104415 0.017648388 -0.048523523 -0.033598874 0.057672773 -0.009593631 0.062335655 0.025962237 -0.014179267 -0.01991005
look -0.01312959 0.046598606 -0.014147989 -0.025503144 0.0018233376 0.020908227 0.055868685 -0.05620786 0.053323865 -0.013186741 0.054333612 0.00855723 0.027696531 0.04173629 0.07857113 -0.026816044 0.055229787 0.029526085 0.00913672 0.025997946 -0.059195958 0.04332778 0.043067478 -0.068880156 -0.020241072 0.0031918478 0.055161864 0.06697733 0.03826479 0.02181403 0.015484513 -0.02327061 0.06518847 0.015565392 0.041962318 0.026226696 -0.019768758 -0.048181616 0.060190137 -0.03412049 0.018951815 0.04238361 0.0303603 -0.053143896 -0.069113865 -0.054864265 -0.014923227 0.017746272 0.04292046 0.034646407
too -0.014108795 -0.008715807 0.018651389 -0.074867 -0.037154444 0.06137749 -0.025506878 0.010902975 0.02312745 -0.052919514 -0.010595596 0.015632467 -0.0018020961 -0.048025243 0.015379034 0.0065236576 0.016702944 -0.06969831 0.017126506 -0.05118171 -0.00013705797 0.046789292 -0.01664456 -0.056741778 0.0627428 -0.05578542 0.0063122427 -0.04306372 -0.063782744 -0.02355615 -0.019972932 -0.048676297 -0.016964655 -0.010554712 0.00029605487 0.021565562 0.055382103 0.0551334 0.03443005 0.034302298 -0.044157144 -0.008520718 0.05056523 -0.048656747 -0.04071283 -0.06707305 -0.040679947 -0.020337457 0.024824897 0.013894849
house 0.025856435 -0.029533397 0.025390033 -0.056347165 -0.018501189 0.05845883 0.013413953 0.05395935 0.034925025 -0.06464184 -0.042005457 -0.044562567 0.005965203 -0.034907177 -0.062330768 -0.0010818557 -0.07366246 0.06592901 0.022885118 0.03353507 0.034390155 0.05560839 0.034818333 -0.05778334 -0.02360032 -0.0052407007 0.010682127 -0.009545741 0.0006663464 0.01926294 0.015123643 -0.03843983 -0.030686116 0.012583156 0.018783405 -0.0011486809 0.04463524 0.01646606 -0.039242655 0.00802107 0.027189458 -0.0074468087 -0.03793896 -0.032619342 -0.039171677 0.009142571 -0.00613604 0.05788656 -0.062628746 0.066744275
good -0.03710868 -0.020700343 0.07378707 0.0076035964 -0.03345472 0.04528729 0.040154465 -0.03250717 -0.05802562 0.003318658 -0.042082585 0.020125574 -0.0134540135 0.004494556 -0.019628381 0.022025483 0.02720096 0.0115016615 0.046216093 -0.059498325 0.012282328 0.08299788 -0.047597986 0.013349985 -0.014928203 -0.0325087 0.025124049 -0.063237876 0.005835011 0.050495025 -0.071909726 -0.027490169 0.0056580473 0.019250834 -0.051319767 -0.071619734 0.06481109 -0.027333662 0.072674274 0.015497707 0.037732616 -0.062339835 -0.06012328 -0.025057176 -0.07027194 0.012996201 0.064300925 -0.015585558 -0.028510073 0.02884625
right 0.034445304 0.03741392 -0.015914937 0.00978704 -0.04940705 0.0037136045 -0.06460647 0.071772486 0.021381918 0.056900688 0.022701105 -0.020795183 -0.05066817 -0.047843624 0.0024733455 -0.012833375 0.07324582 -0.032048363 0.049491987 -0.024975842 0.049129263 0.012607297 0.04571512 0.0128138745 0.030471606 0.003962107 -0.016064163 -0.03312503 -0.024250682 -0.03514898 0.030099982 -0.02397617 -0.034260057 -0.02227351 0.043405995 -0.0038165627 -0.0016237162 -0.06247357 0.011159329 0.028122064 -0.016409459 -0.00857359 0.017921166 -0.012262074 -0.050058994 -0.0064335875 -0.04415441 -0.029881392 0.051975682 0.0763887
words 0.005756676 -0.052602556 -0.057541143 0.052119683 0.045342542 -0.030775316 0.030540794 0.046249755 0.016762855 -0.04259451 -0.076701775 -0.05110494 -0.056665067 0.052176904 0.060282446 -0.059202004 0.04717497 -0.037270114 0.0010284113 -0.022397535 -0.008749538 -0.049761847 0.0054449444 0.07393725 -0.03024253 0.0019561914 -0.009754921 0.0757498 0.074634194 0.04707936 -0.025266932 -0.062319692 -0.047543593 0.017517628 -0.0012780076 0.013057838 0.051076736 0.027450697 -0.017820742 0.08678465 -0.054699074 -0.02991734 -0.08019793 0.037139222 -0.021923577 -0.017911922 -0.01916273 -0.008774532 -0.03841221 0.050539203
am -0.058776233 -0.056642458 -0.02878282 -0.030140445 -0.051916618 -0.009838833 0.020534929 0.031697437 -0.051002745 -0.060698155 0.018766161 -0.03646963 -0.01000556 -0.04944404 0.054316383 -0.045837704 -0.00040163868 0.045141105 0.03698828 -0.011885437 -0.0061430237 0.032048624 -0.035584737 0.03957942 -0.047207795 0.04138434 0.045003597 0.0070194467 0.037349623 0.028217534 -0.048945416 -0.026669124 -0.07348165 -0.029168058 0.070457466 -0.0447612 0.06430291 -0.054058738 0.03763834 -0.055572968 0.021922909 0.05440388 0.030857796 0.015759109 -0.05803112 -0.055585984 0.05001768 0.060234014 -0.034820657 0.046575706
might 0.034201764 0.049331352 -0.009288217 0.026449459 -0.023831556 -0.03068193 0.021154718 -0.002665331 -0.046710286 0.043693054 0.019780573 -0.06402676 0.05313607 0.03863037 -0.06505215 0.031729702 0.013509577 0.0067879744 0.063898616 -0.054243002 0.017991032 -0.023190588 0.0694086 -0.014845374 -0.06009323 -0.062490825 -0.024827283 -0.00017583533 -0.020931974 -0.033004373 -0.058718856 -0.07364682 -0.05558252 -0.030347511 0.0091128 -0.039171483 0.046148676 -0.005598933 -0.00983746 -0.05723961 0.06930624 0.045847613 0.02302272 -0.03577831 0.00035778433 -0.06642161 0.017894544 -0.070879176 -0.008328065 0.016588463
question 0.0078055696 0.01265609 0.051021416 -0.043303933 -0.032441825 -0.03280019 -0.021576248 0.016433328 0.025856536 -0.04116293 -0.052771017 -0.035554007 0.007383056 -0.062224474 -0.009785249 -0.0054215547 0.03228099 0.024006048 0.009928572 0.05552438 0.05227228 0.0119350795 0.024474155 0.0672828 0.060987543 0.037837178 0.006378054 -0.03277371 0.07046509 0.08310203 -0.009178201 -0.056604356 -0.0061359173 -0.030015988 0.057209134 0.03581878 -0.079457365 -0.003645637 0.015111513 0.0050271386 0.038827505 -0.03926061 0.025457457 0.06279295 -0.034093175 -0.033778742 -0.037962463 -0.044936694 -0.024401473 -0.020218378
