1182 50
the 0.032256253 -0.19409022 -0.07861995 -0.0692476 0.25945854 0.027761074 -0.04667006 -0.43848336 -0.20000996 -0.17879653 0.1893404 -0.07691522 -0.39595425 -0.009617341 -0.10050295 0.100711234 0.40061712 -0.12703128 0.5550005 -0.3413664 -0.5714704 -0.25193197 -0.0016882333 0.5079954 0.16701473 0.42524514 0.0614958 0.39778385 -0.764744 -0.20399019 -0.3897822 -0.011656017 -0.01085829 -0.7424722 -0.012608229 0.23788644 -0.31207174 0.2978562 -0.5298333 0.065000296 0.4075073 -0.1567868 -0.123145066 0.12524638 -0.63948333 -0.27456474 -0.55527216 0.041529875 0.0007678068 0.10990022
and 0.1387954 -0.011649523 -0.24772595 0.16740559 -0.091598116 0.116699904 0.14509293 -0.08712415 -0.22757429 -0.07165455 0.10123311 -0.09821578 -0.3035514 -0.31737638 0.21937627 -0.26946416 -0.013364234 0.09064662 0.21390861 -0.21219115 -0.16357143 -0.31971714 -0.3631827 0.1672118 0.100678176 0.07965234 0.10682048 0.09730322 -0.19531648 0.17991781 -0.20399621 -0.19362701 -0.33433962 -0.24090576 -0.1522526 0.14127934 0.021424733 -0.050605986 -0.15781008 0.1499435 0.117971 0.3198627 -0.22334322 0.051540174 -0.18592928 0.4091485 -0.10975751 -0.10724355 -0.12824047 0.13768958
to 0.085108176 0.18745348 -0.23334146 -0.09216812 0.12540074 0.22209813 0.26139802 -0.24279463 -0.17180718 -0.023018135 0.1475789 -0.04687174 -0.03923449 -0.20751223 0.29195502 -0.10069541 0.124976575 0.2133245 0.23700662 0.105659224 -0.23664206 -0.13839543 -0.23117895 0.22154981 0.23208448 0.21921873 0.021746637 0.15361859 -0.32774365 0.2590252 -0.24248324 -0.21951345 -0.3712635 -0.11709107 -0.09483268 0.2824995 -0.13384362 -0.033370934 -0.1898859 -0.05664019 0.009303225 0.22208123 -0.042583443 0.16962157 -0.16546337 0.10740351 -0.26639065 -0.023869567 -0.03634325 0.36179408
she 0.0126943085 0.054926667 -0.0085043125 -0.18946628 -0.14291355 0.45341727 -0.022023413 -0.3122891 -0.100259416 -0.29740658 0.15595917 -0.010983176 -0.33300585 -0.2563714 0.12676947 -0.1593286 0.08004039 -0.14626822 0.3721761 0.011072683 -0.2861419 -0.14000918 -0.07636408 0.50045025 -0.13985305 0.1639346 -0.041307993 -0.011346 -0.4377756 -0.04297159 -0.51589036 -0.038873952 -0.09453079 -0.20028566 -0.16049872 0.37829322 -0.22218068 -0.11942348 -0.33800825 -0.11784178 0.013167064 0.22308956 -0.03501455 -0.117491044 -0.36038002 -0.07591699 -0.3524996 -0.025970621 0.113178454 0.34432018
a 0.023017406 -0.23335125 -0.20469053 0.069853075 0.35956177 0.23741603 0.030193478 -0.42103705 -0.068377905 -0.098951936 0.13515499 -0.0657105 -0.36034167 0.0063316775 0.0006189397 -0.02596297 0.30997115 0.03489483 0.2968755 -0.2884039 -0.39572638 -0.30587557 -0.07233739 0.4481711 0.12775584 0.2465546 -0.034040365 0.30007747 -0.50571704 0.05802528 -0.33924893 -0.042595133 -0.26905143 -0.40558964 -0.13628954 0.38747802 -0.15661353 0.0662822 -0.24973516 0.09047265 0.40576038 0.0704917 -0.08191317 0.10475881 -0.52431184 0.08363771 -0.36188823 -0.07783739 -0.049331337 0.2524406
i 0.11144526 0.16223589 -0.24515857 -0.03270289 0.0020521006 0.34364873 0.13926797 -0.30970776 -0.21674137 -0.22159347 0.2440925 -0.08592802 -0.44743332 -0.28424773 0.48665276 -0.24725108 0.31166244 0.25835192 0.22195427 -0.14504206 -0.35776755 -0.3828632 -0.28128228 0.237255 0.45516348 0.29619586 0.17444436 0.1759583 -0.3765383 0.30204976 -0.5348971 -0.30262893 -0.36429825 -0.16634534 -0.20677921 0.20204094 -0.30471122 -0.32132274 -0.28914267 0.10708049 0.2842982 0.03241358 -0.19879574 0.2133087 -0.16212559 0.2843156 -0.47550696 -0.19380736 0.04136389 0.34885615
it 0.07358913 0.13239132 -0.08456297 -0.1392082 0.09784495 0.39755237 0.003990976 -0.22920246 -0.1787196 -0.1225519 0.14121461 -0.053715885 -0.32190862 -0.30578762 0.11276935 -0.11632274 0.08951559 -0.016933478 0.2264918 -0.0660453 -0.32133037 -0.23903634 -0.060583256 0.33847913 0.05654849 0.15284187 -0.07060701 -0.044349022 -0.36239985 -0.016121877 -0.44310945 -0.14138961 -0.10711799 -0.112088606 -0.13408147 0.29429922 -0.19846039 -0.119455054 -0.15042213 -0.081229255 0.038993858 0.079670966 -0.113970645 0.0014195687 -0.25551718 -0.019228444 -0.42675424 0.009023129 0.03144666 0.16865198
of 0.39679968 -0.23373717 -0.2734858 0.3180374 0.0517749 -0.023163714 0.39626586 0.13347653 -0.23516269 0.29020628 0.39865837 -0.2873316 -0.07333364 -0.039778322 0.3915238 -0.23236859 -0.18594307 0.43303204 -0.044566177 -0.14942175 0.1772988 0.17108469 -0.37554643 -0.11711007 0.3612297 0.22092476 0.20274232 0.1455242 0.024061633 0.2686635 0.04492834 -0.06410107 0.0319247 -0.08527566 -0.14328182 -0.05833345 0.16047315 -0.33523384 -0.30044416 0.2180132 0.13161562 0.34648484 -0.20051461 0.41290087 -0.07257243 0.357919 -0.01863919 -0.3422055 -0.2807009 0.09501182
was 0.08368367 -0.061164916 0.023107031 0.0893267 -0.06073807 0.16064325 0.079208374 -0.17101173 -0.097400635 0.045705207 0.14345627 -0.13066247 -0.08570745 -0.11852147 0.11484444 -0.19487897 -0.0684101 0.016432334 0.16080892 -0.16776648 -0.0014349553 -0.15566993 -0.15335351 0.06799194 0.030385831 0.01205153 0.057844065 0.11029085 0.037464514 0.14129232 -0.057335675 -0.056689095 -0.194793 0.017336603 -0.17134722 -0.02530681 0.13288382 -0.2014003 0.10669878 0.16568488 -0.05033534 0.38000023 -0.07598856 -0.0175432 -0.14560655 0.31494242 -0.07076506 -0.09051012 0.05037141 -0.014854731
in 0.14480598 -0.10124087 -0.19482328 0.11722216 -0.04928675 0.1543561 0.2303988 0.00018215507 -0.24468686 0.18878707 0.20381536 -0.19216797 -0.028032267 -0.13351208 0.23116104 -0.13962366 -0.053238556 0.31040034 -0.041249003 -0.02369715 0.13459794 0.09932797 -0.29302078 0.07706425 0.1348555 0.118432544 0.047895703 -0.045858953 -0.07983227 0.23635286 -0.070303276 -0.116527155 -0.105382286 -0.021263337 -0.13592643 0.008030542 0.059452433 -0.18489075 -0.10500382 0.10262151 -0.0030839369 0.2704443 -0.18596014 0.23249961 -0.038038205 0.1756326 -0.009106337 -0.13087505 -0.14358467 0.2705169
alice -0.015110654 -0.05225253 0.09750215 -0.047439557 -0.07973651 0.19570751 0.06011852 -0.12061387 -0.20452599 -0.08178442 0.037022185 -0.13271736 -0.118442066 -0.1992946 0.13432634 -0.21452887 0.21942954 -0.071951 0.26733306 0.03809862 -0.14653707 -0.08402629 0.027120268 0.24875736 0.13317932 0.15501432 -0.06036614 0.120144024 -0.20968077 0.024282282 -0.2804645 -0.04377172 -0.20399411 -0.11335269 -0.07183008 0.09260624 -0.028874084 0.017916633 -0.24795711 -0.06463361 0.056058772 0.06390682 -0.14685857 0.054500774 -0.27277082 -0.09469023 -0.18734281 0.031105094 0.03410528 0.18058491
you 0.09091562 0.004275001 -0.08286885 -0.07879963 0.09600342 0.20396397 0.16074264 -0.25084046 -0.03790171 -0.20675276 0.18970942 -0.029758606 -0.27003238 -0.28557563 0.26185024 -0.23904862 0.2293581 0.12457195 0.22100465 -0.23775339 -0.2569459 -0.3092053 -0.21124923 0.27955452 0.11110623 0.20589855 0.13348642 0.104799986 -0.3119131 0.20668584 -0.3304284 -0.19415146 -0.2735095 -0.12268415 -0.14482036 0.22590943 -0.14450185 -0.13442026 -0.22464812 -0.031050976 0.19245702 0.086648665 -0.15193191 0.09482442 -0.3066964 0.21875496 -0.3114394 -0.04755404 -0.084761105 0.1472544
that 0.09702562 -0.09944505 -0.05747361 -0.0110774115 0.074247785 0.26039857 -0.047630396 -0.16721687 -0.12004189 -0.0016398996 0.045922644 -0.022543931 -0.09470215 -0.1825893 -0.028784089 -0.12779528 0.0651743 0.006104694 0.18877254 -0.06023193 -0.040830627 -0.23144187 -0.026349219 0.09217028 -0.047215935 0.09695377 0.005990719 0.05831211 -0.07860121 0.037313674 -0.15214935 -0.12532105 -0.1376594 -0.12895614 -0.041146353 0.21455994 0.08566395 -0.070256926 -0.08172985 0.0632282 0.049403176 0.099092945 0.046515815 -0.08424775 -0.067748405 0.08805395 -0.09777344 0.005681532 -0.0077422424 0.22813335
her 0.16883782 -0.15496847 -0.115257636 0.0847126 0.19379976 0.3102498 0.025741149 -0.12518041 -0.06724636 0.051207315 0.05707304 -0.056340028 -0.1916509 -0.16225116 0.08696223 -0.15742135 0.2294957 -0.045227237 0.3320004 -0.13509664 -0.17702895 -0.043769933 -0.015494624 0.24138275 0.2748673 0.16859196 0.04129245 0.1493809 -0.16348608 0.13125569 -0.2584696 -0.17328781 0.010266645 -0.20962298 -0.09444894 0.24222028 0.05991417 -0.14695728 -0.19421908 0.116654575 0.26143387 0.06598617 -0.1697098 0.18778256 -0.26489 0.040688846 -0.29612672 -0.04301033 -0.17850463 0.11711181
as 0.10893043 0.113691136 0.033533923 -0.024626302 -0.101585545 0.13978346 0.06825143 -0.061116323 -0.023729695 -0.051832695 -0.062718175 -0.06344362 -0.168769 -0.16939315 -0.0024929259 -0.11162652 0.008897552 -0.11878238 0.1906259 0.03480033 0.012966747 -0.23500904 -0.13917235 0.18273872 -0.06280246 0.08034125 -0.0039744535 -0.039597377 -0.1503934 0.056221016 -0.07606239 -0.13545209 -0.09817999 -0.04381003 -0.12100945 0.1054285 -0.007345612 -0.12384489 0.025750464 0.036792155 -0.10819171 0.25452366 -0.08231783 -0.09803158 -0.15738098 0.04860596 -0.05486544 0.024614787 0.062602945 0.10858215
said 0.042644102 -0.09172884 -0.10848292 0.016028427 -0.08514781 -0.006470621 0.12770677 0.09191533 0.0428045 0.0002972124 0.07152366 -0.02516642 0.056900937 0.060339935 -0.03622286 -0.029878782 -0.052842442 0.0019443531 0.001604863 0.009597114 0.050565448 -0.017158896 -0.017865168 -0.043967202 0.052558057 -0.005641246 0.039990943 0.026929589 0.044655632 0.09880552 0.08974848 -0.03179644 -0.025279643 0.030159809 -0.054285415 -0.027400922 0.039421666 -0.070068985 -0.012476922 -0.032900136 -0.018753488 0.05724696 -0.0036430468 0.08006678 0.004319266 0.0075104414 0.109246396 -0.030967195 -0.06839547 -0.024456592
had 0.022265723 0.03960434 -0.024685035 0.083068304 0.052342825 0.078011945 0.085895255 -0.17620322 -0.0052269315 -0.032999966 0.060406372 -0.037234 -0.086280264 -0.14990392 0.051058598 -0.12708645 0.049977615 -0.023898616 0.21041326 -0.059426755 -0.0805115 -0.15280053 -0.11363964 0.049590066 -0.027759336 0.059464402 0.03266231 0.021962155 -0.012441729 0.09495399 0.016952062 -0.16335556 -0.15648757 -0.115697 -0.024929823 0.0701035 0.08380331 -0.023505826 -0.014868812 0.032202028 0.056555126 0.11880383 -0.06906415 0.027248595 -0.13429008 0.12416797 -0.07109399 -0.12970228 0.07790027 -0.026797002
for 0.07958268 -0.019507384 -0.15035646 0.10276305 0.00862098 0.021648135 0.14471592 -0.09000256 -0.092087395 0.1383605 0.14201054 -0.1065049 -0.13058518 -0.1913636 0.20124353 -0.13538465 0.0691719 0.116040915 0.14780052 -0.07911308 -0.094353415 -0.10235525 -0.133367 0.016737653 0.09457619 0.10639656 0.10701891 0.09805133 -0.091815546 0.17935996 -0.10759259 -0.09138963 -0.14856754 -0.0995003 -0.09299191 0.16839169 0.15535064 -0.19088669 -0.056883514 0.14640811 0.021802437 0.16641186 -0.030745178 0.14808872 -0.03492997 0.17058153 -0.09150382 -0.019379193 -0.1271678 0.115241595
but 0.11781895 -0.03578605 -0.16335471 0.10458275 -0.014929636 0.12561877 0.14839074 -0.08691357 -0.09530277 0.055449255 0.0846523 -0.049472503 -0.070470564 -0.08574745 0.122169256 -0.15905243 0.078685716 0.24740598 0.044844847 -0.11921584 -0.21861006 -0.24501109 -0.11048101 0.11475958 0.09928375 0.19815657 0.0859761 0.10845947 -0.08173101 0.15631592 -0.14399546 -0.033623096 -0.14563636 -0.058709614 -0.1187434 0.18847783 0.014921243 -0.1518078 -0.15332384 0.11856249 0.105581425 0.113238275 -0.0703891 0.028260166 -0.10480141 0.10733989 -0.124441385 -0.037972428 -0.12162613 0.12646167
be 0.15237366 -0.036988195 -0.047506474 -0.014084681 0.113060236 0.18674818 0.06186105 -0.065863974 -0.10569381 -0.026397243 0.054388903 -0.023286251 -0.11277753 -0.11717827 0.12751535 -0.07917272 0.1491703 0.16961388 0.21840031 -0.14107533 -0.1437775 -0.11478659 0.0069960384 0.046132263 0.21515326 0.0076932707 0.0146146435 0.0064065144 -0.037929665 0.10236326 -0.065688714 -0.13147499 -0.09173483 -0.07887775 -0.09625184 0.019838056 0.06755036 -0.102361046 -0.073647946 0.04391252 0.19599734 0.008572846 -0.1019764 0.11676631 -0.066987745 0.13780291 -0.073793694 -0.072069 -0.06661894 0.056029603
on 0.1660141 -0.05949391 -0.029474106 0.08876233 0.031308796 0.14335507 0.13965945 -0.012552779 -0.1483344 0.089348264 0.015210351 -0.06802248 -0.079641245 -0.06936984 0.07884687 -0.112978324 -0.017166542 0.09723611 0.10056834 -0.0026412252 -0.117498875 -0.10906743 -0.117668614 0.0534977 0.08892977 0.03167665 0.047677577 0.07163739 -0.008151187 0.04011962 -0.082857326 -0.08830717 -0.13126045 -0.060235713 -0.09272916 0.09083945 0.06726612 -0.098841615 -0.06648165 0.06567481 0.047448512 0.18858796 -0.100103 0.010916744 -0.17120914 0.1324809 -0.048026256 -0.14527963 -0.14413533 0.15622748
all 0.081075616 -0.13237305 -0.22015515 0.07590133 0.05216573 0.117075674 0.15097974 -0.063702345 -0.08664114 0.008423992 0.036993645 -0.059557498 -0.09222094 -0.09146159 0.060665946 -0.19184925 0.17481288 0.15751913 0.033097975 -0.13206102 -0.15758005 -0.09022786 -0.08968688 0.09397085 0.052152786 0.10688996 0.06830456 0.06805481 -0.10132466 0.08414644 -0.13279575 -0.06536803 -0.10259557 -0.0040532397 -0.110821635 0.12758319 -0.0070983437 -0.083943576 -0.03604981 0.06470331 0.122121826 0.15205036 -0.14550537 0.049144916 -0.12403726 0.17073089 -0.1833126 -0.05347528 -0.11384833 0.0739626
with 0.21993122 -0.23864573 -0.16578427 0.16555119 0.10515628 0.07373047 0.2669875 -0.04340598 -0.22021268 0.13586228 0.20834984 -0.1381064 -0.043832697 -0.15865499 0.16881323 -0.2016777 0.043081075 0.22087109 0.041614782 -0.11115532 -0.059446797 -0.021034777 -0.17145206 0.07012177 0.18329293 0.13076916 0.18912204 0.17191234 -0.08518927 0.18739903 -0.059859626 -0.11360714 -0.06687353 -0.053635877 -0.1586253 0.03316969 0.15769112 -0.1872403 -0.21073964 0.13576478 0.103295125 0.22135493 -0.20520307 0.2742701 -0.10785754 0.15023431 -0.03798014 -0.2359702 -0.1495615 0.11823289
little 0.052347712 -0.17112568 -0.0742183 0.08554047 0.034966886 0.085519195 0.14220004 0.0118514905 -0.092964426 0.1009166 0.17866342 -0.20263644 -0.016495023 0.03587564 0.14379628 -0.05515543 -0.017560586 0.11246911 -0.025236545 -0.08936557 0.04291335 0.045639433 -0.11684234 0.031485844 -0.0054380605 0.008507831 0.04688259 0.011885521 -0.016155208 0.012291323 0.0046640225 -0.024057895 -0.03039226 -0.06779196 -0.07680967 -0.09402474 0.010030499 -0.11193569 -0.058432482 0.09998949 0.029768454 0.10124277 -0.062644705 0.18528172 -0.018497685 0.041871108 -0.0016705667 -0.0146563 -0.10625873 0.051010966
mouse 0.118232705 -0.20012559 0.016209131 -0.005208851 -0.13370642 -0.004717767 0.12875883 0.056480516 -0.07261618 0.10452705 0.15067557 -0.065443344 0.12264617 0.019381575 0.12174154 -0.07043293 -0.10557862 0.06032644 -0.08071627 0.042603504 0.0912663 0.14221664 -0.0656904 -0.106440954 0.053870723 0.04413693 0.06660068 -0.039453946 0.040276363 0.1162325 0.12160462 0.043783497 0.026787154 0.061421044 -0.07036393 -0.08484665 -0.0052773077 -0.038283255 -0.020391662 0.032380864 -0.10364285 0.11228628 -0.06626447 0.10370093 0.112151854 -0.020603145 0.07251702 -0.04547154 -0.10992387 0.003936182
down 0.04288971 0.013262593 -0.09411296 0.016418522 -0.0023558245 0.06984504 0.078304 -0.045575906 -0.080295905 0.06421688 0.018011468 0.022838043 0.0036418992 -0.11771611 0.10251159 -0.11884922 0.019326903 -0.0039826185 0.11932407 -0.0547337 -0.047002375 0.0021072458 -0.070473835 0.090988874 0.052221414 0.031116288 0.0770298 0.05890834 -0.09501161 -0.031377725 -0.11324523 -0.039673444 -0.028491125 -0.09228163 -0.10656208 0.06973992 0.09982941 -0.09200645 -0.029611016 0.09995785 0.060683306 0.1015843 -0.11337782 0.10405955 -0.162036 0.118332416 -0.0880152 -0.027294833 -0.024276698 0.08408646
very 0.118498646 -0.0751056 -0.10580817 0.04761542 0.108834535 0.12712249 0.051848717 -0.10229357 -0.07714886 0.008049374 0.06872446 -0.10236087 -0.08611244 -0.10259489 0.10493708 -0.05528733 0.10652727 0.0422528 0.21327351 -0.08342842 -0.15217476 -0.17205155 -0.08704234 0.16321932 0.11682494 0.11931462 0.10518893 0.109599054 -0.087166525 0.03533375 -0.13543226 -0.08663176 -0.13314612 -0.07777523 -0.0719945 0.08785335 0.1102507 -0.10590243 -0.10126835 0.07684898 0.13594033 0.04609512 -0.124427 0.038877834 -0.108194314 0.03628294 -0.19420156 -0.038305745 -0.053936705 0.14709763
this 0.054736294 -0.051008645 -0.12381405 0.05672711 0.102888465 0.105969965 0.052137047 -0.042781644 -0.028465085 0.03349923 0.12513097 -0.050788425 -0.080425695 -0.081908055 0.040110108 -0.10930676 0.09913514 0.060317725 0.07162775 -0.07851993 -0.096569836 -0.10813048 -0.07032708 0.14277904 0.09748594 0.13093263 0.007436327 0.0949117 -0.17764236 0.09259541 -0.10956432 -0.115715384 -0.04907805 -0.11528746 -0.09247951 0.11720902 0.037564628 -0.050012905 -0.106430896 0.034797322 0.07588217 0.052445114 -0.091126256 0.08637092 -0.15139975 0.048358355 -0.14495987 -0.07624659 -0.02802243 0.05959176
not 0.10816515 0.012875794 0.0077367867 0.044099912 0.066870645 0.15965165 0.043133378 -0.10717173 -0.09613181 0.020383952 0.11885334 -0.10161975 -0.08108334 -0.19395632 0.11150297 -0.10436601 0.034518756 0.023287611 0.15349728 -0.097072005 -0.03481824 -0.2249057 -0.06337636 0.046001904 -0.011447628 0.07919661 -0.023600593 0.065584034 -0.1642215 0.13455494 -0.12635382 -0.08566408 -0.14757705 -0.117384866 -0.012922516 0.13288078 -0.027434312 -0.02250477 -0.027936302 0.11739004 -0.01016872 0.094060935 -0.017327175 0.057779923 -0.049364906 0.043599535 -0.080468446 -0.04955122 -0.024517994 0.11816986
so -0.004905435 -0.03818668 -0.09060854 -0.033099744 0.01714905 0.13597058 0.034532722 -0.06758351 -0.054250654 0.01684713 -0.015608102 -0.022944294 -0.065901175 -0.18987128 0.051914815 -0.123977736 0.032729786 -0.023380315 0.19952272 -0.07542548 -0.10107147 -0.2258402 -0.104586415 0.16374859 0.005060057 0.0499387 0.00782227 0.08262051 -0.102140896 -0.005689872 -0.07657846 -0.061976578 -0.13004553 -0.13441704 -0.13454126 0.15456565 0.05137764 -0.092046104 -0.04236178 -0.027975805 0.025795717 0.069342405 -0.01209297 0.06016284 -0.097842775 0.0639479 -0.12095127 -0.050958786 -0.05835001 0.17925832
out 0.035986602 -0.004325305 -0.0612895 -0.006701432 0.03050975 -0.03101384 0.007262487 0.028602183 -0.023610946 -0.04631184 -0.026756167 -0.000661748 0.038306493 -0.011720583 0.048056033 0.0020150417 -0.02481874 -0.0067750933 0.010743525 -0.10346052 -0.029796995 -0.0019530987 -0.07349912 0.04402218 0.08338606 -0.013537007 0.036916856 -0.039317697 -0.10576927 0.046620395 0.014496783 0.0051443935 -0.035829794 -0.042916358 0.055087958 -0.061650597 0.033526924 0.0028115287 -0.015396404 0.08186228 0.06561496 -0.00018556975 -0.10759827 0.042666327 -0.05394589 -0.008239913 -0.019679898 0.057613544 -0.026394613 -0.026687996
if -0.01230063 0.16229858 -0.00045389228 -0.09186926 -0.056624528 0.17729962 0.034100957 0.0033878172 0.013541855 -0.110321335 -0.056087732 0.09591016 -0.08134795 -0.049013715 0.024786562 -0.005363481 0.14984415 0.10256298 -0.031023584 -0.15487495 -0.21360105 -0.13508981 -0.05382794 0.054617748 0.029027343 0.014887894 -0.021389758 -0.15100093 -0.08376108 0.08337911 -0.04699265 -0.089849636 -0.22740105 0.08675401 -0.015248888 0.19162144 -0.085892506 -0.023018695 0.0015398072 -0.00254347 -0.019978799 -0.050097518 0.0015303696 -0.0868415 0.017635968 0.08253654 -0.06434264 0.024747321 0.037014883 0.03330414
is 0.074103184 -0.0013424456 -0.014207782 0.012394389 -0.012128992 0.048582185 0.13492747 0.026949773 -0.024425294 0.0112426365 0.08474807 -0.11574269 -0.08168139 -0.0040839873 0.040268034 -0.016842104 0.061390042 0.11640157 0.0014539759 -0.0010345565 0.039162096 -0.05515172 -0.08670712 -0.07416205 0.08911207 -0.0019458806 0.13694341 -0.025211312 0.044568162 0.088896796 -0.031700913 -0.094126746 -0.04249006 0.043466665 -0.08283772 -0.021997537 0.06860168 -0.11699345 0.026918333 0.024236059 0.03354338 0.0124087185 -0.14392523 0.067134574 -0.04725413 0.06680731 -0.03898936 -0.053336058 -0.017146826 -0.023253374
at 0.063004784 -0.054014903 -0.1127387 0.10048561 0.07023288 0.07951085 0.119832814 -0.066143 -0.11017406 0.124245696 0.08564077 -0.016252745 -0.11685532 -0.061355453 0.13252252 -0.15016353 0.07081453 0.020223716 0.11609807 -0.12450839 -0.092343986 -0.10095497 -0.097391985 0.080615595 0.09070316 0.037073337 0.067697555 0.017445616 -0.050230723 0.10719006 -0.12901159 -0.09392676 -0.052869227 -0.051097233 -0.112629 0.04045792 0.024370696 -0.09213559 -0.13783082 0.09102502 0.089208506 0.1650867 -0.081908375 0.10709856 -0.107680716 0.07065887 -0.039995566 -0.082115136 -0.031408694 0.06758658
t -0.0066158 -0.059055526 -0.22300376 0.019868333 0.12600176 0.16362813 0.19990318 -0.09249251 -0.061075687 0.042762112 0.027463216 -0.11583428 -0.12199254 -0.1687089 0.19582836 -0.13099809 0.22526509 0.20515715 0.10437923 -0.12161172 -0.16021079 -0.16440836 -0.05326597 0.059995506 0.15299672 0.05346776 0.10359691 0.07072065 -0.17777409 0.14296454 -0.13779849 -0.12537423 -0.21097454 0.056493245 -0.03626488 0.15128703 0.032268986 -0.13016221 -0.07838057 0.10683502 0.10086304 0.10727979 -0.0346564 0.13171403 -0.10875455 0.20769325 -0.2151688 -0.08244652 -0.0643087 0.08738115
s 0.043235682 0.031758323 -0.053047705 0.059102274 0.08618745 0.12874468 0.094033405 -0.096521705 -0.10043185 0.011156226 0.05707219 -0.057860386 0.022787526 -0.06543535 0.09281629 -0.06765051 0.07433741 0.07177826 0.07009496 -0.045512088 -0.021208374 -0.080635905 -0.04376344 0.05986971 0.033575714 0.025957502 0.07636718 0.10631599 -0.005774614 0.08403466 -0.101964004 -0.14642891 -0.13642766 -0.018771425 -0.13862142 0.026578205 0.11858588 -0.079359755 -0.048371043 0.066686444 0.044317592 0.16560084 -0.07350259 0.08835915 -0.036516923 0.07070955 -0.09331479 -0.07901194 -0.03706027 0.009852815
ll -0.018672662 0.0964439 -0.06629058 0.0024796696 -0.003670446 0.16053191 0.016888006 0.048549946 0.053153157 -0.07096954 -0.05246789 0.0773837 -0.111934386 -0.05626738 0.095638536 0.015848566 0.15914764 0.18152443 0.07456565 -0.107434146 -0.20873123 -0.12859881 -0.019563468 0.0051063397 0.07154175 -0.08262699 0.0005512502 -0.0032740545 -0.13012551 0.060022976 -0.10512539 -0.09200671 -0.16546282 0.076668575 -0.00333898 0.07303846 -0.08859183 -0.080407366 -0.030066345 -0.051919397 0.05842165 0.019682556 -0.05310977 -0.06368209 -0.064689115 0.15874396 -0.097560994 0.028539602 0.012669309 0.018931238
how 0.039937183 -0.033527285 -0.09809574 0.0825027 0.046467323 0.111033715 0.116348244 -0.036110297 -0.10681577 0.05423579 0.059517972 -0.113006815 -0.024414128 -0.13353768 0.084948584 -0.15601818 0.0010095453 0.034339715 0.07514888 -0.10052644 -0.086482294 -0.09360456 -0.072378546 0.033666138 0.06785435 0.06836444 0.112155765 0.06853178 -0.045956858 0.09413531 -0.02191008 -0.121193774 0.0061421464 -0.04823839 -0.1139677 0.12273737 0.12701172 -0.065057725 -0.053260814 0.056997404 0.05591533 0.09379422 -0.11130817 0.08285283 -0.0577202 0.15840909 -0.090569936 -0.06954457 -0.043656744 0.037175212
they 0.006804108 -0.09080572 -0.18166743 0.06038415 0.087101825 0.12022942 0.07115977 -0.10641746 -0.15110956 -0.046258397 0.06912158 -0.110100836 -0.20800436 -0.18190171 0.05090572 -0.09875503 0.20732014 0.0801651 0.10231861 -0.11104582 -0.10860628 -0.1435579 -0.15661596 0.067255236 0.13826853 0.055124834 0.019320197 0.047150634 -0.13740608 0.103669785 -0.20926604 -0.07928213 -0.14292224 -0.04666853 -0.12743062 0.13965498 0.0022190958 -0.09633351 -0.20023388 0.022251865 0.08898057 0.14462194 -0.10731315 0.03996503 -0.21571083 0.17646189 -0.20703405 -0.11507247 -0.052381635 0.1687592
about 0.07991153 -0.09740477 -0.08624428 0.034049556 0.03430679 0.006855633 0.0145025 -0.11116864 -0.0753416 -0.01612931 0.02785421 -0.009146245 -0.076916724 0.0075345743 0.08449744 -0.03637565 0.031225128 0.124104336 0.1299853 0.02860002 -0.111075826 -0.05192659 -0.037866972 0.0907955 0.13601734 0.056775622 0.08656039 0.053464293 -0.009858614 0.0794859 -0.059418924 -0.072357684 -0.12120157 -0.04899918 -0.09219052 0.12970424 0.019290827 -0.12988515 -0.0734542 0.009647318 0.093473054 0.071881555 -0.12666252 -0.014079215 -0.08491035 0.11507422 -0.0744942 -0.052391484 -0.011996215 0.02729402
herself 0.070364974 0.0007406401 0.06141627 0.0029522164 -0.013567247 0.06565486 -0.02310338 0.033109814 -0.0026869907 0.038094837 -0.07542268 -0.02594082 -0.04517258 -0.020271095 -0.09746983 -0.019666823 0.013061686 -0.15159316 0.104421586 -0.01299073 0.09580673 0.053157974 0.100047894 0.087924175 0.047962967 -0.059937425 -0.014308283 0.022503668 0.026889065 -0.00070170866 0.04231127 -0.004126741 -0.03548026 0.028561752 0.047871612 0.015571067 0.023649454 0.028145498 0.019994423 -0.06814309 -0.011487083 -0.013996388 -0.026804922 -0.07427125 0.0013486476 -0.05047727 0.060208954 0.06855965 0.031787604 0.0092531545
me 0.09095185 -0.019335384 -0.108114876 0.10788272 0.07934917 0.11474624 0.13285069 -0.14937186 -0.09498654 0.0050839316 0.08893341 -0.079850495 -0.08379074 -0.122809425 0.056481663 -0.16575868 0.14185712 0.09309241 0.041304722 -0.16245325 -0.15668127 -0.15982436 -0.077560954 0.1285975 0.093780264 0.1231428 0.06182051 0.06649545 -0.1657823 0.12941849 -0.122986324 -0.09367731 -0.03823366 -0.06840089 -0.12103 0.05356811 -0.014468433 -0.14546752 -0.078192666 0.017935308 0.038441304 0.04436752 -0.113935284 0.07150851 -0.13970104 0.07453701 -0.11118826 -0.14135201 -0.09760724 0.15625091
up 0.025643228 -0.04064011 -0.056927253 0.06995827 0.038462143 -0.0008259266 0.113714196 -0.03036591 -0.026231706 0.008487394 0.074916966 -0.07129582 -0.028981153 -0.07692975 0.0734136 -0.04857744 0.027827386 0.04685141 0.039159425 0.029641744 0.031815376 0.04827793 -0.040359784 -0.061108314 0.01573241 0.07899721 0.11041681 0.033832196 -0.0110364035 0.082204714 -0.097520515 -0.053329837 0.012167469 0.0075539607 -0.045706984 0.096997224 0.031886365 -0.0033681057 0.010720282 0.10676852 0.082268484 0.03752912 -0.06428608 0.008829186 -0.089326695 0.060494594 -0.01815294 -0.013787746 -0.021586359 0.02407853
what 0.072626375 -0.023254704 -0.03935116 -0.01631307 0.010201006 0.12864709 0.049177505 0.030868294 -0.029494885 0.053206574 0.0329722 0.027623637 0.011645535 0.009782039 0.03198479 0.018245304 0.07511609 0.09036635 0.045211207 -0.101113394 -0.005421661 -0.039819427 0.0052308454 -0.0058288146 0.08036584 0.051390473 0.0010556062 -0.06279898 0.0059133796 0.06355353 -0.007868271 -0.042817947 -0.088739745 0.031218894 -0.039698593 0.07163795 -0.017350752 -0.00315821 -0.036490712 0.06397467 0.02115598 -0.010601358 -0.004200633 0.040447067 -0.027049534 0.026546495 -0.022409555 -0.049850304 -0.096775256 0.07614313
way 0.0056895753 -0.058981284 -0.04582139 -0.019947775 0.008705214 -0.01897328 0.027493974 0.102390386 -0.016423302 0.054736562 -0.035163485 0.010202269 0.009492395 0.026728936 0.09657785 0.03403628 -0.0135347 0.11116498 -0.07794311 -0.09192292 0.013090419 0.05399557 -0.021701595 -0.029443542 0.111475945 0.04694528 0.04374058 0.028585928 -0.027452707 -0.040790427 0.067828335 0.052163906 0.041704252 0.029053612 0.00087689963 -0.043929715 0.044265326 0.04162896 -0.10443543 -0.021962285 0.018252827 0.017558983 0.015155782 0.006090912 0.07222055 0.054607973 0.0055187196 -0.02547388 -0.042378612 0.02351284
when 0.061606154 -0.09057039 -0.08148655 0.05537481 -0.0066711893 0.04313912 0.071450986 -0.011340114 0.020203818 0.003982223 0.033901643 -0.059063323 -0.052302178 -0.09672898 0.04832495 -0.112900615 0.057022016 -0.0061377916 -0.025510374 -0.046001323 -0.040800765 -0.022263069 -0.02325398 0.021828655 -0.004243443 0.08056227 0.05590101 0.08869644 0.035666715 0.053485207 -0.0136640305 -0.027945016 -0.12430858 -0.028951589 -0.08831497 0.103232406 0.002133137 -0.09144478 -0.06970192 0.071172565 0.03645257 0.05781312 -0.006326804 0.07857806 -0.012016853 0.10541577 -0.086707644 -0.06607373 -0.048208874 0.0060934075
like 0.016121613 0.008762645 -0.05663979 -0.0072062053 -0.008665465 0.15215662 0.026317138 -0.02664149 -0.05446288 0.027001465 -0.009524724 -0.066206396 -0.10587897 -0.054765563 0.03850232 -0.073334895 -0.01331112 0.13779098 -0.007689852 0.004239206 -0.060926754 -0.014254919 -0.03936202 0.0020717052 0.080150545 0.037473213 0.038571596 0.00058036577 -0.05083256 0.027397746 0.0022532667 -0.058134496 -0.046911802 -0.017241167 0.004117941 0.061261352 0.005849297 -0.06280444 -0.0728053 0.016601562 -0.010974041 0.04734286 -0.029176429 0.10487414 -0.03576538 0.05224165 -0.053912394 0.028872207 -0.06708683 0.055280454
one 0.0122604575 -0.048618346 0.017315896 0.049825113 0.024531562 0.012296757 0.06134808 -0.03591266 -0.07727054 0.041304484 -0.0057097413 -0.057273403 -0.030548394 -0.05677032 0.06912398 -0.006508081 0.0426576 -0.0073396824 0.14230715 -0.08938493 -0.1444894 -0.0023017612 0.0010100603 0.10069847 -0.0032930505 0.07063456 -0.001621474 0.051390294 -0.13409375 0.010076286 -0.03898454 -0.02284308 0.037021764 -0.10865246 -0.028254356 0.062122405 0.02691394 -0.053399686 -0.041215245 0.096402444 0.055331975 -0.02294347 -0.0019408211 0.02434678 -0.08484746 -0.052365173 -0.04510204 -0.041390106 -0.09028004 0.0069095083
do -0.014761852 0.026700785 0.023049261 -0.01920866 0.06999156 0.099643216 0.008343965 -0.027372355 0.04862272 -0.020440307 -0.013976921 0.023515364 -0.05421445 0.046130423 0.019424044 0.013449215 0.05565596 0.051505487 0.081709534 -0.091347665 -0.08363417 -0.05599518 -0.033061653 -0.011968258 0.10131288 0.076534465 0.04806951 0.021478523 -0.04292969 0.0461752 -0.055787914 -0.07054305 -0.06442629 -0.05957467 0.054658115 0.040708788 -0.014722821 -0.058545668 -0.018755127 0.054632522 0.10659978 -0.10432705 -0.06646831 -0.022251379 -0.052492622 -0.011206752 -0.11019537 0.059430175 -0.03666138 0.057107475
no 0.021032182 0.018882789 0.011215041 0.005008521 0.038927495 0.13203344 -0.028424138 -0.03743047 0.025039013 -0.061882626 0.021734118 -0.015521384 -0.0105078425 -0.1016048 0.032238077 0.0365234 0.09222982 0.03160441 0.0527798 -0.08856868 -0.08484435 -0.10809013 0.049776044 0.022684205 0.053943954 -0.019763963 -0.009997399 0.07519528 -0.07384193 0.024384214 -0.13322377 0.033067737 -0.076796785 -0.004143661 0.022118969 0.061402887 0.02224384 0.054651447 -0.008365587 0.01917402 0.0050869053 -0.04135994 -0.032252416 -0.033096418 -0.054472018 -0.05180327 -0.041114688 0.0064897323 0.058167357 0.12065653
oh 0.030344464 0.019758293 -0.032545976 0.07091964 0.10879516 0.052807413 0.06931877 -0.045230854 -0.016200822 -0.020293586 0.060548272 -0.1490984 -0.08314362 -0.034510165 0.14606561 -0.08249477 0.12763819 0.08850509 0.047749497 -0.1283451 -0.115576 -0.06565044 -0.120992854 -0.007320094 0.11927061 -0.013491751 0.04731526 0.01507321 -0.0050435495 0.10246867 -0.08847265 -0.04015342 -0.11218037 -0.025545064 -0.04655713 0.07853985 0.02020271 -0.042454626 -0.030731011 0.06205173 0.06252677 0.020210275 -0.05530941 0.022635566 -0.042617094 0.06980416 -0.05934861 -0.08531869 -0.039488833 0.02798935
went -0.050363585 0.15678103 0.05591565 -0.04625889 -0.0857885 0.09786253 -0.06940754 -0.070540644 0.10530297 -0.031099485 -0.10304829 0.040147062 -0.00454705 -0.015083652 -0.08721866 -0.024981799 -0.0468557 -0.07860875 0.08464626 0.08847535 -0.09638181 -0.060596906 0.04518013 0.02696712 -0.0899318 -0.13185057 -0.0677758 -0.060591478 -0.08493691 -0.063220166 -0.0202023 0.01805301 -0.064190224 -0.03266566 0.0034648548 0.044150647 -0.059745304 0.026647234 0.08179992 -0.10269203 -0.12944113 0.041647825 0.10158058 -0.032344747 0.0058982414 -0.045973293 -0.042132005 0.057818934 0.07840947 0.017616538
thought -0.068623155 0.005638686 0.013620568 -0.052320287 -0.039669033 0.0455068 -0.012314722 0.01208005 0.062341172 -0.03830047 -0.042585347 0.013849513 0.03497849 0.036342558 -0.017961219 0.012681249 0.0077589937 -0.051974162 0.00719165 -0.022890778 -0.0799012 -0.10676366 0.055208236 0.0061361818 -0.08279885 -0.016334724 -0.07521621 -0.069986135 -0.011703883 -0.00048549345 0.033417188 -0.06803585 -0.014829358 0.06323316 0.011782523 0.022066208 0.054376263 0.041545045 -0.019366696 -0.0074691484 0.024411563 0.035606783 -0.014743064 0.02528073 -0.019118518 -0.0057684435 0.0033956557 -0.030260662 0.01788243 -0.058115754
again 0.0614546 0.03433947 -0.005504596 0.020633804 -0.032882087 0.062387325 -0.002103914 -0.018423261 -0.058673274 0.024108378 -0.003143989 -0.05126826 0.00343799 -0.010931886 0.020188484 -0.053345863 0.07467121 0.059829805 0.08230301 -0.06405745 -0.041143734 -0.06754836 -0.08344582 0.055848863 0.06835526 -0.005774488 0.025257284 0.03219995 -0.05065142 -0.016033227 -0.02602015 -0.060818277 -0.03978827 -0.0077784946 -0.02431959 0.11856248 0.076299995 -0.07124639 0.014566519 0.032423183 -0.032148622 0.024150545 0.013316585 -0.0018389472 -0.023919534 0.03256715 0.005477414 0.013764105 0.03113754 0.066586286
there 0.024637992 0.0302146 -0.024797738 0.05060649 0.061484072 0.16394521 0.0018418387 -0.0822452 -0.08252296 -0.021497462 0.0128737595 0.050494168 -0.0025176997 -0.1714343 0.07187839 -0.05453574 0.011874218 0.052312594 0.11465669 -0.118075974 -0.07526326 -0.08349752 -0.049832083 0.1293776 0.0047507863 0.09876642 -0.077630274 0.009182451 -0.12245155 0.034641247 -0.111844614 -0.07410924 -0.092811346 -0.056925964 -0.014104573 0.039752144 -0.026389677 0.053812936 0.0015931767 0.03656874 0.04065562 0.08908015 0.021756597 -0.03806653 -0.092574865 0.027477726 -0.13745533 -0.0031142668 0.032264426 0.07412199
see -0.044943225 0.06990088 0.03151455 -0.0010258011 -0.016292252 -0.016465023 0.018932153 0.000928418 0.045674168 -0.10210087 -0.013226195 0.06840236 -0.024284817 -0.047846045 -0.04552395 -0.0132292025 -0.00636051 -0.038294468 0.098787576 0.02023839 -0.05802966 -0.06918602 -0.053944096 0.0026771682 -0.022475528 -0.004373723 0.057404645 -0.021012094 0.00041577662 0.043212134 -0.052893687 -0.086972006 -0.08398719 -0.02782969 -3.761967e-05 0.085688554 0.032080125 -0.015239938 -0.011696333 -0.07521283 0.036116004 0.03171578 -0.02118473 -0.018619185 -0.08615672 0.02228024 -0.052273434 0.021788657 0.01640369 0.010852315
or 0.022672245 -0.06655753 -0.043386668 0.10264919 0.090795636 0.06951836 0.09681031 -0.020385519 -0.03432747 0.057129055 0.048785977 -0.10691066 -0.072691284 -0.13128503 0.06962496 -0.111968525 0.06468068 0.06439021 0.012266046 -0.0817075 -0.09885378 -0.03510589 -0.08968013 0.028522603 0.072479315 0.056104355 0.042327728 0.050430004 -0.086151205 0.04167585 0.021857843 -0.018666632 -0.061746474 -0.062375706 -0.11343618 0.0845662 0.063638054 -0.016473845 -0.04369256 0.035939787 0.07593584 0.079430856 -0.1015217 0.050528422 -0.023664834 -0.021458719 -0.11243047 -0.059513748 -0.00228331 0.071006596
could -0.019252632 0.099365406 -0.009026807 -0.0051316125 -0.08799567 0.0729441 0.057525493 -0.011325847 0.034524772 -0.046662807 -0.064685196 0.028350275 -0.122275166 -0.023567691 -0.037675418 -0.074823156 0.031561118 0.009510254 -0.033040505 0.0089962445 0.01580665 -0.1377052 0.014322391 0.028121086 -0.0026582857 -0.03765362 0.016972035 0.010840246 -0.0773954 -0.024374686 -0.0131981615 -0.026633708 -0.05224388 0.03606848 -0.0011364194 0.12171754 -0.046886865 -0.05683997 0.07579162 -0.03587639 -0.030227143 0.06649959 -0.023709737 0.019248843 -0.056834467 0.06308201 0.04459084 0.00221466 0.08817641 0.076146364
would 0.0037482157 -0.07322446 -0.043202687 0.0479846 0.011871643 0.07950075 -0.0024799516 -0.08797007 0.01531969 0.032175913 0.054026127 -0.06350933 -0.036282834 -0.041411664 0.06088966 -0.07752896 0.05143676 0.050098468 -0.016415317 -0.028729731 -0.0644607 -0.09900546 -0.016275704 0.105555296 0.039308384 0.026301833 -0.0012735086 0.031563576 -0.07044315 0.06804788 -0.04714133 -0.04836341 -0.10224217 -0.061136656 -0.075881325 0.024872307 -0.026647745 -0.054188613 -0.052634753 0.025402991 -0.0019531571 0.04685151 -0.070039175 0.033473935 -0.045273513 0.032884035 -0.11985212 -0.009596737 0.012737016 0.11750177
think -0.07844933 0.11584188 0.014991111 -0.025465947 -0.06449781 0.06602344 -0.0037585252 0.029529419 0.051512137 -0.18447259 -0.11520949 0.06921739 0.0047342377 -0.084042646 -0.043778405 0.04933274 0.027801326 0.00011108536 0.006100042 -0.056470945 -0.11764728 -0.10754658 0.07907909 0.10593774 0.034885194 -0.051214203 -0.025196359 -0.03649347 -0.04746332 0.036065478 -0.0046730144 0.027832076 -0.030248776 0.0016216226 0.06895407 0.00869334 -0.043259997 0.014377818 0.005872804 -0.024234671 -0.057298556 -0.07674082 0.0010036682 -0.05668197 -0.03279356 0.03462931 -0.026514253 0.092569195 0.06629736 0.022656139
them 0.028489355 -0.019540362 -0.031155393 -0.055382375 -0.016302453 0.080769464 0.056730825 -0.058833282 -0.04691894 -0.038989406 -0.037795674 -0.056527853 -0.080420405 0.033382114 0.01819394 0.030684005 0.031139493 -0.004087289 0.07506706 -0.030327689 0.014931142 -0.04822252 -0.025620611 0.0719269 0.042481422 -0.027509151 0.012156674 0.037548725 -0.09144701 -0.006022749 -0.04851162 -0.05027862 0.02648069 -0.032917213 0.018840082 0.03379718 -0.019782504 -0.00046338583 -0.036486074 0.021608546 0.017462697 -0.024754835 -0.07013055 -0.004193198 -0.04212534 -0.02861087 -0.0048546325 -0.009755408 0.056022026 0.032018874
know -0.026632732 0.06509877 0.035322726 -0.03025305 0.0035250087 -0.027606664 -0.018002791 -0.021051064 -0.026768984 -0.09350881 0.035690147 0.01126745 -0.03937479 -0.017009884 0.033656817 -0.025825597 0.06711284 0.09542085 -0.06990006 -0.03918152 -0.07466623 -0.06070045 -0.019858288 -0.058962647 0.0244685 0.0055826646 0.0029577063 -0.03072755 -0.01438544 0.0057684435 0.003379743 -0.036634155 -0.089425005 0.04709049 -0.03051741 0.031265143 -0.045024753 -0.013546033 -0.05677691 -0.043896932 0.003296312 -0.04589454 -0.035736516 0.017505057 0.06269759 0.014567632 -0.03661748 -0.041464765 0.020929758 0.019419048
rabbit 0.035246894 -0.06494363 -0.08531971 0.06762904 0.012242027 -0.042067464 0.07506248 0.00960618 -0.10314687 0.07731663 0.08257284 -0.065435655 -0.01094015 0.021032905 0.06619752 -0.08879802 -0.03176439 0.113038234 -0.059928637 -0.00869243 0.057423323 0.06972654 -0.109009735 0.0077439267 0.045684326 0.0571808 0.09253556 0.029370623 -0.013561147 0.06820227 0.019382298 -0.048321042 0.046389535 -0.004161709 -0.08769629 -0.08705572 0.075978965 0.017712492 -0.041045032 0.10748418 0.040604446 0.09487043 -0.061654653 0.117006324 -0.007238392 0.042726398 0.031392597 -0.091408096 -0.0752506 0.025083138
dear -0.042121306 0.044242796 -0.110527486 -0.035927847 0.04514996 0.14544818 0.10608435 -0.08110318 -0.0416891 -0.06950154 0.120468125 -0.068226784 -0.11870772 -0.05099081 0.12351669 -0.024568744 0.02235585 0.12953624 -0.02589199 -0.07820627 -0.0890298 -0.05129475 0.006274056 0.06982967 0.09597933 -0.027023204 0.06717595 0.053842038 -0.12365206 0.06667859 -0.119416475 -0.021442551 -0.11925509 -0.07039301 -0.1033319 0.13521357 0.067526214 -0.0053332793 -0.052330963 0.064808756 0.013394122 0.11834174 -0.054107457 0.104461096 -0.08550139 0.111638345 -0.11016729 -0.11042355 0.0016549389 0.077255934
were 0.025953617 0.017867493 -0.063745596 0.06005186 -0.0045775142 0.09989367 0.060290944 -0.010177852 -0.082517795 0.02503359 -0.02417536 0.014628849 -0.06326024 -0.059245992 0.03471842 -0.051616006 0.008606175 0.038445514 0.03199177 -0.10646623 -0.013738073 -0.10385232 -0.09418036 0.05315512 0.0026456944 0.034357417 -0.022099974 0.017161613 -0.01855167 0.074011505 -0.08270988 -0.033379175 -0.10698424 -0.016455987 -0.09304747 0.072046444 -0.022305278 -0.033043962 -0.07271272 -0.0014035744 0.041649267 0.1251698 -0.04717822 0.086011104 -0.07979488 0.06761021 -0.103166394 -0.08612279 0.035570614 0.061436545
time 0.0394225 0.07048194 0.01764038 0.0060370127 -0.07539786 -0.0022925145 0.035531994 -0.050272774 -0.024374172 0.01963728 0.024828065 -0.030649649 -0.063003 0.039461914 -0.022289462 -0.039815985 -0.0016705764 -0.062103227 -0.036408994 -0.0057341415 0.021815937 -0.025392113 0.009594994 -0.007952954 0.03215083 -0.022634769 -0.017071504 -0.048449088 -0.038492177 -0.011613219 0.03461208 0.007509998 0.03235565 -0.03293666 0.03658032 -0.061302338 0.0071441634 -0.005453495 -0.014578304 -0.048359007 0.007777117 0.048926365 -0.017093927 -0.05516521 0.008151455 0.008748157 0.029843817 -0.00079451577 0.037477575 -0.006529439
get 0.1160756 -0.03330449 -0.045912053 0.014444977 0.07016256 0.027887644 0.0553417 0.004235025 -0.056112852 0.002745494 -0.0056057926 -0.016296996 -0.042613573 -0.0937042 0.08165688 -0.07552562 0.06593 -0.021077782 0.12290586 0.021347804 -0.07413426 -0.09632672 -0.0152288955 0.10489418 0.09380903 0.0480393 0.040795993 -0.03782745 0.021525929 0.04861997 0.029272025 -0.058716867 0.010862843 -0.0649927 -0.084150985 0.04704979 0.07375417 -0.04994136 -0.09652321 0.013014667 0.10082942 0.03383379 -0.05224036 0.0058053713 -0.037048463 0.011081616 -0.07033811 0.025780132 -0.01081052 0.048963808
here 0.015223537 0.021722285 -0.035555787 0.029112961 -0.010112503 0.1150707 0.0078078615 -0.03134034 -0.075806946 0.026716778 -0.020058353 -0.026982926 0.007917725 -0.09249118 0.09271444 -0.028918352 0.025779214 -0.028800173 0.028580556 -0.02866887 -0.020927655 -0.028479518 -0.045535788 0.036342554 -0.010556366 0.04301674 0.0063380124 0.016423235 -0.038989745 -0.012643976 -0.06243965 -0.016119221 -0.07177929 0.002819403 -0.08247238 0.0047910744 0.012708693 -0.0015891796 -0.04315168 0.032076854 -0.0035240657 0.03203304 0.024249753 0.043357022 -0.093872696 0.042627107 -0.03683138 0.051749747 0.0041042063 0.03921744
must -0.08576321 0.08482244 0.059795458 -0.028715827 -0.0035982542 0.05850458 0.052746415 0.025269026 0.052826032 -0.048678875 -0.07215198 0.072627574 -0.033027135 -0.0102631245 -0.034905586 0.027241675 0.08203171 0.06377458 -0.06629136 -0.048894156 2.4420442e-05 -0.01679584 0.010521371 0.015769554 0.031159647 -0.015999958 -0.06951998 -0.04690847 -0.06737001 0.037989505 0.037973 -0.026443439 -0.13803445 0.098340906 0.016932443 0.0067348564 -0.0414607 0.0070485217 0.09113188 -0.083484754 -0.05267925 -0.072389744 0.025321769 -0.058304355 0.054995287 0.05568224 -0.09595662 0.06909335 0.032588582 0.057742838
my 0.017331276 -0.03274331 -0.09184408 0.048526563 0.033944007 0.1445379 0.04004614 -0.11539935 -0.07897197 0.012404553 0.13573234 -0.037357267 -0.095382236 -0.055867773 0.097180896 -0.1050218 0.123246804 0.11469339 0.08087854 -0.07559715 -0.116635785 -0.092687495 -0.14368725 0.06865403 0.13136521 0.098341495 0.044251967 0.011636545 -0.121060155 0.13346669 -0.12760028 -0.059544064 -0.15000263 -0.043079164 -0.11022727 0.09631503 0.041191183 -0.10793161 -0.11334724 0.041800585 0.08365206 0.06277328 -0.097602665 0.09652946 -0.042747755 0.08022722 -0.14660071 -0.14354812 -0.071846925 0.08067298
by 0.023909148 -0.08700634 -0.09147585 0.04342565 0.05409154 0.04666137 0.01303518 0.038751118 -0.0391666 0.039139703 0.08078876 -0.06058644 -0.036359873 0.033198763 0.07268607 -0.008122812 -0.032142043 0.09665539 0.019249367 -0.0043298835 -0.034372363 -0.013606104 -0.04855862 -0.0037616035 0.100159116 0.0782696 0.06028961 0.06636642 -0.030916693 0.019538034 0.0011385205 -0.020608483 -0.04954679 -0.018831233 -0.06928189 0.03455806 0.058365878 -0.056655936 -0.08104587 0.07320629 0.014639443 0.07378414 -0.06975504 0.08087415 0.01143912 0.010704107 0.0017797146 -0.013936814 -0.07811646 0.024201307
into -0.01615273 -0.12033278 -0.02783601 0.063527435 0.01645762 0.020213813 0.06537058 0.05090897 -0.09537259 0.031217484 0.09661072 -0.090530425 -0.0046402165 -0.042995665 0.06495342 -0.04964376 -0.056788664 0.06672811 -0.024875686 0.001302176 0.025228092 -0.0022328515 -0.13235702 -0.013778766 0.077637255 0.04382592 0.036946896 0.012439177 0.029499942 0.076678865 -0.054223064 0.017956678 0.011140533 0.029832046 -0.10493513 0.043057412 0.103391275 -0.088654265 -0.053831737 0.0636397 0.010670886 0.11689743 -0.036065325 0.066520944 -0.023538249 0.16152766 0.010502885 -0.051061343 -0.056849536 0.027241027
found -0.024947658 0.0029958838 0.061694 -0.025830677 -0.051012747 -0.026100172 -0.055735752 -0.006296141 0.06151962 -0.042756688 -0.08889015 0.05711963 0.07599501 0.0093931565 0.009501316 -0.011487717 -0.07758578 -0.09501914 -0.029398276 -0.02779598 0.011084965 -0.09572005 0.005854473 -0.049330544 -0.128175 -0.08073693 -0.039460618 -0.064723484 0.0004478197 -0.050898112 0.037842058 0.048967704 0.005540843 0.009308244 0.044069424 0.038891822 0.014291001 0.0046293917 0.067887664 0.018653672 -0.046104614 -0.0030768588 0.031864103 -0.05275137 -0.015716532 -0.0078262845 0.017712792 0.035587735 0.024838604 -0.021968076
such 0.0852644 0.014632313 -0.0049024927 0.0019603504 -0.009486059 0.012480911 0.0029072384 -0.008647106 -0.0053351885 -0.011223954 0.0447757 -0.076418415 -0.02090124 -0.07903437 0.004957857 -0.028215226 0.046392333 0.062487517 -0.06900689 -0.05423669 0.002858246 0.017518964 -0.06832594 -0.0005872408 -0.013827501 -0.018873774 0.0314205 -0.030868465 0.027341241 0.07098325 0.023423584 -0.058371283 -0.105441526 -0.096813336 0.015110595 -0.022218298 0.01612226 -0.056056906 -0.012925876 0.021615993 0.006390658 0.036722105 -0.07342938 0.036869112 -0.075745754 0.06282256 -0.030277258 -0.06371717 -0.03276718 0.01656225
began 0.031059235 0.005575759 -0.0018897979 0.029472798 0.07693354 0.06338638 0.040297292 -0.07956562 -0.01858777 -0.0056038806 0.074573755 -0.08879922 -0.012182864 -0.07447782 0.049800042 -0.034223106 0.07950044 0.039081734 0.060356233 -0.056533724 -0.08044962 -0.042138424 0.009054699 0.00775929 0.076312006 0.01787267 0.036144726 0.057109226 -0.037943907 0.045301456 -0.033211395 -0.10002392 -0.0065621072 0.005987347 -0.017156092 0.0376344 0.0628884 -0.019137716 -0.05686527 0.025424622 0.07092807 0.08086492 0.010558043 0.059591316 -0.07038531 -0.011140527 -0.00081094087 -0.0046345177 -0.036445722 0.061751664
soon 0.04434493 -0.018673265 0.021127729 -0.017533828 0.009499411 0.06568082 -0.013889081 0.017714437 -0.015481441 -0.008404085 -0.056125753 -0.035066865 0.015751481 -0.034661062 0.02163976 -0.06473565 0.03107666 -0.0100081125 0.02935756 -0.054785885 -0.0013883561 -0.12293668 0.027167546 0.036412224 0.0054848962 0.034638897 -0.0038897013 0.026636105 -0.03444973 -0.03436978 0.0029161614 -0.06262412 0.0069582523 0.028130982 -0.037393283 0.10425256 0.030939763 -0.050950084 0.019333458 -0.010109328 0.025551917 0.009496216 0.06319492 -0.0072959987 0.025252407 0.027154028 0.022871539 -0.010480722 0.024830304 0.087358676
m -0.062252562 0.082283445 -0.00047436834 -0.079167664 -0.02186989 0.13339594 0.040559802 0.07723482 0.05179234 -0.1355988 -0.018370997 -0.0018007497 0.013205342 0.032225624 -0.01180336 0.085889384 0.09818445 0.15782975 -0.011765096 -0.07709829 -0.11113619 -0.002751486 -0.032804478 0.08727833 0.05222127 -0.031565636 -0.004627496 -0.050912876 -0.0285218 0.0015224519 0.04201627 0.019305134 -0.10405976 0.0935542 0.084160455 0.04597351 -0.032165013 0.04706228 -0.023698747 0.025471788 0.009413406 -0.039163623 0.034512427 -0.08108059 0.092692964 -0.011142222 -0.027723921 0.0025377925 0.0024071017 -0.119964644
quite 0.04565728 -0.00024109858 -0.045453306 0.012784465 -0.008711316 0.04909802 -0.02840366 -0.06518757 -0.05571966 -0.0153846275 0.013205422 0.005495383 -0.051869225 -0.030370373 -0.0069770725 -0.065570906 0.0501867 0.03341753 0.016465086 0.01868802 0.013357731 0.0027069855 -0.019249354 0.050374944 0.009458081 0.02318768 -0.022857705 -0.018562907 -0.04250856 -0.007957797 -0.05832305 -0.032013655 -0.060724474 0.018298088 -0.015618207 0.046160705 -0.035049308 -0.05386338 -0.029370245 0.057019945 -0.04971816 0.001396639 -0.016236419 -0.0031471779 -0.04045852 0.012732712 -0.034365546 0.015772613 0.027890172 0.035401054
then 0.05049391 0.039567653 0.014805157 0.008381298 -0.0028632474 0.009677985 -0.009422704 -0.030532835 -0.032197494 0.007539796 0.012463874 -0.025296442 -0.0030859197 -0.024725366 -0.0023472868 0.015086269 0.024148237 0.014425754 0.030072138 -0.030037217 -0.042370956 0.028849637 0.023067895 -0.0036603855 0.034962766 0.01730895 0.01998704 -0.06140274 -0.048435986 0.061754055 -0.032306913 -0.018697357 -0.05535654 0.05061063 0.026121184 0.050777648 -0.0016405851 0.003365025 0.023791015 -0.01564273 -0.053361353 0.052994266 -0.015217199 0.03506569 -0.037341587 0.066319674 -0.04584583 0.02105793 -0.018339505 0.018829608
off 0.08116703 -0.031578127 -0.0858812 0.020194858 0.03692664 0.04661773 0.005711849 -0.072724625 0.032818954 0.05571896 0.00048678828 -0.013581126 -0.06524991 -0.034575865 0.05924108 -0.07196503 -0.0003954256 0.0129656335 0.02601476 -0.008597845 -0.02516032 0.042298835 -0.038370363 0.056581773 0.07296155 0.0061358553 0.06385126 0.029823171 0.04377556 0.01140193 -0.026451215 -0.06385993 -0.042263407 0.057045907 -0.052032173 0.08684759 0.10198565 -0.024579622 -0.066609055 0.0611457 -0.0005124229 -0.0025358533 -0.03280876 0.018650085 -0.023244508 -0.012424861 -0.0007478757 -0.05106484 -0.0077421153 -0.051167365
now 0.025096837 -0.008496729 -0.0021150017 0.041482743 0.004123156 0.022056058 -0.009800816 -0.050761204 -0.02868209 -0.03486177 -0.03601963 5.611009e-05 0.031909473 -0.0575167 -0.016634334 0.0002923347 -0.037181925 -0.023582354 0.005825794 -0.04173385 -0.011264898 -0.08773274 0.0522222 0.0032704277 0.028792666 0.026358321 -0.03054374 0.02200712 -0.028571755 0.030606683 0.004762931 -0.008027138 -0.07181384 -0.020250687 0.040273104 0.023280106 -0.027368205 -0.037204217 0.047481287 -0.030325755 0.016687822 -0.037903756 0.054127373 -0.017262004 -0.0021642903 0.007579619 0.038918205 -0.016722308 0.045364838 -0.003686037
go 0.06179058 0.013863226 0.007193312 -0.041821174 0.03551114 0.00819494 0.030680384 -0.02785479 0.013855537 0.028686367 0.0066336542 -0.040770654 -0.05360688 -0.035573874 -0.0048250826 -0.06284587 0.063284025 0.0023180896 0.04158469 -0.036659196 -0.02530534 -0.01617299 0.057228476 -0.0143725155 0.02096103 0.030487275 0.032792762 -0.018707592 -0.010985661 0.024654517 -0.058256708 0.015930122 0.02599157 -0.004827898 -0.04480491 0.045877155 -0.016848935 -0.041441057 -0.049274836 0.03911744 0.01397588 -0.042052455 -0.052948464 -0.016293906 0.011529085 0.02493833 0.026039204 -0.03784778 -0.02092152 -0.0037862957
say 0.08556974 -0.025082117 0.024863115 0.055363696 0.06099259 0.024715241 -0.01901889 0.05593289 -0.050215542 -0.0021058647 0.042304188 -0.019700905 0.0014866844 0.048448525 0.034556184 -0.06936646 0.06767268 0.01483744 0.09132131 0.08354741 -0.021402588 -0.038123608 0.017127546 -0.02447208 0.058965597 -0.04094602 0.049328774 0.018506432 0.051915836 0.05483816 0.014647886 -0.011690626 0.010173001 0.07873528 -0.05422354 -0.013378166 0.05823632 -0.05784356 -0.052243803 0.04114147 0.0036498732 0.077726446 -0.08492912 0.051861573 0.027235633 0.0022896768 -0.03764619 -0.038071983 -0.0069121392 0.016219573
have 0.0078775175 -0.002109326 -0.00211948 -0.025724541 0.04577077 0.111337036 0.0292503 -0.06816978 -0.008657278 0.0026415149 0.04420724 -0.03656317 -0.031038154 -0.08144646 0.05952225 -0.07855505 0.008979549 0.024852026 0.07520733 -0.064800315 -0.09661478 -0.019013083 0.019442108 0.02666998 0.07716709 0.01007356 0.045402467 -0.049643632 -0.054343633 0.043358684 -0.070974946 -0.072043605 -0.062083025 -0.007326052 -0.035144933 0.053295586 0.013448299 -0.06746746 -0.06418491 0.06748611 0.0066902502 0.059118092 -0.033866294 0.052210238 -0.02019239 0.006125543 -0.086096294 -0.09061017 -0.010474538 -0.0039842203
which 0.048504937 0.0052975994 0.02259404 -0.056839008 -0.010554465 -0.020009166 0.013176578 -0.03618656 -0.0169961 0.0054335846 0.070253454 0.06155204 0.042310335 -0.07281169 0.016127575 -0.039390933 -0.024368059 -0.009433004 0.031827442 -0.033633813 -0.06606082 0.025850995 -0.03738335 0.0685803 -0.010631677 0.04999205 0.011575068 -0.0027680101 -0.077487275 -0.011930862 -0.044607267 0.031651124 0.016288495 -0.083658114 0.0026091207 0.038133074 0.006640394 0.007361401 -0.057614453 0.044063535 0.018686008 -0.054988474 -0.03843358 -0.02194 -0.014235678 0.009839014 0.030845791 -0.06594361 -0.011120431 0.0044929604
come 0.05622306 -0.032857787 -0.09127444 0.0014381586 0.07628503 0.04080913 0.08568952 -0.008563443 -0.042024445 0.017689457 0.08254691 -0.02587637 -0.025418928 0.014028516 0.099631034 -0.09742548 0.10219818 0.083562024 0.06734959 -0.00460865 -0.08074601 -0.010358479 -0.008947051 0.04760538 0.030024307 0.019138478 -0.010132234 -0.010421683 0.03327871 0.05574479 -0.031361066 -0.016337335 -0.018161278 -0.0061240303 -0.0055512344 0.09311888 -0.013870778 -0.1021284 -0.03644247 -0.010726428 0.06305747 0.05986746 -0.07703797 0.058655757 -0.022466015 0.010613916 -0.07095491 -0.068560556 -0.039021403 0.0603439
dinah 0.046661522 0.03424417 -0.030494757 0.028296087 0.010067124 0.044429246 0.027575675 0.023091478 -3.036973e-05 -0.06499499 -0.0031637885 -0.059286013 -0.055756558 -0.07705905 -0.0028866865 0.003993863 0.08418992 0.056493778 0.01639398 -0.08304135 -0.10633525 -0.11552303 -0.0704371 0.070760876 0.0816749 -0.0204341 -0.019056667 0.05742905 -0.021569131 0.005185405 -0.06458075 -0.030878566 -0.07958676 -0.04250035 0.0030748495 0.008784585 0.02505752 -0.019107264 0.0022931714 0.034538012 0.033429414 0.024005607 0.02195997 0.023525618 0.007597997 0.021464478 -0.037192587 -0.025428358 0.04424533 0.0076990956
your 0.078753084 -0.002351454 -0.07269389 0.031380888 0.12110967 0.08890526 0.09727913 -0.08620386 -0.044214517 0.046929833 0.04875461 -0.025241597 -0.0570408 -0.10077136 0.09549846 -0.04588983 0.09158369 0.09218363 0.069224745 -0.042424805 -0.11945935 -0.08872404 -0.06134106 0.04108965 0.09172443 0.078220405 0.012453908 0.09758392 -0.13131578 0.070043504 -0.14287345 -0.023193745 -0.12584147 -0.026303815 -0.02956527 0.1114169 0.03923337 -0.07691604 -0.07628632 0.04508089 0.10291339 0.05717173 -0.011110345 0.027520625 -0.038239244 0.04113384 -0.05669419 -0.047643315 -0.087396435 0.009752759
thing 0.08375971 -0.06765677 -0.029761866 0.026045911 0.0077592684 0.052303202 -0.0017453555 -0.031795077 0.005972278 -0.0032843433 0.075225316 -0.033360027 0.050122313 0.0031358227 0.062740184 -0.020979056 -0.041719984 0.064592585 -0.052928567 -0.013051456 0.027886294 0.042882353 -0.0009768086 0.0035532431 0.06726654 0.0055207135 0.054837886 0.043989643 -0.024334518 -0.009027142 0.06582906 -0.0016551786 -0.015654923 -0.012939759 -0.03799862 -0.07477242 0.05132774 0.018796004 -0.04791853 0.06364218 0.023857476 -0.0069739036 -0.06754192 0.0427475 -0.019813469 0.057315815 -0.026024077 -0.039635547 0.021215763 0.048486408
dodo 0.019878076 -0.055945117 -0.03268054 0.0009604119 -0.06652224 -0.07443847 0.07998856 0.024536962 -0.07292129 0.026591724 0.072537035 -0.030027598 0.038083762 0.041904725 0.12034535 -0.021893745 -0.06551441 0.0067925826 -0.058905374 0.062406715 0.08068763 0.10528057 -0.12593593 0.0050104284 0.030046066 0.03398531 0.03375792 0.06875365 0.030044397 0.038257007 0.022620266 0.0042170673 0.008981047 -0.012429672 -0.059217393 -0.00143238 0.096856475 -0.050475292 -0.04280437 0.013121531 -0.041287813 0.047423672 -0.021221057 0.10063279 0.041769244 0.08259314 0.069770545 -0.045996565 -0.063136205 0.011967185
much -0.019173753 -0.011706891 0.035786655 -0.06188107 -0.0023547227 -0.0028184243 0.026742397 0.029671352 0.049259808 -0.04004827 0.024123821 -0.0066089076 -0.038005926 -0.036074776 -0.0039716293 -0.05190529 -0.015240587 0.0016496049 0.036157176 0.018400222 0.015398225 -0.06846594 -0.006595122 0.009316691 -0.023927517 0.016083656 -0.010268966 0.015511889 -0.011717163 0.011007217 0.041186962 -0.030152535 -0.01946664 -0.02872561 0.04280779 -0.00076911435 0.013744622 0.00025042542 -0.03767223 -0.01732761 -0.0037743717 -0.013757716 0.034171667 0.006251729 0.023883607 -0.029882157 -0.07508291 0.027417192 0.024179662 -0.011111945
shall -0.036657818 0.053047765 -0.012989243 -0.053337343 -0.033528466 0.05016464 -0.06248359 0.02734218 0.017670903 -0.1073655 -0.08529577 0.07882684 -0.07700506 -0.016371086 -0.023286019 0.031173315 0.11135511 0.046768356 0.020270955 -0.06120337 -0.014530187 -0.03243322 0.05607496 -0.019821692 0.1035421 -0.06330409 -0.08830084 -0.082665004 -0.08359236 -0.023183184 0.012413665 0.046726976 -0.07412969 0.10659627 0.09222155 0.10163747 -0.034067612 0.026538704 -0.0161436 -0.08369779 -0.075227946 -0.0039714864 0.011216087 -0.08786448 0.05994967 -0.044048242 -0.06560367 0.0905603 0.04271615 -0.0048813396
things 0.04118788 -0.042314317 -0.098317854 0.0503567 -0.0019040203 0.022179605 0.05168405 0.01030888 -0.037335556 -0.026834326 0.0664242 0.009313784 -0.025228465 -0.04933864 0.04445435 -0.076006114 0.041199222 0.036935814 0.004812313 -0.05012258 -0.026387598 -0.029528672 -0.05180664 0.05059356 0.09581397 0.057149 0.06557859 0.058516484 -0.078974284 -0.03913199 -0.04991165 0.028096588 -0.023403177 -0.058598038 -0.07222547 0.037932616 0.034603115 -0.017240165 -0.083101176 0.017552271 0.05520454 0.017272921 -0.017264154 0.035665836 -0.0039270795 0.031206537 -0.041895013 -0.05694936 -0.018234037 0.00039492277
long -0.0065659354 -0.09115698 -0.049499746 0.038571037 0.0016809583 -0.014032499 0.05397857 -0.036857426 -0.0012847551 0.025756307 -0.015918767 -0.011409865 -0.02550271 0.022002941 0.04581888 -0.054630928 0.06309939 0.05846428 -0.06403456 -0.040730152 -0.0006834457 0.061905786 -0.03359379 0.019834174 -0.0212556 0.048213474 -0.02997011 -0.03734273 -0.046939068 0.06166272 -0.02508233 0.02525868 -0.020566266 -0.06817304 0.0035908737 0.011547296 -0.013521167 -0.015765525 0.046172153 0.054329436 -0.025680233 0.048954405 0.014529573 0.022156814 -0.07011317 0.0012370007 -0.02387875 0.0036257408 -0.049676526 -0.022777043
door 0.029681358 -0.04411754 0.012236672 0.06449846 0.005209359 -0.025920104 0.05952777 0.005780568 0.04604941 0.049905803 0.04149159 0.023757856 -0.031046275 0.07829734 0.08523623 0.03944713 -0.030937588 0.0031990458 0.017146327 0.030052895 0.07886706 0.039119724 -0.038625445 0.014179362 0.007604829 -0.02684478 0.015268647 0.008719211 0.022722164 0.013284951 -0.008891085 0.085915774 0.052052494 -0.03710246 -0.06982916 3.3216205e-05 0.018447861 -0.0023831953 0.036513958 0.040136833 -0.0473821 0.073976 0.009748049 0.019313663 0.021181103 0.05940918 -0.007170855 0.002161901 0.0029430108 -0.027996065
who 0.06623921 0.0011847655 -0.08691028 0.0454163 0.04802814 0.07985826 0.020191811 -0.013765313 -0.048129678 0.07327238 0.060688064 -0.08272298 0.008414691 -0.07650788 0.011554665 -0.042099018 0.05052271 0.09614261 0.0016000128 -0.0013662436 -0.066722274 0.022733433 -0.058049414 -0.0035490184 0.06596446 -0.01374806 0.026953766 0.019485975 -0.023523469 0.008409216 -0.0027173301 -0.010072296 -0.06346434 -0.003278667 -0.039266147 0.061733343 -0.014635526 -0.0017521245 -0.122276835 0.029326223 0.016220737 0.039451595 -0.022100914 0.06326272 0.0104668755 -0.00089548517 -0.0763172 -0.07447452 -0.0072837207 -0.027314892
can 0.025991801 0.019112613 -0.0063657276 -0.048253827 -0.03359312 0.063888386 0.039198216 0.030443478 0.0021214222 -0.088926524 -0.04781911 0.004845752 -0.06405074 -0.034427088 0.057647582 0.0306233 0.14012219 0.15737113 -0.011233345 -0.091794915 -0.04607961 -0.032491513 -0.06799215 0.05545536 0.13314714 -0.016229313 0.075690076 -0.03331372 -0.10669972 0.016841806 -0.012538401 -0.024082739 -0.03403347 0.046044663 -0.049969856 0.10826175 -0.070235275 -0.01951418 -0.005992268 0.052404232 -0.046275485 -0.010106903 -0.03501866 0.007038862 0.012841372 0.10594718 -0.06622035 -0.047902934 0.018446347 0.046167616
once -0.010971849 0.029240642 -0.03864288 0.0041606114 0.05611383 0.039386455 0.02520597 -0.038581584 -0.0047572264 0.042170137 0.013107248 -0.053669702 -0.056202423 -0.09219744 0.033480156 -0.05755296 0.039144617 -0.036555767 0.017378384 -0.04823117 -0.06491027 -0.0130429575 0.023315735 -0.0061973664 -0.020623287 -0.023929963 -0.03430351 0.01151976 -0.045375753 0.017188866 -0.07098982 -0.05700122 -0.033503532 -0.047076195 -0.04959694 0.020735592 0.034340143 -0.056029852 0.008735871 -0.010080082 0.024579694 0.061270665 -0.030044043 0.042474844 -0.113153666 0.0070545585 -0.02724116 -0.0070383297 0.01028896 0.004071515
did 0.012112875 -0.03940443 -0.016456429 0.021976154 -0.017981969 0.009921371 0.037802327 -0.0475232 -0.03841942 -0.028491132 0.04207924 0.008836601 -0.035792038 -0.01680931 -0.014739491 -0.063074306 0.021425163 0.06346032 -0.016982222 0.012491322 0.019951716 -0.024767654 -0.02067041 0.050223447 -0.020325156 0.001920775 -0.016379314 -0.0029709605 -0.040769223 -0.0013807138 -0.022880832 -0.024715817 -0.07761553 -0.01440957 0.03364398 -0.00426236 0.019954838 0.0028229463 -0.05305242 0.028504768 0.010299919 0.06650861 -0.06799971 0.017087085 -0.025113327 0.018271215 -0.03243059 -0.02628835 0.0052556684 -0.030582549
over 0.01817782 0.0053789257 -0.06744317 0.027415877 -0.017028177 -0.004889193 0.02311839 -0.016868234 -0.028489638 -0.026785914 0.029460676 0.012991933 0.033255674 -0.03129353 -0.030204806 0.008195411 0.009312039 0.031132095 0.06872763 -0.012413066 -0.0133314105 -0.06598243 -0.030536538 0.054138135 -0.011719917 -0.04136255 -0.006096922 -0.01972415 0.025299504 -0.045829836 -0.067991614 -0.025278714 -0.010365033 -0.02055893 -0.00027789996 0.02019125 -0.0124711245 -0.050759498 0.012294128 -0.041017912 0.028033322 0.020089734 -0.018821152 -0.074058816 -0.03635152 -0.02916339 -0.030195396 0.00012616394 0.01296033 -0.028012184
feet 0.0075280154 0.0462623 -0.032921087 0.024152618 0.046097733 0.026664905 -0.063836105 -0.036939025 0.012187449 0.019739328 0.023093803 -0.017857088 -0.026725765 0.022637533 0.002779959 0.0003312684 0.046433784 0.032611158 0.009827698 0.019319497 0.011829984 -0.045417413 0.015583039 -0.015372066 0.054773547 0.051878914 -0.049266305 -0.030826744 0.021395126 0.014111873 -0.04720053 -0.06635922 0.021636598 0.0752962 -0.021529367 0.06526083 0.010219927 0.0012234922 -0.024678541 0.051878985 -0.03225293 0.028572222 -0.00686321 0.005819695 -0.005201991 -0.02412785 -0.013091007 -0.008759994 -0.031626377 -0.06283841
after 0.047487397 -0.0025312041 -0.041041724 0.012472013 -0.019968845 0.014423261 0.047675744 -0.0035219598 0.030948061 0.057347093 0.038007244 0.03884763 0.052657288 0.01801368 0.05633905 0.04225215 0.006868357 0.007609646 -0.025459774 -0.015142586 0.02518385 0.0391518 -0.037106402 -0.039825503 0.03450695 -0.08575039 0.017877372 -0.004082969 0.0015344353 -0.007862019 -0.05449266 0.020023124 0.03472708 0.010169395 0.010764131 -0.011756651 0.034199502 0.037886374 0.032157365 0.0028883752 -0.020705031 0.054363802 -0.060536757 -0.008919677 -0.04690003 0.03417443 0.040892787 0.021448178 0.05124283 0.046848986
wonder -0.039098065 0.11480317 0.058967568 -0.02933001 -0.039873775 0.08816004 -0.018612674 0.033237938 0.038895074 -0.06674343 -0.042270496 0.0562573 -0.04435058 0.04038218 -0.019464394 0.030781688 0.07546566 0.09283886 -0.022517275 -0.018034179 -0.087364 -0.03868413 0.06849094 0.060291696 0.038444966 -0.02835897 -0.006053103 -0.06352842 -0.0284736 4.1273655e-05 -0.039825056 0.038029008 -0.057624526 0.047657385 0.1050861 0.0463708 -0.0912987 0.038782615 0.07572024 -0.04326815 -0.062079728 -0.091223754 0.07635489 -0.08556529 0.051044066 -0.04023487 -0.04558924 0.068845235 0.08676523 -0.10101491
first -0.008458011 0.05292263 0.039886482 0.016450506 -0.02166564 -0.012765272 0.013320482 0.011820258 -0.06474667 0.018922945 -0.025277253 0.046643972 0.010873279 -0.037940398 -0.054173987 -0.05364825 0.022285772 0.027744316 0.04279416 0.028309314 0.0130821075 -0.039036803 -0.013421709 0.02321516 0.021830378 0.015934177 -0.01012111 0.034596317 0.02754392 -0.0026616217 0.01916163 0.035804942 0.03923119 0.030656282 -0.008730495 0.05119113 0.030768186 -0.00083698175 0.034500554 -0.019428024 0.027438773 -0.00080804515 0.07866221 -0.09428701 -0.06531782 0.045434203 0.036943004 0.04972208 0.007968535 0.042485923
let 0.059619315 -0.06306957 -0.08218907 0.048880495 -0.006008646 0.06045286 0.02227476 -0.06182171 -0.035406373 -0.017293664 -0.011735598 -0.02101122 -0.057978466 -0.08621206 0.028456882 -0.06475517 0.053236753 0.0793189 0.071691684 0.019123107 -0.074570775 -0.07298405 -0.09012032 0.057530362 0.029348051 0.10398447 0.029674375 0.06798108 -0.09001163 0.10523149 -0.04558817 -0.09012186 -0.01162175 0.0025911285 -0.100348905 0.055706438 -0.001706514 -0.01033049 -0.06397711 0.06722692 0.014034917 0.054068968 -0.045622688 0.026454298 -0.046398368 0.04783797 -0.05465637 -0.044922583 -0.048860997 0.038486116
are 0.040412806 -0.019012583 -0.00068178144 -0.0034740595 0.046578646 0.026307939 0.037063267 -0.082326405 -0.076191105 -0.026809186 0.019457763 -0.035830624 -0.049834825 -0.06655225 0.030418752 -0.1252264 0.08180983 0.08126232 0.052659705 -0.06380617 -0.07387663 -0.079633705 -0.06718259 0.056605965 0.07628044 0.104514144 -0.004010648 0.07331507 -0.09272645 0.091674104 -0.07138513 -0.0662794 -0.10516954 -0.060854048 -0.09481039 0.057230044 -0.013230712 -0.035398547 -0.025616188 -0.022615045 0.045454122 0.0614678 -0.05257434 0.052921183 -0.09845049 0.108831346 -0.05243203 -0.038374253 0.028366793 0.028751722
cats -0.02734739 0.00216639 -0.031099968 -0.012990672 0.038314767 0.01209063 0.018252676 -0.008823927 -0.010706063 -0.05661664 0.051577304 0.046652228 -0.101458155 -0.07771866 0.078388035 -0.03354013 0.01601776 0.04915855 -0.0055643646 -0.040066514 -0.09895865 -0.0042216964 -0.0065992 0.0590101 0.0043274756 -0.015307285 0.021242445 0.070836544 -0.1291871 0.08125502 -0.09276033 -0.04444074 -0.075071834 -0.05032186 -0.047779918 0.019051453 -0.037027806 -0.066775285 -0.056684796 -0.024864018 0.08269809 -0.0013837942 -0.083622165 -0.013434269 -0.027669843 0.012584878 -0.066712715 0.014894082 -0.046386845 -0.002471526
round -0.007679076 -0.047794346 -0.059787598 -0.0046281726 0.012808643 -0.018016808 0.03998364 0.011118146 -0.07566287 -0.029458001 0.080257386 -0.053067382 -0.045551565 -0.10442203 -0.0022129705 0.015438181 0.030718947 -0.004153652 0.06524753 0.0046984083 -0.06602872 -0.036556557 -0.04019599 -0.047225505 0.03973664 0.07443474 0.055047758 -0.004158929 -0.019605473 0.011187314 -0.020918908 -0.013124137 -0.07835918 0.0005287436 -0.07087012 0.002814935 -0.024014544 -0.052069016 -0.04155567 0.01213975 0.009495885 0.078618996 -0.021383855 0.06848523 -0.034110438 0.017569236 -0.06336075 -0.0006653143 0.0020810917 0.07297676
poor 0.041430667 0.047247015 -0.053845808 0.04501816 -0.0069492394 0.00073826127 0.03030785 0.023476208 -0.0494581 -0.0074495277 -0.010290159 0.029557016 0.02685732 -0.019577932 0.048077952 0.016456248 0.0084708305 -0.038844958 0.0297898 0.013660003 0.005346661 -0.07610445 -0.033875905 0.04816514 -0.0051114657 0.0140832495 -0.055113316 -0.04333068 0.040416494 -0.020214686 0.032186355 -0.010982398 -0.057229336 -0.035621583 -0.045064684 -0.026370456 0.04980033 0.017006392 -0.052256953 -0.002365709 0.024665711 0.023995647 -0.014966297 -0.022360383 -0.011258673 -0.03300233 -0.022488194 -0.031445876 -0.0099211 -0.009482274
back 0.07555563 -0.02921817 0.005044363 0.019377617 0.04331627 0.051884223 0.0503315 -0.011041721 0.018887887 0.0064839707 -0.017587887 -0.07256751 0.017418405 0.023297785 0.005119087 -0.053118683 -0.0115821175 0.00040148722 0.06169909 0.0011462715 0.0449635 0.017210009 -0.060287796 0.03079425 0.05349967 -0.037130952 0.061790776 0.0002271905 0.05197849 0.05789035 0.036291987 0.015360831 -0.015547055 -0.025458297 -0.012547776 0.043726284 0.08360428 -0.063843876 -0.06433564 0.074460976 0.042840276 0.017948994 -0.07882337 0.059587676 -0.030870019 0.054307364 0.0422195 -0.0144391805 -0.078970104 -0.020298326
he 0.04998029 -0.052928105 -0.08432981 0.08560676 -0.007883718 0.07211802 0.029182578 -0.022223622 -0.07301064 -0.0013941564 0.071574286 -0.0793934 -0.10087089 -0.096099205 0.072843075 -0.027840698 0.07879384 0.09342439 0.0091896355 -0.07713433 -0.048113566 -0.008383385 -0.061423928 0.019249814 0.05725443 0.06425916 0.043124724 0.02150718 -0.059237435 0.03232117 -0.013804235 -0.073020816 -0.05265417 0.02177973 -0.08744121 0.0853649 0.031081723 -0.03294414 -0.037468467 -0.025459712 -0.008630524 0.022872617 -0.07973718 0.007935031 -0.0942721 0.10742901 -0.010053475 -0.044313353 0.002333343 0.09699637
nothing -0.00064996403 0.060796253 0.034242645 -0.0415869 -0.018052083 0.043587156 0.007949279 0.06694167 -0.021421563 -0.014185271 -0.010459237 -0.015950749 -0.036456764 -0.043672856 -0.056703996 -0.021975666 0.033653565 -0.012943 0.018456329 -0.040175214 -0.040601034 -0.06960473 0.06350043 0.04830305 -0.053492118 0.023424733 0.017265428 -0.029723631 -0.044110026 0.014236256 -0.003381965 -0.019908518 -0.026279291 -0.020764964 0.024809737 -0.059745118 -0.05866263 -0.026373059 -0.008879924 0.033094246 -0.019049335 0.011908999 -0.029642744 -0.03286731 -0.023558471 -0.029028047 -0.046588473 -0.0056101233 -0.035822656 0.05378887
seemed 0.060371235 -0.015504014 -0.043104693 0.018270284 -0.02561374 -0.022519452 0.026025584 0.0574771 -0.023331502 0.032983944 0.026059918 0.0023722514 0.005412949 -0.06564379 0.017022753 0.014041499 0.08600947 0.020337433 0.08035787 0.084314786 0.034616597 -0.0046884352 0.03129784 0.019491473 0.0029220856 -0.028882468 0.045025043 0.058961354 0.026857344 0.03551482 -0.0384956 -0.063155465 0.011534518 0.00016539195 -0.04162978 -0.041096862 0.03756395 -0.042604808 0.010452631 0.0031343717 0.08909328 0.012201167 -0.0641864 0.046203185 0.03668837 0.032419913 -0.03026029 -0.0102513805 -0.0011077697 -0.0042825667
its 0.024167301 0.012769612 -0.04568714 0.024655292 0.017189736 0.09201355 0.008360351 -0.032453638 0.03133219 -0.022760686 0.01611542 0.003751948 -0.05406913 0.012415169 0.004465715 -0.047290128 0.07078119 0.04926413 0.08224108 -0.06428708 -0.06182533 0.019837368 0.031094247 0.044868976 0.08691724 -0.016658029 -0.0052552065 0.060903832 -0.0058904933 -0.013410343 -0.024361065 -0.02281136 0.019993119 -0.054568615 -0.0065147085 0.064045504 0.054750763 -0.046859693 -0.06373816 -0.0030373663 0.043192197 0.035664555 -0.0151684815 -0.014877164 -0.0325039 -0.030109158 -0.035275068 -0.013446381 -0.008922407 -0.023436384
never 0.04128741 0.021365957 -0.04373376 0.03028741 0.02016117 0.04827639 0.0061343904 0.044521596 0.016266704 -0.025956659 -0.044200912 0.025808219 -0.009260305 -0.0036838376 0.0066563487 0.002557768 -0.0085112285 -0.012806904 0.014183286 -0.027576413 -0.023252433 0.02723539 -0.010693584 -0.015315832 0.051830977 -0.010760289 -0.03967983 -0.062180497 -0.010093752 0.038332243 0.04871595 -0.03711736 -0.06013051 -0.036068983 0.0057989857 -0.0073518525 -0.019871963 0.007549294 0.02763427 -0.025284551 0.05078377 0.035617974 -0.04289701 0.004976093 -0.048612185 -0.039891314 0.03090748 0.033166252 0.024419606 0.028415617
going -0.0041810255 -0.0026918799 0.06311662 -0.07929493 -0.018727968 0.031476986 -0.0141149005 0.04886523 -0.00028573466 0.002561499 -0.07180354 -0.009703703 0.018896546 0.002082523 -0.050806947 -0.034836672 0.013636056 0.007850608 0.020902628 0.072401166 -0.016114634 0.011189468 0.079072855 0.03606192 0.058324333 0.014600553 -0.0051395153 0.001779511 -0.014307777 -0.030574895 0.01771852 0.029965067 0.041238323 0.018105252 -0.008700532 -0.019072859 -0.0061994283 -0.007903588 0.0020507136 -0.0065057944 -0.036596436 -0.07123815 -0.038242582 -0.07681939 0.0032612714 -0.052500464 -0.034717612 0.038781747 0.02904415 -0.04095731
great 0.0024619135 -0.020671414 -0.030882705 -0.04366036 -0.03762433 0.054323316 -0.03491534 0.008477223 0.023175195 0.049462616 0.011632036 -0.009988549 0.023620926 -0.028901257 -0.022937506 -0.012711229 -0.049339365 -0.0010480275 0.019864308 0.06094346 0.049539804 0.03462067 0.02049746 -0.04453794 -0.013147398 1.700176e-05 -0.06377017 0.0104620075 0.04989634 -0.027525982 0.023102118 -0.016448803 -0.03430842 -0.016081544 -0.026712922 -0.08086977 0.009040761 0.039941058 -0.03108701 -0.011259022 -0.021488862 0.0072855772 -0.019181905 0.00022180285 0.048506994 0.0009731472 0.035959575 0.006939618 0.0147520285 0.038874026
got -0.027240964 -0.022506552 -0.011856815 -0.019679883 -0.058227792 0.00660023 -0.034298852 0.0022974364 0.03744291 -0.024907306 -0.028640872 0.016886514 -0.028032623 0.025274146 -0.020205999 0.016504372 0.0054433946 -0.004430917 -0.006726187 0.03195041 0.040188424 -0.02445646 -0.0011384743 -0.034622625 0.01994371 -0.00032295717 0.02082105 -0.027396765 -0.0018604547 -0.05607024 -0.031686544 0.06128978 -0.042352997 0.05077277 0.057837013 0.017570231 -0.030338015 -0.016085122 -0.046920285 -0.06939436 0.03288775 -0.0077953134 0.050828677 0.024461875 0.030789193 -0.0074524074 -0.008306379 0.030752562 -0.028798683 -0.03556438
ever -0.020677807 0.013358903 -0.0017782783 0.030453796 0.034154598 0.056168586 0.07129869 -0.066197485 -0.0140718855 -0.017468238 0.048309017 -0.03836277 -0.04394949 -0.03668136 0.001939234 -0.06882391 0.009355276 0.07537389 0.048058994 -0.09096001 -0.049099036 -0.064266756 -0.01908086 0.04596644 2.2105582e-05 0.061844505 -0.0047394377 -0.020202637 -0.043275867 0.01917914 -0.019492747 -0.07236528 0.0087142 -0.06743655 -0.07651924 0.051240977 -0.00672921 -0.07895942 0.0215452 0.031867664 0.04005911 0.053528607 0.0024939277 -0.019915655 -0.07610627 0.04775006 -0.022443132 -0.01263134 0.019792635 0.062167674
table 0.010398025 0.0058172736 -0.047509585 0.011506939 -0.07231717 -0.038925525 0.029059712 0.021668294 -0.029412657 -0.01140133 0.007968455 -0.01144783 0.03640636 0.07274486 0.027300237 -0.022899987 -0.008339897 -0.016385626 -0.050946116 0.051098008 0.09216106 0.064287946 -0.016230257 -0.007724152 0.06132428 0.03631204 0.03113147 -0.029344417 0.061487306 0.04088801 0.052499462 0.04450845 0.074597105 0.06385566 -0.06851702 -0.06159584 0.01663663 -0.00880479 -0.07099749 -0.024629153 0.021115765 0.027298044 0.00075077696 0.060086004 0.055998534 -0.009743354 0.07613973 -0.03189971 -0.06014894 -0.052999258
any 0.013762809 -0.015334295 0.022703711 -0.022268139 0.025476739 0.035663925 0.0054424396 -0.04088225 -0.017077135 -0.039801314 -0.051629577 -0.0073163933 0.0014250486 -0.04853486 -0.012268663 0.02618418 0.06012258 -0.029731972 0.048342463 -0.002332678 -0.08747307 -0.029585622 -0.035007287 0.043173976 0.011553618 0.018877476 0.013623368 0.05833318 -0.07816975 -0.018704029 -0.0007680012 -0.0095219165 0.0027208677 -0.06067482 0.00725956 0.007376147 -0.02013101 0.005693887 0.028445214 0.009940705 0.071032636 0.063776076 -0.011319732 0.0452426 -0.05608957 -0.028404174 -0.043558545 -0.0150947645 -0.046645653 0.040490005
only 0.039880585 -0.017171184 -0.056408983 -0.05842238 0.0517782 0.08668244 0.06246147 -0.02805938 -0.00046798575 -0.01262276 0.02832868 0.025906112 -0.02583621 -0.0011124719 -0.026142513 0.0018864407 -0.003574348 0.113435335 -0.011012605 0.00079362787 0.009845772 -0.022797478 0.019001583 -0.0018601114 0.05309005 -0.028810313 -0.0024845582 0.015507614 -0.10089335 0.026274985 -0.021050766 -0.04668461 -0.040239405 -0.06876131 -0.013467039 0.06360573 0.00024593627 -0.016559675 -0.043208644 -0.003324546 0.04312834 -0.00985117 0.027712304 0.036948044 -0.072304145 -0.025216542 0.012114418 -0.038818516 -0.0065637096 0.056901734
more -0.01877285 -0.018273188 -0.019518144 -0.021950256 0.0620882 0.05759726 -0.013727372 -0.06756338 -0.052910924 0.031232532 0.06743539 0.036358986 -0.0038802577 -0.008306957 -0.011569288 -0.025718573 0.035306077 -0.01240952 0.023355855 -0.06288097 -0.063727126 -0.061091118 -0.06450921 0.02844265 0.02032178 0.058113538 0.016411781 0.022154797 -0.04427853 0.03788948 0.009801838 -0.06261098 -0.08914137 0.009732407 -0.05159726 0.06044374 -0.010557416 0.011797164 -0.07100587 0.01315912 0.009787727 0.03132614 -0.02402864 -0.0029014365 -0.05108864 0.053780086 -0.05931495 0.004004455 -0.02502609 -0.029966509
cried -0.018425744 -0.00040570216 0.010670798 0.0013401106 0.011291667 0.020769216 0.009020812 0.005432154 -0.027918177 0.009236789 -0.0035764584 -0.03572246 0.030401062 0.007497 0.020160856 -0.016834652 0.044134844 0.02890072 -4.1910564e-05 -0.018553909 0.025565634 -0.08802805 -0.02953837 -0.017825095 -0.0131487 -0.01125169 0.050879043 0.02433993 -0.010459138 -0.0219339 -0.041346107 -0.052908383 -0.07341851 -0.04766998 -0.07260946 0.053942166 -0.028571492 0.030180857 -0.07315105 0.053890996 0.026655309 0.06919829 -0.04874276 0.047086436 -0.058110133 0.042486936 -0.010272249 0.018150946 0.019496704 -0.0054770596
gloves -0.02361508 0.052698966 -0.026562668 0.03502205 0.003763067 -0.008358557 -0.0077168634 0.010962863 0.0033376482 0.014118611 -0.005117731 -0.06338534 -0.038638156 0.050506715 0.0066609397 -0.0024849456 -0.052222203 0.031046266 -0.021462439 -0.040270604 0.047745187 -0.020995468 0.041472457 -0.05101051 -0.04559943 -0.022615682 0.027189799 0.07522637 -0.017020544 -0.032506116 -0.06461893 0.038931377 0.027719697 -0.028139438 -0.015112096 -0.054808635 0.038644042 0.0008661754 0.049602266 0.019810734 0.01182713 -0.0022839645 0.034716245 0.041480254 -0.0066722333 -0.016871974 -0.057171118 0.023084534 -0.005322795 -0.02059392
fan 0.017078955 -0.048629265 0.032937035 -0.036002606 0.029395552 0.005279317 0.035459094 0.017531568 -0.0286742 0.041968714 -0.018045763 -0.037844427 0.04516531 0.032065902 0.014757263 0.03247336 -0.019247366 0.020669378 -0.062512025 0.027672764 0.04185427 0.062728554 0.0471297 -0.087351136 -0.028576568 -0.030654809 0.0023284375 0.013849183 0.085614786 -0.023915442 0.051269088 0.045479733 0.09065359 -0.010408872 0.014018462 -0.03037102 0.06228334 -0.024960037 0.08572805 0.04120789 -0.07825665 -0.003243366 0.044185247 0.012685251 0.09206346 0.02684374 0.035071023 -0.04937122 0.03794696 -0.03275796
well 0.0062157633 -0.009813418 -0.046437796 -0.0083314795 -0.055317402 0.034902286 -0.04980351 -0.034218404 -0.010836521 -0.03598156 -0.03580119 0.046581876 -0.042601865 -0.04106818 -0.013257037 0.05894559 0.0014152405 -0.0038311074 0.047862235 -0.026471252 -0.0061799753 -0.048308853 -0.016119033 0.041331097 0.02553308 0.033100214 -0.043065187 0.0031307715 0.030913088 0.004020253 -0.023714205 0.020688852 -0.030115275 -0.030986138 -0.03178942 0.042872038 -0.0121984845 -0.019607518 -0.022241116 -0.047915198 -0.045695078 -0.025621224 -0.031196207 -0.007350587 0.023851981 -0.016570034 -0.02620259 0.057085108 -0.030603735 -0.009607154
white 0.0072181714 -0.023171911 -0.04617583 0.03425599 -0.0037038175 -0.042889748 0.07918336 0.037842467 -0.0033656927 0.027485004 0.09717075 -0.08235572 -0.0004277376 0.013546235 0.02082632 -0.04406603 0.002453175 -0.0053724614 -0.055722542 -0.0053767897 -0.035287686 0.005358087 -0.045920283 0.030984836 0.014505405 0.08696658 0.074280865 0.08099331 -0.02637263 -0.025120864 -0.009972475 0.028985092 -0.0409045 -0.04712119 -0.073352724 -0.016658194 0.016947372 -0.015495782 -0.003280821 0.034663253 0.028445687 0.004064126 -0.0035853756 -0.0057651307 -0.0065147155 0.03633497 -0.03591476 0.019618714 -0.075765856 -0.0020013326
looked -0.04454084 -0.002311722 0.007045621 0.0029570293 -0.0037746422 -0.0009315694 0.029263018 0.017870452 0.014348321 0.0035600993 -0.05145849 -0.00722812 -0.012904228 -0.02294926 0.046288144 -0.05024574 -0.04176559 -0.060811337 -0.0462145 0.00537574 -0.0034801962 -0.00962423 -0.020248374 -0.018281708 -0.04206 -0.019856213 0.008929015 -0.03892799 0.01351842 -0.08157288 -0.036759634 0.06671542 0.039138682 -0.0009043199 0.02121755 -9.2062575e-05 -0.002868733 -0.04232931 -0.03430465 0.02117848 0.001196065 -0.056341533 0.014719555 -0.0060580983 -0.0004815538 -0.021404456 -0.008070027 0.06037677 -0.0072617214 -0.074742354
before 0.030833418 0.020359507 -0.03638402 -0.0434287 0.030899381 0.057884987 -0.015263018 -0.0100496635 -0.02981265 -0.0439407 0.0283673 0.03574901 -0.013176021 0.024687124 -0.03714029 -0.003611669 -0.03955347 -0.020540798 0.034093924 0.0051098345 0.047918707 0.021301242 -0.01287284 -0.025107447 -0.018684888 -0.025023222 -0.018072452 -0.031305525 -0.05636262 -0.029032161 -0.031660475 0.004506106 -0.027119411 -0.013689934 -0.013424384 0.0020193094 0.019285401 -0.024066674 -0.03395344 -0.00035982556 -0.020978183 -0.02922873 0.011994028 0.027652062 -0.0033645618 -0.04538229 0.01483019 -0.034465257 0.021036187 0.017214064
moment 0.017596254 0.029857948 0.010566764 0.02896725 0.002717649 0.053193897 0.026381401 0.0013213409 -0.025086325 -0.044826783 -0.014321102 0.029459175 0.043930847 -0.02402181 -0.019913271 -0.04783306 -0.01925497 0.030772837 -0.05353245 0.022114305 0.04573594 0.017620582 -0.0123878885 -0.0073325587 -0.0010163074 -0.021647796 0.004459617 -0.005275302 0.042395882 -0.071084924 0.050472885 0.046055555 0.0032994547 -0.056067146 -0.019849299 -0.071260445 -0.04678492 0.0009289816 0.010110458 -0.06954689 -0.04215431 -0.052158948 -0.0067129447 0.01276195 -0.013119817 0.00039989816 -0.022582876 0.035234053 0.0005161115 0.014691208
why 0.020129876 0.022454444 -0.057918575 0.011072651 0.048277717 -0.016386084 0.047006972 -0.035035037 0.017322617 -0.02629547 0.017833387 0.030476376 0.0016941645 -0.0075265886 -0.007874427 0.03549717 0.005216797 0.049865313 -0.039453365 -0.007139062 0.02696441 -0.039805043 -0.016360603 0.047178596 0.064272776 -0.0064282226 0.019214295 0.05130793 0.025741016 -0.030381193 -0.011333688 -0.048402473 -0.03889691 0.041305754 -0.053600162 0.010831543 0.033151593 -0.068141356 0.014658148 -0.020503556 -0.0007892435 -0.0011346438 -0.018201374 0.06046853 -0.05390933 0.030163905 -0.051542666 0.008403399 -0.022804199 -0.030047745
an 0.0733736 -0.04785754 -0.004217683 0.041207165 0.070018575 0.07715139 -0.019556863 -0.08876734 0.029642947 0.010563845 0.003141846 -0.06665407 -0.017150234 0.0021173097 0.042835187 0.005376978 0.07395622 -0.008524161 0.03439907 -0.06505279 -0.09115864 0.009721143 0.006131028 -0.0052008266 0.031292573 0.0106665995 0.061309375 0.010670544 -0.045418743 0.05978825 -0.049609724 -0.06649931 -0.04677778 -0.046829026 -0.06507479 0.0057496764 0.021772923 -0.055078015 -0.02251566 0.016319009 0.023022186 -0.007124647 -0.08060783 0.07843979 -0.049793284 0.01798655 -0.05586119 -0.018183904 -0.06487174 0.060442954
eat 0.002532314 0.035225473 -0.039048363 -0.026242662 -0.043316957 0.0047159544 -0.028695202 0.031705495 0.016064726 -0.059794623 -0.0041333865 -0.020556374 0.013580464 -0.033907823 0.06449641 -0.051516153 0.006767821 0.06389955 -0.016588666 -0.06568089 -0.06913939 0.061344218 -0.05590075 -0.044929232 -0.0046395627 0.009770233 0.0027110672 0.010460617 -0.01941594 0.023144912 0.010763729 -0.0034789126 -0.01943657 0.0021470755 -0.011352318 0.076548256 -0.010227908 -0.050320193 -0.0033886144 -0.012130796 -0.012025796 -0.041752115 0.034461033 0.027845224 0.017088441 -0.020620942 0.0077907615 0.0061876206 -0.032799475 0.03821951
however 0.008326198 -0.025618626 -0.015372712 0.027921198 0.030024638 0.01624694 -0.021249574 -0.062077373 -0.05240376 -0.016556209 0.053821113 -0.04917915 0.0057920567 -0.010785168 -0.018119266 -0.03011095 0.039184116 0.015377586 0.04742181 -0.030724147 0.025295774 -0.039550982 -0.010900718 0.050990462 -0.038114157 -0.022108702 0.050820325 0.008556016 0.0020091315 0.052073337 0.020271929 0.012207196 0.03286379 0.033623796 0.015879957 0.026339205 -0.0064985 -0.063544475 0.02864964 0.024902655 -0.027436804 0.01196669 0.05677575 0.0069859847 0.0033834747 0.022104051 0.0015009551 -0.04252635 -0.050601758 0.043609522
sure -0.016604725 0.024693603 0.045742735 -0.018533662 0.0015164099 0.052866973 -0.042796884 0.04672997 0.05101632 -0.06803334 -0.05611246 -0.02991196 0.044558153 0.010206631 0.03512512 0.030119218 0.042159654 -0.022808297 0.015574654 -0.019977733 -0.037662324 -0.03541892 0.073912315 0.045845527 -0.0014770153 0.0032377848 -0.020200675 -0.052256312 -0.033112288 0.013033979 -0.021886975 0.032211106 -0.06074634 0.062394023 -0.013279677 0.051873095 0.006141956 0.020450413 0.008388355 0.039119538 -0.013935254 -0.03583476 0.0066371206 -0.046201278 -0.009331042 -0.00808898 0.004394532 -0.00014229352 -0.0001497129 -0.02804724
pool -0.02260132 -0.019772716 -0.004117258 0.02214348 0.018631877 -0.08307173 -0.033348236 0.014726143 0.039743245 -0.036797877 -0.04789482 0.031013334 0.060142394 0.09540655 0.016821792 0.05713186 -0.018339876 -0.032404676 -0.046784773 -0.026740735 0.064089045 0.04742529 -0.014353436 -0.04760603 -0.026584398 -0.02508519 -0.019458212 -0.06800083 0.02848414 -0.06695345 0.09566724 0.06189683 -0.004474977 -0.020318646 0.0030046972 -0.0932348 -0.015770396 -0.023144195 0.028072305 0.029895663 -0.018767893 0.030209802 0.0067947367 -0.006949475 0.022631349 -0.022039913 0.080511905 -0.048481155 0.0024824783 -0.05827654
getting 0.0008567693 0.025072046 0.005722305 -0.016978094 -0.017633105 -0.004257279 0.0564711 2.319063e-05 -0.075766176 0.027225986 0.019398598 0.026596116 -0.028626285 0.018606126 -0.010735027 -0.008574795 0.019982016 0.07168002 0.014986075 -0.056605745 0.0016657797 -0.0012836452 -0.038644314 0.0376794 -0.043313406 0.022771835 0.035490133 -0.0008584499 -0.031366404 0.0034228743 -0.08032556 -0.002353143 0.0045170975 -0.072902255 -0.018547267 0.032658502 -0.049877718 -0.0400961 0.026137654 -0.027268514 0.024398336 0.0645449 -0.020644035 0.008294446 0.0259402 0.048327845 -0.032988634 0.040752344 -0.058154088 0.07352772
took -0.0025664098 -0.03819701 0.0014092186 -0.0010472591 0.0014904086 0.024347242 0.07499346 -0.030797949 -0.06278299 0.066964015 0.022374146 -0.071249515 0.04474778 0.026660183 0.08017277 -0.082323544 0.0074566714 0.07092503 -0.006752751 -0.031679023 0.010056818 -0.020376634 -0.012068414 -0.040756933 0.06633897 -0.01660899 0.030847397 0.013370329 0.0005158429 0.04358961 -0.010852445 -0.02028699 -0.03442883 0.034243055 0.0009144386 -0.053088654 0.029958837 0.0064395517 -0.05079972 0.0072274506 0.013549273 0.03950163 -0.0042806645 0.040544033 0.014612367 0.034081534 0.045854036 0.026307039 0.0121708 0.05426405
either -0.016327446 -0.0011899516 -0.013958432 -0.026520034 -0.051862866 0.047316067 0.066806376 0.0031940863 0.012419648 0.0027803225 -0.02653085 -0.008036712 -0.005203554 -0.0064032553 -0.004488255 -0.04572828 0.02819284 0.07669493 0.024023397 -0.030502288 -0.066669986 -0.031357024 -0.0012601383 0.075078875 0.029415194 -0.032674395 0.030777762 0.0013294818 -0.0063628806 0.04249691 0.00078647526 -0.062116355 0.016934648 -0.057450183 -0.058908522 0.01612781 -0.021854103 0.023282021 -0.04356166 0.04452261 0.021190718 0.0056967693 -0.021537319 -0.0015666216 0.022400081 0.02140319 -0.026482644 -0.039926782 -0.057965018 0.014630571
just -0.0052253017 -0.025146507 0.03392341 0.014311951 0.009131122 0.07054887 -0.021112641 -0.0074201245 0.06821225 -0.028656388 -0.039818347 0.024032885 0.0066294596 -0.011029839 -0.07584878 0.05614354 0.047823235 -0.048386138 0.0043734047 -0.0019221541 -0.026821522 0.0056733093 0.031428643 -0.0030435661 0.029233284 0.045218956 -0.03329843 -0.008772311 -0.022122515 -0.048569717 -0.04089918 0.021073814 -0.004647676 0.013204002 0.01349692 0.06330659 -0.005057212 0.046051536 0.012712739 -0.056011304 0.01591627 -0.016618907 -0.021587452 -0.0661163 -0.028609898 0.0038307295 -0.0020713764 -0.026768418 0.014130536 0.0013311881
upon 0.0262133 -0.070411116 -0.0014927305 0.057283092 0.043787487 -0.032911956 -0.0072482023 -0.07332915 -0.004365535 0.030670218 0.03847262 -0.04928889 -0.07821672 -0.10834366 -0.0013462189 -0.07608732 -0.0064965924 -0.009786095 0.01932529 -0.0728915 0.046509076 -0.025356648 -0.08919552 0.00558956 -0.0061306255 0.012652823 -0.0061346754 0.040141653 0.051976908 0.027017023 -0.027018486 0.0036495593 -0.06164794 0.0039367415 -0.06783632 4.2827975e-05 0.014768042 -0.045972288 0.040390957 -0.01873702 -0.0129328985 0.05933324 -0.053893715 0.07715834 -0.0041384683 0.050074775 0.025371619 0.010983605 0.0056402166 0.04773007
ve -0.012476082 0.0689504 -0.03435611 -0.05617943 -0.020184271 0.087017626 -0.046079535 0.007423483 0.03481525 -0.023877222 -0.088756934 0.062284574 -0.035077903 0.03377168 -0.00988741 0.06982642 0.07173644 0.083969615 -0.020185629 -0.042383123 0.010393891 0.010602739 0.03997028 0.067925096 0.05992552 -0.06948629 -0.019702366 -0.07509392 -0.046982426 -0.024713494 0.042145606 -0.036875967 -0.06376679 0.0017705488 -0.011195049 0.01394704 0.016473502 0.051803995 0.030123308 0.017331896 0.010882238 -0.042109575 0.0098103825 -0.02683108 0.027874544 0.035565995 -0.038362395 0.016123343 0.029743547 -0.07308439
through 0.10882111 -3.7339283e-05 -0.041124087 0.06089235 0.022011414 0.021399615 0.03694133 -0.0057154195 -0.0031212629 0.035764318 0.05921999 -0.011651305 0.030353403 0.035409864 0.073849306 -0.010295331 -0.059579488 0.020619292 -0.039225083 0.032216817 0.053524427 0.048214033 -0.0657968 -0.050195124 0.085716054 0.1043945 0.015973099 0.020067213 0.025798587 0.099163204 0.018631944 0.0025868944 -0.002242459 0.020065153 -0.05308979 -0.053374395 0.071416155 0.008800739 -0.038244806 0.011427377 -0.03764124 0.022936027 -0.08240962 0.04221085 0.05657261 0.008693887 0.0020540187 -0.06512718 -0.032234777 0.044604234
wish -0.09880963 0.063688494 0.010397275 -0.108800925 -0.07431864 0.014868874 -0.023038184 0.028756557 -0.0032407737 -0.04662034 -0.0693078 0.026529316 -0.036194727 0.027506175 -0.020036357 0.058822036 0.06742129 -0.0006197541 -0.0004713099 -0.027127737 -0.0076691485 -0.01220264 0.04528946 -0.035758734 0.047104456 -0.02586834 -0.0027290809 -0.0363615 -0.019694949 -0.058788348 0.032174934 0.055001657 -0.015856953 0.043731395 0.096863516 0.038218014 -0.066295065 0.09439701 0.0019695058 -0.0018272348 -0.06870859 0.0012343958 0.0068293824 -0.09844917 0.047654677 -0.009194403 0.0058880886 0.02810606 0.025963133 -0.088396326
tell -0.0045422856 -0.021247089 0.04710727 -0.025944823 0.023347614 0.040465802 0.025219668 -0.030981246 0.059423972 0.0011635489 -0.012745081 0.039806444 -0.05844581 -0.07449738 0.026752638 -0.03631969 0.01776312 0.02669483 0.049634382 -0.016677793 -0.054657336 -0.069125146 -0.063264735 0.034006666 -0.0010533785 -0.006571086 -0.011133658 -0.050689336 0.0022848598 0.0008636974 0.025747353 -0.073273666 -0.012170005 -0.0040422375 -0.0043340325 0.02144459 0.005281411 0.004535029 0.03010355 -0.012388482 0.008914933 -0.04376398 -0.00018758886 -0.006952185 0.006589154 0.052066043 0.028771568 0.049611297 -0.029154643 -0.036248054
hall 0.036828343 -0.022368604 -0.0034152046 -0.018183958 -0.039410334 -0.0518378 0.028973289 -0.014951262 0.024062386 0.06894473 0.034030598 0.0211086 0.027632875 0.016581545 -0.041435182 -0.023422543 -0.054322403 -0.0013266185 0.0062371334 0.0045513688 0.017618801 0.017644476 -0.06527694 0.021519447 -0.04861825 0.012677569 -0.021216441 0.021409389 0.06699717 0.026599597 0.014094173 0.02784114 0.07340249 -0.022875598 -0.02042647 0.00677477 0.004960292 0.014786182 -0.048812307 0.0026750662 0.015179066 0.021282168 -0.0064249123 0.010746611 -0.009810454 0.030869229 0.0101184845 -0.01729369 0.009558524 -0.054006577
key 0.055706974 -0.047872897 0.021741716 -0.0021266416 -0.0020603905 0.05652038 0.029065473 -0.019068906 0.029720528 0.04640048 -0.0052669663 -0.043728482 0.02844215 0.040270057 -0.016927464 -0.019371899 0.03434292 0.05222008 -0.060296483 0.06592872 0.059045564 -0.009140897 -0.05030775 0.05435242 -0.034382302 -0.023332478 0.0418451 0.048945934 0.016096687 0.013992121 0.026137102 -0.018066231 -0.041007854 0.013428691 -0.033572547 0.019864794 0.00565881 -0.060643684 -0.04468773 0.018693943 0.030990664 0.020570714 0.021428877 0.010731153 0.0031863586 -0.014524901 0.0053093988 -0.054984596 -0.017571293 -0.069244884
half -0.012719611 0.02614539 -0.020256529 0.011182418 -0.024877498 0.059339542 -0.009218923 0.003403866 -0.018360354 0.038272005 0.01866615 -0.035690155 -0.051527124 0.014591091 0.06516029 -0.06716299 -0.0043182108 0.021839324 0.053311292 -0.050424617 -0.03706177 -0.015245167 -0.002364559 0.07830556 -0.009376786 -0.007590254 0.036002222 0.044461634 -0.05011813 0.054242726 -0.034757588 -0.049971916 0.013655574 -0.025054045 -0.045367595 -0.020078376 -0.002495898 -0.037498277 0.02130538 0.06809168 0.03765369 0.058698133 -0.034077194 0.056974355 -0.017518114 0.002737434 -0.052461922 0.0082027875 0.004026484 0.014987416
find 0.0017911284 0.006842978 0.034169145 0.0066335886 -0.027322402 0.0016647745 -0.007388405 -0.038900297 0.027173998 -0.022051597 0.007446471 0.017964657 0.00039661315 0.023619294 -0.038445957 0.03644929 0.063017435 0.00849851 0.032876845 -0.024708815 0.019421998 0.029969273 -0.03216617 0.038588535 0.010847289 0.012218395 -0.052443303 0.010666428 -0.045684513 -0.03994585 -0.0029939013 -0.048873883 -0.010804303 -0.011511215 -0.04471592 -0.02324742 0.007712004 0.042085435 -0.042381566 -0.061962508 0.029472973 0.019985221 0.018141784 0.03088715 -0.037280392 0.028725429 0.051607434 -0.020240882 -0.0044148266 -0.04194176
his 0.03765664 -0.045983512 -0.033576604 0.013273985 -0.013777609 0.036808033 -0.009129208 -0.07027263 -0.04956603 0.04665501 0.035673887 -0.025532799 -0.07258717 -0.0020007107 0.01788821 0.018743621 0.023404017 -0.020629294 0.011570045 0.016109254 -0.062280092 -0.07643642 -0.00282236 0.07210146 0.042758927 0.030693728 -0.031615164 -0.0034735333 -0.04146663 0.016997196 -0.06800593 -0.0076853754 -0.037562508 -0.036911417 -0.043800052 0.037810896 0.041525457 -0.03423304 0.017094757 0.0357337 0.081076056 -0.013234282 -0.048279516 0.036411487 -0.0006110045 0.055404343 -0.07022103 -0.0034945281 -0.047884542 -0.0088537885
use 0.056856915 0.002641792 -0.018150976 -0.009284767 0.029284224 0.0034148213 0.013858761 0.01802367 -0.07499261 -0.012902769 0.009856688 -0.044666335 -0.04569293 0.009213742 0.08231076 -0.008447194 0.044888515 0.009369323 0.03376664 -0.009720916 -0.017685564 -0.09867652 0.020188432 0.0762686 0.06719966 0.060761552 0.0032629485 0.0355011 -0.0333392 -0.0075026616 -0.052299593 -0.02373512 -0.07789247 -0.111718714 -0.038524657 0.05425364 -0.010502087 0.024467623 0.009587386 0.012680054 -0.011596895 0.050992493 0.028002383 0.05931648 -0.044520803 -0.018870007 -0.08089605 0.030555805 0.020027397 -0.023203552
large -0.023566555 0.025884587 0.008782276 -0.0054383227 -0.048865702 0.044033684 0.039623752 0.015136851 -0.031750616 0.0225 -0.0102742985 -0.034515753 0.06379152 -0.004532572 0.0015691437 0.02786934 0.0022614445 -0.0143627785 -0.03882875 0.033257283 -0.020290095 0.033445943 0.0024684323 -0.028213939 -0.023827253 0.0042803837 0.014289099 -0.056348328 0.008459387 -0.021939488 -0.020544564 0.06404042 -0.015555462 -0.014086596 0.032374408 -0.06639853 -0.033793848 -0.0035121613 0.061054725 -0.057908446 -0.024996217 0.0034388648 0.024329927 0.02862887 -0.022621732 0.018148262 0.078504615 0.006456976 0.035377502 -0.043161184
look -0.034246076 -0.013564342 -0.023008227 -0.031371094 -0.034566976 0.06664318 -0.055809774 -0.019089853 -0.05411892 0.030778907 -0.055869557 0.025419792 0.038893387 -0.0064926045 0.026015542 -0.0057687853 0.055831186 0.041706257 0.0027495166 0.0067237187 -0.029629465 -0.024186505 0.004139658 -0.0032256802 0.019228868 0.025350865 0.025491606 -0.044803716 -0.051531937 0.036725443 -0.0033095852 0.0126938205 0.0444691 0.022649221 -0.041681737 -0.008660893 0.04837579 0.03402449 -0.007140976 0.008659481 -0.04146277 -0.0028603948 -0.043799788 0.009279337 -0.06852552 0.010581176 -0.005604558 0.0025474187 -0.042381573 0.054746803
too -0.011887205 0.008841605 -0.020709315 0.037178807 -0.037118286 0.046311453 0.015983513 -0.045326643 0.030211266 0.056232095 0.051376417 -0.022598302 -0.040747743 -0.05125382 -0.028624754 -0.048046257 0.009223336 0.06306704 0.056518488 -0.030653909 -0.007545013 -0.02243826 0.03417625 0.046032723 0.03953737 -0.03323973 -0.027928557 -0.005231971 0.017860569 3.3754506e-05 0.013045216 -0.04676895 0.011996596 -0.00143786 -0.0752547 0.078193 -0.022240106 0.030965505 -0.06058019 -0.027964933 -0.023748832 0.047186606 -0.041525703 0.025803687 -0.055839308 0.058098726 -0.037705664 -0.033579044 -0.055154353 0.017293112
house -0.02272429 0.004085075 -0.014870463 -0.029634159 -0.040773626 0.02194773 -0.010566316 -0.031351946 0.013548392 -0.014083561 0.016552838 0.027486078 0.014301512 0.039701864 0.034064244 0.0033308528 -0.046737686 -0.03878174 -0.03737829 0.031456962 -0.0010686766 -0.029776871 -0.05304921 0.053121455 -0.025708945 -0.034938667 -0.02655847 0.019981213 -0.020699818 -0.024994342 0.046427954 0.015312082 0.03108432 -0.045867145 -0.030269435 -0.048622895 0.04677079 -0.00057895895 0.03688115 -0.032436106 -0.06320808 -0.03639158 0.035477962 -0.0038071524 0.046460304 0.028709713 0.0022077505 -0.045091607 0.029604807 -0.03711369
good 0.041510213 -0.041548457 0.015371776 0.033816136 0.016961059 0.07192833 0.013050852 0.033649337 0.022827363 0.04765473 0.02413978 -0.0076092067 -0.0047812173 -0.014272116 -0.021430477 0.009900918 -0.007326309 -0.022703122 0.027827594 -0.01801605 -0.014580353 -0.051027205 0.020776534 -0.001490592 0.023432806 0.04641788 0.03893704 0.014058055 -0.038557462 -0.034499355 -0.029027635 0.0066689863 -0.062015444 -0.064251915 0.0069639185 -0.00073721807 -0.0046735117 -0.0013528387 -0.016407851 -0.0034024455 -0.00036427414 0.07331071 0.00619662 0.013501212 0.031936612 0.035205323 -0.036191113 -0.033935446 0.016672306 0.046314564
right -0.021785958 -0.0016350991 -0.02460958 0.019382145 0.02369648 -0.051647957 0.033406142 0.044131648 0.00901823 0.04853903 0.054113757 -0.048341554 0.019344222 0.00016838941 0.0287773 -0.04946482 0.020125858 0.028546602 -0.0463499 0.052998286 0.022544006 0.033210803 -0.045755375 -0.05890481 -0.006108202 -0.025327096 -0.029529607 0.02194502 0.004479124 0.06640769 -0.03627148 -0.045362186 -0.04325052 -0.03133256 -0.06573508 0.019809999 0.05161736 -0.008699296 -0.059275255 -0.012327362 0.0016872999 -0.010542611 -0.066186786 0.024291938 -0.026158959 -0.023181349 0.023380939 -0.009277544 -0.07394327 0.035694532
words 0.008324916 0.015075694 -0.06268149 0.02940795 -0.006164958 -0.036999192 -0.0014320301 -0.007401808 -0.004825289 0.043373432 0.088740736 -0.029982265 0.00579277 -0.041694343 0.064202055 -0.024789663 0.012367712 0.011503658 0.041766077 0.062778614 0.03084436 -0.01394093 -0.009397349 0.04664772 0.06185302 0.033406768 0.08178243 0.006693747 -0.031616777 0.06888403 -0.06088836 -0.03489547 0.036700852 0.05145995 -0.035198208 0.012398546 0.019332383 0.022798492 -0.03825546 0.02061979 -0.012076834 0.014985033 -0.010374382 -0.00250055 -0.029935112 -0.01834807 -0.003325849 -0.00295154 -0.017279152 0.045022193
am -0.03142833 -0.007731242 0.0141620245 0.006859936 0.014709093 0.08282505 0.008436855 -0.014497332 0.03288466 -0.049394477 -0.048773676 0.016731624 -0.01059951 0.0014067444 0.05441812 0.0060150153 0.0031285984 0.09483001 0.04224869 -0.10438889 -0.067667425 -0.040995143 -0.015202166 0.045556605 0.06573018 0.0032391094 -0.0002952367 0.029092541 -0.07057685 0.025033578 -0.050574783 -0.028457632 -0.016601969 -0.0068310746 0.00060296734 0.051569376 -0.06601888 0.0003034966 0.011273384 -0.0645762 0.017940177 0.018597294 0.005868942 -0.05635218 -0.037407402 -0.010283546 -0.019091897 -0.0026464611 0.015029644 -0.018081479
might -0.02374617 0.02384662 0.08070045 -0.0026278507 -0.07475467 0.045105096 0.030806273 0.013858832 0.01335308 0.01976489 -0.08344174 0.047190536 0.035485342 0.04739075 0.02652766 0.025641814 -0.007057921 -0.0054665497 -0.06366722 0.027406262 -0.05525359 0.0036759237 0.013827284 -0.00093393156 -0.03390406 0.006564022 0.023351327 -0.049021706 0.00396835 0.0044402136 0.03875671 -0.045145333 -0.017285572 -0.006873642 0.04301874 -0.0025369613 0.021788063 -0.032060236 0.03901687 -0.061971266 0.00056909164 -0.034722462 0.0047571645 -0.07758973 -0.042327616 -0.01773416 -0.008981643 0.033106912 -0.012175269 -0.026427615
question 0.0051985295 -0.030123005 -0.028719774 0.067203596 0.005937495 -0.051015154 0.0892779 0.025077503 -0.067287415 0.04098911 0.056442253 -0.08288634 0.029048238 -0.04353266 0.09012472 0.0025260074 0.04083223 0.09222745 -0.06450855 -0.021707956 -0.026122728 -0.025368918 -0.06558309 0.004681154 0.013687342 0.019441126 0.04394347 0.012769718 -0.019655177 0.030409737 0.004314285 -0.032113675 0.035106514 -0.04756439 -0.026428493 -0.05154383 -0.025777183 -0.062206667 -0.01337302 0.044456054 -0.03958966 0.06442361 -0.06358112 0.0070813796 -0.004302621 0.03784368 -0.013127981 -0.009082479 -0.0774345 -0.041109897
came 0.0048829 -0.012836912 0.022230867 0.005064895 -0.0050495146 -0.008949496 0.01829032 0.026914205 0.028057933 0.06318086 0.04840162 0.002343413 0.024282767 -0.018108364 0.027787266 -0.04311437 -0.022332907 0.009603985 0.025694525 -0.05611012 -0.004572222 0.036138184 -0.03964907 0.0442853 0.02592944 0.028189998 0.0030207029 0.032417692 0.027197601 -0.008751189 -0.018855311 -0.0077072363 -0.026720911 -0.010179268 -0.053289045 0.00738769 0.04009177 0.012059538 0.008468933 0.020769896 -0.04740761 0.025432853 -0.050526 0.06183992 0.00073004386 0.043914773 -0.0021679094 -0.030809851 -0.034536973 -0.009469047
