1182 150
the 0.1204819 -0.105117925 0.060713634 0.18019117 0.2105842 -0.009516783 -0.1127556 0.027607782 0.06343618 0.12760428 -0.1606162 0.1959794 -0.2065644 -0.07838272 -0.13623832 0.01871899 -0.10743374 -0.15225306 -0.007987111 -0.19309874 -0.09937231 -0.13950394 -0.07277748 -0.12909187 -0.06953256 0.058807652 0.1344209 0.113544546 -0.083629146 -0.13275509 -0.152288 0.019634422 0.13878173 0.18152967 0.07384164 -0.08402469 -0.11719588 -0.00065326074 -0.04633648 -0.15119329 0.08167569 0.12497308 -0.1235697 0.06853571 0.12581243 0.15664236 -0.07722412 -0.090698555 0.08680254 0.14123887 -0.07959714 -0.12245701 0.15474083 -0.094104595 0.06147034 -0.22550474 -0.20904945 0.24328057 0.14317718 -0.14324504 -0.13543901 -0.017383832 -0.1349593 0.17697857 0.18912944 -0.023438882 -0.14465015 0.0748534 -0.19612063 -0.106776506 -0.045546126 0.035963926 -0.2357424 0.14175262 -0.04245384 -0.084967196 0.041023195 0.0013206579 0.112426706 -0.096007496 -0.006412022 0.2424136 -0.1842354 -0.1316196 -0.11448343 0.0014125559 0.13526058 0.046387497 -0.0634869 -0.22705503 0.17635778 -0.106250785 0.020207737 -0.1901729 0.09524095 -0.1728448 0.16744015 0.05792693 -0.10505054 0.13015842 -0.0076117124 -0.11400712 -0.15349258 -0.16513735 -0.17080733 0.1894705 0.13270526 -0.15438634 -0.08604005 0.045290045 0.04664156 -0.001134145 0.03926552 -0.16008423 0.13317138 0.04141897 -0.123775505 0.024951456 0.08789827 0.060257323 -0.12976155 -0.16397956 -0.10781821 -0.1520937 -0.11490216 -0.02987111 -0.17756931 0.13177998 -0.107313246 -0.030855183 -0.0652966 -0.13420796 -0.120881446 0.17750666 0.1108347 0.049138244 0.10765061 -0.0018421464 -0.2165056 -0.14920594 0.10705771 -0.034650195 -0.09816111 -0.09090402 -0.02240602 0.22832263 0.025749007 0.07084128 -0.032979175 0.10804301
and 0.003965175 -0.07691574 1.1293683e-05 0.09308923 0.09887353 0.0011333146 -0.08735225 -0.077083744 0.22895299 0.035714015 0.009054605 0.13274576 -0.04559403 -0.05436517 0.046590883 0.10897515 -0.04700671 -0.04251729 0.12340916 0.0014026713 0.0013401599 -0.020805612 0.079239964 -0.008246914 -0.00656107 -0.008355738 0.111276664 0.06735246 -0.013929909 -0.030501848 -0.03383556 0.19274396 0.0074063772 -0.0153676905 0.083959535 -0.08627187 -0.030577393 0.0051846094 -0.10401599 -0.11906083 0.09970876 0.05214674 -0.060945623 0.16866253 -0.037719063 0.06855959 -0.13791132 -0.02149626 0.120117426 0.17525133 -0.12084781 -0.04922899 0.14601217 0.103046104 0.022686152 -0.074765086 -0.06470701 0.077191636 0.03401935 -0.09529146 -0.13798447 0.071810745 0.05471478 0.15950824 0.1725515 0.011000628 -0.01817683 -0.0051739463 -0.010033702 -0.19177933 0.08146285 -0.018878099 -0.1222621 0.1417095 -0.0365923 0.024592262 0.14851132 0.1271282 0.12603123 -0.016309187 0.04910045 0.020320212 0.037654687 -0.06462532 0.009289496 -0.06822412 0.17860799 -0.06070684 0.056962922 -0.051092774 0.08298796 -0.07244997 0.04057611 -0.10379412 0.14551462 -0.11283156 0.083456576 0.12752989 0.027338617 0.09223075 -0.028545309 -0.029765643 -0.22892612 -0.05551366 -0.16624594 0.037578784 -0.076854885 -0.12095824 -0.070855916 -0.02137225 0.04807035 0.04127222 0.022514332 0.01132228 0.0837955 -0.17428604 -0.07617754 0.1180715 0.060959604 0.03147358 0.06364934 -0.050749186 -0.14005274 -0.18758385 -0.13728961 0.05315792 -0.086936176 0.12869158 -0.062419035 -0.06220982 -0.023169309 -0.04622353 0.00037815608 0.11082369 0.024693454 -0.057713944 0.021396793 0.036428444 -0.1480168 -0.015867373 0.010291545 -0.10669012 0.010633962 -0.03989998 -0.07415869 0.05656948 -0.076344475 0.10118654 -0.12982169 0.034097537
to 0.030670574 -0.02189378 0.18527512 0.084733665 0.08437236 0.025256742 -0.1162377 -0.16713755 0.013463866 0.12624173 -0.17013012 0.20720097 -0.19245534 -0.06799545 0.07377807 0.10238995 -0.07284983 -0.08793305 0.08377229 0.009165722 -0.07282559 0.12957221 0.0011792756 -0.048051987 -0.11125179 -0.05377304 0.14131041 -0.028821457 0.10085303 -0.040910915 -0.022329783 0.059379414 0.08053443 0.11898806 0.05618483 -0.118514575 -0.06797651 0.06897303 -0.05050538 -0.2096551 0.15138145 0.07402936 -0.16589227 0.13834472 0.024147548 0.12757903 -0.15962476 -0.08657598 0.144928 0.1285748 -0.17213501 0.04137146 0.13156804 -0.06842881 0.016780837 -0.09038268 -0.09699122 0.1680279 0.11387111 -0.20540054 -0.083906025 -0.037369065 -0.069720685 0.16848582 0.16126025 0.058812357 -0.048624992 0.009588325 -0.0841715 -0.02698699 0.032881513 0.14726636 0.023331467 0.106417894 -0.13364886 0.10495435 0.053266414 0.16305242 0.11157014 -0.014240203 0.12783498 -0.022876041 0.0009372111 -0.021682672 0.0002468694 -0.06185581 0.11684915 -0.12521075 -0.02883656 -0.18778336 0.10487632 -0.08716831 0.17087054 -0.081542835 0.16714792 -0.093747765 -0.08311869 0.108433776 -0.10099882 -0.03084973 0.053148232 -0.011137958 -0.2218941 -0.14941509 -0.09316779 0.04658528 0.045482658 -0.03262072 -0.18304853 -0.022934048 0.053448398 0.18813369 0.15621324 -0.022269005 -0.008524873 -0.09056033 -0.21828838 -0.04039519 0.16892062 0.18653367 -0.040963087 0.035206307 -0.09583059 -0.15319195 -0.034468755 -0.09606564 -0.05548766 0.11314071 -0.10405896 -0.16483098 -0.063953556 -0.0554374 -0.079050556 0.119943075 0.10636262 0.0588132 0.0951254 -0.01055486 -0.16249056 -0.04493172 0.13365531 -0.049083725 -0.030422818 -0.040996507 -0.15631248 0.04744085 -0.06258522 0.21094216 -0.25535816 0.09234181
she 0.005029133 0.00065500225 0.15300591 0.1799729 0.0880332 -0.1046391 0.01644398 0.03963457 0.02380606 0.00048781908 -0.045438975 -0.04229784 -0.06671211 -0.052108362 0.18694037 0.07971043 -0.16042443 -0.18423204 0.086307645 -0.21912688 -0.05117355 -0.14730275 0.073655985 0.012501634 -0.16889061 0.031030651 0.027193092 0.13303347 0.024296913 -0.17590934 -0.09764192 0.06469633 0.06770505 -0.046094745 0.052499298 -0.06806511 -0.06977464 -0.15103486 -0.024027577 -0.060429513 0.09472406 0.17618695 -0.016966918 0.06441533 -0.07265599 0.16246603 -0.07951135 -0.092074156 0.09514318 0.16889206 -0.101636946 -0.051328212 0.13724928 0.02157361 -0.074604884 -0.099199764 0.050206132 0.14515525 0.025059504 0.04465282 -0.14304796 0.047886986 -0.19031623 0.07980561 0.021672782 0.12639847 -0.20304778 0.04798171 -0.13844752 -0.21115437 -0.119655006 0.1361062 0.037600864 0.12928623 0.029858962 -0.028469386 0.031556413 0.006215959 0.12647404 0.058567647 -0.15687427 0.15736513 -0.1890708 -0.01255494 -0.0872072 -0.032459844 0.12096852 0.026829038 -0.014224688 0.0056453 0.1855696 -0.10155342 0.16734612 -0.014359112 0.25620735 0.15137617 -0.0071926126 0.211367 0.11664014 0.027028276 0.13465515 -0.15086181 -0.17043455 -0.11603695 -0.01595195 0.0942325 0.11692934 -0.054525677 -0.12863415 -0.07710007 0.035999846 0.24940613 0.22383943 -0.06484604 0.16442372 0.045657415 -0.21793337 -0.09704696 0.14618003 0.09877462 0.020515325 0.02576997 -0.079861484 -0.073633336 -0.15899217 -0.05448963 -0.054348286 0.062625125 -0.05324901 -0.20942545 -0.08518061 0.02031963 0.20152672 0.048082802 0.082786225 -0.08334837 0.037892208 0.03487539 -0.061603766 -0.0666623 0.0096138455 -0.26547286 0.04033669 -0.17207187 0.059816673 -0.06228903 0.062446237 0.13121973 -0.2176269 0.1612425
a -0.01657701 -0.011077958 0.021913355 0.2218861 0.23351201 0.09697189 -0.13030143 0.10372162 0.09718719 0.13366446 -0.124817066 0.22899024 -0.096829824 -0.1357646 -0.15473111 0.1087418 -0.056278814 -0.03293034 0.041210562 -0.17622796 -0.0118485745 -0.11270544 -0.060549393 -0.048244294 -0.02889507 0.12353298 0.16181388 0.012734193 -0.020957498 -0.1068628 -0.07879256 0.08451656 0.009210015 0.08310303 0.12845169 -0.18425426 -0.15027282 0.039940204 -0.17074272 -0.1027494 0.1670523 0.16074833 -0.045326512 0.15768601 0.020661427 0.15479375 -0.11559881 -0.21151072 0.14514907 0.157641 -0.18395978 -0.075158745 0.12910908 0.002216401 0.05652248 -0.23215306 -0.14956641 0.07223829 0.09831949 -0.059132785 0.040659003 0.1254759 -0.06785524 0.20444936 0.16223 0.033074353 -0.18359175 0.061153837 -0.16989906 -0.09027531 -0.07090223 0.0905154 -0.20951913 0.101180315 -0.076212846 0.051821984 0.014688477 -0.065947816 0.11468314 -0.094237335 -0.12732826 0.10290856 -0.09107012 -0.062074862 -0.1203555 0.038979813 0.19259498 0.014595193 -0.060649157 -0.17976007 0.05050419 -0.20878826 0.08141954 -0.20510031 0.20880073 -0.21753645 0.06664081 0.10199102 0.004975003 0.061660662 0.08548822 -0.0771435 -0.12675406 -0.04448809 -0.04966609 0.079250686 0.058831234 0.001943233 -0.21809396 0.08713623 0.06046922 0.03408144 0.02154031 0.06773441 -0.11799488 0.10717537 -0.12485651 0.1230878 0.13816643 0.14580193 -0.07060848 -0.08760055 -0.028600162 -0.2187468 -0.16414876 -0.122279644 -0.048329204 0.1565255 -0.064704515 0.03340281 -0.042079207 -0.15890568 -0.040998206 0.17440572 0.068884596 -0.059352472 0.048866346 0.04270055 -0.12857592 -0.06775793 0.053114887 -0.038962066 -0.025926176 -0.0758727 -0.030350141 0.020299776 -0.13595544 -0.0033670168 -0.14099637 0.12972692
i 0.12789513 -0.0035489865 0.068564154 -0.16930416 -0.10396638 -0.10553881 -0.10203003 -0.32112443 0.1429839 0.2475945 -0.13613741 0.19915439 -0.14576095 -0.17458816 0.15790412 0.17973162 -0.02434149 0.08682587 0.111181505 -0.09306573 -0.120001264 0.021110876 0.13977219 -0.20060472 -0.15068242 -0.061772376 0.076047346 0.053167656 0.27412245 -0.060154714 -0.0806482 0.11155236 0.2500366 -0.074136935 -0.07121789 -0.08004237 -0.20304292 -0.07708659 -0.16665463 -0.17313011 0.04134945 0.020768559 -0.25673681 0.1323233 0.038763274 -0.13729472 -0.0900455 -0.1633754 0.17786172 -0.014647255 -0.1845825 -0.17590766 0.20911252 -0.15956537 0.031415995 -0.2408565 -0.21176799 -0.18946521 0.061092027 -0.18377028 -0.025074022 0.066139534 -0.13548982 0.12506385 0.1947695 0.075565815 -0.16772883 0.2601246 0.025970956 -0.00057022163 0.09694607 0.035785172 0.09443687 0.023999568 -0.064497344 0.17486379 0.0057109506 0.23031054 0.13474834 -0.08265695 0.058566276 0.14601786 0.085771345 -0.011656619 0.058920342 -0.11269577 0.08365665 -0.08506248 0.10142789 0.011446103 0.08931907 -0.12480439 0.24832664 -0.15402795 0.03840443 -0.15785894 0.22168858 0.1795636 -0.18251717 0.030587673 0.16908321 -0.084233604 -0.2006468 -0.21566214 -0.28668517 0.21747135 0.23238042 0.20459859 -0.12522684 0.16598192 0.17255354 0.16399886 0.2803307 -0.11537826 0.108836874 -0.041440733 -0.16105801 -0.029893385 0.1324967 0.026520405 0.024642816 -0.1652929 -0.3085663 -0.03908704 -0.14151447 0.012539564 -0.15285502 0.17219803 -0.17369066 -0.115541354 -0.095526725 -0.10386543 0.16062422 0.16266993 -0.17340988 0.19886312 0.08347375 0.09208584 -0.19929644 0.1284951 0.24234766 -0.04777924 -0.050669637 -0.09325015 -0.055230312 0.23309726 -0.0164867 0.20911488 0.027058015 0.2265471
it 0.045471903 -0.0649135 0.06926789 0.11786735 0.039460305 -0.039513595 0.09511644 -0.10001922 0.04813129 -0.0142657645 -0.062393393 -0.051914506 -0.12168325 -0.036969922 0.14802639 0.13436957 -0.12057949 -0.10445834 0.068805546 -0.15356876 -0.08594061 -0.11192058 0.06642314 0.06516666 -0.02504783 -0.085052334 0.07952541 0.010351461 -0.023493063 -0.12265344 -0.07055312 0.14632978 0.1891302 -0.107572526 0.08419891 -0.05285724 -0.022891544 -0.10121241 -0.10038245 -0.014299718 0.15046072 0.0039586946 -0.086816445 0.14631417 -0.022384314 0.10395491 -0.07544739 0.0034000908 0.17145847 0.09793583 -0.14244014 0.019957587 0.027020892 -0.04973429 -0.023252493 -0.0075011044 -0.0153120775 0.07974865 0.15385135 -0.0037697037 -0.05350655 0.037965856 -0.11635213 0.14804135 0.07197525 0.1470932 -0.19174811 0.077460244 -0.070696406 -0.20534113 -0.0603005 0.1257433 -0.05251184 0.14133035 -0.085188575 -0.06424938 0.021975564 -0.026884053 0.07012791 0.05508543 -0.15503947 0.1732626 -0.17529696 -0.1376486 0.032059774 -0.028846873 0.08984549 -0.0065799397 0.0038913956 -0.03669271 0.025374115 -0.10695134 0.1278839 0.014168047 0.086899206 0.005862572 0.08658994 0.18324219 0.07057077 0.11133965 0.05195168 -0.10829458 -0.21589498 -0.18308654 0.018257037 0.015073637 0.06808114 -0.04946863 -0.05315722 0.013741963 0.054132827 0.12625939 0.11903507 -0.014081239 0.04684011 0.023002101 -0.13142352 -0.052332055 0.09234419 0.13677937 -0.03484282 -0.05027064 -0.13434714 -0.039531708 -0.15066792 -0.0044469815 -0.030956905 0.057763886 -0.11800619 -0.16707869 0.026169341 -0.063993715 0.13536406 0.14483093 -0.022586053 -0.04613505 0.111459024 0.05638579 -0.13216898 -0.029772948 -0.0037428644 -0.10608201 0.027933443 -0.17660941 0.014905324 -0.043116607 -0.006786248 0.12819426 -0.099049956 0.121991955
of -0.040779643 -0.015934149 0.110603645 0.047389064 0.11829505 0.011903821 -0.18842922 0.025500199 0.025910208 0.025215255 0.04560678 0.14153591 -0.0152917 -0.026552351 -0.07441873 -0.012127706 -0.025488513 -0.084674254 0.03755242 0.025179327 -0.09237787 -0.06556578 -0.065222085 -0.03054555 -0.21101032 -0.07995291 0.035672467 0.03421855 -0.0065504853 -0.031839777 -0.018525202 0.06442181 0.008867598 0.16909029 -0.009194142 -0.035929307 -0.03492399 0.007605628 -0.14083245 -0.058431823 0.112463005 0.14951302 -0.038846515 0.1752479 0.08118537 0.09572461 -0.053219397 -0.08165216 0.025658151 0.047196783 -0.04851059 -0.092245355 0.076909326 0.06600498 0.080178335 -0.108918704 -0.050338164 0.1335277 -0.07273493 0.021064013 -0.062812164 -0.047135085 -0.029087257 0.09156403 0.116961084 -0.046394784 -0.07786421 -0.016364459 -0.096844934 -0.020294784 0.032507148 0.03915058 -0.08963194 0.088388674 -0.051711984 -0.057294853 -0.07285407 0.09076928 0.104078695 -0.010753782 0.0072797337 0.16673608 -0.0056584375 0.014160666 -0.079667725 0.0018418513 0.08866594 0.11383524 -0.17461377 -0.04613285 0.043337695 -0.06713469 -0.03184678 -0.019723931 0.042920243 -0.097964294 0.12089896 -0.017799046 0.10879003 0.042610668 -0.05485894 -0.028414678 -0.052579585 -0.13397855 -0.08037737 -0.01776367 0.048170265 -0.05409987 -0.027433477 0.02850724 0.012519367 -0.06984281 0.006003822 -0.07906356 0.0103472285 -0.026340283 -0.123292536 0.024766533 0.06122295 0.11512886 -0.08698057 -0.050873786 -0.019303294 -0.0832855 -0.06982879 -0.11518306 0.026331162 0.10886432 -0.09123237 0.08574916 -0.0209605 -0.013185405 -0.15150784 0.07563278 0.048731804 -0.006949701 0.039628375 -0.008579514 -0.06249131 -0.06228515 0.019155508 -0.12314622 0.06463847 -0.09214716 -0.06510456 0.23050319 -0.10473162 -0.015759172 -0.2020812 0.022101881
was -0.027708123 0.00055234577 0.115023024 0.10060763 0.062209457 0.10978247 -0.088158675 0.031845722 0.044313535 -0.006197183 0.049843952 0.013081331 -0.047862407 -0.067372054 0.0048185075 -0.0036825452 -0.056985065 -0.027080078 0.15005608 -0.025093565 0.009577108 -0.047994804 0.0327486 0.109940626 -0.08129286 -0.0014929031 0.034278557 0.0026665363 0.027520243 -0.10433199 -0.092891 0.064532846 -0.107324526 -0.04830128 0.09269306 0.008124646 -0.101033725 -0.043964036 -0.010823097 -0.0124064125 0.04628243 0.14259367 0.043115016 0.08276752 0.01414698 0.021893596 -0.034231734 -0.014736723 0.093021736 0.072258376 -0.11253861 -0.03709939 0.092158645 0.104966484 -0.019556537 -0.06707284 -0.08075384 0.0985539 -0.04528633 -0.0062471107 -0.07117019 0.04701135 0.12631558 0.07074133 0.014264291 0.05136667 0.037661973 0.059812903 -0.07967021 -0.12729414 0.09491429 -0.010455071 -0.029633494 0.06814061 -0.13361932 0.05078904 0.09871766 0.03007083 0.1123452 0.06584245 -0.08378958 -0.02368291 -0.01693844 0.092292614 0.005756992 -0.0651793 0.1276335 -0.06354582 0.016028231 -0.027584802 0.03941486 -0.005389057 0.10936259 -0.043997362 0.12155533 -0.089344345 0.07393276 0.10347448 0.10661714 0.07021117 -0.033293657 -0.04180326 -0.107272215 -0.0017519325 -0.10349022 -0.033926245 -0.019625347 -0.16185504 -0.02027596 0.03757887 0.07006141 0.048814096 0.063168675 0.023611097 0.111502 -0.09197269 -0.1265704 0.08792359 -0.042227007 0.1222361 0.080351345 -0.03465993 -0.0444283 -0.025761206 -0.12441619 0.04965756 0.0052814605 0.0717666 -0.032479513 -0.041196827 -0.040140536 0.00024424575 -0.011532524 0.06733126 0.05682379 -0.08747856 -0.07834508 0.042630285 0.033393208 -0.06357401 -0.0036348156 -0.19732957 0.012781642 -0.0513971 -0.011201758 0.059995275 -0.08966262 0.013416064 -0.09294351 0.013247591
in -0.030793441 -0.07195357 0.06615933 0.08154665 0.048158895 0.07656121 -0.043905318 0.059875265 0.028659524 0.06253383 0.012054549 0.11549603 -0.073532484 0.027790729 0.073005795 0.021022467 -0.037755176 -0.01357142 0.036153585 0.023180285 0.07640922 0.0056533595 0.009562505 0.036704164 -0.101912096 -0.09994886 0.03589514 -0.054529957 -0.024068816 0.028252257 0.081157684 0.054538324 0.03690067 0.05246166 0.09579975 -0.08309105 -0.017279755 0.046936337 -0.14559801 -0.11606703 0.11651854 0.028687026 -0.029503724 0.080138855 0.14014825 0.114447586 -0.05166611 -0.07208594 0.09581255 0.0067004445 -0.082596354 -0.058755357 0.04301668 0.094329745 -0.008934346 -0.08063762 -0.054615013 0.027035339 0.120515846 0.033232503 -0.034566283 0.058382563 -0.007548373 0.018971317 0.059345745 -0.04787114 -0.036755268 -0.12686813 -0.16715921 0.025720311 0.12160116 -0.04594534 -0.06242166 0.016637566 -0.06300457 -0.0765576 -0.039734196 0.07313793 0.078554094 0.027491283 -0.067161635 -0.017124478 0.007946415 0.046330832 0.028643603 -0.012757953 0.13976556 -0.011266461 -0.034249824 -0.092592336 -0.02615061 -0.09998146 0.07715216 -0.0095340675 0.10397612 -0.026673509 -0.027731782 0.005412248 0.13892202 0.0024593668 -0.018745484 -0.02147833 -0.12942943 -0.06833391 -0.050464336 0.13181481 -0.043980237 -0.06342166 -0.09271845 0.066811055 0.0091740005 0.010219628 -0.06381517 0.039363973 -0.028220931 -0.078313865 -0.008774903 -0.050091762 0.0136315795 0.14073105 -0.0064915875 -0.09251446 -0.06578847 -0.059081033 -0.1070095 0.002396571 0.13729158 0.087949835 -0.09727681 -0.040835306 0.014575372 -0.00919233 -0.047322158 0.12623446 -0.09685171 -0.0745073 0.020190997 0.008312486 -0.0120928865 0.021937273 -0.004598442 -0.13035287 0.12340403 -0.12473314 -0.056715563 0.024075707 -0.108376585 0.0204821 -0.101105206 -0.024847558
alice 0.038189523 -0.10601407 0.16848241 0.13694148 0.06484915 -0.06879269 -0.07980245 0.09823519 0.05282171 0.007619559 -0.07274918 -0.033823267 -0.13162018 -0.01056072 0.08380972 -0.0316561 -0.11024507 -0.16375686 0.015271415 -0.12709725 -0.06014391 -0.102897644 -0.024720348 0.031202503 -0.03804273 0.08019465 0.0066635148 0.09775285 -0.012338428 -0.13961637 -0.050938025 0.027121665 0.10779773 0.07225016 0.013809546 -0.07875806 -0.014429413 -0.08774016 -0.0139333885 -0.046112057 0.04639553 0.099646434 -0.040219374 0.060668 0.16938269 0.09024323 -0.107643284 -0.14203674 0.12152684 0.035963144 -0.03547081 -0.06346092 0.011302148 0.03518376 -0.0023628375 -0.061980773 0.0031788435 0.14643128 0.07673178 -0.030808479 -0.13656552 0.04049588 -0.06243825 0.07853226 0.03125486 0.057152793 -0.08054812 0.0985012 -0.21644653 -0.053282477 -0.06767352 0.021525862 -0.08499157 0.09640542 -0.0094194375 -0.054283224 -0.010124782 -0.03663104 0.082534716 -0.0020326446 -0.05889567 0.09453667 -0.2016926 0.021463 -0.0351242 -0.0063407356 0.022297077 -0.049571518 0.0059202965 -0.09180982 0.1020888 -0.056858413 0.06841525 -0.011785609 0.11199657 0.029183425 0.06917459 0.11064754 -0.018238133 0.022519963 -0.059392672 -0.09526688 -0.08844654 -0.117262736 -0.02012966 0.07079844 0.12739308 -0.072999574 -0.089175984 0.035151187 0.028560305 0.06720492 0.096314676 -0.055842035 0.08316817 0.055591572 -0.10122321 0.0029745675 0.053775318 0.03078897 -0.041103333 -0.09384018 -0.04092366 0.004680649 -0.038077004 -0.029703444 -0.073513925 0.08868585 -0.07432751 -0.13765275 -0.035368286 -0.009183862 0.07048893 -0.002421749 0.048433546 0.010139709 0.015168902 0.009029383 -0.03860712 -0.100187674 0.04153196 -0.14047419 0.011689175 -0.1466894 -0.032104135 0.025191287 0.0142044425 0.030600516 -0.12745038 0.027832223
you -0.021675415 -0.037292637 0.08837679 0.052152343 0.061794017 -0.086996116 0.060899246 -0.07515292 0.030012637 0.110999934 -0.12394869 0.048138604 -0.13604291 -0.034419704 0.08585762 0.121845506 -0.031817127 -0.057325535 -0.09257955 -0.05334401 -0.043197628 -0.05699092 0.045564797 -0.042969055 -0.04288233 -0.07560988 0.08714006 0.075934 -0.01606682 0.01338719 -0.044491295 0.08093549 0.058480386 -0.122297436 -0.0127220815 -0.07210668 -0.0026250882 -0.04328627 -0.10118205 -0.1385993 0.06428284 0.06993191 -0.07162065 0.13626663 -0.030183947 -0.03682098 -0.08122411 -0.058954954 0.157256 -0.009582925 -0.18997201 -0.036743976 0.17467429 -0.021770656 -0.0046867076 -0.10293711 -0.065877855 -0.00013027666 0.13190536 -0.14155598 -0.027250621 0.090773076 -0.15705937 0.12289635 0.083143584 0.03925129 -0.06398735 0.11578391 -0.039231222 -0.10212516 0.025565436 0.07289119 -0.058877178 0.08720267 -0.12437999 0.04072822 0.058692522 0.054096907 0.052754417 -0.09774463 -0.034338295 0.06371866 -0.04039513 -0.053162143 -0.010889606 -0.06568939 0.13849829 -0.14774919 0.10131201 0.02844206 0.048180997 -0.13685971 0.10895015 -0.12964311 0.022492228 -0.11082958 0.14698838 0.083495885 -0.007994277 0.042786 0.12292373 -0.015022621 -0.10489931 -0.104059406 -0.0719961 0.10678356 0.06948456 0.0009136251 -0.11639523 0.060661208 0.051753815 0.0024032188 0.13835354 0.009173568 0.072098926 0.060534213 -0.05549856 0.0057950523 0.12686351 -0.049395394 0.02305639 0.025392285 -0.17930469 -0.18048763 -0.1258172 0.00997706 -0.077102125 -0.008439742 -0.11010175 -0.110744566 -0.0016536457 0.028344376 0.12219958 0.09566514 -0.048660688 -0.050026644 0.15980627 0.07207534 -0.08003736 0.024518888 0.100750044 -0.0047120033 0.049229268 -0.11521484 -0.029059855 0.00047901802 -0.06398162 0.091757394 -0.007257385 0.091559485
that -0.0077160522 -0.017880099 0.050773393 0.09696937 0.058290746 -0.032461185 0.0006709796 -0.034000892 -0.011332154 0.06616373 -0.04111771 0.008200167 -0.08600866 -0.07756221 -0.0057581956 0.08319962 -0.12116596 -0.0035898283 0.077282466 -0.026754264 -0.009019003 -0.042118702 -0.0028988286 0.030366316 0.042457603 -0.0039144508 0.052731957 -0.011483952 -0.00982861 0.029174445 -0.033645324 0.03275761 0.06740768 0.04050432 0.018561868 -0.05186725 -0.0032705343 -0.056149695 -0.04665155 -0.02408696 0.010874703 -0.016969845 0.033307686 0.04051384 0.002003478 0.03698539 -0.03132603 -0.042941254 0.043828126 0.10432709 -0.10886403 0.015426205 0.02889841 0.029404674 -0.024847597 -0.021402517 -0.032113172 0.092765674 0.060744457 -0.08721578 -0.009417644 0.059660994 -0.0025115819 0.08424258 0.027365388 0.007848156 0.015788008 0.0059440453 -0.023233518 -0.067815445 -0.042746797 0.120698944 0.0061778766 0.098412946 -0.026592238 -0.018466374 -0.050808724 -7.070741e-05 0.06250877 0.03778937 -0.0642482 0.01988908 -0.09367848 0.023077648 0.054495405 -0.06441171 0.088686086 -0.088520676 0.04627686 0.023072999 -0.016076136 -0.07077742 0.07305045 -0.04008417 0.12276449 -0.03870947 0.005972774 0.12678136 0.0087554 0.051759325 0.0479234 -0.012389638 -0.05222663 -0.061485033 -0.09633129 -0.026889134 0.000116813346 -0.014569887 -0.068030685 -0.057641268 0.01906438 0.12835611 0.034572475 -0.019766603 0.06486742 -0.05502435 -0.11055418 -0.035945382 0.04820072 0.04854219 -0.049633354 0.03707544 -0.030490305 -0.040166587 -0.05689966 0.017868826 0.019580416 0.035111886 -0.016947165 -0.10589357 0.019903677 -0.027923606 0.07263221 -0.018651042 0.018558275 -0.039776634 0.13145587 0.06646379 -0.10937682 0.019337587 -0.04549477 -0.040743448 -0.08262264 -0.055176783 0.017463868 -0.0041602366 -0.048904326 0.046218608 -0.10779383 0.088736236
her -0.06440355 -0.030257953 -0.08191215 0.19762076 0.17244992 0.00926439 0.0033362594 0.0802586 0.15201283 0.11439706 -0.032873407 0.04849641 -0.025061024 -0.023378663 -0.12577364 0.0975297 -0.09005683 0.011984406 0.027754504 -0.11351995 0.018184332 -0.14250302 -0.04399023 0.035574112 -0.058635935 -0.00898374 0.09581755 0.04967454 -0.028323941 -0.044745527 -0.029431865 0.07840896 -0.004912779 -0.0056558843 0.107954994 -0.05023663 -0.028316969 -0.056685958 -0.12815958 -0.10958307 0.14811845 0.0193265 -0.07665022 0.14802545 0.06380371 0.1577923 -0.09879622 -0.11591418 0.07634063 0.047978755 -0.18399088 -0.083714224 0.059422977 0.0050255894 -0.0075893337 -0.19731335 -0.041817266 0.09961541 0.11745066 0.026624419 -0.060532544 0.10904686 -0.057157487 0.099425726 0.1290207 0.11886544 -0.07280989 -0.020807905 -0.0979663 -0.089770354 0.036668487 0.07062184 -0.10753388 0.15023726 -0.033130966 0.0070670876 0.0031394316 -0.043829676 0.08419983 0.047687795 -0.07372507 0.106700376 -0.12327292 0.025070056 0.023770744 -0.09085224 0.16128527 -0.0468496 -0.033696022 -0.10755659 0.028610123 -0.11807022 0.03600059 -0.07917417 0.021929376 -0.11729248 0.055894297 0.12550963 0.026576765 0.12325525 0.022431238 -0.0017639061 -0.13429913 -0.051850315 0.01274494 0.12095055 -0.062667765 -0.088180296 -0.105656 0.0723387 0.0011960231 0.07698792 0.005640773 0.062150616 0.026653921 0.017683694 -0.12197924 0.046135865 0.08648635 0.06226474 0.006352824 0.021344595 -0.019132635 -0.06688271 -0.06500628 0.027198844 0.018026028 0.019775826 -0.18252586 0.013540705 -0.07275488 0.0007457337 -0.01670419 0.1326048 -0.03292115 -0.07680752 0.06747024 0.035695918 -0.10528465 -0.044244323 -0.10372973 -0.06271131 0.0015005828 -0.055500794 -0.11718818 0.0071660564 -0.119384095 0.106539585 -0.09329878 -0.0018167404
as 0.030260904 -0.06278532 0.04619791 0.09909957 0.083395995 0.032333616 -0.008332974 -0.034876797 0.025912603 -0.038613457 -0.0025968216 0.0011660473 0.02580846 -0.07170158 0.018770248 0.032802697 -0.16318208 -0.058547918 0.13134775 -0.06707229 -0.039955806 -0.01580695 0.06286512 0.07192008 0.038228046 0.018182505 0.008603101 0.06954288 -0.0068434426 -0.06446515 -0.013884905 0.09618008 -0.028294407 -0.055692445 0.073659 0.06734861 0.05727948 -0.0105062695 -0.05031807 -0.090000756 0.016163819 0.15081123 -0.012454136 0.041539695 -0.018064912 0.07462282 -0.099468075 -0.11629213 0.01971738 0.08313853 -0.032036074 -0.044416644 0.05196847 0.02897572 -0.06479213 0.03298591 0.050120153 0.055772513 0.019676039 -0.04008633 -0.12034316 0.061052676 0.030485552 0.04812054 -0.012692984 0.068321064 -0.0127519835 -0.055150047 -0.0063665146 -0.1910049 -0.03020749 0.0022301865 0.013106859 0.041390605 -0.08376598 0.066179164 0.11092635 0.06900685 0.010853824 0.044170585 -0.006491892 -0.0113237705 -0.10506786 -0.0062038153 -0.026526814 -0.023852926 0.05885943 -0.049218453 -0.026107311 -0.09712189 0.1009553 -0.024471976 0.033439253 -0.14671943 0.10022235 -0.03151124 0.03453198 0.110757306 0.023206623 0.047057558 0.052791372 -0.081508584 -0.06600575 -0.009763705 -0.0754292 0.11062687 -0.03641985 -0.09365278 -0.041459367 0.044506807 0.12265105 0.0471565 -0.0214483 0.08910859 0.105113365 -0.097482935 -0.15045524 0.05858657 0.025015678 0.022654846 -0.050755482 0.009538697 -0.06309737 -0.06905959 -0.005571267 -0.02904444 -0.10630057 -0.0031920355 -0.019955881 -0.06847134 0.0066234977 0.025947627 0.02025177 -0.024538435 -0.02253923 0.022325901 0.024808131 -0.009700678 -0.051980566 0.06877936 -0.040506028 -0.13993825 -0.11419992 -0.025638174 -0.008843541 -0.014100581 -0.0013251696 0.08526965 -0.0639916 0.048554458
said 0.058315713 0.034162726 0.11699179 0.056178067 0.04471474 0.10306839 -0.0060346834 -0.046860207 -0.004583178 -0.0537482 0.0048638647 0.01004474 -0.051620986 -0.04600137 -0.033376582 -0.050703213 -0.0117137935 -0.11031118 0.011013638 0.0033887685 -0.07448653 -0.059497725 -0.06518151 -0.050848797 0.017120887 0.012735937 0.020233097 -0.0018129469 0.02050815 -0.006739176 -0.057451993 -0.0033737016 0.0383532 0.062234554 0.025319522 0.021081278 0.052052744 0.028864728 -0.0195098 0.009281675 -0.012877997 -0.0077226567 0.0711982 0.010945736 0.1042796 0.034146633 0.005088444 0.049214672 0.061514612 0.0058544115 -0.029512376 0.0014054528 -0.011841571 0.052006505 -0.008495323 -0.036297325 0.004151625 0.099416025 0.021767028 0.054150727 -0.03727111 -0.07327773 -0.0042544813 -0.034412872 -0.081336685 -0.006702895 0.017518714 -0.04914793 -0.06422665 -0.016358811 0.0028220876 -0.009877645 -0.029233258 0.04932666 -0.039652415 0.011693069 0.049799915 0.063368216 0.019386815 0.10412491 0.028621744 -0.0024138803 -0.021691127 0.05462214 -0.03725706 0.013074659 -0.05838528 0.10636614 -0.03867366 0.0058883913 0.028060135 0.04992641 0.026344538 -0.053005926 0.030724509 -0.0035195607 0.031048903 -0.009916854 -0.078576565 0.007931138 -0.083310425 0.012728074 0.017810488 0.029036738 -0.06681688 0.03918783 0.117359035 -0.094461426 0.0039148806 0.0068776486 0.008282664 -0.049291193 -0.017942227 -0.13133453 0.083853655 0.014317874 -0.055736337 -0.05150729 0.035797417 -0.015726924 -0.07774462 -0.020523598 0.011826822 0.052547965 -0.04767734 -0.060527075 -0.0926592 -0.01079062 -0.04185051 0.03180988 -0.03530122 0.004554248 -0.0916784 0.03737882 -0.018580873 0.048114993 -0.016795939 -0.06827013 0.06511777 0.04451845 0.057090815 -0.034591954 -0.10912159 -0.09250876 -0.024292605 0.08184545 0.05858164 -0.038311604 -0.019204969 0.016486065
had -0.06354488 8.2162325e-05 0.035499644 0.12522079 0.10335893 0.09728321 -0.0626131 -0.04394854 0.13910277 -0.053649843 0.033731546 -0.07799534 0.007504951 -0.0086687645 -0.014141615 0.029535536 -0.09842361 -0.0639377 0.037028823 0.026386054 -0.008008503 -0.08554004 0.0014423708 0.087228976 0.015918138 -0.029755786 0.11103221 -0.08088313 0.024061855 -0.11730492 0.018532384 0.0848475 0.00829723 -0.06699687 0.046256278 0.04470367 0.0569062 0.024923852 0.007654451 -0.08472916 0.06062993 0.039768293 0.0743761 0.028095575 -0.03918791 0.07340668 -0.008820822 -0.07793144 0.09646883 0.054459926 -0.11739281 -0.009080816 0.09008858 0.058316085 -0.04422991 -0.066982456 0.045779806 0.050140817 0.06376822 -0.057202972 -0.06323062 -0.026906235 0.04145371 0.027580317 -0.020621443 0.03679363 -0.030096693 0.016133301 -0.11959224 -0.118980825 -0.032353975 -0.018007474 -0.03026077 0.09929508 -0.14599438 -0.011887346 0.07330062 -0.007904681 0.02912116 0.030267075 0.028161146 0.051854376 -0.06856344 0.013050663 0.018670153 -0.022771163 0.04003249 -0.027172763 -0.07129269 -0.097624145 0.14310223 -0.0364281 0.090477526 -0.027072482 0.16334882 -0.01505311 0.054087453 0.042242818 0.086892344 0.017304558 0.035322484 0.012451829 -0.12686697 -0.03299062 -0.031340934 0.010603149 -0.03686451 -0.13541506 -0.053206038 0.07325854 0.018774685 0.059927665 -0.016476875 0.06702601 0.028728427 -0.099385254 -0.013234217 0.08240129 0.07896344 0.029765215 0.010993916 -0.021380924 -0.051388588 -0.10589441 -0.09784995 0.055588227 0.033152394 0.018721057 -0.039879918 -0.12665571 0.024480987 -0.013159543 -0.05305048 -0.006884092 -0.01693539 -0.049729764 0.07204179 0.05893989 -0.06905746 -0.0150676705 -0.060636625 -0.10001501 -0.027030969 -0.058767453 -0.043408453 0.055343226 -0.0030985768 0.14525823 -0.059059896 0.034071155
for -0.027233051 -0.07730622 -0.0019424588 0.1207137 0.073797904 0.054577414 -0.088367015 0.022872213 0.10710454 0.02988255 -0.05324406 0.102131814 -0.080654114 -0.0030945071 0.0009621647 0.07735076 -0.072591536 -0.08688494 0.00210731 0.068326965 -0.0017815148 -0.006613709 0.052656557 -0.0304187 -0.044576865 -0.016147433 0.004953067 0.010481478 0.0025645287 0.058926504 0.00018491136 0.111316726 -0.015296414 0.06451767 0.059152864 -0.1307329 0.005501297 0.023064543 -0.061935212 -0.14816245 0.111000374 0.032080818 -0.00040470605 0.047578294 -0.0014796818 0.063124165 -0.09135042 -0.09299746 0.082968585 0.10176852 -0.07983276 0.001970919 0.10116847 0.101480715 -0.0060629207 -0.0662549 -0.11420811 0.05447938 0.061005417 -0.09076044 -0.032342337 0.07853097 -0.035492845 0.0691558 0.07320506 -0.012953441 -0.02428876 0.0575519 -0.05466622 -0.049881317 0.035436552 -0.054053046 -0.07874037 0.08223934 -0.11308385 0.08678631 0.06298536 0.07339919 0.052073114 -0.0056360527 -0.02557269 0.11600787 -0.01195845 0.0020132281 0.040298916 -0.08215502 0.06554847 -0.055168085 -0.025800437 -0.07511638 -0.016670743 -0.021097882 0.019753043 -0.020593885 0.07815178 0.0017737027 0.0074215517 -0.040242437 -0.051917747 -0.020964766 -0.028906422 0.048411638 -0.033919115 -0.050143957 -0.06671422 0.07303326 -0.0042442176 -0.051916964 -0.11321009 0.008914628 0.04153043 0.043781288 -0.0027112085 -0.008959217 -0.012889576 -0.07227307 -0.086910844 -0.03509702 0.042376094 0.07449786 -0.018978199 -0.08750691 -0.06910082 -0.06576359 -0.073773205 0.034958247 -0.009504282 0.113090605 -0.1086106 -0.03419401 0.0007468891 -0.03810456 -0.040146995 0.085696876 0.027103202 -0.072880335 0.06180014 0.074838765 -0.048227634 -0.070254244 0.062718526 -0.024596622 0.037293408 0.007458367 -0.051235355 0.06629331 -0.013666431 0.049148448 -0.06321191 0.0069354014
but -0.050008446 -0.0506904 0.0689071 0.083272494 0.06239285 -0.06286499 -0.10396531 -0.04921665 0.093422 0.13964663 -0.02609396 0.11444771 -0.12623265 -0.014131381 0.07741927 0.04212896 -0.026688531 0.012881902 -0.033137318 0.031214558 -0.07632047 0.05380496 0.11595992 -0.14761998 -0.07532895 0.013537635 0.01417021 0.053603157 -0.015326256 0.061576236 -0.078437045 0.07710115 0.019416178 -0.0014014076 0.043659355 -0.14388748 -0.08546551 0.033476714 -0.047860414 -0.11778772 0.018977778 0.028564677 -0.1079129 0.13418698 -0.055059884 0.013552101 -0.14008784 -0.0045228126 0.07239811 0.06662682 -0.09035643 -0.004814828 0.093279324 0.004287467 0.032640114 -0.052386213 -0.12093074 0.06864444 0.06297591 -0.076067165 -0.029747672 0.09740213 -0.10253414 0.12411024 0.11967025 0.027485559 -0.001712088 0.06676538 -0.02766287 -0.03761143 0.04395871 -0.007572187 -0.103997335 -0.0006443437 -0.075764604 0.017182268 0.02014787 0.075905144 0.10325501 -0.030290628 -0.010807048 -0.02900716 0.08969588 -0.016491381 0.033869226 -0.061605692 0.048119012 -0.120565325 0.069694035 -0.0075949905 0.039645366 -0.11249449 0.11980161 -0.011376603 0.058720995 -0.031317197 0.111009575 0.041015636 -0.008660775 0.0184639 0.08746715 -0.016873233 -0.09389744 -0.03390946 -0.08899071 0.06542449 -0.03660874 -0.026529094 -0.030814705 -0.05315711 0.022807783 0.0692753 0.06317584 0.0019534093 0.07517316 -0.12040237 -0.092211396 0.009342619 0.12186638 0.04011949 -0.033473976 -0.055422816 -0.1112782 -0.095236585 -0.0782314 -0.06351551 -0.044484492 0.09449576 -0.06497637 -0.10796901 0.034109242 -0.004515664 0.0863577 0.027492674 0.035632234 0.016235143 0.046593342 0.008359987 -0.11126076 0.006121047 0.053213663 0.019056924 0.04607078 -0.08754379 -0.028199993 0.053324644 -0.08857772 0.044643708 -0.09230719 0.013827938
be 0.022007745 -0.019898072 0.05327849 0.04594879 0.08684164 -0.0066071595 -0.029668078 -0.04385881 0.07643168 0.07168857 -0.072946705 0.032076847 -0.046756703 -0.030316079 0.029955998 0.098717906 -0.044706576 -0.0038400476 -0.04899541 0.028221706 -0.012807597 -0.037848122 0.08128894 0.001588146 -0.062534794 0.00044839305 0.114951834 0.083449155 0.00052431115 0.036071938 -0.09341027 0.097846396 0.028154885 -0.011327248 0.102460496 -0.104097895 -0.064713545 0.004257476 -0.059028666 -0.038012672 0.0034567448 -0.019577818 -0.05792081 0.050522257 0.076215684 0.034338918 -0.11929756 -0.06187278 0.12942138 0.017790943 -0.091929354 -0.014201533 0.07328643 -0.023371479 -0.02194735 -0.053271987 -0.13912356 0.044695746 0.053233903 -0.052189857 -0.05779393 0.023994504 -0.019764738 0.06849793 0.11446938 -0.0035527016 0.010472361 0.038289897 -0.09029046 0.0015492245 0.06522974 -0.02694248 -0.04366475 0.020155573 0.013928339 0.002415099 0.05733482 0.07744878 0.03613593 -0.09240075 -0.05708289 0.021130819 0.0032760384 -0.040733453 0.03466958 0.0020353221 0.029129121 -0.11272419 0.023938771 -0.048314855 0.017310077 -0.027122801 0.15388235 0.00071989326 -0.0067921807 -0.1093158 0.073302165 0.018558722 -0.03413933 0.00836064 -0.0013245507 0.04079335 -0.024424402 -0.03388501 0.046000317 0.08610416 0.018620498 -0.048268303 -0.09463881 0.075091206 0.01498039 0.08078746 0.09246057 0.0425703 0.028054675 0.02006102 -0.061790302 0.057091713 0.10166739 0.010335635 0.038626794 -0.08538039 -0.049011927 -0.058155853 -0.10389884 0.038647443 -0.0143842045 0.09012992 -0.12832032 0.025046518 -0.05769277 -0.029064177 0.037974086 0.067993514 -0.08156383 -0.060124736 0.046295755 0.01587109 -0.12613755 -0.007406323 0.024339862 0.08634062 -0.05065428 -0.029896624 -0.10924701 -0.054629404 -0.003904863 0.07638848 -0.052493654 0.027292
on -0.030442838 -0.061984815 0.079023294 0.035610005 0.10373415 -0.020937277 -0.038189065 -0.022888543 0.11992812 -0.0015822158 -0.039034244 0.06419547 -0.032591105 -0.05440053 0.07215788 0.07285223 -0.06787245 -0.009291223 0.06477027 0.036701396 -0.073478505 -0.015930118 -0.0007675338 -0.022204306 -0.10062541 -0.07483518 0.087003045 -0.0014320579 -0.022988297 0.010310149 -0.003701589 0.12006844 0.07644569 0.03939553 0.08040449 -0.02367042 -0.019971956 0.00020984968 -0.13950936 -0.09880054 0.11833414 0.008175664 -0.09882977 0.06505177 0.094985805 0.067688406 -0.09109643 -0.048197787 0.11617813 0.10600113 -0.08218146 -0.026524013 0.064655885 0.08260187 -0.059988722 -0.024662187 -0.05718226 0.09906065 0.07149347 -0.060255725 -0.037365653 0.048689358 -0.030961128 0.027036201 0.08530396 0.04036753 -0.05606076 -0.057927355 -0.09739446 -0.037604794 0.06093944 0.056986466 -0.049534064 0.05238913 -0.06401089 0.022865405 0.081194215 0.049748402 0.111600555 -0.015552266 0.021278674 -0.008624755 -0.029654723 0.0754917 0.046790965 -0.019080566 0.13403764 -0.05216497 0.012440725 -0.0709199 0.034237567 -0.04134961 0.059614655 0.011256925 0.08063565 -0.0099221375 -0.0058500115 0.03907992 -0.0072806696 0.08510556 -0.0043465784 -0.05251991 -0.13216755 -0.059117354 -0.016870037 0.10310068 0.0026091682 -0.09098825 -0.028310759 0.0756975 0.04815277 0.09459445 0.014287707 0.009172755 0.057952255 -0.0119043 -0.08937218 -0.050367955 0.09891909 0.068476364 0.0344552 0.035805564 -0.04372832 -0.15256277 -0.06080347 -0.014714779 -0.044070378 0.008961662 -0.04688105 -0.10312282 -0.024630696 0.070632316 0.004154648 0.042203203 -0.04063521 0.0013540712 0.07211803 0.03489228 -0.10172014 -0.038689837 -0.01793749 -0.05229566 -0.06013566 -0.036296222 -0.08934566 0.031556383 -0.086434804 0.025417127 -0.08906048 0.059121717
all -0.0629274 -0.087535076 0.0034412711 0.038627774 0.07506885 -0.06160215 -0.036469236 -0.09153628 0.061116654 0.069898106 -0.09626632 0.10080051 -0.076879434 -0.081901565 0.013202401 0.09676533 0.0034277742 -0.09210507 0.020208795 0.047189355 -0.060562145 -0.08690461 0.055524476 0.0090309605 -0.051724233 -0.017923135 0.059221737 0.06823954 0.03526845 0.036130395 -0.075816035 0.06552148 0.07963226 -0.038046557 0.028468119 -0.11951792 0.005598261 -0.024909753 -0.06289718 -0.10553926 0.029626504 0.054233637 -0.049045686 0.110521324 0.009978341 0.004527538 -0.10633678 -0.10398083 0.10984198 0.010845083 -0.079059266 -0.055750396 0.060224857 -0.047258023 0.09144189 -0.12045222 -0.111098215 0.08762132 0.06368242 -0.09580768 0.014462254 0.0781134 -0.013333439 0.090541385 0.13021176 0.046437822 -0.022788674 0.036852837 -0.06149179 -0.050644044 0.027370656 0.061630618 -0.029277233 0.06537127 -0.08375478 -0.015139075 0.019978935 0.087557495 0.08113486 -0.015723106 -0.029748095 0.061321683 0.018847426 0.028681127 0.0455185 -0.023835007 0.07486 -0.06315478 -0.0011130688 0.022368455 0.044823922 -0.028505804 0.007379261 -0.009345512 0.010893521 -0.061853833 0.06461587 0.049411908 -0.0031431934 0.10356278 0.033336457 -0.031778853 -0.05139451 -0.117143825 0.006537005 0.121414654 0.086924024 -0.08723176 0.004481068 0.029145652 -0.006471234 0.07822755 0.097041704 0.033709235 0.04806382 -0.07205382 -0.08624892 0.013163226 0.08686723 -0.033040658 -0.016439177 -0.052786153 -0.05809945 -0.05615012 -0.04255808 0.046330843 -0.04340992 0.041983444 -0.086275086 -0.0031018525 -0.029016824 -0.014746221 0.009916843 0.12962149 -0.028712139 -0.02439127 -0.03437784 0.030883081 -0.09913248 -0.07908708 0.06156252 -0.03598878 -0.0012296555 -0.03646261 0.0026589169 0.09751101 -0.027742725 0.031873707 -0.103272885 0.020972572
with -0.089605846 -0.086796485 0.10912886 0.11796825 0.043655835 -0.029396715 -0.09995388 0.030065803 0.04410278 0.0056694625 -0.015031367 0.063952416 -0.015811605 -0.03862776 -0.009522429 -0.013383466 0.038886648 -0.017830668 -0.014210646 0.048509907 0.036797296 -0.064203836 -0.010451709 -0.007455043 -0.104014695 -0.119442806 0.10036356 -0.032639682 -0.026085874 -0.0229798 0.02122716 0.102567755 0.03952864 0.008627613 0.08221657 -0.028313726 -0.04320159 0.040197752 -0.0972559 -0.14997846 0.11495084 -0.012584113 -0.040392086 0.14387137 0.013089011 0.035995144 -0.08240669 -0.018660689 0.06391331 0.038794708 -0.11950048 -0.07577944 0.083875604 0.13038915 0.042979293 -0.11225269 -0.1730211 0.1048471 -0.013903751 -0.038501866 0.015256388 0.06944862 0.045659702 0.02641917 0.11358901 -0.031218808 -0.004776204 -0.059760954 -0.09726982 -0.046675153 0.10131659 0.0034742123 -0.11130057 0.078931205 -0.047275193 -0.02764515 0.07379257 0.07272927 0.047570694 -0.022123862 -0.03544077 0.12957019 0.0026559595 0.0019214776 0.020640554 -0.030683767 0.11797324 -0.006934651 -0.016923692 -0.1034353 0.051934 -0.074966885 0.05619238 -0.024044042 0.018104494 -0.073504455 0.04289176 0.0397198 0.034986153 0.06901438 -0.04789194 0.05613127 -0.10791838 -0.07507293 -0.014567441 0.008306109 -0.026095364 -0.047462437 -0.07816825 -0.044910286 -0.0004953705 0.022081498 0.027537871 -0.0016974272 0.0794817 -0.14659221 -0.1144535 0.03950169 0.063903615 0.10815339 -0.025247246 -0.024587873 -0.09848139 -0.15226957 -0.1181939 0.03056016 -0.036467638 0.045164324 -0.084199004 -0.01691902 0.027147187 0.037498415 0.036808416 0.13985963 -0.0010841147 -0.07022721 -0.016986055 0.08928353 -0.04833638 -0.05420042 0.05346706 -0.04172537 0.10674929 -0.060026787 -0.014156646 0.08312512 -0.11105101 0.080414385 -0.096531406 0.023162257
little 0.046164155 0.07133131 0.042364117 0.059744846 0.08949197 0.028179161 -0.07232285 0.116972335 0.03367968 -0.003000569 0.02253463 0.08354331 0.0026872894 -0.04587462 -0.07188443 -0.016134242 -0.01397393 -0.06912433 0.047169864 0.015673036 0.0710521 -0.063152745 -0.06356943 0.041583735 -0.112283155 -0.09070579 0.027510494 -0.010585509 -0.035323787 -0.039568044 0.012080439 -0.006965813 0.07368357 0.014086677 0.009768521 -0.013487079 0.00051503343 -0.020693298 -0.072893 -0.00090906874 0.09074189 0.09382811 0.043800496 0.06960436 0.098442696 0.0785225 -0.03336708 -0.07902997 0.035655517 0.0152249 -0.096914865 -0.14694107 0.06718245 0.06225701 0.06933529 -0.094226845 -0.09510289 -0.018403513 0.00059529813 0.06604801 0.06635932 -0.022842925 -0.0038810372 0.056629397 0.012412326 -0.015487425 -0.08878312 0.040009785 -0.079979 0.0019984222 0.01973092 -0.005001573 -0.051606644 0.03166959 -0.04242929 -0.09557179 -0.062731884 0.070209324 0.02595587 -0.04520156 -0.08001572 0.023566118 -0.02161945 0.04072339 -0.07362163 -0.04097035 0.058826596 0.06606414 -0.060371023 -0.0066929804 -0.010479976 -0.08701736 -0.005313636 -0.054976586 0.042875588 -0.09232609 0.068138435 0.052581448 0.058883686 0.043022078 0.018592833 -0.00373674 -0.12885182 -0.062542565 -0.046095513 -0.030478802 0.056652866 -0.02169747 -0.062100317 0.055906396 -0.023380779 -0.021059688 -0.008617948 -0.06292603 -0.01713429 -0.057222128 0.0042466796 0.003849404 0.02134531 0.07552386 -0.10152828 -0.11831578 -0.0909903 -0.078974575 -0.006720512 -0.09605047 0.059967946 0.08129992 -0.0768417 0.059429567 -0.009631116 0.03744638 -0.0049888194 0.046586018 0.040079694 -0.059099983 -0.046389665 0.011545001 0.026549848 0.0020965217 0.029539507 -0.068585254 0.028988209 -0.08320105 0.03545559 0.110340096 0.0040465263 -0.038745493 -0.023155518 0.010706821
mouse 0.026761701 -0.042634953 0.048981532 -0.004547338 -0.08052456 0.034851473 -0.0467169 -0.00083868246 0.003108669 -0.024403755 0.021701973 -0.02811527 -0.0042790184 0.02549636 0.06661568 -0.03620535 0.0065671466 0.022642104 -0.032971166 0.056490462 -0.05777249 0.06082391 0.04298218 -0.050063953 -0.13072301 -0.042849477 0.0127146505 -0.025259651 0.034869846 -0.0043127025 0.08210157 -0.00860912 0.06049065 -0.04284388 0.0047874087 -0.023830183 0.009806454 -0.005528429 -0.012196012 0.01678012 -0.000861413 -0.046849143 0.00938409 0.072108366 0.055260368 -0.0050026644 -0.07026312 0.033852745 0.01212405 -0.05056719 0.033469155 0.027605798 -0.03871725 0.0030652343 -0.039452884 0.090691864 0.045274086 0.0104967225 -0.06476778 -0.0062920963 0.04533702 -0.028200166 0.00020835857 -0.08440656 -0.06847519 -0.029455895 -0.027256789 -0.022151818 0.006941004 0.051994752 0.039831188 -0.050478373 0.008866098 -0.057951327 0.028169807 -0.04413407 -0.02614475 0.047697354 0.04153094 0.0347772 0.018964222 0.017718684 0.062789015 0.061436467 -0.010294182 0.0036100205 -0.051757827 0.028684188 -0.032124378 0.0063722073 -0.05054998 0.07449816 0.043408636 0.084742546 0.0023058879 0.021150084 -0.029092656 -0.07734519 0.073866464 0.015349894 0.025750116 0.01642608 -0.032479443 0.029617457 -0.044615302 0.031601682 0.03192337 0.050972577 -0.009204161 0.008047377 -0.012126394 -0.069643185 0.036324747 0.028785706 0.03371606 -0.012900243 -0.077572905 -0.05834277 0.021793371 0.049473733 -0.057767086 -0.02553159 -0.009433032 -0.009894074 0.03439806 0.0014506483 0.0780545 -0.017720629 0.024265109 -0.07147051 0.018681305 0.023945333 0.046439968 0.02453813 -0.10454536 -0.03027803 -0.027635198 0.016642578 0.059110224 -0.03802609 -0.034192737 -0.019507717 0.039982304 -0.049444206 -0.04204248 0.0942752 0.0015070324 0.07554099 -0.07910784 0.039516527
down 0.037316225 -0.04085945 0.11780753 0.10588022 0.121144295 0.002072956 -0.07851222 -0.020877095 0.047150295 0.019863378 0.038722727 -0.014192981 0.0064161913 -0.13008383 0.044095397 0.046861187 -0.031695396 -0.06311746 0.07090842 -0.04447538 -0.024076581 -0.09693473 0.01814764 -0.032468837 -0.06060734 0.005630238 -0.0064115734 0.036478568 -0.030735644 0.018870564 0.032354653 0.089366145 -0.045181133 0.018053094 0.12552641 -0.043457896 -0.01092244 0.015664188 -0.06102981 -0.05537068 -0.029668527 0.03332836 -0.0068965163 0.013017179 -0.088901795 0.054599956 -0.017270952 -0.06511625 0.017387616 0.14074132 -0.05714354 0.020315763 0.023314992 0.005583397 0.0045456644 -0.037706587 -0.074826434 0.0112504205 0.07632498 -0.038962785 -0.096696906 -0.03082477 0.012200684 0.103136025 -0.00024902704 -0.027854066 -0.021048667 0.019704944 -0.06251837 -0.0222595 -0.040516727 -0.020534685 -0.12336192 0.053558443 -0.13868016 0.037827384 -0.0048739733 0.035420343 -0.017538913 0.03990093 0.055238027 -0.007945261 -0.056652002 -0.010534167 0.018108726 -0.038421504 0.00584279 0.042747255 -0.0032186734 -0.1205543 0.0748151 -0.022864277 0.020820567 -0.03094794 0.08529835 0.012821245 -0.01894907 0.070104316 -0.038617965 0.08444217 0.03011472 0.0069094035 -0.073417366 0.014513997 -0.049712922 0.06192201 -0.0059140995 0.009563326 0.018649837 -0.042849027 0.023377044 0.09845569 -0.033255193 0.041588064 0.023448218 -0.10969199 -0.048251785 9.994232e-05 0.0020221574 0.095651485 -0.05124673 -0.0021807868 -0.06614759 -0.083034195 -0.0036903678 -0.020863727 -0.011675201 -0.011374515 -0.0018153901 -0.059853364 -0.040219072 -0.002283589 -0.03267038 0.046145666 0.07902355 -0.043540366 0.021565493 0.047808126 -0.030582862 -0.009075788 0.009477043 -0.01706282 -0.024941683 0.011736191 0.020654703 0.010533276 -0.0706579 0.023080332 -0.07715623 0.006507394
very -0.03747266 -0.103420384 0.07623232 0.08673462 0.07134166 0.009808635 0.0031822857 0.05512143 0.109222144 0.10025648 -0.098110735 0.06223699 -0.051672045 -0.0061754044 0.04645779 0.06752617 -0.0863832 -0.01706626 0.06309568 -0.1392961 -0.07596045 -0.06198057 0.019093003 0.022484351 -0.06493722 -0.03423399 0.13592698 0.009197553 -0.035150867 -0.054150045 -0.05008151 0.035610054 0.037440155 -0.038834512 0.049939025 -0.047611862 -0.06689429 -0.07659768 -0.08300197 -0.09345953 0.04299392 0.071603686 -0.019561628 0.013825925 -0.030849265 0.067181036 -0.01935533 -0.07470814 0.044884637 0.0726573 -0.07803648 -0.012637046 0.08863815 0.102995045 0.022231432 -0.049802784 -0.063044876 0.09868457 0.080586225 -0.10564201 -0.052807435 0.05907997 -0.079143874 0.083673775 0.059891142 0.09224043 -0.09453485 -0.00014048337 -0.123007506 -0.04304312 -0.04884759 0.12464706 -0.0781036 0.12704827 -0.08358829 0.0044312812 0.0508369 3.53168e-05 0.1109535 -0.055433407 -0.049166825 0.03851717 -0.07917667 0.013755804 0.035825703 -0.09577062 0.1491269 0.028891446 0.07071311 -0.08027119 0.079506435 -0.085430354 0.1339771 0.012007216 0.08748172 -0.0046826974 0.01778412 0.055826064 -0.03161845 0.11412678 0.024051925 -0.108976394 -0.136951 -0.058340587 0.025318569 0.028923607 -0.04465068 -0.11144604 -0.07997058 -0.009749619 0.040593162 0.054831177 0.022270279 0.05095227 0.0013592883 0.01688356 -0.12732506 -0.011293389 0.05691578 0.018165076 0.06345796 -0.025104735 -0.07341492 -0.085059226 -0.12118909 0.05316209 -0.027117448 -0.036249425 -0.025214374 -0.10484885 -0.06655971 -0.06252863 0.019668618 0.10189704 0.08066631 -0.023124171 0.09388555 0.12180616 -0.0861756 -0.045632746 -0.07591275 -0.006371389 -0.111773506 -0.02286423 -0.03948588 -0.06579697 -0.017334294 0.006820538 -0.11644119 0.04912636
this 0.035222232 -0.04352169 0.008430132 0.059025683 0.059411906 0.0025456708 -0.06145933 -0.045856915 0.07112272 0.06913434 -0.061228197 0.14571747 -0.10608297 -0.048496038 -0.022965621 0.07206011 -0.07346291 -0.06341862 -0.033473957 -0.05447817 -0.07708977 -0.028450044 0.062212657 -0.034544192 -0.0077290004 -0.04293916 0.06584327 0.09939731 -0.026682831 -0.018225027 -0.03819979 0.09415051 0.004855193 0.029313097 0.059967134 -0.10418129 -0.08347087 0.0030332473 -0.08116879 -0.118938 0.04103531 0.09968635 -0.037026796 0.101641506 0.0074854717 0.097953714 -0.10651446 -0.09982974 0.07277366 0.15193132 -0.13261625 -0.10172218 0.099002674 -0.062025357 0.07397323 -0.08447244 -0.074830905 0.032388244 0.13334931 -0.12081968 -0.06302987 0.05985278 -0.016754389 0.12767008 0.07356853 -0.012831488 -0.040644668 0.107225634 -0.11898012 -0.11766526 0.0056901 0.012389296 -0.052241854 0.09214179 -0.111509115 0.013339594 0.06789516 0.064753294 0.08012388 -0.05959876 -0.02632215 0.023537382 -0.014567255 -0.05330396 0.060116775 -0.08243973 0.1325126 -0.039586313 -0.0074725836 -0.025536165 0.12726277 -0.06701773 0.07843738 -0.07345792 0.07019039 -0.1433468 0.023125382 0.037865624 -0.044512745 0.11876584 0.03476723 0.012970101 -0.09669908 -0.08248183 -0.15268205 0.106394015 0.06063558 -0.034894843 -0.089188874 -0.033553727 0.05519109 0.021124246 0.094340436 -0.068327405 0.013076854 -0.036707018 -0.16173987 0.062337454 0.12834606 0.042126693 0.00012696558 -0.14517595 -0.106132865 -0.12526977 -0.057087585 -0.036497664 0.017938662 0.051146805 -0.08762198 -0.07789076 0.010767177 -0.01669264 -0.0358494 0.08108717 0.04548643 0.03262273 0.10126452 0.042233642 -0.10534531 -0.033810694 0.05108561 0.0011982394 -0.102070324 -0.0854652 -0.09897169 0.086803466 -0.08952673 0.10449837 -0.10607467 0.042961065
not -0.052412566 0.028398864 0.028964654 0.13589686 0.046455987 -0.013367904 -0.018410537 0.035866853 0.0472906 -0.023480786 -0.037577715 -0.017674714 -0.06674677 0.045228366 -0.025071632 -0.016955122 -0.038299207 -0.01618946 0.054779273 -0.0001636066 -0.0013269068 -0.030598667 -0.026104989 -0.03559718 -0.059961673 0.02889478 0.050849106 -0.0019826894 -0.032710537 -0.008885224 0.0041460553 -0.004068182 0.031759717 -0.003245953 0.09554044 0.011983084 0.019674499 -0.04378237 -0.07061242 -0.024881212 0.018611774 0.005559463 -0.04642161 0.055757865 -0.025389705 0.06517528 -0.0509382 -0.06160609 0.062291823 0.12817739 -0.080365986 -0.008176064 0.015216963 0.053600445 0.03276409 -0.06640382 -0.011513276 0.027785962 0.022784337 -0.019874662 -0.061214745 0.007992795 -0.0019098553 0.091065966 -0.017695142 0.03474155 -0.052363854 0.036221996 -0.07700413 -0.06372984 -0.036425445 0.083631866 -0.06040901 0.13840954 -0.022700796 -0.04389314 -0.01777518 0.02721611 0.023689289 -0.039681375 -0.07074393 0.03434182 -0.11656339 0.042899232 0.059220526 -0.043467283 0.06932802 -0.013900019 -0.007646436 -0.06415108 -0.026035374 -0.043811727 0.08617655 -0.06847398 0.11387654 -0.064820625 0.04611103 0.055840783 -0.042427637 -0.015091932 0.04780988 0.009291371 -0.07168756 -0.037440266 -0.03464196 -0.002387379 -0.017981667 -0.09537492 -0.0591928 0.05753639 -0.0359016 0.06538579 0.022545822 0.048558474 0.079287976 -0.068544306 -0.077864155 0.016716674 -0.0031712977 0.08817035 -0.026763491 -0.03090331 -0.033569682 -0.032396294 -0.0061698616 0.011248926 0.015622913 -0.02015024 -0.0061130216 -0.062045045 -0.010579558 -0.009837876 -0.078322016 -0.009661223 0.06348029 -0.07466899 0.110854805 -0.0005885913 -0.10269999 -0.027905075 -0.011425183 -0.03790459 -0.07187827 0.008413718 0.0011945158 -0.05257982 0.009655143 0.015738105 -0.0374842 -0.04194467
so -0.057736557 -0.023732994 -0.0032510792 0.08387683 0.08785687 -0.01607814 -0.013469394 0.0041684746 0.115688674 -0.0046226378 -0.04867356 -0.005301773 0.0033940224 -0.06269258 0.033193912 0.04716986 -0.10931538 0.012324107 0.04117598 -0.073354155 -0.021369727 0.010263391 0.022459948 0.011349988 0.020154841 0.028162822 0.037574943 0.0143168345 0.0074580493 -0.017365681 -0.06236888 0.036386155 0.027065458 -0.019956151 0.09347479 0.009848456 -0.036793698 -0.037266824 -0.07760562 -0.09105688 0.017502405 0.06726814 -0.01158658 0.067314506 0.035848815 0.11049507 -0.10326098 -0.056841727 0.024931537 0.1078851 -0.03836629 -0.053010084 0.06094223 0.07801841 0.013489993 0.0101939 0.023284627 0.08976572 0.10278061 -0.10005216 -0.08546116 0.007641667 -0.07249511 0.11170231 0.08105966 0.04151594 -0.050191984 0.030138284 0.00035521184 -0.08623869 -0.089476086 0.09320662 -0.07487068 0.09092789 -0.07823817 0.09140692 0.019577112 -0.0048307264 0.025664391 -0.00048010438 0.048426487 0.044640735 -0.057599932 0.0009304314 0.031602576 -0.058689762 0.05681856 -0.027096545 -0.06636652 -0.017356014 0.045013096 -0.020317912 0.121815436 -0.08757433 0.11215021 0.0049532275 0.0024993862 0.060301553 -0.08116409 0.082605876 0.044083815 -0.031061502 -0.12812376 -0.024315529 -0.081636705 0.0769097 -0.03735158 -0.01703043 -0.05656718 0.060564514 0.063627414 0.084966965 0.061632693 0.035955753 -0.010136419 -0.035566892 -0.077469334 0.080155075 0.06529013 -0.006632886 -0.00020482868 -0.018062275 -0.055253047 -0.025845036 -0.008251482 0.014278743 -0.029914796 0.02289444 -0.012325556 -0.081017196 -0.037097953 -0.012978279 0.047698036 -0.0023621302 0.0090130735 -0.06375533 0.08949614 -0.019742504 -0.08131743 0.03375312 -0.06215215 -0.02128154 -0.05055517 -0.046407767 0.03994683 0.01037081 -0.06370636 0.053156517 -0.07696673 0.04890077
out 0.03685769 -0.041455343 -0.009347143 -0.0022393602 0.063040525 0.061176036 -0.045393925 0.007101639 0.04519447 -0.027980726 -0.09460187 0.068786055 -0.06313355 -0.013449613 -0.0315851 0.049151484 -0.027219195 -0.01015634 -0.056536425 0.046859104 0.02377366 0.017189084 -0.011793926 -0.074224405 0.041857865 0.007349152 -0.01267626 0.051058702 0.020268558 0.053145066 -0.07254985 0.029176721 -0.0653829 -0.0063958857 -0.032916542 -0.03019739 0.016771246 0.071114555 -0.033454668 -0.06808565 0.0031475269 -0.049368773 -0.06546806 0.023353532 0.024121758 -0.065523915 -0.04574152 -0.024831712 0.056854594 -0.067984805 -0.026432538 0.03322691 0.075389385 -0.013300341 0.087296285 -0.018279642 0.00023164158 -0.0072522694 0.03606133 -0.008015041 0.057545245 0.03865205 0.0013632448 0.030879177 0.093470946 -0.074348375 0.0059330994 0.08283072 -0.029366756 0.09566797 -0.0042651803 -0.07748156 -0.013817176 0.06852746 -0.014594962 0.011620763 -0.01568754 0.03217788 0.017060276 0.0016671582 0.02963643 0.019642975 0.02861308 0.032337543 -0.06931281 -0.025440713 0.046272554 -0.014177291 -0.046438802 0.0075366874 -0.035153925 -0.056105807 -0.006146824 0.007918859 -0.025193164 -0.09376576 -0.02650247 -0.0028325864 -0.069110185 -0.03856291 -0.04689263 0.044289093 0.0042191343 0.03364 0.036696386 0.0044988696 0.05950718 -0.063476585 -0.014187861 0.0033367556 -0.012655254 0.038024604 0.017318318 -0.039409105 -0.020192023 -0.035150062 0.031781398 -0.044702567 -0.04679415 0.008882186 0.0036363397 0.021952914 -0.024268566 0.00092244043 0.018067209 0.014707049 -0.056749742 0.020500096 0.030964257 -0.038750105 -0.006033683 0.026630562 0.001255614 -0.029141787 0.013774267 0.003750265 0.032239888 0.051434427 -0.10459278 0.016652705 -0.024652496 0.04471481 -0.087034754 0.061362404 0.058463104 -0.028563531 0.029660644 0.030940887 0.027510546 -0.0074168625
if 0.07689383 -0.0704327 0.060507137 0.018179975 0.04351655 -0.01012659 0.0010250852 -0.10147735 -0.019860754 0.08236823 0.002408734 -0.005891485 -0.004806091 -0.049093235 0.013365896 0.0368357 0.010839884 -0.053385176 0.0018566288 0.0005631549 -0.07203418 -0.016019529 0.085729636 -0.05725792 0.029415226 0.060237046 -0.07664267 0.006501811 0.03678868 0.042126592 -0.019174082 0.08058119 0.013521102 -0.0016362014 -0.048617527 -0.010162042 0.033700366 0.0011073021 0.04103252 -0.037308883 0.014829457 0.07753353 -0.04717479 0.00073784497 -0.034432005 -0.035292104 -0.04572494 -0.00052268803 -0.0501584 -0.019205267 0.005576129 -0.058640517 -0.003536239 -0.010777248 0.06657535 0.038417052 -0.016807133 -0.041652776 0.042137213 -0.083840996 0.05996248 0.08009962 -0.10073103 0.02170181 0.061906625 0.0623398 0.015791845 0.08517766 0.021869706 -0.0030857064 -0.06711249 0.054117672 0.106556684 0.025417283 0.023190618 0.06364332 -0.0037651102 0.084717214 -0.027889103 -0.07279835 -0.02856635 -0.037815504 0.018255845 0.014192908 0.0074349125 -0.06404543 -0.0027237213 -0.03779666 0.08287708 0.0351559 0.005617642 -0.0400667 0.06072376 -0.031931642 0.01568545 0.03682354 -0.013808235 0.08326113 -0.035575185 0.024870995 0.04866432 0.017132388 -0.00053250295 -0.031134278 -0.013188944 -0.033412497 -0.004478195 -0.042344064 0.028199041 -0.050562505 0.03673151 0.02163657 0.054565724 -0.079647325 -0.011463857 -0.031996015 -0.018998904 -0.0524219 0.019009972 0.0068016085 -0.033343695 -0.010026788 0.01760472 0.03263794 0.038910974 -0.049371272 -0.110815525 -0.04860576 -0.0060032047 0.010985521 -0.031786133 -0.0111784125 0.048299603 -0.058565497 0.077691965 -0.011161859 0.043483622 -0.022872703 -0.06551469 -0.028396422 0.0919801 0.011541779 -0.07844248 -0.0023662648 -0.062164184 0.008283485 0.023624806 0.046658244 0.042073146 0.01398974
is 0.048453152 -0.0020239176 0.048968803 0.02203176 -0.04212689 0.036072046 -0.06288586 -0.056972675 -0.02423759 0.033204764 -0.0033076787 0.029188648 0.038275987 -0.028493762 -0.005849778 0.024290228 -0.049552884 -0.05925725 -0.03757135 0.04865633 0.09513957 0.037535306 -0.020002894 0.028025504 -0.06235825 0.005455397 -0.0022259934 -0.0462573 0.053238537 -0.019602649 0.028328378 0.07402467 -0.033793714 -0.020490497 0.014666159 0.021861063 -0.0026681814 0.03056698 -0.06161581 -0.005592914 0.055816542 0.02357672 -0.028543392 0.008127026 0.012524417 0.0062625096 -0.0667423 -0.02985881 -0.032924987 -0.01803173 -0.014315285 -0.039407093 0.06029734 0.015662715 -0.026460413 0.024757013 -0.059945013 -0.025671648 0.037208173 0.01139792 0.052345686 -0.011313757 -0.0352315 0.0029723232 -0.024006577 0.051507726 0.032762747 -0.0027992467 0.028959991 -0.00034114264 -0.0014166955 0.046137344 -0.0047396272 0.01729054 -0.02480186 -0.03791853 0.020746632 0.05928974 0.019097362 -0.011915045 0.011147309 -0.06675191 0.07110802 0.036428414 -0.015561181 -0.028539753 0.03493007 -0.03216713 -0.03192419 -0.011933287 -0.0005230793 0.0269266 -0.024116287 0.053607687 0.011906924 -0.056059465 0.0671759 0.03882762 0.023989772 0.021087361 0.07581238 -0.033376742 -0.0079228515 -0.0011328293 0.04752753 0.021092035 0.0014882921 0.013730801 -0.026959017 -0.005037595 0.05215547 -0.01582534 0.015170772 -0.034412086 -0.040134195 0.0055960733 0.0017214707 0.04331589 -0.036908135 0.011341983 -0.057100687 -0.027141266 -0.011202614 0.035142906 0.0067168446 -0.03232466 0.05472522 0.081451885 0.035865158 -0.030283662 0.08666841 0.044270072 -0.026740978 0.0056255558 -0.02821722 0.024838392 0.0006334414 -0.017996034 -0.036653534 -0.020523828 -0.02185758 -0.011455169 -0.012214175 -0.030235194 -0.05695775 0.015645344 -0.064340495 0.038313713 0.0041399826 -0.0031172382
at -0.064929076 -0.016206406 0.027334342 0.051946696 0.015930025 0.0054844553 -0.012968164 0.029253742 0.014074744 -0.004378237 -0.023807425 0.058178924 -0.08068995 -0.091776945 -0.014404803 -0.022153046 -0.026986679 0.027155306 0.056065522 -0.040139187 -0.11450513 -0.06884969 -0.06955346 -0.018461127 -0.021852668 -0.030899644 0.03038924 0.10651194 -0.0792527 -0.1340218 0.018681481 0.07126996 0.080373 0.09775793 -0.011777989 -0.047285587 0.024908315 -0.04410962 -0.020727417 -0.0453674 0.03785276 0.0084079765 0.050921496 0.045439273 -0.0037327064 0.031762414 -0.03184713 -0.084236145 0.11923341 0.03493857 -0.06683903 -0.025208626 0.059335742 0.09480312 -0.047921017 -0.09583885 -0.08092814 0.093027264 -0.06400618 -0.06358796 -0.12771334 0.07084138 -0.036450826 0.009595911 0.005958747 -0.04851687 -0.09112019 -0.021672 -0.09577352 -0.120051436 -0.014478386 -0.017660486 -0.017966652 0.05820612 0.008528333 -0.06918838 0.10008445 0.029366553 0.09779127 -0.014366037 0.0064861835 0.09938196 -0.007095482 -0.011452402 0.06095173 -0.0016592887 0.046784163 0.049091063 0.008093191 -0.11437152 0.08339785 -0.013229875 0.019537209 -0.011653423 0.026583036 0.028580293 0.049793523 0.012937337 0.0417881 0.01135649 -0.016249629 -0.0049583307 -0.111466214 -0.06176752 -0.101155296 0.08222567 -0.0048935227 -0.101669155 -0.094388984 -0.02417018 -0.016430268 0.042483784 0.046655916 -0.041287012 0.032410383 -0.054920968 0.004537662 -0.026568031 0.08695673 0.059054583 0.00052184914 0.067824565 -0.07163027 -0.11055067 -0.091933 0.017150197 -0.05115087 -0.024364615 -0.06187926 -0.039125055 -0.07214571 -0.051534638 0.03313746 0.09180542 -0.048621826 -0.0017011485 0.05012001 0.06560997 -0.10453694 -0.08456107 0.057708286 -0.0648072 -0.033197816 0.023008712 -0.04058563 0.0864135 -0.067069545 -0.044845667 -0.124230035 0.08695884
t 0.032418642 -0.023013838 0.0583591 0.031107044 0.069280155 -0.049073398 -0.017305816 -0.05984171 0.08809273 0.043094497 -0.11119933 0.06904242 -0.12131601 0.012152584 0.16963351 0.06946719 -0.013313703 -0.014230786 -0.015964627 -0.010808445 -0.06644231 -0.028360292 0.16090398 -0.03310275 -0.040225483 -0.019996949 0.11709711 0.08039165 0.0104407035 0.053854205 -0.083681315 0.0735736 0.07404934 0.01873151 0.06994533 -0.10423241 -0.029800296 -0.06617125 -0.042259317 -0.06158647 0.10037208 0.010515376 -0.099764824 0.055209577 -0.007643954 0.04028127 -0.12568894 -0.09362618 0.06640668 0.09201355 -0.0541646 -0.0073415353 0.06327258 -0.023729356 0.09722813 -0.11676358 -0.039792743 0.06460107 0.10356219 -0.110412136 -0.04247095 0.098280884 -0.07549832 0.09825074 0.04115771 0.030355517 0.012811907 0.13668643 -0.04198955 -0.08054926 -0.013231451 0.034793798 -0.025668563 0.026057351 0.027365794 0.051411767 0.033651315 0.0646063 0.047491837 -0.063763194 -0.004616203 -0.038207438 0.011024664 -0.07638804 0.0214388 -0.11622166 0.11403169 -0.07278077 0.042672195 0.029726839 -0.028836345 -0.121830545 0.148789 -0.04113742 0.05893391 -0.13403319 0.07900737 0.12552573 -0.04064186 0.093699805 0.049061112 -0.043942645 -0.042670146 -0.04649496 -0.007136195 0.03222592 -0.02001409 -0.026623582 -0.11868159 -0.012532256 0.011996006 0.12872656 0.15802328 -0.06892376 0.059851177 -0.033369202 -0.09646805 0.010006718 0.04953416 -0.02137989 0.062382463 -0.13530341 -0.145175 -0.12131889 -0.055995416 0.017161224 -0.03707836 0.0629728 -0.032568805 -0.11026062 -0.06055607 0.02764058 0.04492324 0.06286067 0.035234626 0.05128299 0.055612084 0.055115834 -0.14030716 -0.04852128 0.03277999 0.053737633 -0.07988851 -0.08027858 -0.06284744 -0.00627142 -0.1148639 0.080480956 -0.10272797 0.06961392
s -0.035154887 0.021982454 0.0042335247 0.11277816 0.06733776 0.03426652 0.0012914808 -0.025120344 0.019678675 0.031367738 0.008490472 0.046180245 -0.007654839 -0.028455585 0.035097856 0.045368306 -0.038228877 -0.017181095 0.07647795 -0.041248776 0.020242287 -0.027503375 0.0003706371 -0.053932037 -0.009633791 0.042722583 0.052358653 -0.04967107 -0.000937859 -0.063342065 0.043983478 0.06517393 0.07226646 -0.0035867095 0.009429133 -0.06179067 0.0059467517 -0.088211656 -0.05205123 -0.058652133 0.046551585 0.04597547 0.035548445 0.010145888 0.022842413 0.07378093 -0.086362965 -0.047765497 0.057105247 0.09415409 -0.035676666 -0.018218404 0.055958908 0.06491022 0.026418004 0.021268522 -0.051993296 -0.011144631 0.042242628 0.01053524 -0.044775333 0.03753848 0.03649086 0.004149114 0.05594482 0.058788594 0.042805824 -0.048019473 -0.03502378 -0.106710166 -0.0068441126 0.06599113 -0.06705314 0.07987475 -0.10000606 0.07518934 0.0682406 0.10774928 0.066527896 0.044623468 -0.0013146108 -0.027695622 -0.06454123 0.016873945 0.01776442 -0.019414011 0.08111967 0.02776266 -0.031947277 -0.056158684 -0.0490141 0.005055017 0.09794059 0.012409705 0.066423036 -0.03545542 0.054975756 0.02870906 -0.0032918253 0.04339687 0.022448668 -0.03537631 -0.060136322 -0.004720589 -0.026010698 0.05476477 0.030645063 -0.05039913 -0.06390458 0.10496047 0.010515284 0.016621403 0.025318256 0.050890367 0.07748953 -0.035451263 -0.023388976 0.009630515 -0.025272544 0.023537142 -0.050203025 -0.019014934 -0.06531132 0.0073797656 -0.08141415 0.040526044 -0.01824947 0.032992713 -0.019804979 -0.045936566 0.024513261 0.040306304 0.010251606 0.020666813 0.008372687 -0.028971344 0.035754036 0.052602902 -0.023574913 -0.0038025808 -0.06364087 -0.024607442 -0.04310289 -0.020094229 -0.032927144 0.051527858 -0.06099828 0.034460336 -0.034588095 -0.0340867
ll -0.0013173401 -0.034244675 0.019230776 -0.04597442 0.028232595 -0.066064134 0.028816765 -0.114670835 -0.006876324 0.058936026 -0.046105947 -0.029135853 -0.02282936 -0.021884061 0.13184892 0.10646813 -0.059066344 0.00015074282 -0.0017367464 -0.045568515 0.0124465 0.0018555471 0.10763758 0.030605314 -0.015420787 0.017515942 -0.0046210377 0.0060014096 0.0464246 -0.026391838 -0.06456655 0.08826118 0.09626698 -0.03311247 0.007025093 -0.08915668 -0.088804975 -0.08359634 0.022965789 -0.019695785 -0.01738096 0.035334006 -0.11905474 -0.0027857097 0.022464849 0.0003027563 -0.03549329 -0.07173316 0.062479693 0.039483823 -0.02795316 0.06728296 -0.0012051007 -0.05300498 0.046076126 -0.06566997 -0.063845105 -0.050798744 0.07825588 -0.035165478 0.0038575756 0.020443004 -0.06700986 0.029294826 0.08772989 0.068842255 -0.014081685 0.11938196 0.05863569 -0.01838619 -0.03162703 0.052797273 0.048237994 -0.016245645 -0.047604762 0.080478065 -0.009197961 0.07029147 0.00097313384 -0.03457955 -0.04696725 -0.030700872 0.02722121 -0.007337091 -0.021898724 -0.06492426 0.074843965 -0.09260965 0.095737725 0.013272541 0.042212207 -0.003873684 0.09126062 0.0055990363 -0.008361075 0.025625654 -0.0075871428 0.045614652 -0.044221774 -0.012223176 0.06068089 -0.038327727 -0.007821953 0.0014121573 0.03772053 0.029720707 0.05683319 -0.013987514 -0.0516547 0.006606014 0.04847725 0.10768925 0.07838334 0.0151413 0.019849285 -0.030034298 -0.0895846 -0.006147839 0.04068876 0.036263593 0.091505244 -0.030663624 -0.095902905 -0.04220733 -0.07031804 -0.012654356 0.0009704661 -0.011185233 -0.042798363 -0.025261056 -0.07929986 -0.017568357 0.090521924 -0.039692067 -0.0009295775 0.072492935 0.032177605 0.060980476 -0.0879733 -0.012343554 0.022971768 -0.0016771862 -0.044940893 0.04054962 -0.09468037 -0.07662419 -0.012303782 0.041542865 -0.059699096 0.045643125
how -0.065911174 -0.085895285 0.027858408 0.05358393 0.088629946 -0.023565678 -0.026578179 -0.05232219 0.035886914 0.0022669658 -0.036096297 0.0465342 0.043207712 0.02467058 0.028686969 0.09928398 -0.059738394 0.016577065 -0.021249164 -0.002218539 -0.009379109 -0.012685976 0.023558715 -0.048917715 -0.049053997 0.008841833 0.03333794 0.046287503 -0.04898649 0.022956613 0.026559135 0.0925171 0.0535144 -0.055501655 0.023380512 -0.08331634 -0.030395214 -0.027289765 -0.0512861 -0.023862734 0.071820565 -0.010705944 -0.04885917 0.028648257 -0.04849919 0.032777537 -0.097328715 -0.07750292 -0.0009902439 0.09370574 -0.055442274 -0.067606606 0.09060532 0.007324085 -0.055361863 -0.065708615 -0.071947314 0.05334732 -0.0016575436 -0.07777846 -0.08087785 0.011096746 -0.048116665 0.09858918 0.04537312 0.030962287 -0.012705789 -0.0014025569 0.0018200963 -0.040308103 -0.042620797 0.023311589 -0.007873969 0.008915857 -0.047251385 0.007997112 0.054287042 0.05535109 0.045416843 -0.0118604675 0.015694167 -0.038372833 0.0266275 0.018504791 -0.00020565535 -0.06770517 0.08587195 -0.042528074 0.05120661 -0.04429427 0.010442254 -0.034487393 0.040611137 0.004480054 -0.011509588 -0.023541996 0.01838686 0.09596509 -0.055698466 0.0047499263 0.0019377256 -0.0673134 -0.049456894 0.015218272 0.048579663 0.013859211 -0.053768836 -0.04382304 -0.035795793 0.025726827 0.019638088 0.0071476363 0.070137426 0.054150544 -0.07262794 -0.037777647 -0.006093084 -0.021199001 0.10005764 0.084559895 0.053436447 0.027243944 -0.038528398 -0.05728578 -0.096563965 0.005545211 -0.047021285 -0.012795215 0.031183144 -0.082795255 -0.027185362 0.05239008 0.07448596 0.017670263 0.027906543 -0.059726425 0.08678933 0.065666735 -0.07246943 0.009602968 -0.0037283641 0.036072806 -0.102502234 0.063061014 -0.0033202025 -0.00049648003 -0.07748528 0.031909376 -0.050535284 -0.04307817
they -0.059471104 -0.097132385 0.067298554 0.050441336 -0.005387082 -0.090423815 0.00074050017 -0.0767632 0.11506807 0.1513533 -0.061285734 0.012081016 -0.10453148 -0.03340769 0.08865245 0.07427095 -0.026445508 0.01994043 -0.05520891 -0.03578162 -0.00046479283 -0.06839433 0.051124647 -0.02525145 -0.036349658 -0.021841038 0.06524786 0.02678306 0.008017207 -0.023021339 -0.093793154 0.097425684 0.12988889 -0.003732898 0.006414348 -0.03214626 -0.037005913 -0.0074183512 -0.02453233 -0.115733966 0.1090833 0.024442956 -0.11550809 0.10436506 -0.010473387 0.05250118 -0.12216469 -0.15268205 0.15926455 0.0017250057 -0.07297265 -0.071358606 0.16225828 -0.0044795033 0.05096446 -0.1026593 -0.06104273 0.08139642 0.027986825 -0.103265524 -0.00070030394 0.039389353 -0.009433322 0.123131715 0.085742995 0.07266203 -0.04041752 0.070823886 -0.04766745 -0.05791447 0.07982351 0.07019185 -0.04353595 0.040139865 -0.13322476 -0.046940245 0.03569921 0.045087308 0.1094253 0.00075910543 0.018240875 0.025679855 0.029318193 0.029268837 -0.0053999107 -0.045702003 0.07603089 -0.09927392 0.05121496 -0.07946368 0.10031773 -0.095713735 0.07592878 -0.10592115 -0.025609314 -0.091072306 0.094657995 0.03853151 0.04646161 0.07146811 0.036652833 0.0060308715 -0.07055572 -0.087513946 -0.090721205 0.08741116 0.041066024 -0.016164057 -0.075934835 0.06747373 0.02376706 0.03779218 0.09160432 -0.009103393 0.030153489 -0.032406285 -0.012796174 -0.0129911145 0.09689953 0.015130921 0.023930022 -0.06692251 -0.08856636 -0.12732314 -0.11347113 0.015374551 -0.073615484 0.007242134 -0.0551001 -0.04687077 -0.03160328 0.006423128 0.055649854 0.084206305 -0.01830254 0.031993438 0.003683426 0.015313533 -0.15106438 0.019513557 0.0881759 0.008786914 0.01728505 -0.085681275 -0.07730646 0.06429433 -0.071517445 0.059591085 -0.052546464 0.088007525
about 0.0030697582 0.013567248 -0.0063208984 0.06410606 0.024781352 0.055167343 -0.066126645 -0.027803008 0.039274022 0.05247759 -0.009215882 0.060880788 -0.02594643 -0.067615665 0.054320894 0.041767932 -0.06468404 0.031220788 0.0350956 -0.0069196997 -0.03601434 -0.03280311 0.014460881 0.021397509 -0.07475916 -0.038040906 0.049324945 0.026440352 -0.05573103 -0.019559825 0.02176046 0.06634141 0.07206254 -0.07246221 0.07494228 -0.07427369 -0.06599925 -0.057420813 -0.08023213 -0.013657645 0.083848596 0.008932453 -0.016158683 0.042640276 -0.006736364 0.017888948 -0.010083362 -0.061236568 0.06180602 -0.020774432 -0.08674022 -0.017868394 0.08011423 0.022163043 -0.023874067 -0.08120634 -0.03237721 0.0668148 0.0057316003 -0.045397542 -0.044341017 0.051636174 0.026457654 0.05875022 -0.0040434212 0.07881118 0.04351016 0.007845826 -0.09577626 -0.03230867 0.007115624 0.0013957021 -0.04132273 0.08334058 -0.092360616 -0.015622718 0.0035043384 0.048108477 0.07195589 -0.049144626 -0.008396555 -0.016051657 -0.055944793 0.0027478423 0.015287605 -0.040272932 0.090372175 -0.03535847 -0.022412386 0.002854349 -0.007465489 -0.07044083 0.027592845 -0.011299661 0.0098249065 -0.045247767 -0.03197616 0.07597449 0.062366854 0.048493553 0.06562142 -0.026124746 -0.09750255 0.011660744 -0.02879462 0.02652042 -0.06999721 -0.04418285 -0.07525964 0.03581029 -0.010818709 0.06536749 -0.02535408 0.017013753 0.027202096 -0.08033705 -0.04819518 0.064894184 -0.011010448 0.07834305 0.046234038 -0.028794149 -0.04078247 -0.09757492 -0.009998818 0.0003428012 -0.00030629756 0.09057135 -0.06736966 -0.044366505 -0.03937064 -0.016216423 -0.005149818 0.02523856 0.05507292 -0.07002395 0.046357863 0.050336406 -0.09000617 -0.054911382 -0.039063144 -0.04911042 -0.045241863 -0.028976182 -0.08699364 -0.05383075 -0.016813746 -0.0014595838 -0.06346052 -0.021363666
herself -0.019385148 0.010395911 0.0074966294 0.06083111 0.069008306 -0.0053988397 0.054693907 0.039607275 -0.033247944 -0.01349228 0.015460753 -0.081720784 -0.024919875 0.010848972 -0.059867267 0.003997461 -0.011440249 0.050021924 -0.075401634 -0.034821954 0.06633901 -0.009855842 -0.02305612 -0.013513097 0.06336699 -0.04642393 0.0119984755 0.0020222883 -0.016921597 0.02313326 -0.020466253 -0.0029762336 -0.067645356 0.0062593287 -0.01201739 -0.008672018 0.020762423 -0.03678218 0.016454231 0.005691488 0.0128795 -0.060136814 -0.0026372867 0.027693588 0.026395123 0.021887984 0.013701063 -0.038221657 -0.016167572 -0.006594357 -0.01275538 -0.029465938 0.05779793 -0.047673635 0.012103069 -0.0018809912 0.05455835 0.04826003 0.10259122 -0.027079154 0.02258095 0.0005670865 -0.02285486 0.06928559 0.013831081 -0.00017454039 0.021917596 0.080068626 -0.08171066 -0.034149464 0.03286902 0.090459965 -0.015588344 0.008202946 -0.02265039 -0.010737025 -0.05412454 -0.008070883 0.011253131 0.0012585272 -0.06571005 0.027299043 -0.10383514 0.033570264 0.03373659 0.046582464 0.041972414 0.030838927 -0.023372652 -0.02805901 -0.003987505 -0.005830982 -0.004968174 -0.046790373 -0.033685 -0.08516011 0.050023895 0.06007146 -0.09478139 0.028548421 -0.04284696 -0.015220536 -0.032260817 0.01749736 0.054259084 -0.04058223 -0.03199387 -0.05535583 -0.0011796509 0.031144649 0.055574026 0.053483833 0.038563818 -0.036696516 0.04924053 0.051612552 -0.027122235 -0.004350419 0.0020884008 -0.002639737 -0.010150738 0.04109785 -0.010212607 -0.03741789 0.023681365 0.051095158 -0.0039934837 -0.10168318 -0.008248921 -0.007561782 -0.0398938 -0.043570403 0.023932876 -0.009970484 0.060612094 -0.040342443 -0.0037806304 0.017899638 -0.022184448 0.0052470183 -0.029536035 0.05301449 -0.03937366 -0.025730716 0.046650313 -0.07034716 0.02880441 -0.028804198 -0.03151119 -0.07351449
me -0.019238448 -0.037692733 0.03945663 -0.028254345 -0.0020010043 -0.016476378 0.01329898 0.03378583 0.08513992 0.08441909 -0.07258073 0.1311212 -0.10822701 -0.016583852 0.061169166 0.010463315 -0.07221778 -0.035371687 0.008508015 -0.07741475 0.012559866 -0.006747349 0.096194774 0.017608969 -0.11754904 -0.017158022 0.09034943 0.06276544 -0.004884731 -0.0007530782 -0.047822878 0.10770565 0.033360954 0.0080052605 0.035551485 -0.040726144 -0.04338662 -0.008289264 -0.04732664 -0.056548156 0.02090182 0.06675196 -0.05618167 0.13034454 0.009939687 0.058688335 -0.082835145 -0.026053512 0.11531221 0.0818068 -0.070979215 -0.018451668 0.109317005 -0.0356102 -0.008629494 -0.10150312 -0.104687236 0.023610592 0.010236291 -0.06686765 -0.0287033 0.0782141 0.0005307931 0.09982833 0.11134896 -0.022121046 -0.038402665 0.0774743 -0.103999816 -0.0999101 0.05707617 0.033159185 -0.030508555 0.052921057 -0.074260145 0.026104305 -0.027611358 0.050348245 0.08367058 -0.10043796 -0.05226333 0.07214902 -0.050466593 -0.05422085 -0.004677421 -0.06101698 0.071517706 -0.086201094 0.035757188 0.035548676 0.08692436 -0.089831635 0.06662137 -0.042258907 -0.005139025 -0.102327585 0.04411811 0.077513345 0.013305674 0.10257185 0.03897387 0.014584107 -0.1046866 -0.105183765 -0.08358185 0.13963833 0.0785338 -0.029398587 -0.07851936 0.040141035 0.025473716 0.047926757 0.10175357 -0.0587546 0.09719912 0.0327087 -0.059486058 0.009082672 0.054659035 0.04492131 0.0336371 -0.08102436 -0.13262184 -0.0745032 -0.09852349 0.0071347016 -0.085244074 0.050785072 -0.060293883 -0.0772787 -0.046330545 -0.01677021 -0.019768517 0.13618366 0.018993279 0.018504849 0.04947818 0.08321573 -0.06567212 -0.025386171 0.015637357 -0.01409882 -0.008232892 -0.109705046 -0.0660787 0.047823336 -0.047487862 0.13198543 -0.031911936 0.03314846
up -0.044837013 -0.031502195 0.060821924 0.10607621 0.117200114 -0.011671431 0.04953515 0.002791018 0.047186863 -0.01806581 0.019265188 0.017661871 -0.034071892 -0.047491677 0.0007709433 0.0068536857 -0.07088925 -0.00040684294 -0.011808606 -0.028849723 0.021000495 0.0012821392 -0.032018133 0.015511182 -0.0010074705 0.033205193 0.041740626 0.024600543 0.007873018 -0.07311477 0.019378135 -0.025465894 0.010485383 0.0060195 0.03958124 -0.014786255 -0.06091397 -0.007104372 0.008316267 -0.048590515 0.027419368 0.004254195 -0.0067508454 0.01748745 0.026983207 0.06146566 -0.026499253 0.023678668 0.01924472 0.03474047 -0.054386295 -0.043807704 0.019172031 -0.028353587 -0.0009389193 -0.059308082 -0.007539194 0.07646676 0.09573036 -0.036886707 -0.082642466 -0.0140262 -0.038967606 0.021936944 -0.020904511 0.024123076 -0.0086234175 0.039701056 -0.010058062 -0.06920811 -0.016479302 0.019480957 -0.0395686 0.027907867 -0.06549854 0.0067168293 0.022416241 0.0125823645 -0.026053874 0.022347117 -0.0011218075 0.0062407693 -0.007337664 -0.0015366011 -0.013974596 -0.071588896 -0.012358916 0.03704616 -0.084219724 -0.020050816 0.06810836 -0.056611367 0.06191786 -0.10450513 0.02544447 -0.061567593 0.0053938106 0.012558241 0.0063146204 0.0076270974 -0.023793774 -0.040725537 -0.09810102 -0.049811 -0.07576334 -0.018299565 -0.001560007 -0.10737546 0.015476063 0.016269509 0.05238456 0.007111434 0.061652623 -0.046518456 0.059955332 -0.003485322 -0.048800886 0.034915753 0.0019440675 0.006140234 -0.011556997 -0.0020422847 -0.032706574 -0.021098753 -0.049103662 -0.025391666 -0.027020399 0.042118184 -0.0064394935 0.0029971336 -0.022493359 -0.033224836 -0.015917467 0.061492555 0.05250045 -0.006245113 0.07829054 0.05505019 -0.05076557 -0.02557084 0.035869975 -0.035108775 -0.06423628 0.0053104823 0.017295724 -0.02510476 -0.017604714 0.01257501 -0.0152076185 0.010489265
what -0.0325116 -0.021411974 0.025419781 -0.006760735 0.057096604 -0.02644395 -0.023354303 0.017171957 0.042036064 0.02206132 -0.05702205 -0.047073204 -0.08213435 -0.059969615 0.0010140752 -0.01911126 -0.040717714 -0.03834004 0.0040769293 -0.0062656365 -0.0016291129 -0.005286168 0.017553125 0.018294409 0.024790904 0.020932809 -0.00042359834 0.06581447 0.004519208 -0.054041646 -0.08314294 0.04761055 -0.0046761623 0.037778154 -0.0524106 -0.052359432 -0.0056597935 0.051642586 0.025544193 0.007822852 0.033397432 -0.023697669 0.010576991 0.03279034 -0.03902404 0.039802797 -0.03903758 -0.01475295 0.03909028 -0.017783161 -0.05144954 0.0315159 0.03220635 -0.0047882176 0.063162506 -0.06548755 -0.020661272 0.043969765 0.073539816 -0.08496393 -0.03717334 0.06910571 -0.031670686 0.0438766 0.06487397 -0.022434916 -0.01213925 0.015248966 -0.018754072 0.025924085 -0.018626463 -0.00289715 0.036751192 -0.024443252 -0.012436302 -0.048972722 -0.022271227 -0.037390012 -0.0073601874 -0.050320003 -0.02347608 0.01933361 0.0043464396 0.010779194 -0.028131617 0.027942372 0.02362937 -0.013256629 0.05837482 -0.0039478475 0.019999556 -0.030341601 0.07660536 0.014769265 0.034241095 -0.026806224 0.034552153 0.037618466 -0.011049451 -0.038494725 0.012530888 0.0033296347 0.010683388 -0.041556265 -0.0013709976 -0.035595294 0.03677531 0.014794203 0.02124686 -0.0023632876 -0.010186266 0.09134566 0.09016237 -0.04415278 0.030618291 -0.010522118 -0.024222841 -0.032996494 0.07493394 -0.03916522 -0.006769713 -0.0009950448 -0.07602689 -0.042949032 -0.036028426 -0.047471467 0.0020549167 -0.0072043557 -0.06534501 0.005947765 -0.0019747224 0.022831865 0.033752657 -0.005861546 0.028711917 0.0028318707 0.03485149 0.047201607 -0.080134645 -0.043948654 -0.0007899249 0.04616204 -0.07175433 -0.041258276 -0.048053198 -0.015458135 -0.055266805 0.018356996 -0.03819419 -0.008838139
way 0.06603668 -0.0024609051 -0.007205878 0.0029115882 -0.016198782 -0.00091358507 -0.025721138 -0.03348215 -0.025594985 -0.008639578 -0.044063017 0.05352463 -0.020998 -0.074555375 0.0078076096 0.0375555 0.0007472431 -0.02210222 0.019042874 0.016841114 -0.03784002 0.03920989 0.006715974 0.016363349 -0.013771193 -0.06008751 0.03183628 -0.019639902 0.059225872 0.06324009 -0.01603552 0.023249269 -0.02443672 0.07671583 -0.014740771 -0.04148691 -0.027774982 0.023665462 0.0130627565 -0.03008876 0.014758619 -0.0434499 -0.011610533 0.030608486 -0.0147055695 -0.021773063 0.0011278345 -0.026500188 0.029383447 -0.009496359 0.011037661 -0.045116123 -0.0004253307 0.050637405 0.028396549 -0.0021171346 -0.00071233534 0.061243903 0.04788036 -0.018876545 -0.009439463 -0.023939982 0.055367164 -0.02106167 -0.021807503 0.0021470007 0.008188041 -0.022831935 -0.011925572 0.05706924 0.003306314 -0.039976824 0.015517531 -0.021197423 -0.021597004 -0.04267802 -0.016783472 0.065336384 -0.043611553 0.038253322 0.026838295 0.031220745 0.0065334965 0.04041183 -0.023597956 0.036800366 0.022981847 -0.007130352 -0.018809212 0.036888834 0.015878009 -0.020608984 -0.053021878 -0.039656386 -0.04351299 -0.05802491 -0.010800645 -0.023998495 0.046886016 0.016434338 -0.012742151 0.02964941 0.019877568 0.0064022765 0.031370506 0.05291066 0.049421947 0.01766461 0.022185747 0.038253967 -0.0179355 0.00743788 0.035233553 -0.04014524 0.033923987 0.006283138 0.013651712 -0.037160628 0.040061034 -0.028694456 0.043696705 0.027853778 0.020868538 -0.049701743 0.012821247 0.029723912 -0.027034028 -0.013220733 -0.03307608 -0.058951132 0.01397797 0.005542959 -0.06551272 0.006482302 -0.039946195 0.022826713 -0.034883708 -0.0129123945 -0.008893072 0.008940475 0.050811913 -0.010435231 0.015428784 -0.01614646 -0.0075056963 0.046981152 0.05106843 -0.02752888 -0.014212198 -0.002339108
when -0.015820006 -0.035860807 0.028786201 0.07136315 -0.023754915 0.019200195 -0.014849903 -0.060248934 0.016776381 -0.0035793944 -0.0063800868 0.027676955 -0.032570418 0.003103302 0.070393555 -0.03595794 -0.029337961 -0.035078365 0.014848714 0.03341869 -0.030452 -0.044175297 0.061516754 1.8367195e-05 -0.0884922 -0.06920644 -0.009385619 -0.018007262 0.0050946423 0.03424601 0.052750904 0.028418282 0.02503928 -0.046637397 0.047457386 0.009466878 -0.057985447 0.07308563 -0.040597707 0.0031890417 -0.0032303447 -0.02282859 0.013977501 -0.0017438863 -0.013307809 -0.032879725 -0.040555157 -0.0759523 0.035437074 0.05584612 -0.021270523 0.03695446 0.046837453 0.08295063 0.01488638 -0.049872734 -0.013645539 0.01613601 0.033317376 -0.025044184 -0.068692744 0.052354485 0.03845788 0.060771715 -0.0005316449 0.033897255 -0.040495962 0.041011218 -0.062211297 0.008403912 0.06478148 0.044675905 0.00822997 0.034770887 -0.059741944 0.012180205 0.052530248 0.067318425 0.06507686 0.036606032 0.02020161 0.019289505 0.053161293 0.026756397 0.01292543 -0.060140193 -0.0048795966 0.035476733 0.052816644 -0.02597411 0.018738428 -0.075432114 0.013354058 0.005838611 -0.016529353 -0.024665685 -0.046142094 -0.012749549 -0.021850053 0.0030068634 -0.040336035 0.035712164 -0.023920216 -0.07389384 0.024587426 -0.025679378 0.009014512 -0.07471305 -0.009256137 -0.07928023 -0.015266227 -0.0064522987 0.013380703 0.018888412 0.016352782 -0.089551926 -0.033667613 -0.0076368675 0.035394855 0.05452124 0.023878947 0.036764912 -0.030106312 -0.033385918 -0.09293173 0.008405581 -0.028152712 -0.025256056 -0.012623299 -0.008495981 0.01744877 -0.01833478 0.05796489 0.005825629 -0.022223586 -0.0022273315 0.06594881 -0.0039522112 -0.07384733 -0.01206209 0.040729303 -0.032703217 0.048486944 0.009294343 -0.05547203 0.07904484 0.022534246 0.037222512 -0.096913405 -0.004013183
like 0.029334622 0.028461147 0.06132046 0.0074951462 -0.015455315 -0.03430159 0.011343727 -0.03919142 0.009429849 0.08284364 -0.014205662 -0.023281557 -0.06568306 0.04132646 0.055614326 -0.016765516 0.008374414 -0.009039631 -0.017671857 -0.026347429 0.0001460677 0.007226442 0.046491228 0.015542032 -0.09909948 -0.024478734 -0.008755803 0.0020512932 -0.01361429 0.05477956 -0.036107264 0.010741198 0.012631318 -0.04480536 0.0336041 -0.051938936 0.0017089599 -0.032786317 -0.026255723 -0.05845369 0.027411658 0.048750836 -0.08141128 0.0078098467 0.0083862115 0.037329573 -0.037861336 0.015688766 0.02306595 -0.040763505 -0.03885094 0.03305785 0.08498916 0.038982112 0.035409313 -0.011777273 0.0024094281 0.03151592 0.044999156 0.025599433 -0.03837672 -0.0015909952 -0.064462796 -0.004943671 0.050241273 -0.00878287 -0.04105336 0.001595173 -0.0051227175 0.0012692434 -0.016040847 0.059936248 -0.045905355 0.024296865 -0.03864243 0.014784589 -0.010849552 0.060593188 0.099905685 -0.03517561 -0.039914813 0.08317062 -0.048353624 0.0050730202 -0.008331421 -0.020902362 0.057424005 -0.052149616 -0.055944167 -0.010402548 -0.06213151 0.01626138 0.04138147 -0.029972486 -0.018734857 -0.021294782 0.07851973 0.027494743 -0.012792631 0.0037391083 0.009416567 0.02075918 -0.031915035 -0.06092046 -0.044401176 -0.020196829 0.06433118 -0.052031506 -0.0009898471 0.01617563 0.06499488 -0.036880963 0.058784585 -0.070613675 0.0020077878 0.044378243 -0.037603434 -0.03928801 0.022798218 0.04246315 0.030155681 -0.0696912 -0.061683442 -0.06686623 -0.042790517 -0.07165174 0.024330048 0.048729822 0.010969363 -0.04122866 -0.040920075 0.010776023 -0.042834077 -0.0041349554 0.029317945 -0.045613606 0.009870322 -0.013134306 -0.080664665 -0.035558 0.049801625 -0.005886485 0.004215684 -0.035550434 -0.05971183 0.02110371 -0.03723067 0.07087895 -0.091558665 0.06780818
one -0.03636495 -0.056897454 -0.025088476 0.036269058 0.07631111 0.035954073 -0.058843564 0.08136352 -0.030605588 0.072619945 -0.029061547 0.04501404 -0.029174015 -0.041389897 -0.07111612 0.062326074 -0.038103517 -0.07069012 -0.04305831 -0.014193033 -0.016446976 -0.036410782 -0.007323702 0.0060550543 -0.010829968 0.059369046 0.008822607 0.08234945 -0.075860456 -0.030502066 -0.060647707 -0.026148634 0.024030896 0.022100918 0.06947578 -0.010732533 -0.07061214 -0.00071338116 -0.06407013 -0.049871836 0.052408032 -0.0515197 0.0043371785 0.0988069 -0.048492182 0.10022541 -0.04774829 -0.05380921 0.041682865 -0.018168673 -0.01479478 -0.03558765 0.077434584 0.023461929 0.048942436 -0.05131062 -0.0458913 0.056573194 0.078509614 -0.0002949838 -0.043428283 -0.02400943 -0.024307178 0.04457628 0.014845082 0.071313865 -0.0262996 -0.009920405 -0.012363557 -0.007302316 0.04083703 0.002702565 -0.094255954 0.059065532 -0.024801102 0.023452317 0.04434398 -0.055573564 0.092446 -0.0027826622 -0.07203092 0.040651247 -0.10919357 -0.025900088 0.038630903 -0.05242369 0.058265667 -0.026115425 -0.045550697 -0.049228735 -0.04029354 -0.03415064 -0.015860407 -0.048864767 -0.017202172 -0.007643696 0.058096986 -0.00063213275 -0.028210398 0.021992445 -0.030145045 -0.017801415 -0.01724427 -0.04914587 0.0055840444 0.066993475 0.022549344 -0.03950603 -0.0089362 -0.009396461 -0.019360304 0.04892463 0.0153298555 0.028370285 -0.006272925 -0.037604157 -0.014226314 -0.03400737 0.06966744 -0.0049143243 0.053237654 -0.0067239804 -0.017032009 -0.028282583 -0.019823564 -0.011406016 -0.06562909 0.034894906 -0.10436771 0.018499237 -0.1169138 -0.032511283 0.028495317 0.090736754 -0.012051485 -0.0024583964 0.08838392 0.05775335 0.006569392 -0.09631519 0.044076383 0.03096367 -0.0058396976 0.007882926 -0.03559691 0.01069702 0.021105237 -0.025982551 -0.05641747 -0.0039234124
do -0.03511239 -0.059997946 0.000217058 0.025189355 0.08171924 -0.04103702 0.015275616 0.0019912263 0.060745507 0.06239774 -0.063623786 -0.012215222 -0.07718161 0.046167262 -0.031660803 0.0055437568 -0.02476653 0.04475056 -0.027932573 -0.02088746 -0.0056829313 -0.021059074 0.06465506 -0.015172821 -0.011689369 0.026333919 0.021719899 0.0034567525 0.016987508 -0.017469317 -0.037987214 0.021227201 -0.03533537 -0.05199658 0.06379381 -0.04543531 -0.085299425 0.0011199171 -0.045706842 -0.0023644557 0.03131705 -0.06016492 -0.0874655 -0.027440006 0.0006546571 -0.038984857 -0.07604649 -0.015664946 0.031009678 0.036321677 0.039500248 -0.03157823 0.0154338125 -0.04281744 0.0197864 0.026871193 0.004928617 -0.012289585 0.014197402 -0.052599095 0.029812107 0.06481985 -0.032264423 0.048541266 0.066412516 0.054543898 -0.05820827 0.03239681 -0.01399462 0.028905157 0.012082758 0.04651292 0.0077697122 0.027488869 0.009100007 0.049946137 -0.0592677 -0.011799457 0.018050713 0.0042351987 -0.038108617 0.0113139 0.0018174471 -0.023703238 0.043469634 -1.0009622e-05 -0.025933333 -0.07804661 0.025991416 -0.04375046 -0.05768457 -0.05517774 0.026390893 -0.007955886 -0.03493527 -0.086508065 0.07465455 0.044473305 -0.08584308 -0.00032979727 0.06970748 -0.005607059 -0.000105666986 0.029325284 -0.00044472353 0.04404788 0.0061822757 -0.0070767635 -0.05443823 -0.004869895 0.007970348 -0.048598155 0.013616528 0.009726409 -0.012044093 0.06685139 0.025975034 0.040123537 0.01247395 -0.014677616 -0.03248909 -0.043973166 -0.05162356 0.018474672 0.012382685 0.059853923 -0.011716688 -0.0038254675 0.023615006 0.0008117447 0.03553981 0.029431032 0.06374636 0.009424223 -0.04169163 0.0042437874 0.07194866 -0.018498475 -0.05604428 0.013452222 -0.019090025 0.030284218 0.052283935 0.04202513 -0.042822223 -0.01691177 -0.03822533 -0.044771392 -0.032716077 0.007263658
no 0.022532802 -0.041967425 0.006879148 0.022614209 0.10085999 -0.0055254484 -0.038704123 0.04662394 0.034601346 0.0053871353 -0.03365212 -0.017613614 -0.010265303 -0.03738682 0.0416745 0.026091257 -0.038078327 0.034399748 0.035567958 -0.061592765 0.025753273 -0.059414502 -0.014067822 0.0081128385 -0.039361786 0.018231597 0.04788292 0.07999852 0.027948549 -0.033443395 -0.012891988 -0.008745379 0.04176196 0.026070306 0.062317107 0.02445955 0.010080238 -0.0013769782 -0.0058528716 -0.010335462 0.020242648 0.05640041 -0.007854827 -0.028092802 0.0239078 0.056021094 -0.05152591 -0.07602446 0.019605907 0.003952629 -0.009550451 -0.0030408623 0.035228826 -0.029703818 -0.009491546 -0.07691675 0.01664341 0.09903109 0.07180604 0.029016046 -0.007497867 0.032283977 0.0024308483 0.023587273 0.08777839 0.07313694 0.020718517 0.0707538 -0.08270945 -0.094893895 0.022631574 0.05946782 -0.0073020756 0.08349152 -0.026702844 0.033160344 0.0384664 -0.02336815 -0.008856772 -0.02403676 -0.078254506 -0.0121678915 -0.10839361 0.0076922714 -0.030170362 -0.09475311 0.04412412 -0.031266566 0.060770854 0.021382164 -0.00064921787 -0.035759665 0.050215907 -0.023676524 0.046626914 -0.043114237 0.07466759 0.098571196 -0.05966344 0.06587203 0.060105003 -0.0003610209 -0.07551091 -0.03803691 -0.012183562 -0.019220036 0.05003714 -0.039607856 0.029722728 -0.010184112 -0.0010572507 0.053762194 0.070418276 0.015250379 0.008852183 -0.026235031 -0.09302319 -0.012991893 0.009986703 0.00020344509 0.052528415 0.00092654116 -0.027934026 -0.026989507 0.00046355533 0.029262852 0.009525988 0.026812712 0.01005509 -0.041223023 -0.035434734 0.03208809 0.018003507 0.06875849 0.07953549 -0.01063312 0.021079773 0.0074727526 -0.057827685 -0.065038696 -0.041814532 -0.093293026 -0.013053314 -0.04886473 -0.03938479 -0.06956492 -0.0064142747 -0.0069987113 -0.046433523 0.011890139
oh -0.028193219 -0.015215246 0.0060453415 0.06004577 0.054764282 -0.053991742 -0.042007882 -0.046783626 0.024773039 0.021683412 -0.05960794 0.058669403 -0.06810013 0.0118531585 0.030445771 0.04305516 -0.046011753 -0.029692508 0.028343663 -0.044724215 -0.00534582 0.046255928 0.06881975 0.007201478 -0.019737918 -0.048146892 0.0073758503 0.052589584 0.028981367 0.056721665 -0.029745933 0.016610399 -0.0024895412 -0.043386493 0.09395405 0.0022688473 -0.07539945 0.025746621 -0.101334035 -0.0559985 0.029130416 0.024109323 -0.10168989 0.020291857 -0.068910316 0.045425046 -0.06536886 0.00048702196 0.029124934 0.022091124 -0.052108623 0.029507743 -0.015329613 -0.008347066 0.031805363 -0.0043749646 -0.08634497 -0.016910985 0.04350427 -0.088116795 -0.029623147 0.04817128 -0.033423573 0.07754564 0.050177872 0.053361256 0.053590864 0.07984227 -0.06239759 -0.030739605 0.04177128 0.024656488 -0.048581496 -0.0018644436 -0.004967399 0.06965611 0.060003653 0.11302569 0.009490561 -0.027409896 -0.033927757 0.049512874 0.032842204 0.012694309 0.059783414 0.009171124 0.026501518 -0.06633488 0.0060571455 0.0044437177 0.03243104 -0.049747873 0.053324554 -0.076502085 0.023111843 -0.041950695 0.04246525 0.06420754 -0.014652654 -0.0048093353 0.016053313 -0.013156127 -0.08393867 -0.009085264 -0.017645499 0.04890052 0.031200888 0.008832598 -0.08305663 -0.0037473482 0.04099169 0.02227328 0.11754589 -0.026946481 0.010489049 -0.029061051 -0.09017191 0.032902703 0.044336736 0.058343384 0.017775234 -0.035826415 -0.054371007 -0.07488934 -0.03692813 -0.06118491 0.03499303 0.028436782 0.0009772754 -0.07706832 -0.014029239 -0.030606683 0.059068017 0.064296246 -0.0033934135 0.027122868 0.0002765229 -0.013050153 -0.04997082 -0.077617854 0.035430722 -0.015718594 -0.037631158 -0.019251265 -0.10158492 0.017981175 -0.07661323 0.036781672 -0.090347536 -0.0004426961
went -0.019425487 -0.024103427 0.05927732 0.06951212 0.018211188 0.009015882 0.028923279 -0.08218002 0.023382492 -0.03291519 0.031723015 -0.011448389 0.026037471 -0.039912447 0.025225936 0.07172022 -0.039045554 -0.0125197815 0.053878855 -0.025222538 -0.048565947 -0.036882143 0.014451089 0.04781588 -0.027843976 0.037693903 -0.057247117 0.037024457 -0.0031123378 -0.08458197 -0.052347384 0.034479685 -0.0060705002 -0.034716263 0.042278845 0.06647213 0.03216366 0.0003722913 0.04972971 0.026468229 -0.0017307672 -0.00215122 -0.015690917 -0.06406382 -0.02557691 0.0070672873 0.004583783 0.038576454 0.038770508 0.044963025 0.023902679 0.031762514 0.016980123 -0.054747034 -0.05491674 0.015927674 0.05092999 -0.011024497 0.050203223 0.061859492 -0.014868173 -0.020878093 -0.032212783 -0.009749387 -0.03830849 0.06876303 0.0388076 -0.034839194 0.038007908 -0.05839133 -0.01811644 0.053026963 -0.02278664 -0.006720123 -0.074588045 0.005117498 0.05440039 0.013636421 -0.062883556 0.06605765 -0.041198704 0.011653305 -0.059849106 -0.0049405517 0.0103635425 0.0122092115 -0.02172282 0.061202377 0.013549156 -0.03829698 0.036477428 0.035277504 -0.02704976 -0.021323454 0.05913966 -0.010718786 0.011413838 0.02364087 -0.05076736 0.09263425 0.0006680296 -0.009734298 -0.008039783 0.06294376 -0.06690793 0.019863877 0.005901657 -0.10071446 0.06060399 -0.023722405 0.044742957 0.0023186358 0.021144219 0.014676848 -0.019496335 -0.025453156 0.018305415 0.04263344 -0.03459289 0.0012706502 -0.035827313 0.09382227 -0.05280623 -0.034903746 0.046187088 -0.031399757 -0.073616 -0.054319307 0.041801102 -0.049177866 -0.041576628 -0.040641658 0.0287804 -0.039233297 -0.0012634018 -0.048824385 0.0064304364 -0.06801531 0.044257704 -0.03188381 -0.046520676 -0.032921795 -0.0028927166 0.030424781 0.06566581 -0.01656148 0.035581917 -0.007375276 -0.017989088 0.016844826
thought -0.0006386411 0.0055052005 -0.022208877 0.051630694 0.038951114 -0.0041214973 0.007975419 0.007314113 0.07593269 0.021855846 0.031044979 -0.028700162 0.0016045095 -0.020775612 0.0005061258 -0.029322272 -0.00036770897 0.020391306 0.026767217 0.02906511 0.023777936 -0.009862194 0.01137771 0.052548174 0.009816096 -0.015158756 -0.014820927 -0.006513689 0.010762246 0.03374248 -0.0034218645 -0.0050013936 -0.00874873 -0.02421674 0.054054957 -0.021183433 0.02534868 -0.05496991 0.0032084826 -0.028418915 -0.0069295177 0.0034223474 -0.007301376 -0.0577257 -0.029908147 -0.019063782 -0.0012463136 -0.06042879 -0.013980653 0.040502615 -0.031237245 0.005791902 0.052340884 0.010931538 -0.06483761 -0.003862162 0.0154788885 -0.012424601 0.025458828 0.014919951 -0.055218965 0.01321654 0.023383055 0.06738253 -0.03409503 -0.009150397 -0.004736608 0.0037744665 -0.032804374 -0.05362544 0.051702153 0.04623495 -0.053205024 0.044031423 0.011539599 -0.013451691 0.08841951 0.041640736 -0.001307017 -0.01985497 -0.010913529 0.014012073 -0.053579085 0.04587251 0.02733892 0.028122535 -0.023650736 -0.0030759778 0.011647219 -0.028517473 0.011665358 0.014368283 -0.027398728 -0.010190824 0.031539112 0.010479854 0.0119000375 0.0598692 -0.025132602 0.059500385 0.0026074883 -0.035929766 -0.0678103 -0.006834706 -0.03638983 0.021152299 -0.04637683 -0.09275165 0.017470434 0.038277972 -0.0205161 0.050232273 0.022420911 -0.02653408 0.010056248 -0.0064217523 0.008078213 0.05000078 0.023556218 -0.052556638 0.0070817308 -0.04612083 0.037477255 -0.03909019 0.029145502 -0.020604784 0.0013101147 0.01780648 0.00071009557 -0.005233892 0.012969799 0.0019252275 0.016240671 -0.019588673 0.05416118 0.004413175 -0.019275596 -0.01627741 0.013204013 -0.00033243498 -0.046635672 0.019055236 0.03156623 0.022745254 0.009005449 0.027457109 -0.040866356 0.04981773 0.037803546 0.035944186
again -0.04098236 -0.048904464 0.06962318 0.0020449474 0.021364206 -0.020882737 -0.00052079465 0.0022682275 0.015541269 0.020485071 0.006534235 -0.0074337213 0.0028488839 -0.016177105 0.02641428 -0.023203302 -0.02468267 -0.028128823 -0.058144968 -0.01938099 -0.03200167 0.007390591 0.013285558 0.067999475 -0.017601307 -0.021374129 -0.02165306 -0.023946563 0.019630436 -0.043732826 -0.022174325 0.028208843 0.036119405 -0.05316225 0.009974063 0.0005033585 -0.018493222 0.034455333 0.035765212 0.012607359 -0.020297434 0.04205605 0.0012395622 0.031671785 -0.03572734 0.016953938 -0.055180825 -0.07615559 -0.025717687 0.06256234 -0.032581005 -0.031196699 0.051611215 0.00021324516 0.03848147 0.021128468 -0.05992252 -0.009614605 0.05445432 -0.057017785 -0.050720137 0.051352676 0.012536427 0.08091704 0.026725663 -0.013930111 -0.0183598 -0.009639781 -0.018671982 -0.028802827 0.0608279 -0.028294634 -0.024055937 0.00881521 0.018682288 -0.025142498 0.076290324 0.021105357 0.038813043 -0.01563943 -0.008100267 0.014043929 -0.005335559 0.04265957 0.04108732 -0.0039849486 0.032176796 -0.025547152 0.053521406 0.021299459 0.016802799 -0.061546784 0.07535526 -0.04012051 0.05538348 -0.027410682 0.014192395 0.06714876 -0.014980603 0.058432624 0.051768918 0.037088417 -0.045109604 0.013531482 0.00031183197 0.027290264 0.011845899 0.03185482 -0.034164432 0.019256083 -0.021555815 0.005350717 0.059176836 0.06780313 0.0430696 -0.020317953 -0.074566 0.020331537 0.010041184 0.01372163 0.011756028 -0.027225476 0.0058231545 -0.07522808 0.024061605 0.03163595 0.026004465 -0.026153324 -0.050645657 -0.05853809 0.016509106 0.042180352 0.02101832 -0.02560494 0.009746074 -0.04995702 -0.026959402 -0.04110285 -0.037927993 -0.060009003 0.062175337 -0.0015324927 -0.0013145495 0.0014347456 -0.06656026 -0.018507386 -0.03163132 0.10387363 -0.056604404 0.032365922
