1182 150
the 0.038301922 -0.020653797 0.022580218 -0.0133641 0.0019441434 -0.05810674 -0.05912086 -0.0400272 0.016345672 0.0546871 -0.018901723 0.0546845 -0.0416465 0.025714047 0.03500609 0.009201779 0.012296172 0.06509263 0.06647729 -0.09933211 -0.06442899 0.012085869 0.015718207 -0.016454797 -0.022197023 0.02327585 -0.011337628 -0.023448026 -0.050500534 0.06489402 -0.003952834 -0.06082108 -0.025279993 0.0347236 0.061809495 -0.0030968634 0.05697024 0.004535719 0.022845034 -0.01999737 0.016829545 -0.051104218 0.04409506 -0.016707508 0.023073439 0.022544768 0.0130848205 -0.024438404 0.011916104 0.08006644 0.0059262267 -0.0038344786 0.03259259 -0.05799877 -0.00030762097 0.06734599 -0.058713205 -0.052173607 0.023152359 -0.011971873 -0.040659197 -0.010622431 -0.007620783 -0.05348438 -0.01926385 -0.06422541 -0.0805499 0.046923257 -0.03684574 0.028978126 0.058855772 0.0204978 0.007406466 0.04337538 0.037830777 0.036251683 -0.054972213 -0.081454925 -0.038849927 0.015087276 0.021247102 0.00080335396 0.011134223 -0.028036581 0.06393978 0.052097186 0.047897074 0.048271697 -0.060586922 -0.046548516 -0.08131157 0.098258376 0.08403842 -0.020184843 -0.051123243 -0.023616133 0.06132299 0.023389673 0.0034987042 0.067993104 0.032103274 0.023315586 0.024350708 -0.021785205 -0.033979546 0.054562245 0.050741367 -0.016009444 0.0022680014 -0.014302257 0.039003078 0.09801901 0.035028435 -0.00280873 -0.07243201 -0.0015012212 0.043550752 0.016925244 0.011826462 -0.0026343428 0.024849169 -0.0063708206 0.021062918 -0.015070554 0.09429781 -0.07566049 -0.006484768 -0.032283746 -0.035231303 0.02300189 -0.02952434 -0.059325535 -0.026027303 0.04472188 0.021335062 -0.0015450045 0.09109487 -0.04763027 0.0018618706 -0.14118733 0.05580112 0.013760283 0.051519617 -0.02512386 -0.07545343 -0.084628984 -0.04123401 -0.007338497 -0.020668762 0.06665087
and 0.013065974 0.0066824444 -0.011366483 0.01459135 1.7195009e-05 -0.009993147 -0.09126938 -0.039153762 0.045555916 0.0016719388 0.028257512 0.054709964 0.0817557 -0.008540505 -0.024743076 -0.052418288 -0.04628555 0.0656931 -0.0457535 0.014500765 -0.067274384 0.057124265 -0.018490827 -0.04930033 -0.01260176 0.017865285 0.017815508 -0.05272482 0.007493003 0.017139532 0.0059812446 -0.020017782 0.031701032 -0.0022900244 0.018127741 0.012832274 0.05043125 0.010841947 0.010790314 -0.029237203 0.02461764 -0.017323514 -0.04162795 0.017078556 -0.0040765265 0.0017995125 0.035802823 0.061319124 -0.013046606 0.042555846 -0.047148492 -0.006249898 -0.020366054 -0.011355182 0.002689229 0.004601937 -0.011212577 -0.00033095232 -0.045357767 0.061690852 0.008338299 0.039545465 -0.035308283 0.022851743 0.0032899538 -0.06705963 -0.0016586051 -0.07265909 -0.04322405 0.03569316 0.029814845 0.024046922 -0.0020857777 0.0031848694 0.03391429 0.04596323 0.04288222 0.045993555 0.02936881 0.030586982 -0.030636068 0.02045694 -0.010983444 -0.03750894 0.038669985 -0.065033294 -0.09030156 0.0021631338 -0.01333169 -0.024228895 0.0096243415 0.036893878 0.10461795 -0.0454417 -0.017284798 -0.035754465 -0.08259833 0.023959227 -0.009152275 -0.0042052 0.03077815 0.006604201 -0.0014029761 0.0054055625 0.06276677 -0.058589213 -0.012665064 -0.06922632 0.02601047 -0.037907165 -0.00023389608 -0.06625893 0.016228579 0.057050444 -0.02933712 0.032021858 -0.0106128715 -0.0077862926 -0.012924293 -0.06757009 0.011017796 0.050892185 -0.048730664 0.032509673 -0.03513053 -0.012977074 0.022099966 -0.044122837 -0.03165339 0.021647176 0.016680053 0.0039324947 0.019908546 -0.028371643 -0.055715766 0.053508017 -0.001077532 -0.08262193 0.0035410854 -0.01872207 -0.003836784 -0.025077658 0.014381201 0.014059332 -0.025052488 -0.035534628 -0.101925485 0.03610714 -0.026917838 0.032967333
to 0.052002616 -0.07355667 0.10868944 -0.0035653077 0.0292913 -0.06391187 0.013187602 -0.055788316 0.015196338 0.06329022 -0.030336592 0.0826395 -0.08662047 -0.0550876 -0.004002703 0.036079127 0.0016828171 -0.023847837 -0.021217104 0.020314442 -0.046296857 0.032325275 -0.0695111 0.023100354 -0.07200216 0.010108121 -0.0016075443 -0.027577711 0.06632544 -0.051524054 0.017563358 -0.07256902 -0.010294785 0.06318107 -0.0055734054 0.0057700924 0.04642381 0.08509445 -0.06389082 -0.001620363 0.004397703 0.080851205 -0.05110155 -0.024493743 -0.03615176 -0.002866482 -0.06825233 -0.061905343 0.001940028 0.0183164 -0.119476385 0.06362167 0.07406933 -0.011026678 -0.068628386 0.014609851 -0.029032405 0.014678232 0.06931483 0.061693873 0.011267492 0.0067121657 -0.021052241 -0.1028275 -0.029772112 -0.044219904 0.06731424 -0.09719131 0.049501866 0.11011333 -0.07472373 0.05427247 -0.0299249 0.0642601 0.0065295687 -0.021770813 -0.00035190408 -0.06331323 0.031043248 -0.03069838 0.0063510817 0.029502083 0.05409725 -0.022016153 0.014260957 -0.021709632 -0.059269156 0.088997975 0.025428751 0.06981218 0.064948276 -0.052562516 -0.05146748 -0.07077463 0.005729248 0.08988599 -0.06811634 0.019221045 0.0060934224 0.042041928 -0.016133467 0.029703839 0.10177894 -0.05625787 -0.07995334 0.09716018 0.113371976 -0.009596362 0.07155947 0.00027759688 -0.034660917 -0.03464378 -0.0474464 0.08492769 -0.026743667 -0.0552568 0.039076857 -0.008148495 -0.04591767 -0.014525754 -0.018111851 -0.00019675936 -0.03536627 -0.027529659 0.08778971 0.1039751 -0.037521765 -0.030476315 -0.06059136 0.032678794 -0.022635164 0.016244106 0.010609888 0.0020978837 -1.5041325e-05 0.06530122 -0.074241415 -0.02879706 0.012435582 0.045930587 0.1030525 0.022584336 -0.09408073 0.039965466 -0.068992436 -0.06887328 -0.073068105 0.0020960644 0.012363804 0.034755148
she -0.043889783 -0.015307289 0.056991994 0.028937263 0.075019255 -0.012961439 -0.047267914 -0.018912043 0.037132304 0.07138304 0.017001713 0.0023014718 -0.04341815 -0.022827873 -0.03590587 0.004652656 -0.00539855 0.036401447 0.0052406676 -0.03127575 -0.074102156 0.081531234 -0.076898895 0.017914077 0.06707566 0.04154619 0.00034448726 -0.018626725 -0.063529246 0.0815924 0.039613824 -0.04470724 -0.03856504 0.028921705 -0.05142036 -0.0025931464 0.039537616 -0.045399234 -0.022663025 0.013805455 0.026747858 0.0134131545 -0.084206685 0.066144876 -0.00055137754 0.021304164 -0.01024743 -0.02107382 0.0035931729 0.0028434703 -0.060261767 0.043389875 0.07428623 -0.020558123 -0.066310465 0.03617323 0.03338786 0.05487494 0.016053634 0.049558803 0.047111467 0.028689329 0.03764741 -0.0268001 -0.014661817 -0.018191673 -0.032781996 -0.049894344 0.09623804 -0.016815003 0.0135423215 -0.04953148 -0.033778895 0.038987026 0.020222465 0.0059550973 0.07574908 0.02612332 -0.02837093 -0.03679665 0.024699533 0.0028124806 -0.081026495 -0.03975855 0.029954085 0.023523973 0.025554106 0.09257801 -0.0668944 0.03490022 0.010364208 -0.037896633 0.029968869 0.021992799 -0.022132311 -0.014618253 -0.011941785 0.018901374 -0.044998825 0.029898942 0.031410694 0.04606112 0.031799886 -0.023847489 -0.07690004 0.06259195 0.041541867 -0.08757472 0.0052585164 0.0847938 0.03422792 0.007818502 0.026378274 0.018444248 -0.056655616 -0.006774945 0.0493368 0.05574401 -0.013671185 0.031267356 -0.008638134 -0.04372865 -0.026565274 -0.044484366 0.03956904 -0.047962215 0.0027098702 0.054388653 -0.0076272646 0.014817953 -0.008560949 -0.06995118 -0.019191304 0.024494473 -0.0078603 0.005622659 0.059342746 -0.06793673 0.051091272 -0.029117018 0.03781175 0.046623692 0.018694226 -0.05042652 0.0045113694 -0.098595396 0.008866282 0.06966278 0.040114444 0.04454252
a 0.0020928297 -0.026331794 -1.4886609e-05 0.06870146 0.019352028 -0.073841736 -0.08506511 -0.0055674915 -0.001644185 0.042369243 -0.025130503 0.049232736 0.07277615 -0.068456076 0.025836762 0.077070616 0.065136395 0.02140093 0.07446329 -0.06791441 -0.0029688266 0.058793895 0.07024012 0.032587294 0.024638766 0.021287398 0.03424317 -0.014925012 0.011761079 0.078052595 0.01083045 0.031248817 0.050505448 0.011794543 0.02161008 -0.012171888 0.027593711 0.049009245 0.051016256 0.05112464 0.012149908 0.018368185 0.071327694 -0.053334404 -0.033905763 0.05367526 -0.05446895 -0.027472 -0.01713519 0.0821105 -0.05939131 -0.046346635 -0.041204102 0.05663526 -0.012735424 0.013592778 -0.1014348 0.015320601 -0.012997861 -0.0122661665 -0.0030566792 -0.04290096 -0.026770055 -0.09023572 0.034625337 -0.053987656 0.0046780845 -0.066588745 0.03258138 0.0017045722 -0.00431685 0.026734434 0.0070478977 -0.018220512 0.01694174 0.0137970885 -0.029322114 0.0034468411 0.05106784 0.0037732366 -0.04556033 0.0063999183 -0.016247083 -0.0682299 0.07230216 0.028197555 -0.030859578 0.06498677 -0.0901946 -0.03873299 0.00016511977 0.03523007 -0.005893212 -0.06442201 -0.062860556 -0.06374849 -0.0631615 0.02500164 0.06815319 0.034148395 -0.019676927 -0.001769473 -0.022247177 -0.03292214 -0.02272517 0.077608995 0.026082367 0.003057973 0.020907756 -0.09658588 0.06423988 0.068990715 0.05202672 -0.025760353 -0.032919154 0.05421155 0.04043957 0.05636508 0.015740044 -0.022373717 0.028559567 -0.07193577 -0.106668554 -0.036218088 0.017142262 -0.096983105 -0.027081504 -0.054295216 0.026774863 -0.047290877 -0.011777902 -0.038599294 0.048064012 -0.007854944 -0.071286105 -0.021780945 0.026645815 -0.037611462 -0.017314253 0.00012851157 0.060739446 -0.021529179 0.023190444 0.056824926 -0.05329112 -0.08692417 -0.03020572 -0.07232559 0.029212512 0.04667391
i -0.07853855 0.040527 0.04617086 -0.04418139 0.14009117 -0.052379817 -0.12592416 -0.019690603 -0.10778884 0.021730212 0.076032296 0.054310594 0.008265453 -0.067891985 0.0074655535 -0.063526005 0.005233401 0.035437744 -0.06680927 0.013104458 -0.13497387 0.09498352 -0.043782245 -0.12692054 0.032852706 -0.0605111 0.0024207553 0.051097047 -0.0036088442 0.09524817 -0.12477241 -0.11162679 0.020409225 -0.08573016 -0.0020214547 0.043127272 -0.06962949 0.022257933 0.011717971 -0.049760774 -0.031575777 -0.0017082532 -0.08456726 -0.058041498 0.06924737 -0.09132032 -0.032206852 0.08969181 0.07599272 0.019989008 -0.16356418 0.107076444 0.03732149 -0.06308053 0.052877918 -0.061201543 -0.015563932 -0.07961956 0.063758865 -0.0017060755 0.05927901 -0.12146818 -0.028118284 0.032021552 -0.024818687 -0.03436007 0.010013099 -0.0011872458 0.091395594 0.110286854 0.035436437 0.015074006 -0.010129825 -0.055246416 0.01638778 -0.068655595 0.10804376 -0.113942325 -0.0074099274 0.03109232 0.021713296 -0.05678668 -0.103460334 -0.052065108 -0.056701556 -0.06447657 -0.052868366 -0.027450982 0.030001894 -0.009137843 0.04970778 -0.03812942 0.028143087 0.08665945 -0.07045474 -0.019189654 0.063653216 -0.08860273 -0.04319907 -0.0908169 0.07770105 -0.04565121 0.072226696 -0.061171662 0.0870168 0.13700661 -0.01201235 -0.019927403 0.003494285 -0.048375137 0.12168907 -0.025705747 0.1071772 -0.043214165 -0.08863013 -0.031700935 -0.06328342 0.046251316 0.007426389 -0.059036814 -0.036655977 0.004748102 0.096350275 -0.10516668 0.14267246 0.1110965 -0.02931769 -0.004111621 0.080421016 0.05360481 -0.09153976 -0.0749326 -0.12720448 0.12174901 -0.058629654 -0.037019867 -0.01181279 -0.11943335 -0.06668173 -0.0990892 0.057889458 0.0149001535 -0.06540693 -0.06781542 0.034341056 -0.18722208 -0.11264114 -0.040807676 -0.04164466 -0.016112369
it 0.00949222 -0.0805331 -0.033845756 -0.0102203 -0.0022040317 -0.015345797 -0.06480179 -0.055814344 0.029465929 -0.022404006 0.013778557 -0.019654606 -0.055049397 -0.0059084417 0.06059605 -0.0067076935 0.021151735 0.009057814 0.0672628 -0.060329083 -0.091796294 0.0050613945 -0.02723071 -0.032316454 -0.059966598 0.013725782 0.04691806 -0.044264395 0.042512525 0.0039485334 0.027047154 -0.098109335 0.04141427 -0.07737787 -0.015839577 -0.011275184 -0.02229567 0.017107217 -0.07184741 0.058270033 -0.013507332 -0.031079613 -0.039568946 0.021829925 -0.046721563 0.026528152 -0.024494246 0.03293121 0.072122425 0.045183837 -0.13332927 0.069773525 0.041555393 -0.054072127 -0.06620458 0.05838086 -0.03993113 -0.017010853 0.05692885 0.062389806 -0.023402806 -0.0390062 -0.045066886 0.06991483 0.027013712 0.043427974 0.014210367 -0.01858254 0.02266003 0.017089104 0.022050736 -0.00038127287 -0.025325652 -0.033651296 0.04860779 -0.012826932 0.034779154 -0.052650683 0.016726539 0.027576894 -0.04640762 0.08394558 -0.025669139 -0.0058730002 0.05223871 0.004884388 0.0599376 0.034745283 -0.01528245 0.030006422 0.0066861147 -0.016223239 -0.047720686 -0.012776058 -0.07508183 0.07958972 0.015673025 -0.020820662 0.002114301 -0.03159156 0.07163167 0.03186717 0.06493064 -0.07206881 0.033400774 0.059754517 -0.014527576 -0.07531503 -0.019313041 -0.05792567 -0.03186756 0.04267836 0.06839532 0.096549146 -0.030856678 -0.002127911 0.031971738 0.0664436 -0.035927147 0.01363211 0.0017062391 0.052759558 0.020352675 -0.021637227 0.042924188 0.061596837 0.030425094 -0.014245607 0.024751786 -0.060074322 -0.065909065 0.014946926 0.021275708 0.0826794 0.013792323 0.048969608 0.037530825 -0.033613283 0.010291802 -0.027524391 0.004589659 -0.009223094 0.011378526 0.030175803 0.017272767 -0.09199677 -0.014058264 -0.0034505306 0.00066993013 0.07359504
of -0.031765893 0.023537595 -0.013378362 -0.020313537 0.029930737 -0.017150192 0.031694308 0.047335386 0.00013209903 0.024871698 -0.019704109 0.068978645 -0.055176985 -0.05125401 0.0019966736 0.013130034 0.045158733 -0.038090155 0.040387373 -0.041626878 0.040503632 -0.021769745 -0.027590562 -0.06824739 -0.039509863 -0.012715963 -0.014956425 0.032715 0.04499065 0.07535848 -0.09369265 0.033333417 -0.052064892 0.022990316 0.06695551 0.07332769 -0.024607262 0.041551575 -0.0025683774 -0.043962996 0.08590901 0.009515451 -0.03827204 -0.04760481 0.0050917314 -0.0064686607 -0.015933396 0.0646369 0.056422547 -0.05464503 0.052874066 -0.01826167 0.106659904 -0.06098222 0.033580277 -0.0064850715 -0.033431675 -0.057763964 0.06277605 -0.00016042987 -0.060138356 -0.053364754 0.028546125 -0.032554828 -0.021398451 -0.012352337 0.05104439 0.08132669 -0.06952499 0.028991383 -0.023563454 -0.012482905 0.060875244 -0.008104336 -0.065306164 -0.043709915 -0.057856012 0.062185425 -0.070407145 0.041693512 0.017911691 0.03262751 0.006982751 0.008454618 0.087501 -0.046505332 -0.08046186 0.059462693 -0.013962837 -0.0106121 0.0047351997 0.00016852678 -0.03559102 -0.03846778 0.055686206 0.035525013 -0.03346534 0.04517811 -0.014222589 -0.009406501 0.023201015 0.041702487 -0.043564174 -0.06191642 0.010990675 0.0040733973 0.009002951 -0.065415 0.06825549 -0.028991746 0.041522566 0.059518628 0.024674281 0.014582323 -0.026828537 -0.04067324 -0.044953834 0.055039316 -0.009599257 -0.014745977 0.03229047 -0.0030533096 -0.09403333 0.020175667 0.03688695 0.041278068 0.03582052 0.046491858 -0.034871068 -0.014826484 0.009839012 -0.06682107 -0.012174984 0.014577154 -0.02646206 -0.00069521484 0.040851112 -0.058300517 0.044822253 0.0048678843 0.03501875 0.014559656 -0.020086985 -0.07351592 0.0581862 -0.058890678 -0.05623018 -0.034978908 0.026530497 0.030991426
was 0.027454752 0.020413814 0.008169955 0.044134535 0.0038351847 -0.092047304 -0.05362615 -0.072428055 0.011716746 0.058835424 0.006556634 0.043654054 0.027425325 -0.063303344 0.050295584 -0.007060631 -0.010666211 0.047282644 0.023010818 0.048747923 -0.042768635 0.012277731 0.037637256 -0.04250555 0.07639922 0.0304649 0.031316314 -0.0021510671 -0.010644521 0.08110028 0.06083268 -0.012950692 0.020746924 0.05132256 0.022626644 0.0106959585 0.034307495 0.011938359 0.0025421418 0.052952606 -0.068449296 0.057565063 -0.020309826 0.032680873 0.019721547 0.07726232 0.01946322 -0.038606282 0.07981633 0.040371634 -0.014136632 -0.023458928 0.011073339 -0.023441758 0.043662407 -0.0441809 0.05199834 0.012856193 0.060357064 0.025538394 0.040964633 0.09307176 0.006230844 0.065325834 -0.0017438477 -0.039313536 -0.011670345 -0.053363807 -0.0074383314 0.012003813 -0.0386796 -0.05142553 0.026108515 0.0152504295 0.026640633 0.02010218 -0.061013922 -0.008412867 -0.026279978 0.00470985 -0.015514298 0.01143055 -0.008662477 -0.0054604677 0.042703316 -0.032994132 -0.07446247 -0.008751066 0.012502958 0.0065284893 -0.011393515 -0.020055143 0.014802206 -0.046153076 0.07229417 0.062117603 -0.060340855 -0.05559083 -0.00832414 0.007411329 0.014711961 0.04217501 0.044947974 0.017532457 0.059480056 0.058914393 0.03637376 -0.01615715 0.022654483 0.01238362 0.025245752 -0.061975207 -0.06745779 0.045121107 -0.071742244 -0.048873838 0.002013285 -0.022420982 0.065069154 0.06166208 0.0018186278 -0.022001773 0.004384053 -0.04560383 0.027277507 0.066186376 0.009851275 0.055987053 0.028785381 0.016410917 -0.05864768 -0.05903589 0.0036379667 0.06507999 1.7523183e-05 -0.042678643 0.027822193 -0.09206333 -0.014638937 -0.07019848 -0.025165515 -0.018401282 0.035001583 -0.097308725 0.0081874775 -0.084401906 -0.07732918 0.080887884 0.024615524 0.016992636
in 0.066378616 -0.032044526 0.029281154 0.054386105 0.0127829 -0.013472875 -0.04348196 -0.0100094965 0.0334775 -0.013112495 -0.029740162 0.0057975547 0.013518972 -0.06667455 0.042004485 0.0021487453 0.0077884784 -0.008316567 0.020629896 -0.012855727 0.01442463 0.045494318 0.03395689 -0.07709255 -0.03436278 0.047786225 0.06974063 -0.0046654083 -0.029062519 0.029883659 0.012910826 0.002981051 -0.0432061 0.03175249 0.018249206 0.028797315 0.018630715 -0.031209692 -0.06898182 0.0657924 -0.01676653 0.09617293 -0.08500061 0.046619177 -0.05319488 -0.020278404 -0.00914621 -0.03630452 0.012055676 -0.042273372 -0.027387952 0.09430871 -0.02597642 -0.019220289 -0.06682739 0.0015014501 -0.03004762 -0.03724505 -0.015385234 -0.050051663 0.036334276 0.047405466 -0.014446019 -0.023365943 0.01063402 0.017678555 0.080934 0.047935203 0.048290584 0.043455236 -0.078640066 0.024145516 0.0086354 -0.0004704866 0.008987907 0.021054031 -0.0620956 0.0050241747 -0.001852354 0.033010963 -0.025491264 0.02026165 0.0667055 0.012253585 -0.057991564 0.012193037 0.024492497 -0.045341637 0.060312998 -0.034956463 0.09260082 -0.05017412 -0.00056414027 0.032214448 0.0050385594 0.002435083 -0.047427364 -0.049476326 -0.008343735 0.0023566051 -0.055973407 0.052761223 0.045929793 0.035383206 0.019746808 0.035238724 0.056985617 -0.047914486 0.011855006 0.026251832 -0.037122548 -0.04630158 -0.01725387 0.01753133 0.02290555 0.008730737 0.011235422 -0.04954849 -0.0038733555 0.025863161 -0.013818001 0.057884235 -0.022679627 -0.016277293 -0.009907423 -0.011558844 0.056782287 -0.0394385 -0.0016312381 0.05648674 -0.004784479 0.033922274 -0.04057952 0.014512428 -0.068221696 -0.01069795 -0.07222042 -0.046489224 0.062552415 0.021561537 -0.051846065 0.037394743 0.023487505 -0.02224185 -0.048709296 -0.052805997 0.0083445655 -0.008506969 -0.024097525 0.04787265
alice 0.013970541 -0.10101652 0.057320513 -0.044905245 0.029617677 0.021776194 -0.05856249 -0.0397475 0.028102461 -0.018364929 -0.05576878 0.07085539 -0.05589992 0.0054405634 0.058014948 -0.0065620337 0.04705794 0.017400855 -0.021104272 -0.0137332855 -0.07818635 0.09215792 -0.05667788 0.07516662 0.0757141 0.047174487 0.05682721 0.032013196 -0.006751128 0.015740322 0.05536025 -0.11013974 -0.056620605 0.03446662 -0.02410916 -0.05395228 0.0184729 0.040983524 -0.074608445 0.004424799 0.031875458 -0.034815814 -0.04896486 0.049196795 0.0002509253 -0.0041875937 0.045586113 -0.036512215 0.019205522 0.11270683 -0.026700102 0.06846708 0.060826316 -0.08875218 0.0033412506 0.026149308 0.04526084 -0.012114287 0.06514969 0.024493106 -0.047184415 0.042797968 0.021654153 0.005217504 0.016481977 -0.004491089 0.026746022 0.010876528 0.06335849 0.056063402 0.029377928 0.013476797 0.015684184 0.046966482 -0.054683603 -0.02940251 -0.0023342948 -0.034419037 0.047785085 -0.07640746 0.07131632 0.0106562 0.061819963 -0.0048757526 0.033087663 -0.03609604 0.03488604 0.07031969 0.04824067 -0.047631994 -0.009069597 -0.08588561 0.06171889 -0.07539216 0.036954314 -0.001242368 0.016813373 0.08954945 0.028080093 0.03710082 0.011096336 0.019311903 0.05767555 0.026635746 -0.0032584583 0.034715205 0.05265204 -0.061994366 0.0507349 0.022531731 -0.042434655 0.015387552 0.08344823 -0.06470269 -0.08034348 0.029211896 -0.039503336 0.06498994 0.040329993 0.0122065265 0.03284404 -0.056772355 -0.019252965 -0.06913565 -0.03839033 0.031842396 0.0022694832 0.07080966 -0.07589456 -0.0071872934 -0.013668274 -0.05621485 0.040134903 -0.007929616 0.00943573 0.03614266 0.0010174214 -0.044426102 0.08167642 -0.022376198 0.011456418 0.0022089947 0.044683103 -0.001788338 -0.014765405 -0.096020624 -0.07492367 0.10368172 0.009442109 0.033254452
you 0.056329586 -0.00048500905 -0.01743747 0.01879213 0.01238705 0.02652544 -0.090773515 0.0056788484 -0.055396 -0.06343931 0.0044164853 0.022280335 0.024135156 0.04959981 0.008301301 0.035573535 -0.040625807 -0.026619274 -0.053211544 -0.042646777 0.059827197 0.09168592 -0.07603084 -0.08710334 0.06058626 0.00038186368 0.040811084 -0.029916268 -0.0007469194 0.057311103 -0.004985691 -0.11226347 0.08425531 -0.08122349 -0.044741776 0.074161224 -0.017292676 -0.0074056536 -0.050997715 0.03970707 0.011479866 -0.028729528 0.031841207 0.023828233 0.06262353 0.02557472 0.065227605 0.027298983 0.035270646 0.06773579 -0.04552742 0.10591236 0.016833372 -0.044428155 -0.011203806 -0.03933295 -0.045660935 0.017092912 0.057492077 0.046882637 0.058575455 -0.04057412 0.043082945 0.07927157 0.03390875 -0.065758094 -0.027860735 -0.06701453 0.08486663 -0.015463202 0.070758134 -0.046968568 -0.06807698 -0.024804521 -0.044361237 -0.094220586 -0.024067378 -0.0587611 0.0322472 0.017056122 -0.05325912 0.019824613 -0.06712648 -0.017245216 0.009883395 0.0073626423 -0.048930258 -0.020710962 -0.03139813 -0.02521735 0.046939146 0.05314599 0.084015995 -0.07148896 -0.037421558 -0.03707097 0.036313623 -0.015725685 -0.035117768 -0.07833718 0.0029767584 0.044727854 -0.048243493 -0.09796062 0.02325932 0.102078475 0.0029168236 0.08216019 0.0432034 0.03137564 0.057570916 0.016860375 0.024467278 0.091542006 -0.084938 0.03203863 0.0046395594 0.007988462 -0.02768733 -0.06636698 0.029838406 -0.0262805 0.0125344945 -0.018263863 0.080785856 0.05297856 -0.016584532 -0.059676502 0.07729736 0.0283075 -0.084280506 0.034524538 -0.05023629 0.0687602 -0.020306023 -0.033822365 0.056820624 -0.06496619 0.033351034 0.026240235 0.059320375 -0.013817633 0.03701354 -0.038022652 0.053509705 -0.07945415 -0.020754587 -0.03491044 0.04609162 -0.07017288
that -0.059056863 -0.07929398 0.026828168 0.027705751 -0.008322229 -0.03598405 -0.0024293456 0.010388748 0.039922852 0.055033494 0.044903975 0.047544 -0.0017805316 0.035834704 0.08111255 -0.025609981 -0.048659693 0.06006169 0.019537745 0.0628025 -0.04947883 -0.055067714 -0.037310526 0.010506434 -0.014326752 0.0245514 0.0014172869 -0.020757273 0.014078019 0.00545869 0.04225743 0.040106375 -0.038299825 0.02525299 -0.02387238 0.001506279 0.06430656 0.044481013 0.016247189 0.0020968523 -0.025972543 -0.04467331 -0.057279766 -0.055740695 -0.010698458 0.022659888 0.016214177 0.064397834 0.048451044 0.024839554 -0.06646905 0.072709255 -0.015899567 -0.055372395 -0.06956847 0.044480618 0.022253295 -0.016247675 0.0032474927 -0.0098590255 0.02208339 0.012692997 0.033642936 -0.032375827 0.027704034 -0.030579083 0.035444148 -0.08770446 -0.016468454 0.002190018 -0.010977572 0.06141712 -0.0013090041 0.039532907 -0.03634345 -0.07151386 0.03208979 -0.0016769356 -0.04640958 0.050098456 -0.032124158 0.039866023 0.02248968 -0.009063001 0.0639954 0.008268529 -0.016043035 -0.023681449 -0.016447559 0.004096551 0.024518676 -0.06871785 0.04417699 -0.0071939393 -0.04634727 0.07071162 -0.068329774 0.04577601 0.051578116 -0.012929584 0.023358893 -0.06310685 0.0057920166 -0.024612963 -0.042802654 -0.003823751 -0.018909458 0.020140352 -0.012919634 0.06649147 -0.038433008 -0.0092833545 0.012789682 -0.007685462 -0.04183965 -0.02125208 -0.021469902 0.057885244 -0.04185154 0.0124659985 0.024994016 -0.034171667 -0.067256324 0.034145758 -0.024874154 0.015730184 -0.0014148264 0.028073056 0.014233498 -0.02080457 -0.014167603 0.04128278 0.032993272 -0.06690831 -0.017566435 -0.058312632 -0.05874349 -0.008389247 0.023553416 -0.048572637 -0.023645392 -0.025623783 0.016512698 0.052599628 -0.04579632 0.016237274 -0.062379103 0.05656478 -0.0077261436 0.056186065
her 0.038855974 -0.032482013 0.0479072 0.0008274992 -0.08512653 0.063944675 -0.05154264 0.06697443 0.07620735 0.029740646 -0.012553066 0.075967364 -0.07779541 -0.039458375 -0.036575533 -0.024171606 -0.0046018846 0.02307127 0.056583595 0.0050584567 0.033425648 0.03196834 -0.04323766 -0.035866998 -0.05932836 0.043949854 0.014241113 0.013051599 -0.048710484 0.047097176 -0.02671193 0.06263728 -0.010441409 0.033781167 0.03898203 0.01088334 0.04653766 0.013227594 -0.032234926 -0.007462658 -0.027153498 0.0074299574 -0.01381022 0.014641689 -0.04044234 0.038630888 0.0056587216 0.061549198 0.08403752 0.019292846 -0.0354735 0.026547613 -0.041246947 -0.080393404 0.03919765 0.014845988 -0.032633957 0.027956095 -0.017706625 -0.06249095 -0.019201765 -0.03873069 0.061184302 -0.03383956 0.009005316 -0.05485662 -0.040432308 -0.025704402 0.0017044975 0.070871435 -0.03987455 0.028109979 -0.032917716 -0.045893516 0.007675577 0.081708364 0.026189962 -0.0521685 -0.02612302 0.046823177 0.038872425 0.009361462 -0.039635345 -0.010852852 0.031551074 -0.048496064 0.07722576 0.03344035 0.047885936 -0.052411083 0.042306937 0.042178735 0.07303132 -0.019919442 -0.0267764 -0.0070410836 -0.00026360957 -0.00068157515 -0.04023884 0.016883356 0.025873845 -0.034042932 0.084230766 -0.060245752 0.052458487 0.08755213 0.10387922 -0.012193183 0.009538041 -0.066058226 0.077989176 0.08567587 0.058187947 0.005015681 -0.03137243 0.039663155 0.03532629 0.064817645 0.0030848691 -0.09855433 0.03966591 0.022838553 -0.076507114 0.036797315 -0.010175235 -0.06536923 0.06647892 0.046260703 -0.04972315 -0.012272363 0.008296646 -0.012327361 -0.0013168808 -0.025769874 0.015308938 0.010069112 0.00051013194 0.02411025 0.09309765 0.021692863 0.07160704 -0.07355969 0.04748288 -0.047007218 -0.07634985 -0.049177304 0.059013374 0.028764814 0.04805635 0.028541584
as -0.02027939 -0.05965292 0.08493939 -0.00033920747 0.052405253 0.018107248 -0.048053183 0.040011756 0.062596194 0.0737109 0.03685289 -0.011589962 -0.0075047435 -0.052497882 -0.06122963 -0.010470881 0.0054565324 0.052561637 -0.050525617 0.042412933 0.047511715 -0.046029687 0.006745994 -0.005985239 0.027746161 0.038727462 -0.013049159 -0.001121718 -0.018322065 0.021058084 0.06573427 -0.036686935 0.039619636 0.024426743 -0.037328873 0.061008282 -0.015556965 -0.0025156834 0.00866396 -0.004775065 -0.06440326 0.014778831 -0.07284836 0.020556673 -0.02624216 -0.041961327 0.012297102 0.060431406 -0.02074194 0.06802832 -0.05781694 0.06041901 0.028643342 0.0041779815 -0.06680724 0.019667352 0.055280115 -0.00015986094 -0.0032226006 0.047252595 -0.0011082931 0.05656103 -0.00957231 0.040471647 0.057456065 0.020760372 0.04730197 -0.040852316 -0.009023592 0.016363325 -0.06283152 0.06711709 -0.056254264 -0.05233144 -0.014510643 -0.0021902074 0.0061785886 0.023504615 0.0008975506 0.0044129025 -0.05215703 -0.026631096 0.015077385 -0.06526239 0.034249924 0.04037447 -0.040509377 0.042092748 0.025925484 -0.035188526 -0.03247324 -0.041337445 -0.004396003 -0.010108018 -0.0060832584 -0.05734819 0.066279225 -0.013235021 -0.04447564 -0.059884645 0.028227516 0.02889549 -0.015258791 0.018845456 0.083899796 -0.0029411814 -0.018025585 -0.0423306 -0.01955015 0.059160892 0.0011194815 -0.0035156547 -0.020688197 0.041931957 -0.0070338515 0.028109362 -0.021884153 -0.014779099 -0.00035429187 0.0087925885 -0.031168463 -0.053388465 0.010186106 0.001553845 0.07063691 -0.05781467 0.008697258 -0.025186688 -0.066343404 0.034811415 0.041789323 -0.04804897 -0.045712814 -0.039835565 0.028121658 -0.000733406 0.06100188 -0.06384616 0.0032533887 -0.047154535 0.046445765 0.055982 -0.04358269 0.0045907707 -0.006107137 -0.022109983 0.018059855 -0.024659162 -0.049977247 0.04844305
said 0.0894688 -0.025123242 -0.042768482 -0.044111628 0.033062022 -0.029942269 -0.060311276 0.06908625 -0.03389981 0.038654078 -0.031777974 -0.0072888485 -0.04478397 0.01803196 -0.024154982 0.02174675 -0.082695596 -0.018770268 -0.043504074 0.04254142 0.02113448 -0.05919156 -0.05046903 0.0050608153 0.044941306 -0.0059239897 0.04061394 -0.00047227065 0.0045922277 0.03341474 0.06387255 0.0064178267 -0.03148746 -0.03071361 0.0073625306 -0.007721903 -0.022306578 -0.021707078 0.033232383 -0.039908476 0.028054032 -0.04551688 0.059633177 -0.047008667 -0.026796402 0.018309258 0.023173321 0.015736174 0.0007947732 -0.0020316308 -0.051129278 -0.02548516 0.059779864 -0.038317315 0.041662242 0.048338298 0.007460475 0.036605697 0.060013115 -0.014392386 0.03923491 -0.033925634 0.014747219 0.042279474 0.015925925 -0.03514868 0.03479412 0.031115884 -0.011691096 -0.04595919 -0.061929174 -0.044787556 0.039682098 0.07491024 0.020218527 0.019548142 0.029368859 -0.026275557 -0.059676196 0.049977336 0.042814307 -0.057075795 -0.057727333 -0.051711626 0.04404183 -0.05135991 -0.050110426 -0.013615282 -0.017838556 -0.068798855 -0.04079012 0.0057830266 0.07175759 0.05690663 0.05847135 -0.06068611 0.0125052305 -0.06522139 0.040076472 0.01881749 0.07684273 0.0012927331 0.039100334 -0.027813265 -0.037558574 -0.01793667 0.025540613 0.0049904427 0.020985771 -0.034336988 -0.062497426 0.059807222 0.022470832 0.042154122 0.011882696 0.035392758 -0.015424206 -0.026427345 -0.025164284 0.07072268 0.06312985 -0.052473698 -0.094764106 0.035729505 0.03089374 -0.018617943 -0.06566695 -0.035161607 -0.06202641 -0.008987571 0.05301542 0.058939498 0.019804744 0.0012889747 0.021825202 0.07213871 0.0072758636 0.031232461 -0.018498717 -0.0034096753 -0.018918393 -0.038137022 0.045329608 -0.052289058 0.0040321425 0.008628495 -0.0047968132 -0.00903318 -0.011980124 0.025417926
had -0.04663724 -0.0008527533 0.057831235 0.0041835015 -0.0020160594 -0.06876073 0.0057719736 0.04239392 0.05053383 0.052797597 -0.010737624 0.034446687 0.011147893 -0.052225813 -0.0227177 0.009831809 -0.08162542 -0.036431454 0.028861314 -0.05916162 -0.071969785 -0.06053693 -0.0674538 -0.05537211 0.004297991 0.10369571 -0.035336576 0.06645514 0.009367717 0.014550581 -0.01923781 -0.053656492 0.08086104 0.07134811 0.008639621 -0.0004673755 -0.043947402 -0.010428452 -0.069037564 -0.022913242 -0.0703593 0.030188205 0.030969957 0.0025348668 -0.008494102 0.04118942 0.07609159 0.04436397 -0.05248231 -0.041312844 0.035298843 -0.048935235 -0.030212415 -0.039045256 -0.055972345 0.029760504 -0.063086316 0.02603534 0.037027117 0.082461536 -0.0035073457 0.07498533 -0.014381631 0.012415133 -0.0132877845 0.03277219 -0.025162948 0.018056756 -0.006016185 -0.0042853 0.047921076 0.09520263 -0.052407376 -0.03652348 0.05332855 -0.038371902 -0.037370637 -0.033891585 -0.059893545 -0.040948484 -0.015024907 -0.025279244 0.02913211 0.0047630337 0.011932656 0.042018235 0.03242682 0.046867665 -0.034753557 -0.009143431 -0.004710491 0.012218216 0.0790756 -0.0386693 0.0016235876 -0.042032115 0.0030848193 -0.021348124 0.011949408 -0.0049568606 0.0653142 0.06945679 0.0805638 -0.05521156 -0.014522711 0.05341212 0.07796723 0.058938827 -0.014482066 0.07868854 0.062841356 0.0104630655 -0.0012019259 0.0042570527 -0.050376333 -0.06410499 -0.026026975 -0.06003633 0.032360733 0.019681586 0.05246328 0.026744407 -0.0034795613 0.07623597 -0.049580753 -0.01575465 0.044182427 0.058594555 0.034021042 -0.055964723 -0.056475237 -0.044919122 0.014741449 0.017301839 0.03503175 -0.022720285 0.056364153 -0.0874797 -0.05782222 -0.018192563 -0.046358343 0.056326292 0.018340304 -0.026951859 -0.018118773 -0.07602678 -0.06848182 0.025087953 0.00037335287 0.009122777
for 0.012947042 0.03997542 -0.04910891 -0.0077404375 -0.01206777 -0.053617414 -0.061866567 -0.030607183 -0.01105461 -0.006948246 -0.008226642 -0.008387494 -0.01330594 0.0432407 -0.04837009 -0.036575157 -0.035501562 -0.056168288 -0.061826766 -0.0105171865 0.06500729 0.0013776203 0.01903171 -0.054290555 -0.029127004 0.04129581 -0.0010179039 -0.03864464 0.06092059 0.043020513 0.0011893533 0.05649329 -0.04594815 0.069753036 -0.07096714 0.021316113 0.052752033 -0.029479368 -0.029739866 0.025854204 0.014200502 0.062251303 -0.015012738 0.045679275 0.019649921 0.0066443607 0.03860547 0.041336376 0.022332272 0.00884088 -0.032511927 0.035367336 -0.041176647 -0.014440348 -0.016155312 -0.05798074 -0.016074106 0.009647739 -0.001577714 0.020069517 0.0044057644 -0.021799624 0.0067607583 0.048977897 -0.01725408 -0.07599927 -0.022294454 0.027159788 -0.008018499 0.018055214 -0.057774168 0.028017504 0.04744388 -0.021425236 0.022465898 -0.058048375 0.04482922 -0.027446328 0.02877381 -0.02577234 -0.002829534 -0.027147936 -0.01003172 -0.05933281 0.03133849 -0.0604127 0.013296348 0.05052527 -0.02479256 0.02376159 0.022223178 0.0400256 0.08012443 -0.010301558 0.060900856 -0.0071694367 -0.038055286 0.037961524 -0.059520587 0.068104126 0.0011346863 0.0739407 -0.0029524816 -0.07268863 0.02964655 0.003966716 0.0021636519 0.054194283 0.010372627 -0.015841492 0.05585361 -0.07141706 0.004313827 0.06521759 -0.04115796 -0.0030388683 0.024926845 -0.07088852 -0.0008202393 0.07046082 0.069786504 0.038874593 0.017972982 -0.027889308 0.081772424 0.06800003 0.01820272 0.058142874 0.054519817 -0.028152524 -0.033344835 -0.04536016 0.014607385 -0.030409915 -0.025395717 -0.007611515 -0.06756088 0.042779893 0.05190319 -0.034708552 -0.057364553 -0.019182507 0.009460017 -0.011660069 -0.040242463 -0.05177244 -0.028230913 0.027575249 -0.041024078 -0.05716255
but -0.0107918475 -0.035921063 0.03776967 0.048957914 0.022612432 0.0034649947 -0.019571003 -0.015288129 -0.04401991 0.030832557 -0.044848267 0.04464457 -0.06469661 0.043762904 0.0008917779 0.010263506 0.04857781 -0.020373797 -0.062564656 -0.008516798 0.046563853 -0.00070507533 -0.04408324 0.045966737 -0.07682518 -0.0059969597 0.0013985946 -0.01776774 0.054895166 0.027772054 -0.00089813746 -0.045380186 -0.024576738 -0.036401972 -0.037605174 -0.021307172 -0.010047209 -0.009330253 -0.0580694 0.0005138811 0.02443448 -0.039301556 0.027534304 -0.0010386884 0.041536473 0.004720619 -0.048584968 0.022412887 -0.04758813 -0.029408619 -0.07569756 -0.032668743 0.02601435 -0.028948538 -0.01808346 -0.028265204 0.01404581 -0.035018608 0.048240047 0.04309077 -0.03321941 0.041047372 0.026687356 0.036912244 -0.050121363 -0.0024161045 -0.02810751 -0.026002722 -0.036038447 0.07869819 -0.059727874 0.031211525 0.0018595344 -0.050279763 -0.06786618 -0.033892006 0.06436124 -0.011400046 0.051987585 -0.0783697 -0.016694985 0.008244302 0.009015887 0.036334824 0.010839511 0.013863733 -0.017348923 0.06296954 -0.054065134 0.0045939796 -0.015659878 -0.0625267 0.017261954 -0.024368927 0.07629988 -0.034614943 -0.012693858 -0.05553044 -0.06489118 0.035792403 0.027710881 0.041954845 -0.029336508 -0.0036531293 0.024956608 0.047904268 -0.06279473 0.025287721 0.003721416 -0.042788405 0.007924892 -0.059514455 0.061532725 0.009138519 -0.05189769 0.002439849 -0.06693102 -0.008846744 0.08392683 -0.020501353 0.03176972 -0.05143164 0.003931625 0.02971656 0.01054623 0.047879584 -0.060458366 -0.023554673 -0.037784398 0.00214063 -0.049562104 0.025607077 0.04294358 -0.038130797 0.022129145 0.025629 0.02254349 0.041797098 0.070869856 -0.07173787 0.056579582 0.027770668 -0.042830363 0.033715293 0.028964458 -0.06047013 -0.023141269 -0.009151213 -0.037796818 0.036743365
be -0.031801198 -0.0202521 -0.011554798 -0.0075344965 0.062458787 0.033749253 -0.051036905 0.05337992 -0.009162238 -0.060805462 0.030527342 -0.03805165 0.041332718 -0.046005785 0.046423838 -0.018157097 -0.0012377902 0.053694315 0.023930253 -0.0118507035 -0.103992745 -0.0045888973 0.05503226 0.0070831613 0.070033774 -0.0541979 -0.005862501 0.010864245 0.023826428 -0.06016967 -0.0591829 -0.07566769 0.0004180487 0.057368506 -0.039520532 0.030576913 -0.011582366 -0.004157637 0.021561813 0.035138786 -0.045170583 0.07216572 0.059649006 0.03759796 -0.0055071083 -0.053371508 -0.016835993 -0.058874287 -0.008235567 -0.036425155 -0.022127034 0.065345705 -0.068681635 -0.05308248 0.03415447 -0.01029273 0.005128093 -0.04617913 0.090785585 -0.07289431 -0.020066356 0.039633602 -0.050723374 -0.0261481 -0.06134162 0.025510527 0.021018479 -0.0140032 0.04885995 0.050898414 0.07262999 0.019266475 -0.035413735 0.020842781 0.013601607 -0.060749933 0.025851788 0.028469574 0.060276724 0.0004588457 -0.03544728 -0.011460054 0.042325392 0.06974193 -0.03831129 0.02942196 -0.013867927 -0.02726141 -0.0021773956 0.0077072354 0.052778386 -0.027196204 0.014490281 -0.038513 0.035191946 -0.0021830117 0.09338385 0.021892436 -0.026907537 -0.05237539 -0.036822252 -0.03987862 -0.05886889 -0.021425663 -0.0289048 0.06627489 0.0075804614 -0.046187036 -0.03281089 0.036439918 0.081323 0.072397366 -0.027211076 -0.06270283 -0.0034602298 -0.05442263 -0.04155618 0.022579473 0.021973636 -0.0483534 0.064091094 0.025907038 -0.07036456 -0.015854686 0.015706442 -0.029593598 -0.04248117 -0.04183913 -0.019824117 0.008011715 -0.057349104 0.06263461 0.0059332037 -0.03612896 0.036518328 0.020835493 -0.020910216 0.031128373 0.0029580602 -0.05908479 0.04099517 -0.0246084 0.044499144 0.051947318 0.0114911245 -0.09615721 -0.024796601 -0.039368104 -0.03758076 -0.00826457
on 0.045605347 0.022021102 -0.042300537 0.078704774 -0.0145767545 -0.08229898 0.018251704 -0.0422607 -0.0012912623 0.0035599223 0.04779135 0.044612695 -0.021323789 -0.06032895 0.033450607 0.035708394 -0.03338156 0.068569474 -0.07795505 -0.009974434 -0.035700884 0.0023257574 -0.07342327 -0.030375348 0.01624128 -0.017357642 0.019673038 -0.058519922 0.029086772 0.054093737 0.012648811 -0.056140363 0.028167851 -0.036407325 0.049780563 -0.035547215 0.06729169 0.034439553 0.005988638 0.07157328 -0.0041285614 0.040672943 -0.037449326 -0.01979998 -0.039964948 0.07270484 0.012503188 0.027041951 0.015751982 -0.040892992 -0.04155956 0.010080841 0.014185361 -0.066252455 -0.03523855 0.0019087954 -0.004413646 0.036493417 0.027203709 -0.019939194 0.012816344 0.05598615 0.020794446 -0.04968285 -0.05038788 0.05972454 -0.036845736 -0.069244325 0.047005598 0.07561559 0.015676565 0.009231873 0.066164844 0.0069522364 -0.06959485 0.03786798 0.04092196 0.028345369 -0.0064167725 0.04553743 0.01739352 0.06768907 -0.051075842 0.0091970805 0.054910548 0.00050952955 -0.033204477 -0.037044678 -0.024443299 0.013055457 0.06168562 -0.019703193 -0.03982423 -0.050927874 0.022565542 0.0068401652 -0.0062892395 0.0107355425 -0.047085438 -0.030364469 0.06753458 -0.045160305 0.04576455 0.067762315 0.034741506 -0.048122786 0.041591804 0.011288861 -0.013071325 0.047315653 -0.06658754 -0.0010391055 -0.025206361 0.09476725 -0.044155005 0.02702812 0.05843055 -0.03745396 -0.004852808 -0.012676202 0.014408243 0.04413751 -0.06949581 -0.01392014 0.022329202 -0.029162548 -0.061613783 -0.017124452 -0.008550584 -0.03247186 -0.013322981 0.018306006 -0.023989005 0.06476067 0.04471379 0.039588 0.009133441 -0.07001242 0.054929934 0.047980744 0.013528635 -0.038755644 -0.021256296 -0.01507237 -0.037254516 0.008486622 0.033346623 -0.00048333523 -0.019733768 -0.0021767772
all -0.013310261 0.059139583 -0.034121316 0.043333326 0.03374402 0.014576693 0.028616635 -0.056415915 0.021752521 -0.060933705 -0.02939956 -0.04576716 -0.072385035 -0.027737327 -0.005753029 0.011938925 0.012450473 0.03424909 0.0015789083 -0.032454696 -0.007918321 -0.017388117 -0.030891828 -0.08717691 0.01809373 0.03530029 -0.02868741 -0.06308694 -0.049285617 0.0026931548 -0.07266592 -0.00955922 0.0020009428 0.018715147 -0.018068941 0.041758474 -0.00030515087 0.025328338 0.047007505 -0.010658656 -0.029345902 -0.0714334 -0.0679749 -0.007423128 -0.042225942 0.07773388 -0.0009508942 0.016550487 -0.061546896 0.033881754 -0.026435629 0.05164128 -0.015473325 0.021194248 0.014923029 0.046895534 -0.017534344 0.010361515 0.02974568 0.01761091 0.008042518 0.031221416 0.054822966 -0.055476557 0.051370006 -0.04564793 0.04169741 -0.05923391 -0.017801398 0.06506374 0.010664238 -0.0018374479 -0.01875571 0.006865363 -0.015140537 -0.019363679 0.08754012 -0.08233308 0.036601793 -0.010743866 0.04332402 0.008745217 0.036013167 0.05513381 0.03335589 -0.01745541 0.022474464 -0.013013503 -0.07789704 0.037336025 0.010690557 0.05293542 0.096007586 0.045350876 -0.031470392 -0.051109858 -0.017488636 0.021788754 -0.002044672 -0.034972373 0.005925523 0.05246349 0.008682784 -0.013334739 0.034030277 -0.05705644 -0.033522915 -0.045529317 0.037760552 -0.015205769 0.04184338 -0.06551643 0.016853033 -0.013059776 -0.033500228 0.03711451 0.028255751 -0.0066334647 0.05679989 -0.0573047 -0.0659393 0.056362726 0.02339605 0.03737274 -0.056485664 -0.038035955 -0.0044197375 0.039528407 0.020589208 -0.0355756 0.060309734 -0.09101875 0.046078704 -0.049156383 -0.041042622 -0.01571467 0.05167248 0.022188872 0.023542149 -0.06784238 0.09283343 -0.020466223 0.0008341392 -0.035758022 0.010520833 0.045909986 0.0060312557 0.060068343 0.01455593 0.013802034
with 0.06775646 -0.017109154 0.061367374 0.06925121 0.0071021635 0.038061522 -0.050843485 0.04132361 0.042250946 0.03847779 -0.010973725 -0.048275866 0.019157946 0.035129163 0.02854771 -0.022167416 -0.005289287 -0.06199813 0.063783236 0.016916508 -0.035910416 -0.05194412 -0.019974269 -0.058363497 -0.034068845 0.029074647 -0.058055796 0.03984232 -0.0005887514 0.008453196 -0.06695446 -0.029378017 -0.03030442 -0.00068498694 0.07421714 -0.019396773 0.026810432 0.07086381 0.008509725 0.012569912 0.05417507 -0.021131117 -0.048906457 -0.046871454 -0.056144148 0.015078808 0.07137739 -0.028999368 0.051636454 -0.07151938 -0.020028418 0.039870467 -0.04073543 -0.00998938 0.060824536 -0.035499692 0.02231167 -0.01008152 0.025715062 -0.059893988 0.01994081 -0.032841317 0.0018398558 -0.025705107 -0.04541299 -0.01486587 0.050359774 0.07844339 0.044571314 -0.013833542 0.052287783 -0.0013453749 -0.032044128 0.04872181 -0.008914129 -0.02545561 -0.079458684 0.0046899174 -0.024866402 0.016615877 0.053102642 0.047502954 0.04598421 0.0064197555 -0.05192506 0.029235695 -0.027071211 -0.040009987 -0.03302617 -0.061196525 0.08074554 0.055670917 0.0068814876 -0.011607734 0.06795508 0.025420763 0.024325563 -0.04762607 -0.0069393357 0.04969297 0.044152193 0.04417697 0.048810557 0.0050379075 -0.0019057353 0.06766026 -0.011873942 -0.0408508 0.0062462934 0.046215273 0.017993568 0.0023581625 0.023301128 0.022504726 0.0015807489 0.024832483 -0.068505526 -0.022998203 0.026440071 0.059067987 0.030657116 0.07476354 0.034440096 -0.044298697 -0.05064669 0.08175064 -0.041340277 0.027791934 -0.08447363 0.051585775 0.061980907 0.050263256 0.0035399273 0.06695571 0.0541052 -0.03730564 0.05902201 -0.004980255 -0.020190727 -0.045253996 0.02430541 -0.015915422 0.0399475 -0.0013541365 -0.006122128 -0.033786137 0.024146512 -0.075754054 -0.0018727874 0.04937364
little 0.023045557 -0.07324454 -0.027951151 0.029320113 -0.066020586 -0.032954052 -0.03981173 0.026521543 -0.0543877 0.010857153 -0.037649903 -0.024895059 -0.0022507058 0.031698726 0.061547972 0.0426399 0.044373054 -0.060914516 0.013183367 0.02763671 -0.024768243 0.02596033 0.036942452 -0.029529074 0.05442328 0.046744324 -0.026702154 0.06493001 0.022878792 0.063918464 0.040367376 -0.00020998681 -0.04399826 -0.020474553 0.06840973 -0.053297035 0.0026039723 -0.030775944 0.045300152 0.005055207 0.023309879 -0.00396989 -0.0192878 0.026806975 -0.047452383 -0.0580403 0.030058244 -0.039115217 0.033489805 -0.014307903 -0.03189245 -0.006427201 0.048290286 0.022084018 0.063188046 0.00371088 0.023593333 -0.021556199 -0.0024719506 0.047563903 0.036340825 -0.070933014 0.020923484 0.04660026 0.034551002 -0.05486213 -0.019533776 0.06373868 0.053507417 -0.027801678 -0.0972588 -0.027058491 -0.047073744 0.044784755 -0.024491278 -0.03369405 -0.027618026 0.020578263 -0.008967215 0.026563583 -0.045178216 -0.048954953 -0.009284858 0.0355571 -0.023471847 -0.048654355 -0.067001045 -0.0018610592 0.01279905 -0.0239461 -0.017738424 0.0028978204 0.024028216 0.01408758 -0.041209098 -0.055995055 -0.049208105 0.0070317113 -0.0033630608 -0.0767791 -0.04800076 0.053451132 -0.08373453 0.008347123 -0.07555298 0.03050503 -0.030107422 -0.062091324 0.026845865 0.029332435 -0.045651544 -0.0069429073 0.053176682 -0.06936919 0.034783546 0.0034572477 0.033667628 0.041205276 -0.03723669 -0.013985777 -0.0050373618 -0.015655316 -0.005681902 0.014826756 0.03267369 0.077035 0.07129872 -0.0032538779 -0.06170153 0.03868008 0.035226613 -0.0005290578 0.07800533 0.04053462 0.0047194455 0.04307153 0.043950625 -0.07694738 -0.02679394 0.0060737813 -0.03127426 -0.03462614 -0.016581926 -0.02412845 -0.018812824 0.033935905 0.043189127 -0.017030586 0.087556325 -0.04039088
mouse -0.003869503 -0.037955057 -0.05825072 0.01684435 0.04333508 0.048147146 0.01890677 0.023760093 0.058613338 0.030587897 -0.06679995 0.036515474 -0.006603932 -0.030742466 0.040909544 -0.016625954 0.0465243 -0.005166821 -0.022661025 0.005343108 -0.084998176 0.016659435 0.04770848 0.02140564 0.026524594 0.013129476 0.048699383 -0.058902036 -0.059890132 -0.030447617 -0.03889407 -0.053937625 -0.012587659 -0.029062906 0.011608192 -0.07428792 0.04427858 0.018339882 0.016263096 0.026259681 0.044056714 0.048319317 -0.06850871 -0.0006844399 0.032789472 0.06678338 -0.020018525 -0.033882797 -0.05474822 -0.051283475 -0.017831659 0.07726601 0.04908571 -0.048470292 -0.053118058 -0.037448004 0.06280888 -0.054252397 0.029429134 0.034403577 -0.036108326 -0.017710563 0.03403592 -0.07814642 -0.011873861 0.04965081 0.062024835 0.04261484 0.011813325 -0.045439605 0.07664339 -0.0089520635 0.036576185 -1.5380443e-05 -0.00044115842 -0.07133977 -0.053699307 0.049008347 0.053932175 -0.013559855 0.04742138 0.023880975 0.014082678 0.028934833 -0.04674406 0.04119597 -0.058695447 0.064342655 -0.038439102 -0.031252217 -0.034150034 -0.016433325 0.02437976 0.03322157 -0.0012792799 -0.027975593 -0.009543024 -0.028043292 -0.060759217 -0.0160816 -0.039487474 -0.00017770368 -0.021592064 0.06903731 0.06398953 -0.012010364 0.015173657 0.0421832 0.019897854 0.0361509 -0.051930845 -0.053044565 0.07672673 0.06425381 -0.03589488 0.038948245 -0.057983175 0.04785036 0.013824004 0.021246871 -0.01573261 0.0046222084 0.018672274 0.009335291 0.0503422 -0.045929164 -0.05575887 -0.034576353 -0.027437827 0.0408204 0.012473031 -0.0063735587 0.08221472 -0.0435004 -0.07483055 0.0703166 -0.019219046 -0.06304759 0.046959613 -0.0466457 0.0041526984 -0.057222534 -0.009407628 0.012708979 -0.014607497 -0.02589779 0.010312633 0.020497086 0.009557324 -0.020241035
down 0.008652267 -0.028654842 -0.020850072 -0.027275262 -0.00857868 -0.027929675 -0.0816059 0.010685182 0.031774007 -0.028207174 0.018941782 -0.04126393 -0.06909239 -0.02701117 0.046819907 -0.017213844 -0.032370314 0.07105572 0.03960573 -0.055605404 0.05905247 0.0063964995 -0.0553503 -0.061908744 0.020191658 0.018271422 0.08978702 0.039532557 -0.049422305 0.08348211 0.022661343 0.053694498 -0.06365317 -0.005746258 -0.021455023 0.042401727 -0.0113533195 0.04558089 0.04814355 -0.065749526 0.05382779 0.060216643 -0.029409314 0.037571248 0.035301678 0.029773094 0.044621073 -0.04000823 -0.061285157 -0.061449092 -0.04460741 0.074479885 -0.027775222 0.022307467 0.049538877 0.049835626 0.061023254 0.0019766982 -0.038208246 0.026570378 0.04039485 -0.055651814 0.03314236 0.031209994 0.026914805 -0.00824948 -0.010825682 -0.07721794 0.035702363 -0.0075886985 -0.036725134 -0.030783813 0.00522284 0.027109016 0.028435862 -0.006241686 -0.016679302 0.03639146 0.005952014 0.0041568824 -0.043687955 -0.03868971 -0.024685284 -0.050629526 0.048434544 0.004303535 0.005363598 0.03546892 0.07103619 -0.046892993 0.051972304 0.046236206 -0.020439956 -0.024972808 0.03881006 -0.04189598 0.04655367 0.026967382 -0.075885355 0.04124283 0.0011059466 0.049406026 0.041424174 0.057603132 -0.025202306 -0.028336566 0.006344621 0.015231699 0.029581757 -0.011369665 0.0013453227 -0.06340828 0.029460914 0.04385297 0.024363069 -0.00014389132 0.06013877 -0.08279891 -0.042735692 -0.0039757895 -0.004608677 0.0055329856 0.009339656 -0.030186446 -0.023451729 -0.062147114 -0.059715398 0.01774567 -0.015368223 -0.05609288 -0.037598595 0.036664274 0.009208297 -0.059868723 0.040151823 -0.05827146 0.04392777 -0.0582782 -0.020784914 -0.02435358 -0.0070136776 0.01558186 -0.0055514765 0.010909747 -0.024780668 -0.009635324 0.056283575 -0.015880257 -0.036321133 -0.04263047
very -0.05646333 -0.012282602 0.014733951 -0.00935086 0.033882644 0.020989219 -0.018544402 0.002038218 0.016449949 0.009546541 0.00073928165 -0.012986548 -0.01511893 -0.039260052 0.07114735 0.056558482 0.025996935 0.057256617 0.07932208 -0.054109942 -0.067591816 -0.058878746 -0.009434816 0.050649013 0.054784976 -0.042126056 0.025483789 -0.010307477 -0.037033763 0.07211222 0.05609642 0.034057833 -0.02374705 0.07068774 -0.008020118 -0.005681032 0.025272924 -0.043616634 0.012832597 0.01464854 -0.06443298 -0.008894908 -0.047637206 0.031662546 -0.043121606 0.026221491 0.030930206 -0.05039892 -0.06573117 0.060135636 0.008510291 0.06337317 0.04141975 -0.04089734 0.0074723614 -0.07113023 0.02126964 -0.049352985 -0.072496764 -0.0637077 -0.059381794 0.021246575 0.007389835 -0.016079769 -0.051385056 -0.0010037166 -0.044516325 -0.028880514 -0.027401777 0.032892227 0.039612573 -0.0022598463 -0.010090927 -0.09313841 -0.043387484 0.024291486 -0.04172025 0.008230041 0.011286111 -0.023517665 0.00035867153 -0.04904038 0.0054643885 -0.00082407927 0.026071917 -0.0053473753 0.06284668 -0.007912451 -0.016113963 -0.04730591 0.019240787 0.034304813 -0.05291853 -0.04567713 0.040152576 0.0039593163 -0.036889207 -0.011300405 -0.072647996 -0.03549289 -0.004455023 0.014771725 -0.0015433211 0.057364635 -0.058418613 0.041657895 0.014215229 -0.009763502 -0.020005092 0.020996537 -0.06434374 -0.005950332 0.038597893 0.08040768 -0.049708445 -0.007823684 -0.034887824 0.03990575 -0.028155174 -0.06834185 0.019180626 -0.01229161 -0.07249807 0.072242424 -0.02376463 0.029372588 -0.015847664 -0.025266083 -0.05259189 -0.050266687 0.022183087 -0.0048706057 0.029580714 0.014855552 -0.06962249 -0.073579974 -0.005013584 0.04073863 0.04325123 0.04690888 -0.043279007 0.019679371 -0.044706702 0.0012736327 -0.071950056 -0.03160041 -0.037659425 -0.000348871 0.00082778384 0.021433908
this -0.05217356 0.033766974 0.07097551 -0.01430894 -0.049827177 -0.03062654 -0.07276069 0.02528292 -0.051081732 0.060244318 0.01741021 0.024733068 0.029957142 0.03687069 -0.027088802 -0.054916576 -0.035035454 0.09863615 0.07756601 0.032429848 -0.055828296 -0.013751017 -0.033775724 0.03546596 -0.08015058 0.080177754 0.06826516 0.022311276 0.01383446 0.010262968 0.010571248 0.015160248 -0.026905457 -0.014889205 0.026555933 -0.01416142 -0.035007343 0.07005477 -0.044274952 0.020152558 0.020126872 -0.009098301 0.07528475 -0.014144703 -0.043828763 0.06128795 -0.005959605 -0.07804271 0.025575915 0.04470913 -0.09391235 0.0140504595 0.053659357 0.02857953 -0.021764178 -0.0045969505 0.022561539 0.0158365 0.021979181 0.009155183 -0.06684097 -0.036500514 0.040142145 -0.03467561 0.012870552 -0.053768054 -0.053170394 0.005222811 -0.011000307 0.019815015 0.083053425 0.031408653 -0.040642772 0.0061167125 -0.059016544 0.014610451 0.025165914 -0.0410655 0.01138328 -0.015175589 0.026185717 -0.00418723 0.053243402 0.015629856 0.08197391 0.059484147 0.0041541588 0.018185357 -0.012589996 0.03993533 -0.00491802 0.0026029244 0.030167883 0.06897992 0.00027780712 -0.038471892 -0.07613381 -0.056237318 -0.00014255953 -0.05065066 0.068968035 -0.035530638 -0.00839963 -0.059480958 -0.040055986 0.04339899 -0.03629685 0.025176428 0.024783263 -0.03355181 0.049799036 -0.02611501 -0.016020074 0.06932696 -0.026231201 -0.064011164 0.027479332 0.023734236 -0.06461936 0.00038174214 -0.039543856 -0.017271787 -0.07150475 0.050540417 -0.04734615 0.00048057095 -0.049641144 0.020521954 0.05945259 -0.020121848 0.008324233 -0.042776246 0.040062487 0.072576605 0.016677983 0.04273104 0.06348159 0.049382124 0.030661387 0.054568 0.019219713 0.0041916333 0.055031344 -0.064074785 0.0044780923 -0.059056442 0.012349661 -0.0083731115 -0.02594264 -0.05290165
not -0.016060283 -0.061355244 -0.0029343334 -0.0092531955 -0.056599613 -0.046582524 -0.07328452 0.03687237 -0.0007888423 0.03018349 0.022505898 0.0036234707 0.020987902 -0.022097303 0.036468722 0.07723547 -0.038688585 0.070041955 0.03915703 -0.06764191 -0.02253455 -0.0375008 -0.0631327 -0.042924028 -0.03267974 0.06584731 -0.03889633 -0.022978883 0.050422307 -0.024736457 -0.025983095 -0.014818256 0.016501555 -0.0034327582 -0.02676645 -0.018161729 0.023480374 -0.058247425 -0.06314127 -0.042983346 -0.043529537 0.052273776 -0.01447183 0.056028273 0.045333415 -0.02012941 0.05174124 0.05408483 -0.037684713 -0.0043979543 -0.06646544 -0.01023056 0.010430197 -0.072029665 -0.046251822 0.061598614 0.029419474 0.01145967 0.012966351 0.052382138 -0.0049006417 -0.0070777056 -0.031142648 0.056347348 -0.078797996 -0.049857423 -0.0606071 -0.043109573 -0.011907589 -0.045262236 -0.051082514 0.068725936 -0.033470865 0.00034778647 0.04622564 0.034358032 -0.019913906 -0.042218227 0.054205615 0.05836705 0.009885208 -0.038717616 0.01217886 0.027463906 -0.0030661854 0.06769604 -0.021655124 0.03922948 -0.058671966 0.020801561 0.032121602 -0.037057493 -0.0012842191 0.023535838 0.0457079 -0.01126922 -0.033029318 -0.054824058 -0.046287324 0.010217365 -0.0028901442 0.0620553 -0.037502896 -0.021171115 0.07238652 0.0734475 -0.023625908 0.025860056 0.06397753 0.0633225 -0.045105055 0.053862102 0.060633466 0.042229243 0.040055536 -0.041145068 0.058212347 -0.009725679 -0.0050565433 0.00608578 -0.06602524 -0.038753297 -0.016006704 0.035180572 -0.032716874 -0.06849457 -0.02373461 0.010564766 0.03251617 -0.053739443 0.04585284 0.03958744 0.032777004 0.037827805 0.06665772 -0.032837756 -0.0044580232 -0.09447394 -0.054923214 -0.026216965 -0.02503944 0.064586416 0.075693734 0.038632285 -0.021463204 -0.07342823 -0.009838285 -0.0092898775 0.041274287 0.0106014
so 0.07833339 -0.06539186 0.00823462 -0.02477721 -0.004442795 -0.014021128 0.046098143 -0.044479474 -0.035286363 -0.05384663 0.052357808 0.0035363995 0.025628878 -0.06756481 -0.0148980925 -0.024818556 0.04530104 0.03342893 0.04294116 -0.023951774 0.00018095109 0.016575398 0.057117485 0.0028497428 -0.041906457 0.06127774 0.059584558 -0.04629872 0.050861068 0.043848187 0.025420832 -0.07080032 -0.005484037 0.026626423 0.025314765 0.051846687 0.029265033 -0.024362994 -0.07289814 -0.012897602 -0.012538619 -0.0643928 -0.032358 0.009460126 0.072866775 0.04975499 0.052907303 0.075973 -0.04762366 -0.019104995 -0.035074435 0.039248157 -0.008365407 -0.014648644 -0.032614663 0.026473537 -0.03177408 0.0009815211 -0.0023331284 0.0010897861 -0.023491897 0.061057445 -0.0012045831 0.031623602 0.04235885 -0.053688154 -0.05386963 0.01699635 0.06665971 0.023596475 -0.02644611 0.056928538 -0.035170592 -0.03839778 -0.037695806 0.055482734 0.07068864 -0.0669755 0.014949082 0.0043516755 -0.033946127 0.03042117 -0.015010506 0.017994313 -0.023787506 -0.061206583 -0.017503275 0.012558529 0.055051465 -0.021278346 -0.03323868 -0.006417268 -0.019745924 0.03268873 -0.032246962 0.002315313 -0.015773878 -0.043313444 -0.03203594 0.012753349 0.01443398 0.082431585 -0.0005529355 -0.0014193257 -0.018920429 0.013707278 -0.044142734 0.011809925 -0.04032916 0.045601647 0.0027344744 0.011634372 0.054633956 -0.02911782 -0.046232037 -0.038452446 0.06673976 -0.011521397 -0.046075925 0.05716193 0.0015052032 -0.050730053 -0.007073007 0.03389224 0.026692325 -0.041307647 -0.02856079 -0.064254485 0.013452936 0.061920978 -0.032198437 -0.028385025 -0.019760285 -0.046859793 -0.012477568 -0.049153678 -0.08089179 -0.036717646 0.043896444 -0.08181084 0.05193623 0.08133244 -0.0264429 0.0533616 -0.030684147 0.031100657 0.00714297 0.034609616 -0.050195757 0.039928224
out -0.004410408 0.06081592 0.0115280105 0.053003844 -0.015198851 -0.044034954 -0.0010693992 -0.013125923 0.005357899 0.037726786 -0.039375905 0.014587505 -0.080972806 -0.0809811 0.026633097 0.06155317 -0.0343348 0.057516642 -0.046725176 0.01650118 -0.015715774 0.006036949 0.047493797 -0.008291472 0.06060966 -0.0555465 -0.05318574 -0.06639402 -0.012931144 -0.048323892 0.020047544 -0.006819568 -0.059424646 0.043664113 0.036121015 -0.024513584 0.008032316 0.0064105634 -0.051178552 -0.062308583 -0.033746757 0.042319506 -0.0012873642 -0.0041326676 -0.0141249 -0.028981144 -0.026940895 -0.019555137 -0.06781639 0.028741581 -0.03867322 -0.018796477 0.03588497 -0.025425408 0.05406586 -0.06538271 -0.00039977452 -0.019775735 0.023002587 -0.029578825 -0.047031414 0.049669813 0.052026484 -0.015115221 -0.009724861 -0.00053522014 -0.020515064 -0.033407304 -0.050204586 -0.047755376 0.040883463 0.025328225 0.034988735 0.0024946951 0.037280355 -0.055330172 -0.04134849 -0.045230072 0.0024491518 -0.068988286 -0.012104845 0.030766722 -0.031385466 -0.018361187 -0.061537664 0.006607614 0.012930833 -0.012345086 0.06130521 0.02148288 0.049781825 -0.045298286 -0.031595137 0.004125528 -0.06522522 0.032013215 0.04189509 -0.060791325 -0.05744446 0.04559505 -0.0052044317 -0.0012862695 -0.07023205 -0.031523425 -0.047949653 0.058303844 -0.053556975 -0.016145958 -0.004337779 0.002183329 -0.028998751 0.034641042 -0.07526859 0.004479739 0.057549518 -0.02424772 -0.05610205 -0.026930122 -0.02853473 0.021150863 -0.004575953 0.014463202 -0.004852712 -0.046672627 0.012689445 0.031630535 -0.023438735 -0.028644012 0.013883009 0.076819666 -0.044383574 -0.054145377 0.039454754 -0.07228331 0.0472421 -0.059839368 -0.00053916906 -0.056157485 -0.08485732 0.009024238 0.05060016 -0.05888821 0.021557685 0.00056674075 0.010147872 0.05728959 -0.05635541 -0.0068771187 0.026531283 -0.004703299
if 0.07042831 -0.0028884765 -0.022636369 -0.023904372 -0.025249446 0.029305128 0.008763936 -0.0009508751 0.018362226 -0.010818207 -0.0019573208 0.04859656 0.06855832 -0.030992355 -0.035914365 0.024931233 -0.074528545 0.06560984 0.027996501 -0.06769016 0.04619941 0.06335809 -0.05948715 0.053166583 0.076129586 0.01457183 -0.0044152155 -0.031695824 0.044078097 0.12412018 -0.07106315 -0.05657758 0.03601259 -0.0471729 -0.05956229 0.039986942 0.05276381 0.047934003 0.034946173 0.031073317 0.03627234 -0.019453214 0.043104917 -0.036517978 -0.022805484 -0.0020235637 0.04032097 -0.049614057 0.04756401 -0.057223476 -0.016205013 0.07262426 -0.039608136 0.0035085487 -0.04172658 0.023879476 -0.008767994 -0.060766425 -0.05249642 -0.019483037 -0.048344087 0.02106952 0.019398198 0.06463167 0.012397291 0.012708328 0.0008791265 -0.021747706 0.017203761 -0.029719032 0.0016945578 0.08072742 -0.03869165 -0.007623065 0.023799913 -0.032464527 0.026758876 -0.01473638 0.046596583 0.008559006 0.07201271 0.008235451 -0.07015117 -0.032624822 0.051243015 0.07696924 0.017952705 0.058435496 0.050721005 0.049746275 -0.040272497 -0.03213322 0.0035435995 0.0217596 -0.020564597 0.007888994 -0.04602231 -0.10221551 -0.019506982 -0.0132559035 0.05913919 -0.05831439 -0.0029585166 0.014873816 0.071977355 0.026299223 -0.03627034 -0.029929796 -0.010746677 0.07003287 0.0374646 0.042271942 0.06730335 -0.040642735 -0.014457881 -0.0023220214 0.015255133 -0.043004498 -0.030776413 0.033961613 -0.007691291 -0.06418468 0.04029337 0.03631563 0.04992979 0.056909837 0.029453637 -0.041347038 0.011503391 0.00062138285 0.0122508025 0.035781182 -0.010063629 -0.027231278 0.036520228 0.052350864 -0.03175311 -0.066823386 -0.04688286 -0.019799825 -0.008259579 0.07783223 0.014507491 0.013140947 -0.050281465 0.005432764 0.00025706994 -0.0689631 0.04411423 -0.056922644
is 0.054038655 -0.0039332835 -0.06711642 -0.019596104 0.052326124 -0.059956007 0.011425647 0.007992422 -0.049891904 -0.04516249 0.0021516574 -0.015506837 0.008965788 -0.028674096 -0.045328654 -0.024502536 -0.016360035 0.021722 -0.019722521 0.027151745 0.017078424 -0.029098067 -0.060752477 0.01601407 -0.062347148 0.03595516 0.013117178 0.04405865 0.0012533345 0.00042233116 0.054602195 -0.04974759 -0.039252397 0.016816609 0.03894073 0.006117991 0.04170683 -0.039626263 -0.047553472 0.07686161 -0.044842925 -0.040327642 0.016584229 0.064285606 -0.05914174 -0.015102748 -0.028940557 -0.039836988 0.071741305 0.016480861 -0.03933661 0.030821472 -0.04466631 -0.0020747865 0.022954447 -0.079864524 0.038382623 -0.061252728 -0.050530314 -0.0401245 -0.0108436225 0.06687749 -0.0076160086 0.025792321 0.006260063 -0.03322356 -0.05987775 -0.0196365 0.0006003268 -0.056987524 0.01812208 0.017380938 0.040676873 0.0077892174 -0.0035517206 -0.051268313 -0.044055857 0.031074326 0.053725008 -0.072730735 0.03934662 0.01842551 -0.0035031564 0.044720087 0.022055672 -0.055596128 -0.04922161 0.07268994 -0.01677045 -0.025073215 0.031516694 0.03180719 -0.052557666 0.060671795 0.07115156 -0.0065538776 -0.04867984 0.06807461 -0.031902708 0.014998388 0.057786662 0.04470547 0.038168836 0.051148213 0.043266486 -0.0155161265 0.02512906 -0.029155448 -0.050010234 0.058754876 0.048167605 0.031116426 0.05955412 0.022069119 -0.05349187 -0.0405557 -0.028157644 0.06189734 -0.047058556 0.04030454 0.012398643 -0.04366367 0.07510941 0.003629767 0.018006051 0.05764864 0.020204939 -0.050834972 -0.026638815 0.041924696 -0.015569255 -0.061110765 -0.021353394 -0.005732891 -0.041141648 -0.025417436 0.043625586 -0.04853033 0.01776721 0.045490913 -0.020708077 0.027597245 -0.030175516 -0.0039088754 -0.037711184 0.056793172 -0.045034148 0.061109245 0.04075215 -0.00022187491
at -0.05539929 -0.013315409 -0.0561965 0.054781497 0.08091304 0.020609654 0.015514699 -0.00095457374 -0.04050578 0.033289418 0.03181364 0.07772237 -0.017534 0.040621534 0.08376995 -0.06304017 0.030308504 0.020479085 -0.047945786 0.034393463 0.0077438992 -0.04366295 0.024477448 -0.050058205 -0.042603705 0.024620622 -0.025115432 -0.041584313 -0.036863413 0.0517684 0.015808623 0.012606154 -0.050959792 0.029286316 0.029122978 -0.039692827 0.014704752 -0.008435444 -0.00014758075 -0.039927606 -0.046173554 0.025531923 -0.06740673 0.036123566 -0.055710964 0.044023454 -0.04287031 0.034392387 0.052746456 -0.0076675005 -0.06290215 -0.01768389 0.05135964 -0.04083978 0.05056916 -0.024965795 -0.050762307 -0.065546736 0.023306003 0.066100016 -0.047378052 -0.021600535 0.06541665 -0.06584776 -0.008557511 0.009537097 0.0065193865 0.02834691 0.05107131 0.06420636 0.016476901 0.0076485304 -0.05257936 0.035085723 0.025179721 -0.0136314565 0.0504422 -0.017288307 -0.034834046 -0.022006594 -0.004169638 -0.06632916 -0.0050374763 0.0050081294 -0.0043641645 0.018076885 -0.06456844 -0.013611792 0.00821825 0.060541026 -0.019790264 0.018310396 0.042725302 -0.02751326 0.013255182 0.061950967 0.015922649 0.059604507 -0.018878581 -0.019868901 -0.016705494 0.06411683 0.064919084 0.073974855 0.0023535462 -0.050165158 0.01256607 0.028199207 -0.053193834 0.0017656514 0.040474273 -0.034615103 0.0339068 0.06146606 -0.06677636 0.0580772 -0.005824263 -0.010294852 0.029352032 0.018813048 0.060448643 0.015520594 -0.028772904 0.007880909 -0.00670157 0.045923356 0.04849321 0.01694813 -0.03984177 0.026457366 0.025734851 -0.008846446 0.005306297 -0.053173926 0.016990455 -0.013872383 -0.02994984 0.036693107 -0.03596634 0.012244161 0.0024386186 -0.06818017 0.04890641 0.0073922314 -0.020059414 -0.020048657 0.03904354 -0.011487695 0.013987347 0.00595992
t 0.010344459 -0.036497626 0.025787035 0.035247687 0.010255479 -0.058486506 0.0051228805 -0.06985705 -0.08084857 -0.041540846 0.059166644 -0.028086048 0.070218235 -0.07930748 0.055861816 -0.022852903 -0.016416693 0.05155349 -0.043595858 0.017264057 -0.05915048 -0.045898788 -0.045229115 0.052033108 -0.028494248 -0.006997918 -0.06591854 0.017358273 0.049260143 0.05288716 0.02072727 -0.073582806 0.020529738 0.015951226 -0.008672964 -0.028350107 -0.06527556 0.055022795 -0.006904096 -0.058878414 0.0062558507 -0.029516792 0.052919578 -0.06326974 -0.016908158 0.046412185 -0.050533146 -0.026158774 -0.046971213 -0.056411948 -0.07561265 -0.023203822 0.005427985 -0.060680818 -0.012379098 -0.008817611 0.025460368 0.06579095 -0.01345736 0.05570605 -0.0018323016 0.005916333 -0.02425146 -0.023788897 -0.060323104 -0.08617213 0.056557596 0.017542556 -0.060718734 -0.008148578 -0.039989233 0.08034734 -0.009013733 0.03090967 -0.058531303 0.025466334 0.04046247 0.010983182 0.0073218006 -0.0643453 0.0065613273 0.04622684 -0.06161233 0.02638386 0.009603145 0.04796199 0.04550883 0.061030723 -0.06944773 0.03641837 -0.047850188 0.033417165 0.028552307 -0.03193474 0.088164926 -0.073761694 -0.061560497 -0.025880558 -0.016813539 -0.06988885 0.002621716 0.065108575 -0.067695156 -0.028381666 0.07568467 0.014070382 0.020801233 0.07144492 0.01972602 0.006955075 -0.0019515571 0.034053672 -0.035521712 -0.0630627 -0.04624044 0.0018650165 -0.070491314 0.030739084 -0.011808939 -0.03884216 0.0015944316 -0.010667377 -0.0028523365 -0.04459554 0.036673862 0.041652124 -0.0016253216 0.045006637 0.020563278 -0.049223773 -0.010833783 0.03527867 -0.05596197 0.04792722 0.030031413 -0.027670182 -0.0044085975 0.0049765385 -0.05001542 -0.006719628 0.025406279 -0.054768052 -0.024688711 -0.02130742 -0.023809848 -0.034521643 -0.017853577 -0.02637519 0.045214448 -0.015081459
s 0.07577521 -0.021812065 0.018663414 0.07237229 0.070347354 -0.02043562 0.006837858 0.035172533 0.029072622 0.0677455 -0.0026568547 0.037554815 0.047049195 -0.0066136187 0.07695822 -0.018493269 -0.017554754 -0.0035943573 -0.010682255 0.06026178 -0.08406545 -0.06451533 0.031444665 0.0009601938 -0.003936259 0.036818642 -0.05847337 0.0213922 0.06630114 0.023621125 0.038921125 0.05134967 0.05377788 0.05184669 0.011998219 0.013375227 -0.046331283 -0.022214519 -0.049260773 0.017605936 0.0045654075 -0.030407099 0.051340118 -0.004091246 0.0044087684 0.04991938 0.01966713 -0.05925325 0.004255983 -0.05821985 0.048508488 -0.027436098 -0.029188415 -0.05221007 0.04142426 0.017221693 -0.03071139 -0.06317066 -0.03094755 0.043647476 -0.05208947 0.050999947 -0.044384725 -0.06333412 -0.009427074 0.03793043 0.0675845 -0.06730166 0.028036917 0.017405055 0.043351423 0.021235272 0.03655573 -0.04919493 -0.01937287 0.073820144 -0.008350384 0.017844807 -0.053839117 -0.010916063 -0.060738273 -0.0174577 -0.0205123 0.0591419 -0.031769283 0.023019504 -0.023596816 0.04155471 -0.051862463 0.020358115 0.0050662514 0.03661675 -0.016340282 -0.039459962 0.05661933 -0.07145391 -0.02547696 -0.059264522 0.011318723 -0.05733747 -0.0078075044 -0.022169337 0.026300805 0.07283753 0.020366738 0.032595634 -0.03972625 -0.013073288 -0.0033480702 -0.043358877 -0.03203945 0.005778634 -0.00540216 0.026651088 -0.043112483 -0.0060795597 0.026971783 0.0055840444 0.060521778 0.019211736 -0.03892102 -0.021352066 -0.038152818 -0.005982839 0.0016412974 0.06723966 0.016516361 0.024018783 0.018057419 -0.03983998 0.055533674 0.034668427 -0.0656236 0.007270843 -0.025391465 -0.036069423 -0.017437682 -0.004375718 -0.009110146 -0.0406375 0.026964538 0.036676437 -0.03843079 -0.0679406 -0.027120113 -0.0062857457 -0.07935849 0.0045834924 0.00793347 -0.05780619
ll 0.008668903 0.016794885 0.02930641 0.014847579 0.042335354 0.04946254 -0.015091567 -0.051985033 -0.029355003 0.0011393485 0.016268155 0.028684875 0.08873054 -0.0781765 -0.0062923506 0.07265457 0.039590374 0.08772953 0.019413248 -0.049148448 -0.029398529 -0.07116235 -0.016981693 0.02997443 -0.053432576 -0.067697525 -0.031502917 -0.036505748 0.04477376 0.013040116 0.06609486 0.047644533 0.05998074 -0.050180398 -0.014231072 -0.013509268 0.04162009 0.050701004 -0.0063853795 -0.043667283 0.037074056 0.057784364 0.048703484 0.0008814249 0.029566107 -0.01946727 -0.011984194 -0.051314853 0.033039033 0.007082919 -0.0796414 0.039611682 0.0055480697 -0.0900861 0.040088277 -0.018145828 0.04734257 -0.039165247 -0.010191219 0.083762504 -6.987492e-05 0.091285616 -0.010875314 0.03919389 -0.03062695 0.047817357 -0.0048165256 0.038479693 -0.027595552 0.00042597507 0.055234864 -0.01501261 0.019135734 -0.040958405 -0.043453522 0.03305056 -0.025275353 -0.06337215 0.018865922 0.007877801 -0.060287014 0.00872701 -0.06971709 0.061869092 -0.00069554255 0.034356203 -0.0038500428 0.041284908 -0.029997421 0.07618182 -0.008852568 -0.009962968 0.035523873 0.031003695 -0.0031736419 -0.060965613 0.03419901 -0.00037083367 -0.027325897 0.047972765 0.03376933 0.050950397 -0.05521501 -0.02000703 0.035386227 -0.08371747 0.015323145 0.009634154 0.00518707 -0.006990711 -0.028705413 0.029277116 0.020791352 -0.0084797945 -0.022930754 -0.026659643 0.03544094 0.03721837 0.001825532 -0.09062309 -0.0670621 -0.047454424 -0.032154024 0.05709124 -0.06509188 -0.012925331 -0.009137178 -0.008418352 0.03272861 0.03189409 0.057394605 -0.056893684 0.03766091 -0.027975967 0.027841816 -0.057233762 -0.0080264555 0.06896783 0.03558837 -0.036078572 0.046132337 -0.024024215 -0.0809495 0.002475191 -0.0051655704 -0.014992738 -0.034388576 0.07739549 -0.044070948 0.08223532
how 0.046364676 -0.047443125 -0.059211295 0.083029486 0.01139528 -0.05126025 0.020189364 0.0243878 0.025339266 0.019009825 -0.025631456 -0.0653816 0.09083447 -0.03310998 -0.018315459 -0.034159932 0.0032644498 0.0066962643 -0.038234822 -0.046124958 -0.056352384 -0.0028767362 0.008121781 0.00026784593 0.028751144 0.03656404 0.007981669 0.053900223 0.05635096 0.008995839 0.050294142 -0.040820576 -0.0095066475 -0.057574313 -0.06474565 0.01613072 -0.051150855 0.06846835 0.050632324 -0.0051959134 -0.043167375 0.0052806656 -0.0316212 -0.021096667 0.032572623 -0.01689916 -0.06575656 0.025069797 0.013351028 0.08764708 -0.044335853 0.026919803 0.010906951 -0.002145445 0.017782493 0.07076731 0.01346579 -0.02784385 0.033223655 0.058580462 0.0033611166 -0.020441279 -0.00029141642 -0.06386452 -0.043706108 0.03677202 -0.051688682 0.009985629 0.044835836 -0.0051439367 -0.06349531 0.04212127 -0.0107840905 -0.02416293 -0.0762551 -0.047090348 -0.03998175 -0.06100828 0.031410865 -0.032219395 0.042223983 0.039964143 0.0008304138 0.06488601 -0.009614983 -0.06969633 -0.046103932 -0.036345538 -0.014691246 0.041854795 -0.07388137 0.052508153 0.050993808 -0.04397533 0.06885605 -0.0006807784 0.033172272 0.055443663 0.011248363 0.02897966 0.025433639 0.034026626 0.022125047 0.012445388 -0.008519997 0.009427318 0.022236232 -0.047021367 -0.025303164 0.050023943 0.064198144 -0.007437501 -0.023455627 -0.0023535134 -0.07103499 0.04740396 0.017153742 -0.024364157 -0.025944587 0.0037304577 -0.0033491505 -0.009542332 0.06916168 0.05196074 -0.018854585 -0.03936484 -0.07627233 -0.022613207 -0.059943005 -0.057697304 -0.041804112 0.022439128 -0.027605163 -0.043266825 0.006394253 -0.06112123 -0.08366739 -0.037590623 0.03485372 -0.04023903 0.055792272 0.052323066 -0.00090139685 0.050653715 -0.03228829 0.0024548587 0.00026818586 -0.057395943 -0.06643315 0.037431706
they 0.007859031 0.0028552245 0.035275586 0.028952971 -0.0389341 -0.053671557 -0.018910393 0.04212887 -0.031123877 0.058286052 0.06893891 0.041474517 -0.09058921 -0.029907286 0.0031961862 0.0470585 -0.055537324 0.07842136 -0.06093166 -0.024977012 0.03290662 0.06551167 -0.018730205 -0.010147309 -0.06664619 0.04088905 -0.011952506 -0.041872058 0.017312434 -0.0042199334 -0.051384706 -0.04656237 0.041275963 0.03565878 -0.068841 -0.004041167 0.03412294 -0.01933866 -0.06586672 0.06798402 -0.017175252 -0.035531662 -0.092443176 0.028574705 0.051771943 -0.02843111 -0.048300844 0.05765187 0.074993744 -0.05630232 -0.05146023 0.012054002 0.064823054 -0.051076308 0.037939604 -0.006999807 0.003974334 0.062269974 -0.018191777 -0.0016578642 0.061078623 -0.041983962 0.030213399 0.06953715 0.012313329 -0.07190042 -0.008411964 0.050804377 0.060197465 0.00877644 0.041947875 0.029681653 0.03829159 0.07607747 -0.0043496834 0.06872486 -0.061675612 0.04371712 -0.020172695 -0.027836738 -0.05995458 -0.03686878 -0.046389453 -0.00066382776 0.0534775 0.0047290204 -0.014422771 0.010288227 0.060378265 0.037788965 -0.046699457 -0.03470695 0.06318603 -0.0068635186 0.0048220484 -0.0350598 0.016900137 0.004361512 -0.0018491299 -0.01179924 -0.008736307 0.02954079 -0.01592517 -0.06432244 -0.022060575 0.043215 0.023210812 -0.09319181 -0.037118413 -0.025356866 0.05205362 -0.031587567 0.043560047 0.023391105 -0.09524604 -0.022864105 0.061099462 -0.02649576 -0.08159333 0.06072232 -0.0355088 0.06942628 0.04009302 -0.029541817 -0.046165217 -0.04585511 -0.044255767 0.028913572 0.05906814 0.054150444 -0.057304513 0.0017748179 -0.055676542 0.028232709 -0.057728525 -0.028294608 0.045891955 0.006642336 -0.028641885 -0.06147444 -0.000985311 -0.07409603 0.019831128 0.04948598 -0.039811317 -0.09793212 0.0050616744 -0.023226632 -0.016598614 0.059138067
about 0.01603708 0.010729024 0.0029315846 0.009850999 0.0021980014 -0.025996055 -0.010990771 0.013196985 0.023485 -0.010687267 0.015907636 0.029107528 -0.049539324 0.05230293 0.054640908 -0.021324884 0.035039145 -0.021738779 0.028912704 -0.05864441 -0.06887768 0.03661863 -0.08139054 -0.017063908 -0.01610148 0.068427205 -0.05069348 0.017352806 -0.06453777 0.0022680918 -0.015403743 0.035861827 -0.007988349 -0.037363756 -0.032702506 0.018708084 0.03741795 -0.033343595 0.014735487 -0.028190212 0.012852965 0.06632114 -0.07202298 -0.024983365 -0.013851365 0.0048172497 -0.016277913 0.03701742 0.025276434 0.055402845 -0.03215481 0.047824074 -0.059793737 -0.0060790437 -0.006057736 -0.057425518 -0.0074194283 -0.05200832 -0.0046167397 0.008812391 -0.002126189 -0.051569443 0.047120895 -0.024971887 0.04013919 0.025369074 -0.027284183 -0.016539494 0.032573167 0.016773527 0.042471107 -0.004525821 -0.049945153 0.019871205 0.024108648 -0.05198885 0.035894983 -0.055023614 0.022595422 -0.070334844 0.019780189 -0.028549 -0.037847728 0.02609438 -0.03903671 -0.02304411 0.007304487 -0.007406011 -0.046870314 0.00425309 -0.01087355 0.020107955 0.0547758 -0.03450574 0.02660687 -0.0056016445 -0.06929229 -0.021269739 -0.028252957 0.052729 -0.04419339 0.03256273 0.04864973 0.04278938 0.02576541 0.03244619 0.055005826 0.036058664 -0.041790858 -0.015629862 0.061371 -0.013111968 -0.04165282 -0.0203167 -0.034637403 -0.042197082 0.048780743 -0.052443244 0.049485464 -0.008102366 0.0058867694 -0.022992516 0.043150265 -0.04834832 0.030057855 -0.019722223 0.041101582 -0.070322074 0.026859354 -0.022680655 -0.059840888 -0.03360552 0.03753056 -0.060473144 -0.039356813 0.0019085457 0.02488571 0.016992034 -0.020260546 -0.052982114 -0.035442177 -0.038758356 0.02532427 -0.05606674 -0.016757883 -0.020076998 -0.06953768 -0.0068993345 -0.029101027 -0.04491045
herself 0.009961514 -0.0637299 0.06486935 -0.026130406 0.036240835 0.01995973 -0.055178504 -0.048877824 0.058173534 0.023030838 0.033734377 0.057685725 0.044125132 -0.07186003 -0.022378389 0.0019673093 0.0025605846 0.08367373 0.05178067 -0.04238469 0.007732761 -0.029249303 0.02693187 0.056433782 0.04953099 -0.016868053 -0.021804946 -0.017402586 0.009057092 -0.059436608 0.0184406 -0.034928802 0.049741413 0.014276811 0.0114929415 0.019586686 0.026349459 0.058895867 0.0033430913 0.016883818 -0.007585343 -0.0038526184 -0.011569485 0.041511837 -0.080984585 0.07269461 0.012518252 -0.023410317 -0.03959011 0.065457225 -0.03962119 -0.02841923 -0.001203081 -0.06741489 0.005755378 -0.055081766 -0.059701763 -0.017116122 0.09006138 0.004746028 -0.04405012 0.021028776 0.00893207 0.041387312 -0.04497789 0.059202 0.044402257 -0.07007062 -0.034105286 0.047737412 0.009701511 0.012561459 0.038856998 -0.026041972 0.008848698 0.04830327 0.026167503 0.06420422 -0.051833633 0.059278443 0.044041242 -0.006798629 -0.0398211 0.019084007 -0.007287226 -0.03943596 -0.012300916 0.0063784267 -0.01118731 -0.06444638 0.047133468 0.014343934 -7.401034e-05 -0.021967672 0.021723974 0.0014639443 -0.048000228 0.034115564 -0.027451811 0.0043453057 0.055219658 -0.013428754 0.014260938 -0.031705443 0.033936247 0.012889147 -0.06745794 -0.07309114 -0.017731259 0.039884046 -0.040769257 0.020877056 -0.040361393 -0.043463644 -0.010810513 0.03691575 0.07079786 0.0753036 0.008118241 0.03810782 0.005984888 -0.03989371 0.035456523 0.019368393 0.022417594 -0.053237215 0.060669303 0.011745281 -0.034352727 0.019417044 -0.05072188 -0.019404957 -0.039845034 0.038287252 0.032597464 0.062444463 -0.03088804 -0.035283905 -0.022063036 0.02271771 0.0007605497 -0.030927463 0.012957946 0.02456124 -0.007204314 -0.0016143875 0.00025706447 -0.035216864 -0.032621678 -0.028583921
me -0.040731 0.05094965 -0.012552474 -0.04626682 0.05857251 -0.054776624 -0.016177213 -0.029742073 0.027175358 0.037769783 -0.05274945 0.061414246 -0.04027157 0.0034224996 0.044176534 -0.031621076 -0.009422718 0.031435274 -0.064981066 -0.01556847 -0.043711107 0.07136951 0.023491293 -0.012672018 -0.047449168 -0.0022581294 -0.018244576 0.01657936 0.0388354 -0.018183354 -0.04366413 -0.057310876 0.049554523 -0.013548484 0.013025392 -0.018858923 -0.05049927 -0.014538033 -0.001986599 -0.040526707 -0.06163755 0.01111932 -0.04235873 -0.048790507 0.016534815 -0.007843864 0.00043987663 0.04111667 0.0648425 0.03029184 0.013108079 0.03852575 0.039030362 -0.004500139 -0.010284579 -0.06254322 -0.056361627 -0.038311806 -0.011286781 0.01805635 -0.015486017 -0.06663956 -0.017682314 0.046229225 -0.033004336 -0.02959511 0.05481682 -0.03197089 0.07382018 0.015880102 0.013352617 0.018571954 -0.031113582 0.046465155 0.0045257737 -0.04204957 -0.004864598 0.0053478284 -0.033335708 -0.030187933 -0.039712418 -0.00985325 0.027968787 0.0065931827 -0.032876108 0.04949829 -0.03900629 0.059661802 -0.07287512 -0.038016457 -0.036173522 -0.07479346 0.017945187 0.03311344 0.05554884 -0.050910495 0.037811633 0.06081494 -0.05189622 -0.053867117 0.07113273 0.029960122 0.0013955971 -0.035240643 0.022186304 0.025996093 -0.020615054 0.00012429047 0.029716404 -0.01471266 0.027376618 0.048772864 0.016609011 0.054987315 -0.041598186 -0.074905574 0.06667047 -0.0075528324 -0.0096146455 0.06747074 -0.04796623 0.037780467 0.06512673 -0.0055984906 0.0020316863 0.07869212 0.0065241177 0.010856078 0.054294936 0.06468771 -0.08159386 -0.005316972 -0.028157992 0.03946297 -0.074063346 -0.02558249 -0.06678325 0.047422543 -0.0031606148 -0.04148425 0.06050459 -0.04430767 0.018810583 -0.050635863 -0.08509513 -0.071081266 0.018965099 0.024036879 0.04127105 -0.05571506
up -0.025721159 0.009237191 -0.014546666 -0.005711819 0.04764885 -0.09570724 -0.0065506343 -0.019106383 -0.06373597 -0.035485264 -0.011235491 0.020260446 0.070048034 -0.009767396 0.0337713 0.05185517 -0.015502005 0.035058603 0.04784504 -0.05803132 0.003343592 -0.02063549 -0.052126605 0.0052466225 0.01928552 0.04758749 -0.011231376 0.02964924 0.029495101 -0.06394503 0.029494304 -0.026247283 0.041363504 0.05143452 0.045314327 0.018266764 0.010015978 0.025666753 -0.0143537065 -0.08169754 -0.03481493 0.050648063 0.037038907 0.027279284 -0.042562343 0.032674246 -0.027436515 0.09011951 0.04251833 -0.04225127 -0.088777706 0.03599288 -0.0026069407 0.0020898709 -0.052307244 0.019619906 -0.03668125 -0.022764795 0.05362529 -0.064923204 0.052525867 -0.040944085 0.049021643 0.06571483 0.0030490477 0.026659518 -0.043438535 -0.006499876 0.052636363 0.040472858 -0.041052893 -0.05507121 -0.019999903 0.032663472 0.029854584 -0.022128511 0.038151156 0.019663846 0.056844614 -0.0455243 0.02355039 -0.035563216 -0.004615207 -0.046065547 -0.05352679 -0.014937469 0.036696468 0.013791531 -0.000687354 -0.076307334 0.035296112 0.018106407 0.038900517 0.07155577 -0.019600676 0.041884452 0.040759586 0.01728865 -0.0058421018 0.060225368 0.035284944 0.07245848 0.025163721 0.016327443 0.023456765 -0.047995 0.02645064 -0.037275746 -0.056966707 -0.00822109 -0.018872136 -0.05755162 -0.0047622947 -0.01790653 0.020342026 -0.070988946 -0.005098193 0.050284896 0.0127525 -0.04810022 0.020997817 0.016219813 -0.045477744 -0.05036964 -0.027952356 -0.03907522 0.007841357 0.03774777 -0.016764741 -0.003196579 0.053530738 0.00815002 -0.057957634 -0.015758809 -0.032199915 -0.032920826 -0.03913493 -0.020306868 -0.024087423 0.034935676 -0.04353954 -0.051294148 0.034512967 -0.052875575 -0.040763695 0.035436925 0.022523612 0.031609334 0.011773667 -0.023092631
what 0.00033262302 0.023879444 0.025433466 0.038290262 0.06879149 0.0061174165 0.055699743 0.028721647 0.0386344 -0.022450292 -0.007501352 0.065595105 0.03626221 0.018953796 0.05576065 0.009629047 -0.02252929 0.08265381 0.037386205 0.034489144 0.0010498143 -0.020478183 0.037514344 0.03223534 0.008287385 -0.0157774 -0.055985123 -0.04650261 0.0049622757 0.019739147 -0.057830308 0.021240432 0.039833244 -0.044308923 -0.00031603174 0.062447507 0.044088032 -0.019393705 -0.046153743 -0.000810102 -0.035863895 0.017739316 -0.019540774 0.00013285468 0.017281301 -0.059710316 -0.02702234 0.01911742 -0.007773227 -0.025689883 -0.066643596 -0.028355278 0.0014614617 0.0020458065 0.029559389 0.0022504008 0.03712699 -0.049577277 -0.052605405 0.049049195 -0.0013099612 -0.020908507 0.026498271 -0.0363034 0.010677117 0.03409604 -0.043520678 -0.050320964 0.037065193 0.0020786943 0.03464663 -0.035045713 -0.007415793 -0.04093955 0.050579514 -0.055008043 0.03575521 -0.04672589 -0.05300113 -0.0056510214 0.047086243 -0.039703503 0.0461403 -0.015886804 -0.05865405 -0.056689057 -0.04607199 0.004097655 0.026722401 -0.04700233 0.03424438 -0.042350143 -0.050193336 0.0060158577 0.0023597432 -0.0026647374 0.03742758 0.057769436 -0.0072026 0.025417974 -0.049559217 -0.002364746 -0.009541193 0.0046473243 -0.061040934 -0.04904084 -0.05311922 0.035566248 0.045111477 0.05385378 0.020457655 -0.034217626 -0.012144711 0.011888236 0.00045487133 -0.0076636355 -0.06385999 0.047682784 -0.05437105 -0.071448125 0.029983887 0.046017982 -0.035166755 -0.074056216 0.0645444 -0.027058396 -0.037614815 -0.0031109536 0.048005644 -0.025349673 -0.0161385 0.0042083575 0.05235902 -0.023804873 -0.025765343 -0.050558195 -0.059570227 0.062052406 0.03107596 -0.02356802 -0.029618526 0.06199851 -0.0258241 0.06412149 0.007821786 0.0058790883 0.049659237 0.041851792 0.019360669 -0.033778224
way -0.006693828 0.083037145 0.02352555 0.015403257 0.068687476 -0.070117906 0.038354643 -0.06465591 -0.02244093 -0.046106443 0.035765417 0.02634313 -0.080580875 -0.079178974 -0.04760104 -0.048076056 0.017888146 -0.016632758 -0.002973755 0.0072455825 0.02049846 -0.038036045 0.042050578 -0.027107 -0.0006473531 -0.034203403 0.03486446 0.040713143 0.038889136 0.03209362 -0.041258574 -0.03801587 -0.067706615 0.05553459 -0.0010948053 -0.074186414 0.014451491 0.0025768303 0.0072704894 -0.047160223 0.034285408 -0.016046518 0.043681983 0.06396083 0.013105043 -0.043248177 -0.038855318 -0.05001093 0.042266376 -0.0035581286 -0.038539518 0.01954731 0.02854392 0.029191678 0.062753096 0.011275489 0.010093395 -0.027683444 0.009629925 -0.041896537 0.024220297 -0.038433753 0.002634454 0.012156482 -0.020593893 0.04455165 0.025463419 -0.006082749 -0.07738126 -0.025546888 0.033730548 0.020222496 0.062130895 -0.0013036036 -0.02336474 -0.011234625 -0.045873437 0.012468175 -0.045087174 0.045786075 0.032887407 0.005656654 0.0056843064 0.022553967 0.06247392 0.037217923 0.024747323 0.034010775 -0.05668126 -0.036244046 -0.012123759 -0.041084636 -0.0012841205 -0.045414202 -0.003196109 -0.04409591 0.056124847 -0.00635482 0.041488133 0.036979124 0.033102863 0.037899308 -0.06953772 0.03578459 -0.04720131 0.05470521 -0.0064144414 0.029122995 -0.0147913145 -0.053310897 -0.05561744 -0.033171438 -0.03607959 -0.0379657 0.0163905 -0.024601983 -0.038922578 -0.069399916 -0.006559476 0.048769865 0.006655958 0.0060399733 -0.0076949536 -0.015422226 0.0025001548 -0.048120838 -0.004623404 -0.021610606 -0.008656428 0.008852293 -0.05437958 -0.021460174 0.012534833 -0.04524977 -0.014456454 0.0028225593 -0.048489068 0.0069092344 0.030032026 0.034672 0.02448443 0.004904692 -0.045934606 0.008580564 0.05678839 -0.038418762 0.020430513 -0.07448663 -0.025947856 0.0676956
when 0.05183173 0.020883057 -0.07556532 0.04292545 0.051040143 0.023820154 -0.01046093 0.018207321 0.05226599 -0.017782541 0.034881387 0.021239158 0.044902693 -0.01824856 -0.039435197 0.050275236 -0.06821593 -0.053590655 0.00844075 0.016135894 -0.031101175 -0.021069359 0.033943452 -0.064829506 0.024774099 -0.028903034 0.06476964 -0.03998164 -0.015265476 0.038258635 0.011522069 0.03002237 0.04870669 -0.0067777555 0.0050121117 0.039468996 -0.057982624 -0.034654114 -0.06332158 -0.020738496 -0.04426092 0.028994782 -0.060494006 -0.0006924323 -0.023209088 0.03153398 -0.008956359 0.06927309 1.9600848e-05 0.024330325 -0.047827557 -0.014711087 0.032950874 -0.0043327454 0.0072137048 -0.044934157 0.0011052173 0.0066301534 0.004418048 -0.010356057 0.05846572 -0.03961829 0.031356018 0.028920686 0.006256786 -0.06085705 0.06529436 -0.044083565 -0.061692677 -0.021877632 0.003258456 -0.006172823 0.03202066 -0.067957304 0.01957476 -0.032342266 0.0042578904 0.03579367 0.030797461 0.0085716415 -0.029729838 -0.035229523 -0.012939266 0.04387535 0.0706741 0.07391257 -0.03256224 -0.0178396 -0.027043996 -0.02192903 0.03774641 0.016052859 0.025634997 -0.048131485 -0.02350321 -0.016319219 0.03221374 0.04081921 0.036692914 -0.035764575 -0.02082333 -0.024636352 -0.036446203 -0.031780142 -0.023266423 -0.07158187 0.034865834 0.042241108 -0.05842252 0.0101150405 0.050893266 0.022934392 0.0036391397 0.058845397 -0.048631705 -0.010742772 -0.07591079 0.0032084258 0.061519727 -0.04640788 0.08085052 0.0038071712 0.00567343 -0.027700659 -0.0025546676 0.05574351 -0.0009918537 -0.037633523 0.050940048 -0.01832793 -0.049315594 -0.054382414 -0.017650593 -0.03949895 0.05426754 -0.012625727 0.035292573 -0.044504706 -0.03251389 0.0048861373 -0.030143451 0.068146154 -0.01832574 0.047615692 -0.04568334 -0.039904155 -0.03781049 0.014616696 -0.03699418 -0.014217924
like -0.03447842 0.0037689405 0.004993867 -0.039369017 -0.057917014 -0.029660013 -0.048506796 -0.024479408 0.008934196 -0.024049805 0.04579214 -0.035719093 0.025068598 -0.060093373 -0.0031407038 0.041710127 0.039132435 -0.020091489 -0.02502598 -0.032525383 -0.04756667 -0.017158005 -0.016356207 0.00043031224 0.021759037 0.038698357 -0.022891637 0.046870932 0.07251753 -0.016605783 -0.029015938 -0.032207623 -0.021646598 0.018180376 -0.05877696 0.030374516 -0.0025650887 -0.04359419 -0.046135988 -0.033375908 0.008108245 -0.0037810178 0.029406194 0.049432375 -0.06864058 -0.00032009522 0.03510391 0.0586668 0.022494126 0.0088870935 -0.048394416 0.03398618 -0.022990953 0.017529413 -0.041331325 -0.03853684 -0.012876714 0.057007708 0.06605898 -0.020379461 0.037873745 0.045559082 0.0024320942 -0.06383604 -0.05229568 -0.022574505 -0.017180938 0.019748315 -0.04978526 0.022929598 0.04165863 0.018289968 -0.04727607 -0.008495312 0.014156874 0.009034546 0.034256846 -0.016561013 -0.06168401 0.028967168 0.008382944 0.052027546 0.037793126 -0.013863458 0.024219465 -0.020787852 -0.060442243 0.0065991995 0.01724665 0.028202882 0.03615916 -0.012158599 -0.06226216 -0.017737277 0.0059429775 -0.049686454 -0.020642208 0.06390868 -0.019814884 0.0279378 -0.05264634 0.002824727 -0.058783747 -0.022432042 -0.07224266 -0.00091236865 0.019404888 0.039968748 -0.008824273 -0.012111852 0.01220154 -0.037986346 0.0016997101 -0.030402152 0.04136711 0.008599218 0.019314703 -0.03776953 -0.03029497 0.07051044 0.029617852 0.015910773 -0.032598443 0.016748402 0.056024376 0.05192627 0.0063510425 0.06403057 0.05047785 -0.021552978 0.022101974 0.0023312988 -0.021520128 0.06105438 0.027928522 -0.027783714 -0.038864225 0.06317644 -0.017484639 0.056238107 -0.0390034 -0.029690033 -0.03029115 0.019457033 0.07146413 -0.07787175 -0.06765607 0.030827025 -0.052347794 0.013249419
one 0.009829862 -0.012163024 -0.0077664233 -0.055676445 -0.0628286 -0.0071825543 -0.056551464 0.024929622 0.0031607552 -0.03882206 0.009520758 -0.0217289 0.010656596 0.048535705 -0.008212537 -0.0570062 -0.006849167 -0.055056415 0.076174065 0.033863243 -0.031574585 0.041899048 0.00067033875 -0.012275906 -0.069111735 -0.017928608 -0.026502524 0.029806415 -0.037766125 0.015081216 -0.03787715 -0.022241829 -0.06666233 -0.045890395 0.0025864025 -0.0032457858 -0.019473083 0.036297683 0.041591022 -0.0063853175 -0.03789997 -0.06885016 -0.026063032 -0.020928754 -0.038769994 0.056610104 0.034455556 -0.060302682 -0.023041772 -0.035609677 0.028798437 -0.030360313 -0.0072461576 0.035977464 -0.0283282 -0.0337237 -0.02923746 0.008449561 -0.023783216 -0.0508392 0.0076701674 0.023247855 0.068055145 -0.085714154 0.042566855 -0.05657055 0.025058873 0.04779731 0.007828492 0.030892674 0.005673749 0.038157858 0.028685352 0.010486519 -0.054793976 -0.03409688 -0.020207895 -0.033169232 0.06354123 -0.012847812 0.040516604 0.030208275 0.045956846 -0.0047655115 -0.014383087 -0.036675982 0.0516612 0.07047827 0.021677531 0.07095953 -0.032675862 0.017794091 0.03240127 -0.044384945 -0.08779858 0.08046829 -0.040111184 -0.008829676 -0.010102234 -0.03856253 -0.03704856 -0.01726001 0.011650652 0.011934534 0.01356641 -0.045920584 0.0050533144 -0.034298375 -0.051080555 0.037353504 0.018864797 0.029190747 0.05405953 -0.044569388 0.018710399 0.01827818 0.045503028 0.0034333882 -0.0022421652 -0.030877164 0.030644147 0.04875665 -0.048515476 -0.008652395 -0.028486151 -0.03270804 -0.039413642 -0.002605101 -0.07568152 -0.018234361 0.030483034 -0.014160955 0.041894007 0.01364852 0.023120653 -0.027453793 0.045781784 0.029850999 0.07695092 0.00027716742 0.033282235 -0.04742203 0.0021959627 0.025430629 0.019164208 -0.05784139 -0.011776917 0.045186397 -0.004964449 0.03545081
do -0.034584012 0.040154964 0.051902957 0.024885735 -0.027662357 -0.02733113 -0.023001138 -0.0013225308 -0.016738243 0.01511154 0.007413047 -0.037028283 0.008055301 -0.035327945 -0.02005317 -0.01887911 -0.028974872 0.013432429 0.024604322 0.017909786 -0.028323544 -0.015473027 0.05425986 0.045429457 0.05947358 -0.0706635 -0.0022526663 0.009379186 0.039737962 -0.028159488 0.045812424 0.0028997487 -0.0012005743 0.017209208 -0.027344279 -0.012274459 0.027169881 0.060453042 -0.06291616 -0.032102704 -0.04396118 -0.016238917 0.07921621 -0.046285506 -0.041042708 0.055693865 -0.0023062476 0.04762048 -0.043123413 0.01930032 0.051266883 -0.017865298 -0.007843802 -0.07724079 -0.061406147 0.0019644185 0.043269694 -0.03574383 0.008458408 -0.052992016 -0.03861073 0.007862501 -0.0011604289 0.056334045 0.03520008 -0.070604056 -0.02547348 -0.07357937 0.008284043 -0.04936288 0.04381545 0.022081193 -0.061303888 -0.018280312 -0.01716735 0.05174658 -0.046655666 0.00794655 0.010917893 -0.058228485 0.033359896 -0.017084423 -0.060453795 0.016130034 -0.004328564 0.046150893 0.026111944 -0.0735811 0.05448939 0.027965713 0.010555826 0.028704252 -0.008468798 0.008442498 0.040800143 -0.023582209 0.03809688 0.0022400548 0.0036319315 -0.03292441 0.03448464 0.0025088764 -0.02744402 0.018734943 -0.0108964015 -0.039026286 0.042839553 -0.044019558 0.013201335 0.009366294 -0.0477049 -0.036906913 -0.0030885614 -0.032673344 -0.03921685 0.036598288 -0.02117019 -0.027046265 -0.04921736 0.037481185 0.034621533 -0.04520566 0.06412712 -0.060411517 -0.056130543 -0.010773524 -0.00084396906 -0.036603995 -0.013934665 0.0314389 -0.07416572 -0.04061868 -0.0051528052 -0.049638014 -0.046430446 -0.02011194 -0.04604644 -0.0041746353 0.02539359 0.030337585 0.014833239 0.0055586174 -0.037086215 -0.054808695 0.017058535 -0.027925538 0.06117186 0.040312983 -0.0477784 -0.033008453
no 0.058538377 0.024187827 -0.050172538 -0.022004804 0.030968985 0.056055162 -0.036723677 0.030425068 0.06342201 -0.036528178 -0.01698595 0.049884 0.02307292 -0.047563154 -0.034357134 -0.07872268 -0.032257896 0.061455656 0.081500135 -0.066018924 0.003365332 0.068828225 -0.067118116 0.031623345 -0.02889154 -0.026665099 0.07528885 0.024101527 0.044164788 0.025155047 0.079565905 -0.060877353 -0.017095866 0.011698174 0.014715555 0.014838754 -0.017942164 0.025972527 -0.04388521 -0.012970244 -0.0661024 0.002676658 0.0027260103 0.024907796 -0.033286102 -0.021052647 0.042463727 -0.033149175 0.006432253 0.04514856 -0.057650626 -0.07046007 0.04066433 -0.0586244 -0.07741213 -0.029949248 -0.00092240877 0.0312519 0.01886135 -0.031251892 0.009995638 -0.04773218 0.062676236 -0.0054847975 0.027156815 -0.029634604 -0.016904248 -0.07066733 0.046208136 -0.024707833 0.0016772123 -0.0022180271 -0.04937754 -0.05607065 0.009823362 -0.03219783 0.034444004 0.03742073 -0.0044099647 -0.020760793 -0.002127037 0.052514672 -0.029810475 0.009540208 -0.04018142 -0.037817724 -0.05354397 -0.052811958 0.03226258 0.03580811 -0.013891929 0.02082907 -0.0444514 0.0535402 -0.01944559 -0.023810644 -0.056629818 0.012028164 -0.06802671 -0.052522853 -0.049143735 0.011322888 0.055363685 0.0128931 0.03823114 0.05098087 0.02940944 -0.020772915 0.058981393 0.045959964 0.064877436 0.030977221 0.074652284 -0.03145341 -0.07273929 -0.008601084 -0.049724527 0.028973648 0.045643695 -0.013021276 0.024166849 -0.06826798 0.018463893 0.015683284 -0.0019254229 0.0747064 -0.02576871 -0.0111683635 -0.035899565 -0.061653446 -0.044549122 0.04459578 -0.00597484 0.033977434 -0.058363006 0.017417094 -0.037485816 -0.058224697 -0.0283454 0.05299489 0.084053345 0.010637684 -0.06472107 0.03750813 -0.047711417 -0.02987532 0.03894331 0.07523662 -0.022206228 0.08247268
oh -0.009640252 -0.04659946 -0.039547876 -0.079638004 -0.005588466 0.051103693 -0.09627722 -0.052485425 0.03482427 0.028272398 -0.018044202 0.012163391 -0.012458817 0.0049383594 0.0195823 -0.00699887 -0.043121595 0.058885682 0.07383973 -0.019938257 0.027517123 0.07001298 -0.07597167 -0.07303588 0.049152866 0.002406385 -0.01476421 0.045429572 -0.0066860877 0.0019829147 -0.06888433 0.04506975 -0.005708064 -0.02749065 -0.026806183 0.067153744 0.048039716 0.070222385 0.07020824 -0.043659233 -0.0271909 0.03881621 0.010325437 -0.029869337 -0.04394723 -0.02118911 -0.009776262 0.06987101 -0.03168105 -0.032389354 -0.03998646 -0.04362988 -0.064558186 -0.03836269 -0.051054094 -0.006058298 -0.063919544 -0.022494549 -0.051473506 0.060060732 -0.044898 0.027934924 0.071102194 0.02770214 -0.02947851 0.016620781 -0.045142926 0.031157123 -0.030879864 0.045238134 -0.02636064 0.0052812193 0.03999557 -0.03153628 -0.0038995869 -0.06970777 0.02847186 -0.012293541 -0.0061579314 -0.0744233 0.0705006 -0.040379327 0.00941277 0.03144994 -0.06274548 0.089169584 -0.004746627 0.0051661925 0.025015036 0.05422909 -0.010881517 0.0019224106 0.042739872 -0.071261786 0.047377836 -0.06610738 0.0500081 0.070577316 0.005381979 0.011798904 0.05542545 -0.016087325 0.025647098 -0.07550294 -0.0011275162 -0.019882698 0.048071984 0.05241333 -0.00075337023 -0.0749232 0.0597065 -0.037070386 -0.057446595 -0.0008935443 0.0012550342 -0.014977618 -0.002947714 0.0742697 0.07488355 -0.06181764 -0.029881135 0.010632723 0.027692536 -0.05605541 0.008374414 0.016607292 0.0263081 -0.057650834 0.051403616 0.060414393 -0.08610905 -0.044868328 -0.0008199079 0.068834566 -0.0530744 0.029145997 0.01057035 0.017733207 0.04045553 -0.046398897 0.026065253 -0.027041366 0.016725142 0.044059325 0.022420216 0.014490847 0.043082707 -0.057797905 0.0012518317 0.048846845
went 0.04359078 0.0636459 -0.05925308 0.050178606 -0.0752677 0.0023133126 0.0076199626 -0.016881565 0.014277279 0.031965874 -0.06908464 0.07042744 -0.06192195 -0.06707485 -0.06326322 0.06196438 0.0014437909 -0.011267386 0.05917375 0.025694648 -0.026124178 -0.008981551 0.000452908 0.052053045 0.021485219 0.049436584 0.050279777 0.07112044 -0.045859803 -0.004216199 0.057772845 -0.037587237 0.07302715 0.04007206 0.058449388 -0.039043225 -0.022609571 -0.054945216 0.051809423 0.009775596 -0.034514472 -0.056275167 -0.010476545 0.038111992 0.01878777 -0.03405041 -0.040387534 0.030855875 0.06780505 0.03390575 0.015216797 -0.035935085 0.040503073 0.00046391587 0.062105402 -0.01508264 -0.016294694 0.06556031 0.008379032 0.05906174 -0.08187506 0.024532212 0.07073517 0.037063297 -0.0146040935 0.035188694 0.042226873 0.02286058 0.031442616 -0.007196053 -0.008691094 -0.01836768 -0.030422024 -0.011666821 -0.026324984 0.051213756 0.016102575 -0.00014679192 -0.027926875 -0.009161229 0.052036412 0.06728762 -0.017610934 -0.03120091 0.02105747 -0.08519585 -0.005669567 0.015526058 0.06944983 -0.02898964 -0.075174294 -0.009102069 0.06082061 -0.027312338 -0.04428259 0.06490431 -0.044814546 0.036758475 -0.041035354 -0.030639518 0.07608212 -0.008535827 0.04973162 -0.045654237 -0.0014612769 0.056674775 0.067274466 0.006003607 -0.040219676 0.07748128 0.019250026 0.07320344 0.04388464 0.0032089986 -0.053426757 0.042370763 0.09968394 -0.059016153 -0.057588592 -0.07075074 0.069979854 0.038343653 -0.061368644 0.054187182 0.04352981 -0.033290207 -0.045080353 0.0031532259 0.02956211 -0.019211013 -0.075092085 0.020075886 -0.0029992124 -0.0402871 -0.030744206 -0.011507943 -0.056980602 -0.03685574 0.048080225 -0.047035333 -0.058275625 -0.025548251 0.00911106 -0.040980805 0.050889626 0.039705213 -0.03129729 0.030744383 -0.013677954 -0.00937206
thought 0.06654168 0.01763173 -0.067503154 -0.07487767 -0.04668426 0.01908587 0.03712264 -0.022032175 0.033368632 -0.0344975 0.020655978 0.06807347 0.047437903 0.027232965 0.027412735 -0.008761741 -0.007516304 -0.04000115 -0.05084065 -0.0057433713 -0.012147505 -0.07092701 -0.057370555 -0.018892631 -0.0557541 0.03427123 -0.008878435 0.04282968 0.052423056 -0.0052102064 0.0231935 0.036055163 0.048120975 0.04042938 0.05115774 -0.022944268 0.02034752 0.030502526 -0.00034431298 0.06525966 0.042857844 -0.030534433 -0.03534853 0.034557033 0.04797841 0.0044285553 0.061170056 -0.03816328 0.028420629 -0.04644609 -0.043396886 -0.004053921 -0.051834058 -0.005873585 -0.026067812 0.05441109 -0.0645925 -0.059988104 -0.021499343 -0.01847412 -0.020057665 0.047495972 -0.0070183687 -0.04664673 0.020956388 -0.055021066 -0.02962566 -0.08335244 -0.0471269 -0.018475177 0.015890323 0.06521197 0.054461665 -0.06293304 0.02030945 0.053174265 -0.020230614 -0.037870456 0.030645309 0.0027918944 0.033776425 0.05554503 -0.014279855 0.032269094 0.07216866 -0.027905136 -0.030238487 -0.057802685 -0.049500197 0.016944068 0.030361883 -0.03570891 0.050514653 0.051891398 0.044612125 0.02872251 -0.04932805 -0.06262564 0.0015291948 0.002979048 0.08192222 -0.0024868606 0.07454921 0.047210306 -0.007599232 -0.003099741 0.014376499 0.00909792 -0.048027482 -0.05272599 0.013071599 -0.026766777 -0.063941665 -0.05409337 -0.04169933 0.023391463 0.03959529 -0.008255328 0.015838161 0.049814895 -0.04005209 0.065644465 -0.03133115 -0.06888838 0.031194465 0.017312817 0.015524565 0.022388687 -0.0077767572 0.061324205 0.029442636 -0.020744547 -0.07414019 0.027466014 0.0075442703 0.014733107 -0.04002337 -0.03513376 0.009639049 -0.019959604 0.009591837 -0.010398969 0.010929082 -0.040263385 0.002891994 -0.0069489432 0.0414891 0.07428228 -0.08177861 -0.032681517
again 0.03981705 -0.076406896 -0.0626873 0.047567166 0.016012156 0.020398566 -0.012015323 0.006466968 0.019622296 0.06644128 -0.030375816 -0.05645248 -0.04414932 0.017573452 -0.077249914 0.05944409 -0.050681416 -0.0491397 0.029926611 -0.056339316 0.001757633 0.021753574 0.04039528 -0.0030579024 0.080197856 0.02818287 -0.025244271 -0.011172535 0.07858564 0.056272913 0.003305158 -0.07012925 0.03481077 -0.026294347 -0.07965563 0.049401745 -0.03616742 0.07169673 -0.07339432 0.019395651 0.0010653532 -0.017256169 -0.012356226 0.026529126 -0.0008271792 -0.015956497 0.039975557 0.0545989 -0.003707163 -0.030818 0.03673801 -0.002261389 0.015661867 0.012655792 -0.0318048 -0.027643569 0.0607999 -0.023232672 -0.0208503 0.01786051 0.0023453224 0.050921816 0.0025966982 0.0051467177 -0.048698872 0.018411333 0.016093936 -0.02484715 -0.06894963 -0.0075579146 -0.031648085 0.00781996 0.041032236 0.035916146 -0.008008666 0.041676357 -0.014020261 -0.018661989 0.015217644 0.0014275135 0.031691767 0.05427241 0.040257797 -0.0060714 0.0062594535 0.01015378 -0.052586924 0.024946803 -0.06950849 -0.001629156 -0.003750669 0.042854946 -0.022340804 -0.01778257 0.026213408 0.06447961 0.055612583 0.029529838 -0.0021056393 0.05591958 -0.04614725 0.066511996 -0.023565982 0.033564016 -0.04318496 -0.01690098 0.006372656 -0.02415093 -0.058208436 -0.044738602 0.070524104 0.018952528 0.043947455 0.006555723 -0.009404622 0.04032125 0.012541504 0.022440683 0.06725255 -0.043731116 -0.06187305 0.017984472 0.0077723614 -0.027022067 0.0022882342 0.06629938 -0.014487173 -0.05781133 -0.028691694 -0.056746762 0.073811494 -0.015857605 0.05179428 -0.008411832 0.024026655 0.043372646 -0.008702721 -0.022791676 0.042504065 0.042339183 -0.016735628 0.012290147 0.0069259144 0.040046696 0.02155293 -0.06530711 -0.01177101 0.03445317 -0.040608205 -0.027869133
