1182 150
the -0.12573749 0.095204465 -0.09894574 0.17190371 -0.16671331 0.18269181 -0.13894945 -0.025104238 0.0049545057 -0.090019494 0.010133355 0.13727145 -0.1840376 -0.080636874 0.13096267 -0.0826966 -0.040675137 -0.23968323 0.09423514 0.15510505 -0.15431604 0.044536065 0.25038677 -0.07894216 0.20420055 -0.13613993 -0.13371857 -0.15314901 -0.09764747 0.09078357 -0.16124591 -0.15262035 0.05554116 -0.24148549 -0.032614637 0.14429852 0.09894484 -0.020498049 -0.14126544 -0.11417813 0.12979458 0.012601719 -0.048796028 -0.027522875 -0.08506671 -0.07886537 0.17588414 0.055265576 -0.13408251 -0.13705203 0.061663717 0.014896851 -0.056753993 0.14796636 0.1523988 0.009349872 -0.06533184 0.14055608 -0.037347656 0.040723737 0.123291686 -0.08970418 0.20327163 0.034949396 -0.2716401 0.11910337 -0.20742063 -0.194881 -0.32963353 0.18344599 0.008286407 -0.21408851 -0.15954946 -0.116941474 0.17280892 -0.060168065 -0.111222 -0.21935101 0.10730563 -0.35443202 0.124189526 0.20270671 -0.28062677 0.31596577 0.08662666 -0.20132744 0.065475896 0.08442434 -0.059095778 -0.049802028 0.05028424 0.20837672 0.059359666 -0.09334246 0.1753724 -0.06055292 -0.122931056 -0.2352353 -0.1853879 0.16357562 -0.11652521 0.10552446 -0.20088968 0.17626739 0.10318291 0.09251788 0.0734464 -0.17396127 -0.39224 -0.19987798 0.107488595 -0.22313471 0.22379702 0.05263521 0.031484447 0.056597695 -0.042718723 -0.1407219 -0.22336918 0.08970545 -0.18184996 -0.029930236 0.123812735 0.23463845 -0.05700908 0.18007381 -0.047757767 -0.20107119 -0.04751333 0.05176672 0.03432527 0.140765 -0.19532338 -0.26965812 0.20284614 -0.22184859 -0.039055113 -0.13799165 0.06746043 -0.22462815 -0.044669162 -0.3259653 -0.015422627 -0.17888923 0.09192113 -0.21023235 0.06976746 -0.17053708 0.08670328 0.14360298
and 0.034948513 -0.1158761 -0.058107216 0.04196614 -0.03168251 -0.090325415 -0.050476704 0.086420655 0.037771735 0.045873728 0.07972132 0.04298307 0.021556918 0.040165372 0.057565164 0.05571529 -0.047228545 0.089567244 -0.02495655 0.07963664 0.06809892 -0.11258699 -0.19732246 -0.13713957 0.009561198 -0.049918007 0.088093795 -0.025098206 -0.066210814 -0.055514958 0.04383932 0.004614248 -0.08048668 0.16207956 0.09326831 0.00015412383 -0.048268657 -0.15778844 -0.039224025 0.0019447177 0.07098499 -0.082521535 -0.017012898 0.04593109 0.04058317 -0.060250312 0.08597963 0.06663328 -0.084104486 0.000556465 0.021554777 0.029135205 0.05218653 -0.090710565 0.007965551 0.05112585 0.098933265 0.010659429 0.028808594 -0.10319625 -0.06670105 -0.12080497 -0.006345019 -0.019334808 0.051638696 -0.003953775 0.08779491 -0.18027873 0.07510018 -0.030581998 -0.15585285 0.142802 0.039453696 0.12954503 0.061524455 -0.0367082 -0.07004051 0.10097509 -0.038270716 0.046163928 -0.05077919 0.1332342 -0.098349944 -0.15878569 0.0036574213 -0.00046167464 0.13357641 0.08581698 0.0026293728 0.08826866 0.089752704 0.04513556 -0.019352537 0.040884607 -0.096634835 -0.05973145 0.07679297 -0.06325448 0.08382914 0.003788159 0.07758741 0.033457033 -0.03029971 -0.02974089 -0.119351745 0.11852137 0.04354538 0.20134963 -0.09764064 -0.064761035 0.06530467 0.033458695 -0.0019474621 0.02378109 -0.18660092 0.0233886 0.05685977 0.12910733 0.03475496 0.0054488666 0.06786762 -0.093281694 -0.06830171 -0.06674076 -0.1082087 0.046983812 -0.03074188 0.10496495 0.036063053 -0.1380634 -0.17222716 0.028039463 0.07541479 0.08220826 -0.053204216 0.11869648 -0.038958855 0.056178257 -0.076282404 0.1654615 0.09613521 0.016985642 -0.047805723 -0.10642508 -0.068642855 -0.0075839334 -0.025099995 0.0655504 0.06403668 0.13459498
to 0.027302431 -0.1363709 -0.033890575 -0.093028784 -0.006917921 0.04886793 0.04831095 -0.08571463 0.020585436 0.1320854 0.094727404 0.09062427 -0.11759315 -0.06812453 -0.20150985 -0.106471136 -0.06087008 -0.022340404 0.09479335 -0.08947443 0.024656625 0.04148595 -0.18221134 0.07651811 0.030941807 0.035705734 0.07603929 0.1959009 0.16320084 0.120374806 -0.048630655 0.017890912 -0.018632093 0.09945587 0.06662262 -0.08409667 -0.022609595 0.17926857 0.03238523 -0.049801406 -0.009641052 0.118154064 0.00908101 -0.11663575 0.24618934 -0.031877186 -0.035472594 -0.09793485 -0.07425173 -0.059759505 -0.10605851 -0.18875812 0.038450222 -0.037359085 -0.0321842 0.03586649 0.17048705 -0.14649215 -0.064813405 -0.07255481 -0.12280632 -0.05856349 -0.102876835 0.12422253 -0.13917793 -0.032124747 0.11958777 -0.0064834068 0.17705819 -0.06499634 -0.10141448 0.07622751 0.10892956 0.15276854 -0.0048588025 0.01096597 -0.03000897 -0.052232362 -0.10587505 0.09573882 -0.024091456 -0.06384786 0.028459989 -0.040827543 0.02617976 0.11537697 0.16813275 0.21786521 -0.0042856797 -0.07289647 0.08284522 -0.101073064 0.18342002 0.14438635 0.14029913 0.057273783 0.030725662 0.11357176 -0.18827829 0.004507175 -0.038288794 0.0512775 0.10662764 0.025936946 -0.06625655 -0.08316236 0.14664426 -0.057646472 0.07627129 -0.1038934 0.057845462 -0.1449523 0.07675164 -0.007976536 -0.11145718 0.15651219 -0.013103132 0.017091317 0.13310444 0.09552136 0.14607103 0.06966828 -0.08248577 -0.14185011 -0.074108504 -0.18024994 -0.055760566 -0.06744912 -0.07119752 0.034729745 -0.10552286 0.025870882 -0.04106452 0.08303018 0.12917714 0.04416031 -0.11128999 -0.021079179 -0.101214126 0.111768976 -0.21676803 -0.22034724 -0.04044146 -0.049233507 0.08697046 -0.011557315 0.033944122 0.051747985 -0.12285301 0.09988175
she 0.06649025 -0.047131162 0.2253014 0.037791308 -0.21783927 0.11376143 -0.059176676 0.068461604 0.003316074 0.035673942 0.009823669 0.027623605 0.08196341 -0.0418651 0.008707031 -0.10645669 -0.066248044 -0.09432613 -0.10472469 -0.038532168 -0.008670193 0.014741318 0.050914973 -0.0030145478 0.014965169 -0.1234795 0.010459895 0.05152463 -0.062470604 0.19993772 0.14197394 -0.14699945 -0.0037342645 -0.0149992565 0.15101455 -0.14398837 0.035969943 0.07036082 0.09324578 0.04839152 0.028870003 -0.2002953 0.058776632 -0.082493536 0.1962648 -0.04896294 -0.14191727 -0.21240306 -0.014714477 0.023335535 0.099992216 -0.022829894 -0.032784972 -0.015631208 -0.18336375 0.035241902 -0.10030936 0.031573795 -0.037878916 0.10079251 -0.06593375 0.20109044 -0.14153796 0.07149672 0.26863343 0.061842468 -0.025755629 0.17102459 0.106316045 -0.18363519 0.08782405 0.19200258 0.039242502 -0.017032659 -0.021982025 -0.13777727 -0.024892835 -0.010816445 0.070309885 -0.20471467 0.031592265 -0.18728608 -0.058326513 0.07542153 -0.12943734 0.026125213 -0.124890484 -0.033144414 -0.2251668 0.12680024 -0.011379011 -0.08867995 0.090963736 0.113061585 0.016173886 -0.10708482 0.0065248613 0.03751144 -0.036532704 0.037724055 0.113305636 -0.106629245 -0.06808304 0.12146451 0.112347126 -0.22876284 -0.0065447506 0.106671 0.09642045 -0.065614045 -0.080134206 0.17078736 -0.018091185 0.015584814 0.031354196 0.13170692 -0.10326971 0.16300747 0.09910336 0.06373884 0.053740084 0.10864563 -0.19495793 0.0030551306 -0.06547415 -0.24388348 -0.14047045 0.009240964 0.23163353 -0.014163392 -0.029556166 0.019075207 0.059539545 0.040721696 0.07222577 0.15020044 0.0019104824 -0.020289505 -0.07181434 0.03265814 -0.18962906 -0.14058582 0.0027010324 -0.012688553 0.2124281 0.26597548 0.20891528 -0.14774922 -0.21259162 -0.048432965
a 0.04335231 -0.029330485 -0.042685993 0.07326153 0.048233647 0.20103085 -0.14820908 -0.090985 -0.028693613 0.08925461 -0.11801525 0.095960625 0.040858623 -0.10186742 0.015011133 0.20418137 0.004260053 -0.08845788 0.14520754 0.1293594 -0.04154666 0.10363328 -0.006647033 -0.21096148 0.00931711 0.015554055 -0.06441396 -0.054628763 -0.12483665 -0.12350714 0.08046441 0.030982375 -0.08586806 -0.03531906 0.0024996581 -0.059639566 -0.12808469 -0.12107055 -0.16331156 -0.027438281 -0.034428917 -0.16141993 -0.051489014 0.13736466 0.09595971 -0.08422693 0.081613064 0.004088517 -0.18270138 -0.14847562 -0.055790186 0.060621843 -0.057063714 0.14731245 0.09406927 0.1541141 -0.07793917 0.12397343 0.04072645 0.025111143 -0.04114082 -0.11135255 0.007282856 -0.053206425 -0.10159799 0.07359882 -0.0927849 -0.07637408 -0.19277784 -0.0407682 0.046791155 -0.11996597 -0.026061093 -0.010420347 0.12701048 0.10906673 -0.18714473 -0.15485045 0.15978009 -0.22934572 -0.056389164 0.16094215 -0.19382659 0.20025195 -0.08207834 -0.21801904 0.111908786 0.081077546 -0.0038017288 0.07285051 0.040060125 0.0029671898 0.11598914 -0.030266458 0.033156205 -0.08094606 0.059989706 -0.16938752 -0.08928829 -0.02080785 0.14391486 0.019174535 -0.12552717 0.08011046 0.19574806 0.100812994 -0.07570272 -0.04971131 -0.1968445 -0.20710321 -0.08823743 -0.1504294 0.1371024 0.023777312 -0.064506434 0.024088271 0.015753279 -0.06423685 -0.13444898 -0.03481988 0.043929987 0.047185615 -0.05488976 0.06753283 0.11711819 0.03251728 -0.05734264 -0.067829 -0.13312866 0.11147727 -0.11285377 0.1524809 -0.051083405 -0.23141421 0.118796 -0.05597901 0.0810836 -0.0828327 0.12636615 0.003558991 0.0072109806 -0.12182113 -0.04199017 0.038913973 0.19637242 0.039529923 0.020555783 -0.1434089 -0.09169374 0.16056865
i 0.1739804 -0.14326096 -0.12931718 0.030266963 -0.2619964 0.23597938 0.29658157 0.033699635 0.17664456 0.056069363 0.07178876 -0.051883113 -0.14204425 -0.0780656 -0.22352979 0.18984558 0.023283057 -0.12488083 -0.17634055 0.0026343497 0.28169778 -0.033520546 -0.16671064 0.28330654 -0.15921536 -0.18025224 0.0675579 0.0991251 0.23204388 -0.24652436 0.11289455 -0.102036715 -0.1464912 -0.013357467 -0.08634523 -0.021877192 0.30435097 0.042933214 -0.023672363 -0.12700711 0.116903864 0.09259428 -0.028179731 0.18789595 -0.22079629 0.020907547 -0.14006577 -0.18103048 -0.034066126 -0.079559445 -0.27370936 0.110650845 0.05677753 0.06971207 -0.22686519 -0.1565571 0.19810373 -0.039967217 -0.1765242 0.1351148 -0.20292929 0.085160546 -0.018941715 0.054434862 0.23578638 0.06642402 0.2408734 -0.24341021 0.24224602 -0.1722549 -0.0846631 0.010437715 0.24906227 0.09405157 0.21696562 0.22678912 -0.15697685 -0.16578351 0.13096648 0.25058833 -0.06021373 -0.07885074 -0.046413466 0.14041407 0.13526177 -0.22132865 0.20497201 0.11749655 -0.1680068 -0.27027404 0.16078563 -0.21950012 -0.034589868 0.20427105 -0.15808189 0.08024209 0.09552944 0.10320654 0.11963294 -0.09043449 0.10329162 0.082935676 -0.12762515 0.1562659 -0.11370197 0.1971053 -0.061069082 0.15023895 0.30017307 -0.20886044 -0.14653692 0.04453406 0.15326673 0.012319392 -0.08025472 0.138058 0.26067796 -0.12456739 0.1650544 -0.042369306 -0.1109928 -0.012148835 -0.1859362 -0.22570898 -0.07120801 -0.03049574 0.005144962 -0.008980268 0.10559491 -0.17529568 -0.09573563 0.05831636 0.09387858 0.11081258 0.18940584 -0.26307988 0.15864328 -0.09455337 -0.11823147 0.096003324 -0.23242223 0.079399355 -0.010109109 0.104081765 -0.07235028 0.24618828 0.11600586 -0.09445815 -0.23939225 -0.09899987
it -0.078366645 -0.07169241 0.10813873 -0.057714086 -0.1537783 0.11786829 0.105446115 0.10695756 0.003543746 -0.049535487 0.07376647 -0.13323058 0.11799685 0.12153517 -0.021448985 0.055327244 -0.083698526 -0.14798827 -0.1492796 -0.029026333 0.08618991 -0.10750535 -0.053342868 -0.00189158 0.046240248 -0.10074142 0.07545538 -0.012694017 -0.0305939 0.15570842 0.16580026 -0.01477523 0.01368434 -0.11964957 0.05386926 -0.149911 -0.03350245 0.035905115 0.017095752 -0.021201113 0.1441824 -0.09370116 0.025441771 0.022928916 0.009759958 0.080466285 -0.15219064 -0.15928614 -0.008464471 0.01253037 -0.1720944 0.023731202 -0.034930207 -0.033980608 -0.11227821 -0.09630992 0.104751 -0.008565 -0.10696899 -0.017007686 -0.09509579 0.14782663 -0.118961975 0.023658883 0.14792435 0.10880963 0.072020896 -0.02069508 0.14994726 -0.01418657 -0.10855203 0.2050395 0.112180576 -0.047377072 -0.047746357 -0.057319768 -0.075966634 -0.12518981 0.010455262 -0.083012514 0.07025542 -0.034901734 -0.10119994 0.10189065 -0.012947384 0.002397418 -0.064387105 -0.09511599 -0.03313282 0.042415727 -0.0607026 -0.14675546 0.066151135 0.090711996 -0.065984786 -0.011229517 0.040069915 0.10047844 -0.09789075 0.092827044 0.13580693 0.0029945066 0.09176727 -0.047587063 0.049009435 -0.084119424 -0.119246066 -0.034336492 0.051178444 -0.07408973 -0.05906357 0.093829796 0.09971806 0.05167111 0.05465979 0.087283134 -0.15006438 -0.03140543 0.073544756 0.029724287 0.08665504 0.10107836 -0.06257766 0.0051806564 -0.029603073 -0.13938725 -0.11330246 -0.050755844 0.021767939 -0.07874381 -0.1315489 0.03306297 -0.024553932 0.124882035 0.029828906 -0.01581701 -0.04691781 0.04617348 -0.03196344 -0.13960236 -0.10673068 -0.12517598 0.009533067 -0.04144427 0.14152627 0.1237716 0.15608995 -0.07821512 -0.123812735 0.048398692
of 0.13830288 -0.12469653 -0.14342192 0.030636782 0.098685615 0.00290286 -0.00273953 0.03185228 0.11257343 0.18719606 0.11389693 0.17587574 -0.0075512263 0.14072391 -0.057020187 0.061739996 -0.14326152 -0.07762691 0.20533001 0.050506823 -0.12749863 -0.04640267 0.014344816 -0.17480914 -0.08799729 -0.008659945 0.12606041 -0.122121125 0.026564851 0.0011821724 -0.06721772 -0.17252477 0.030244518 0.09277607 0.031424183 0.019653264 0.18387246 0.068122074 -0.10042915 -0.12956218 -0.07239932 0.015143858 -0.11088242 -0.029973142 -0.031312622 0.04453317 0.017606253 0.06547653 0.04041571 -0.06484053 0.065991186 0.06511591 0.1599811 -0.07699904 -0.12339023 0.021323778 -0.068689615 0.15285587 -0.003965278 -0.060913637 -0.07400606 -0.20800206 -0.027830208 0.15683869 -0.16192189 0.04640268 0.117010675 0.039719198 -0.031821333 -0.0051235114 0.03446126 -0.034564666 -0.07946007 0.055080146 -0.07574236 -0.06400969 0.02850864 -0.09983431 -0.009128522 0.053086523 0.08615661 -0.008642289 -0.06313803 -0.048091087 -0.17606936 0.07391802 0.04252551 0.10132363 -0.054346118 -0.085902445 -0.010800812 0.084801845 0.13407536 -0.11635113 0.12556438 -0.09090326 0.1188444 -0.07591152 0.0449919 -0.00478987 0.03427651 0.10410464 0.124840006 -0.070479535 0.03027139 -0.014603106 -0.028753698 -0.037261747 0.02570198 0.05190666 -0.1157217 -0.030807296 -0.040483415 -0.025283227 -0.042225115 0.19357733 -0.06672168 -0.15939419 -0.06722465 0.11961419 0.0883306 -0.14585133 0.122023694 0.024641294 -0.11412703 0.0498684 0.06729488 -0.1731231 -0.13495353 -0.15614673 0.1569642 0.07932322 0.059985053 -0.099979214 0.0025313408 -0.121712744 -0.17999367 -0.12648882 -0.15850285 0.06031116 -0.08589971 0.03915839 -0.19304211 0.037293416 -0.0454525 -0.08950224 -0.07393583 -0.034346998 -0.04724778 0.12560147
was -0.028438007 -0.021816215 -0.08536079 0.09664803 0.071360715 -0.08128431 0.02893148 0.07821949 -0.059860706 0.074368864 0.010674701 -0.009364115 0.065723255 -0.08874406 0.023825051 0.038380798 -0.068249956 0.09273453 0.038374193 0.05975189 0.014361975 -0.04975574 -0.092575535 -0.09257411 -0.04975245 0.0576794 -0.021493098 0.0996214 -0.14001478 0.044653162 0.09916701 0.09688065 -0.12792914 0.082502976 0.09880689 -0.12365879 -0.073716655 -0.15261549 0.018404173 -0.05058894 -0.056121185 -0.088282675 -0.05737781 0.0073190015 0.031112727 -0.08647869 0.08222516 0.03698377 -0.00847394 -0.0075297505 -0.10303434 0.093662016 0.045832023 -0.07094321 -0.05714412 -0.07629246 -0.11507304 0.013647211 0.014709036 -0.028421579 -0.15434377 -0.050029475 -0.09880604 0.008562993 -0.08632917 0.052781906 -0.020772936 -0.10121127 0.07459983 0.06313677 -0.059307285 0.014825788 0.10426149 0.037236962 -0.099843465 -0.15598023 -0.0069628917 0.18964383 0.05719956 0.05586336 0.0062231245 0.029687779 0.08147963 -0.10538521 0.03149806 0.0768887 0.033638738 0.09323499 -0.014649648 0.11405518 0.07327555 0.01600543 0.0049357675 -0.0060208873 0.109990984 -0.05362627 0.155253 -0.019683417 -0.059331145 0.09615262 -0.061895844 0.036323186 0.020542443 -0.10327219 0.060230058 -0.03986368 0.111023225 0.15852077 0.12869683 -0.00029975106 -0.17998616 0.03510421 -0.059614472 0.060545556 -0.025716191 0.07057109 -0.074568786 0.10323101 0.06660856 -0.017384319 0.033961557 -0.12177762 -0.06742318 -0.14629415 0.011524171 -0.020805698 0.03863878 0.03325087 -0.0881429 -0.035401117 -0.06755734 0.033883758 -0.061058547 0.052301116 -0.13569924 0.025687808 -0.08883985 -0.019616337 -0.035879888 0.1120151 0.079271235 0.095080145 -0.13642007 0.0040288297 0.0069877217 -0.005844877 0.0098277675 0.026591353 0.05781986 0.07107718
in 0.044825464 -0.13515355 0.017136501 -0.002870981 0.10522304 0.010759708 0.034486238 0.050170276 0.033707656 0.038438898 0.025916237 0.07916343 -0.061943572 -0.042967834 -0.11084012 0.027700135 -0.018121038 -0.0030185133 0.11426264 -0.06795347 0.10374164 -0.1464598 0.02086707 -0.08344433 -0.08822719 0.077764206 0.11524594 -0.027592506 0.04694743 -0.04007216 -0.0034522358 0.021100556 0.066444375 0.17386362 0.00053957186 0.017014235 -0.009880278 0.07016585 -0.025101703 -0.089314975 -0.099431686 -0.0050744517 -0.12347349 0.102337085 0.08062757 -0.018733244 0.10988105 -0.16197415 0.08467869 -0.037158668 0.06630297 -0.049799964 0.026987635 0.0040525757 0.06263395 0.12230148 -0.040442683 0.050809063 0.07801103 -0.12809871 -0.15458216 -0.07108919 -0.14019962 0.07256357 -0.16019976 0.12848917 0.08566696 -0.07937513 0.02920697 -0.08868446 0.021454036 -0.067384645 -0.05821687 0.18509285 -0.1246884 -0.11445885 -0.028583659 0.024458697 -0.01999608 0.02957848 0.10346174 -0.008336502 -0.019324597 -0.028972695 -0.12754434 0.045317568 0.15879655 0.049495008 -0.10904233 0.08011551 -0.08672319 0.10601967 0.1126917 -0.114956304 0.00980851 -0.10291708 0.05021085 -0.0057942714 0.064792335 -0.014541249 -0.024243277 -0.035071224 0.0054835603 -0.08951435 -0.09688828 0.015125615 -0.03341304 -0.055613644 -0.05879589 0.090748705 -0.0068527083 -0.014587882 -0.0868938 0.017150674 -0.18123846 0.08920862 -0.08141407 -0.054564953 0.10296051 0.007825965 0.16373986 -0.0954481 0.08003382 -0.10857163 -0.058263298 -0.06530987 0.019784693 -0.03383297 -0.08120132 -0.10863967 0.083770536 0.053611986 -0.07237486 0.050630476 -0.06893312 0.1495873 -0.1006078 0.044974077 -0.058512207 0.11441989 0.024317274 -0.106616534 -0.15448602 -0.008301192 -0.021560948 0.055408537 0.07004293 -0.036053855 -0.054526918 0.055756208
alice 0.08994052 -0.09699175 0.012105391 0.10188978 0.01801729 -0.0059046685 0.07859222 -0.074584186 0.10584248 -0.043318618 -0.010253749 0.035449665 0.05559727 -0.04266582 -0.11035988 -0.13718314 -0.06974674 0.031946614 0.10458624 -0.04190576 0.113809004 -0.029458039 0.103834204 0.108880386 0.009949145 -0.12413264 0.017820626 -0.02563943 -0.07481743 0.11961969 -0.044622425 -0.09776328 0.026216473 -0.0019787839 0.113263994 0.030826109 0.015804455 0.093727015 0.026838463 -0.00305596 -0.010659499 -0.029619485 0.017540336 -0.11777082 0.062232677 -0.0853497 0.046196576 -0.09718569 -0.12434 -0.07017744 0.04724647 -0.06027994 0.065017134 -0.013009459 -0.0293844 -0.054384988 0.10124238 -0.005470845 -0.0071090134 -0.061221235 -0.0877851 -0.0133389635 0.07564212 0.09061562 -0.011170121 0.12444716 -0.06302429 0.12484165 -0.0059168693 -0.103616185 0.026618956 0.043775972 0.13491514 0.07598507 -0.0035364842 -0.13817355 0.00015963805 0.09197124 0.066683345 -0.1625943 0.0066080233 0.07517711 -0.085975125 -0.022249624 -0.041102495 0.10366758 -0.045439295 -0.1018321 0.0007709291 0.094081 -0.009375906 0.05704151 0.09220591 -0.042493246 0.007601644 -0.08151496 0.04816623 0.0689543 0.024626631 -0.006431794 0.036106005 0.0649969 -0.03250894 0.05482998 -0.038676 -0.06618581 -0.1152324 0.016274445 -0.09452154 -0.038047686 -0.09042136 0.08633461 0.05258229 0.09574762 -0.030655826 -0.013811661 0.060008116 0.09357427 -0.04771868 -0.06980625 -0.04462964 -0.024984628 -0.095141284 -0.081539206 0.0050761187 -0.19138527 -0.11324158 -0.08286099 -0.029466132 0.0018845976 -0.06895503 0.05513907 -0.100874685 -0.018067913 0.014141642 0.13691199 0.08140975 0.04797568 -0.03828849 -0.07850148 -0.04730929 -0.13194735 -0.057985745 -0.1371301 0.14470361 0.08871145 0.019007789 -0.16031596 0.055243704 -0.090572715
you 0.09641681 -0.10866392 -0.10290397 0.025938615 -0.1273105 -0.038236916 0.09518057 -0.058933657 0.043802954 0.025009984 0.022680443 0.035653118 0.040628523 -0.015903391 -0.06695535 0.060159195 0.09666098 -0.09142342 -0.09227694 0.06768525 0.040241003 0.094983265 -0.07176847 0.18209632 -0.0511036 -0.00977338 0.081578195 -0.09125116 -0.05558181 -0.078464456 0.048400164 -0.17197986 -0.02488391 -0.07160871 -0.07173097 -0.1307397 0.08526467 -0.07106363 0.053945024 -0.09259507 -0.02598309 -0.049278293 -0.014668977 -0.057052195 0.097411804 0.06445782 0.10366865 -0.10788985 -0.12236823 -0.109268256 -0.12424297 -0.024381595 -0.07222549 -0.032654945 -0.052980922 -0.04684416 0.101470165 -0.09893772 -0.10329456 -0.045515332 0.03446555 -0.07872619 0.13555731 0.087585114 0.039571777 0.0170685 0.14893049 -0.11720436 0.13824688 -0.0172941 -0.14763893 0.10491275 0.21758673 0.09680962 0.12568493 0.09151575 -0.14582627 0.09456261 0.03779303 0.02290679 0.0889867 -0.0027947386 -0.14736313 -0.017414875 -0.03041578 -0.024975797 0.08105698 0.11046902 -0.14650425 -0.07416206 0.093972415 0.012668616 0.047659364 0.10311516 -0.014703812 -0.08333905 0.06438365 -0.045316916 0.04972685 0.09839284 0.033745322 -0.10947102 -0.0037972298 -0.056375574 -0.07655187 0.09317221 -0.14929625 0.021496957 -0.0019644878 -0.13754144 -0.119163744 -0.031792086 0.08529763 0.075201504 -0.016105065 0.07968282 0.0676504 0.038356677 -0.0014428034 0.013670595 -0.08447514 0.061924543 -0.12925175 -0.12536389 -0.07929367 -0.07772999 0.06393147 -0.07213073 -0.11120327 -0.11035069 -0.060642734 0.039284196 -0.08824614 -0.034868985 0.13567838 0.02331957 -0.040282413 -0.09033222 -0.087780274 -0.0042615486 -0.16328692 -0.039455928 -0.08263765 -0.06920773 0.081232525 0.111532085 0.10380984 0.025146475 -0.1479819 0.07722503
that -0.011857181 -0.060683448 -0.030525602 0.099600345 -0.11203072 -0.045122538 0.044270176 0.021324804 0.040963724 -0.022783631 0.0017261424 0.039492622 0.009663118 0.021091722 0.059952118 0.02820775 -0.08018242 -0.046782453 0.045370694 0.08098851 -0.040865447 -0.076195225 0.015691444 0.025214536 -0.09210274 -0.016210362 0.033235345 0.020005647 -0.043102644 0.107163064 0.108554564 -0.0010045843 -0.06350502 -0.11013324 0.030377308 -0.091340505 -0.06715537 -0.11489689 0.014245385 0.028730525 -0.0050169667 -0.069473185 -0.055116035 0.007304636 -0.047861073 -0.062027294 0.03204691 -0.13949332 0.013047914 -0.08615143 -0.05033649 -0.01466375 0.016225353 0.076565176 0.043772135 -0.050955825 -0.060641326 -0.034966774 -0.1403725 -0.07608218 -0.07691707 -0.08127633 -0.032719143 0.08896002 0.012254316 0.050742622 -0.021094957 0.033726905 -0.007978641 0.02145338 0.008865775 0.02810857 0.01887043 0.09811792 0.08871561 -0.11651042 -0.03222388 0.07245515 0.02921035 -0.07331581 0.0302537 0.0089766765 0.04634841 -0.042692322 -0.1380686 -0.044652104 -0.002426718 -0.07532994 -0.012593584 -0.006537934 -0.05685181 0.090456165 0.029295113 0.06833999 -0.057290245 -0.058946088 0.081442736 0.028279018 -0.121284805 0.0051162024 0.015214543 0.009905301 0.02220721 -0.015818918 -0.029616535 0.022374947 -0.01816344 0.03689139 -0.07099372 -0.032068558 -0.032509614 0.032763932 0.09233904 -0.00055016903 -0.043108106 0.056796543 -0.024754034 0.090338275 0.07099827 0.017015155 0.025431408 0.07027778 -0.008255549 0.008239774 -0.10701987 -0.010508852 -0.006448848 -0.025258686 -0.045595314 -0.014752079 -0.08318407 -0.0011767498 -0.06212934 0.07493389 -0.05222083 0.11751377 0.003587389 -0.052005 -0.013121944 0.032974087 -0.044536337 -0.018105218 -0.04059607 -0.07064524 -0.018204661 0.018609388 0.069351904 0.029149238 0.015677001 0.073060095
her -0.099601865 0.05130164 -0.096322514 0.08446252 0.00865335 -0.031433735 0.016038418 0.0647314 0.061599355 0.03810977 0.07631776 0.0616473 0.073019266 0.041956466 0.02268052 0.026502097 -0.03513159 -0.07324889 -0.01347109 0.0037495068 0.002357101 -0.08541063 0.05312201 -0.010488337 0.068641156 -0.057012692 0.048860744 0.031018823 -0.017647697 0.026690908 0.030646978 0.050962 -0.03426205 -0.015573634 0.11581307 -0.07769343 0.016715553 -0.019416977 -0.1385509 -0.08210592 0.06308156 -0.016205143 0.006044505 -0.013152551 0.007285433 -0.06237926 0.08686215 0.010765058 -0.14120793 -0.05645569 -0.07909563 0.15370655 0.07093854 0.14543177 0.05702883 -0.01535863 0.04837974 0.020957343 0.04942738 0.0045773797 0.08004593 -0.029784234 0.035511196 -0.050513268 -0.03005092 0.15939438 -0.004480692 -0.009329279 -0.021336086 -0.044386324 -0.027378438 -0.029406406 0.11525857 -0.054924767 0.05195961 -0.0077275755 -0.13659862 0.0333341 0.12449532 -0.1241612 -0.025652695 0.031643406 -0.089727275 -0.008137333 -0.0706333 -0.08897441 -0.021467295 0.056950264 0.04843497 0.10908904 0.04154813 -0.10742011 -0.023282763 0.13753563 0.014384177 -0.035545565 0.058601234 -0.047722273 -0.037167232 0.16700737 0.123726524 0.04639904 -0.12684464 -0.07070517 -0.044964094 -0.029661667 0.13473037 -0.09313901 -0.09067534 -0.120962426 -0.03238667 0.043849625 0.04918261 0.13458921 -0.012715949 -0.004869928 0.0698936 0.038967095 -0.013713002 0.09899118 0.040964995 -0.050289996 -0.033677373 0.015349997 -0.018373298 -0.08698343 -0.11215888 -0.047794215 -0.12543604 -0.040408563 -0.06446901 -0.00014131644 -0.19907437 0.11105084 0.15600887 -0.09064596 0.0040369583 -0.0914016 0.08117582 -0.1313943 0.011153687 -0.1507633 -0.01923839 -0.018191788 0.13018374 -0.034365285 -0.012134007 -4.2755506e-05 0.038399674 0.13042971
as 0.020755801 -0.09319943 -0.027286138 0.049002323 -0.08360073 0.020293593 -0.08689067 0.10024121 -0.00047869002 0.07063304 0.0061562117 -0.009489926 -0.05048227 -0.042368792 -0.091247484 -0.025950931 -0.06760885 0.039252225 0.0511668 0.058628235 -0.13512832 0.040574685 -0.14175276 0.0799443 0.0049984083 -0.080706075 -0.005099437 0.0075218454 -0.11413834 0.14556588 0.043762155 -0.05457188 -0.062139787 -0.074250184 0.05800391 -0.09610494 -0.017621882 -0.09996562 -0.0038227816 0.021460896 -0.14443634 -0.1639619 -0.04733965 -0.15472654 0.10954077 -0.059447184 0.07801141 -0.13437064 -0.045815114 0.03096638 0.013746004 0.0053189415 0.09299742 -0.1033295 -0.01540614 -0.03818909 -0.15006596 -0.10821713 -0.037233457 -0.09299281 0.015643233 0.11832926 -0.01787368 -0.040477347 0.062374253 -0.07672063 0.010412837 0.057890046 0.16272832 0.021646332 -0.1007258 0.105753995 0.067858085 0.054163173 0.11812604 -0.07421553 -0.09448326 -0.027620533 -0.055154882 0.05634994 -0.013237163 -0.036226016 0.039108314 -0.1228953 -0.0913693 0.13131854 -0.13626328 -0.018261092 0.037283886 0.00864413 -0.020616565 -0.09791764 -0.06721431 0.15952617 -0.059908114 -0.12415056 0.06966527 0.06775777 -0.08333319 -0.05358161 0.09682502 0.05437973 -0.09987496 -0.090074405 -0.084666036 -0.07682162 0.12413056 0.15659559 -0.09033665 -0.041958936 -0.091872625 0.026937284 0.020303344 0.08174436 -0.13375798 -0.023888126 -0.024004774 0.0027135364 0.0030091512 -0.07916843 0.082148336 -0.12689859 -0.09670322 -0.110300876 -0.105483554 -0.026609221 -0.072197974 0.08825658 0.012564968 -0.047813997 -0.10053749 -0.046917766 -0.015088813 -0.027482023 -0.024942914 0.17007141 -0.027091572 -0.076900385 -0.10916923 0.04107687 0.027453126 0.004726547 -0.008773544 0.089374974 -0.062335715 0.1331827 0.13128282 0.019596715 0.10016625 0.018467255
said 0.07189339 0.014570679 -0.14930743 -0.03303886 -0.0062386547 -0.11893587 0.006129675 0.08696705 0.03870337 0.09382036 0.07346268 -0.039097834 0.007699447 -0.07606803 -0.14524153 0.06504904 0.020846507 0.041595906 0.010385166 0.020106304 0.06706848 -0.10477999 -0.013991874 -0.06672769 0.017562622 0.10126238 0.06966671 0.03976488 -0.023065839 0.01786876 -0.051914975 0.03513845 -0.13595894 0.08041806 -0.0038408432 -0.054026645 -0.03623229 -0.048012096 -0.10277182 -0.017592732 -0.012509193 0.023661658 -0.098499276 -0.14373876 0.08151248 -0.009169673 0.032945376 -0.0034724358 0.021712327 -0.13140006 0.04392604 -0.02924236 -0.039593354 0.08490518 -0.084257714 -0.0013849819 -0.005292586 0.020520547 -0.07813052 0.0077617285 -0.0012120109 -0.04354507 -0.14923637 -0.031570267 -0.08716926 -0.05645481 0.031538174 0.03408536 -0.058606584 -0.04167176 -0.0185124 0.018033959 -0.0049315565 0.055603344 -0.03917175 0.007055978 -0.010897374 0.059407428 0.06299284 -0.006162537 -0.032470066 -0.0025851994 -0.027775135 -0.06841708 0.05128987 0.0050768596 0.012343563 0.09146194 -0.04942225 0.0031906203 -0.07181971 0.013569477 -0.022515127 0.026648268 0.10577929 -0.06447374 0.15092243 0.047553655 -0.065389045 0.07325029 -0.026713483 0.03206258 -0.027883703 -0.13782284 -0.03151795 0.06418117 0.13907585 0.009173403 0.018649383 0.0069553363 -0.019857422 0.081626385 -0.0060136416 0.12193432 -0.06489743 0.030281708 -0.03395712 -0.017034573 -0.10849279 0.052765597 0.047619354 -0.077385634 -0.061387643 0.04178566 -0.0012633522 0.078215644 0.097457595 0.077155605 -0.07229196 -0.04902596 -0.01481579 0.03071084 -0.03656189 -0.037180204 -0.015098001 -0.06817147 -0.08637543 -0.032157265 -0.08946515 0.041820128 -0.029522967 0.026963351 0.030100185 0.060221896 -0.025997568 -0.06874956 0.011741075 -0.024033114 -0.00047302028 0.035284873
had 0.012246083 -0.014562407 -0.06229948 0.074030936 -0.05858598 -0.0844609 0.11084508 0.06707621 0.048547022 0.04914489 -0.032205664 0.032473475 0.060431182 -0.05496898 0.042509735 0.027448462 -0.07595464 0.037558045 0.03124642 0.093011536 0.10727031 -0.05908851 -0.02998156 0.024329321 0.01949174 -0.039690092 -0.004954878 0.025393449 0.01832167 0.13610959 0.03903188 0.04655572 -0.05977555 -0.044226132 0.113824606 -0.09575508 -0.067898296 -0.10756636 0.0048488774 -0.021483788 0.019780822 -0.047647107 0.04910304 -0.09925672 0.10664272 -0.013259007 0.08870735 -0.086080894 -0.048695296 -0.08573254 -0.06090558 -0.0020985173 -0.055362422 -0.039881904 0.03448186 0.0020701806 -0.037203003 -0.08417096 -0.09071437 0.008930106 -0.057198282 0.062136408 -0.11737542 -0.061394785 0.05366686 -0.029843967 -0.05938864 -0.10457495 -0.0061222496 0.04165461 -0.12371695 0.029095605 0.06854863 -0.02651985 -0.04853886 -0.0142173 0.0066205375 0.059815347 0.1138722 0.041519888 0.0077513754 0.06610253 -0.055835027 -0.07860157 0.0067451363 -0.051495202 -0.031612914 0.05067774 0.026146105 0.12331328 0.053227853 0.011167115 0.0741467 0.086310044 0.046579726 -0.03219472 0.122896105 -0.029206961 -0.04233921 0.115466654 -0.0333109 0.06410948 0.020735273 -0.06364435 -0.04754848 0.09098579 0.018248552 0.11568002 0.0927476 0.05060126 -0.1398192 0.14077984 0.010297813 0.08766056 0.0058189626 -0.063019976 -0.07394717 0.085337825 0.035059467 0.08550182 0.056019023 -0.09502034 -0.11085278 -0.08258657 -0.06137162 0.013087631 -0.0007450811 0.01142905 0.040202044 -0.10428121 -0.100172825 0.037491463 -0.029641625 0.09308497 -0.0738187 0.12178556 -0.007234455 0.06813923 0.011882479 0.062243827 0.0347752 -0.012744527 0.030796545 0.053080652 0.077104405 0.0037313844 0.06497998 -0.011844998 0.0478059 0.11976781
for 0.07043894 -0.10157439 -0.005515963 -0.027687255 0.026912274 0.045952354 -0.012888852 0.08039183 0.063949496 0.09869101 0.06875592 0.05827871 0.017026566 -0.059182957 -0.055116337 -0.0735319 -0.046111714 -0.085744254 0.036580864 0.02586508 0.07297383 -0.09876552 -0.062868826 -0.036815494 -0.007365782 0.043392446 0.061818305 -0.09095396 0.027402176 0.020187235 0.054469313 -0.068187416 -0.061278574 -0.021586945 0.04974834 0.0011640429 0.077763535 -0.08399673 0.009519291 0.009045769 0.0038778433 0.010510252 -0.02328686 -0.047873475 -0.053260338 0.020719104 0.06468019 0.024233716 -0.029250922 -0.037777815 -0.0833141 0.08977825 0.043203942 0.039868277 -0.038636263 -0.005849273 -0.03879942 0.003802767 -0.032109253 0.0013913973 -0.0949784 -0.027156537 -0.09237417 0.11586861 0.016718421 0.011185341 0.075047754 -0.07999689 0.084468424 -0.050075326 -0.1069456 0.06666523 0.041132823 0.047697846 0.091813885 -0.06548503 0.024848353 0.059891336 -0.038236633 -0.019147737 0.041109633 0.04370396 0.06191828 0.011756642 -0.05754246 0.012658531 0.059479345 0.10739273 -0.069226734 -0.019327402 0.03856983 -0.011287361 0.058933306 -0.08214023 0.05148419 0.014510666 0.076585464 0.013336146 -0.079818875 -0.0129047325 -0.016534086 -0.044850904 0.021306649 -0.044839077 -0.034670617 0.08172323 0.06367984 0.06870288 0.056884367 -0.061127793 -0.11273853 0.02460028 -0.00043313648 0.06785848 -0.113398336 -0.014075309 0.004318152 0.010070697 0.020016562 0.05528498 0.06380348 -0.10946202 -0.102958746 -0.04597596 -0.083306536 -0.035106346 -0.046255395 -0.022114368 -0.07791146 -0.013432 0.04745585 -0.016805392 0.05826726 -0.019583963 0.049424767 0.028864114 -0.0068637417 -0.049373895 -0.07345967 -0.05603724 0.016337346 -0.02138099 0.0025158487 -0.044970103 0.03240539 -0.066433616 0.028712459 -0.030631248 -0.06406993 0.115021765
but 0.090994775 -0.019021781 0.010726146 0.10348264 -0.11842719 0.011015782 0.057583958 -0.022137707 0.080939755 0.0051651355 0.06292796 0.04726248 -0.011800124 0.017433597 -0.009125082 -0.054670796 0.004607234 -0.022308787 0.043617357 0.10032665 -0.02439014 -0.10112046 -0.05758287 0.05690714 -0.100359656 -0.041688688 0.071409725 -0.0043011797 -0.026333358 -0.028094042 0.08487666 -0.03147612 -0.12770271 0.060846835 0.07752084 -0.0010191854 0.0680522 -0.058064878 0.025182722 -0.027634095 -0.017008685 -0.048754342 -0.052915182 -0.039528698 0.055602834 -0.05204351 0.044115484 -0.051035997 -0.008295104 0.011020054 -0.013780001 0.078207545 0.014648493 0.018901573 -0.021279007 -0.021387462 0.0026603863 -0.02812503 -0.08415022 -0.0051008607 -0.011572963 -0.08253596 0.00063912175 0.01984791 0.0020147557 -0.0340287 -0.0012329544 -0.08854984 -0.09187903 -0.06807207 -0.018578721 0.09453213 0.05704477 0.0743378 0.12007207 -0.06224691 -0.044251505 0.014050875 -0.03711214 0.04342213 -0.031794354 0.060638685 0.0033956254 -0.0755537 -0.1089957 -0.013190179 0.061932437 0.065600246 0.021822512 -0.014073156 0.13919733 0.05477701 0.02853151 -0.075204164 0.071861744 -0.027193094 0.029392647 -0.08961918 -0.06500749 -0.024398215 0.053315677 -0.008527789 -0.08454529 -0.04613682 -0.09445333 0.024266604 0.060252 0.08729185 0.08511939 -0.06928081 0.05473454 -0.00765121 0.014583519 0.029480498 0.004434217 0.11202027 0.051743187 -0.022427317 -0.10483616 -0.04065568 0.024637396 -0.025648994 -0.102856986 -0.08035629 -0.060682464 -0.0753669 0.033723023 -0.07740441 0.017725538 0.02015534 -0.101077214 0.009997194 -0.07198483 0.00077709614 -0.023212418 0.014899282 0.025643298 -0.11496398 -0.04155774 0.042130806 -0.0515951 0.008259864 -0.078109816 -0.046251 -0.044964533 0.013945161 -0.010188317 -0.040211737 -0.036324263 -0.02025562
be 0.08279847 0.04373833 -0.11872697 0.07716557 0.0410614 -0.03883332 0.12049774 0.13300663 0.11747382 -0.07071461 0.019050295 0.053213984 0.0011547186 -0.042919412 -0.054513477 0.090150066 0.0043512573 0.05931095 0.041423026 0.05252996 0.08203909 0.019175416 0.049186375 0.026676407 -0.1325153 -0.053828206 0.061143406 -0.12975976 -0.08854528 0.031856813 0.13898614 -0.016679065 -0.1590989 0.11932742 0.0466534 0.0631768 0.09974469 -0.0111374175 -0.03349455 -0.08963176 0.01897702 -0.014970335 0.0602131 0.07570678 0.026768604 -0.020327048 0.080047175 -0.061670326 0.015638562 -0.074589185 -0.031130802 0.1292496 -0.018465836 -0.013845382 0.0454471 -0.004682357 0.014409261 0.0070814984 -0.097635195 -0.076349564 0.06285788 -0.020589784 0.032472063 0.09137053 -0.09518173 0.022823157 -0.012649731 -0.0091932 -0.008219323 -0.1382392 -0.080439046 0.14940545 0.047483604 -0.08025305 -0.023920983 0.021142097 -0.022112643 0.06427828 0.100186385 -0.07021332 -0.036688123 0.022104643 -0.113652684 -0.094635524 -0.05259144 -0.0035123737 0.07567529 -0.09336446 -0.08899084 0.13110991 0.05508917 -0.05180451 -0.025794353 -0.012565362 -0.04230567 -0.106999 0.105537854 0.02256673 0.083689325 0.09448345 0.032282878 0.0030720744 0.019424194 -0.061996475 -0.09485538 0.13758731 -0.0046549486 -0.034703076 -0.06874604 -0.042448495 0.014795381 0.02190162 0.021748351 -0.0025699302 -0.08813245 -0.027495362 0.047352236 -0.10647391 0.012911224 0.040734213 -0.058588702 -0.030247435 -0.032124817 -0.107645296 0.00043360644 -0.14316016 0.072474726 -0.048410818 -0.012665199 -0.11048314 -0.08351425 -0.03609152 -0.0530448 0.14127362 0.13992906 -0.000732568 0.058172796 -0.06378979 0.043106135 -0.12400854 0.0016791046 -0.035879787 -0.045033857 -0.009236111 -0.073763885 0.13300735 0.06282741 -0.00076103193 0.026891217 -0.0676808
on 0.0073550534 -0.11109465 -0.060010534 0.02036975 0.06807255 -0.04757959 0.040563505 0.12344966 0.085643314 -0.026218135 0.0016442005 0.04416771 -0.036283385 -0.050824217 -0.061395433 -0.07928876 -0.03922686 -0.056188136 0.122591846 0.0040058186 0.07251042 -0.060928475 -0.029965648 0.06496561 -0.10102223 -0.052658312 0.086250596 -0.025079243 0.013399493 0.054185968 0.039837558 0.046364486 0.015430154 0.11535851 0.0142123485 0.042553935 -0.01006496 -0.08391047 -0.0115440665 -0.057456486 0.032738265 -0.032708973 -0.014718204 -0.06713751 0.043629345 -0.04009743 0.1160443 -0.062142786 0.010257242 -0.010659177 -0.09680423 0.11169371 0.06827027 0.10011543 -0.072791 0.12069975 0.005928831 -0.048097193 0.024258258 -0.01130624 0.016482173 0.023277644 -0.09263156 0.075726576 -0.0139923515 0.06122525 -0.027615912 0.032855023 -0.04453027 -0.02881967 -0.010217363 0.027292335 0.093072675 0.002994802 -0.0122847995 -0.014479113 -0.03578758 0.046432 0.06632078 -0.048084263 0.030713411 0.049511377 0.032882635 -0.11133266 -0.04752709 0.074641734 0.056865476 0.058463074 0.028459745 0.0021018959 0.02429558 0.0026292927 0.098342404 -0.049798977 0.0016067487 -0.01893311 -0.018969715 -0.024251264 0.004355387 0.07686963 0.06855916 0.04477423 0.020271659 -0.04305525 -0.00862215 -0.02570063 0.053672593 0.025008721 0.02588974 -0.024150137 -0.005546776 -0.0033582812 0.0008992569 0.02987115 -0.04892572 0.0044234665 0.0008637166 0.011276065 0.048312154 0.0663421 -0.016337631 -0.08880622 0.028544633 -0.0003388957 -0.114550315 0.0043145106 -0.0018656579 0.041342743 -0.0784361 -0.044277456 0.056035277 0.080073826 -0.009957545 0.096436 -0.04507225 -0.017331438 -0.057847057 -0.05391576 -0.042731848 0.06527532 0.022240445 0.049569495 0.01909387 -0.0076165777 0.03597951 0.10166354 0.069997594 -0.08945774 0.068385534 0.123797655
all 0.13507976 0.044472232 0.0011302213 0.039763946 -0.0624833 0.016646972 -0.031188356 0.066502765 -0.0409747 -0.03265417 0.10778052 -0.031872127 0.010717723 0.05755619 0.06056959 -0.024252813 -0.026677735 -0.11241043 -0.05182721 -0.05333579 -0.022092888 -0.07163931 -0.004867286 -0.050956555 -0.064118855 0.024354534 0.062234145 -0.014870782 -0.092106245 0.061264675 0.12972717 -0.16201672 -0.091569126 0.01418243 0.09898304 0.041194472 0.0956271 0.011062031 -0.02771194 -0.062614 -0.05408332 -0.10341213 -0.061411858 0.015693905 -0.06088294 0.021046795 0.09402859 -0.005304467 -0.032224856 -0.013814511 -0.092965364 -0.048597757 0.0696213 -0.0037870526 -0.045743305 0.103306554 0.003327484 -0.044648174 -0.08739682 0.033303324 -0.07068253 -0.08378642 -0.004392338 0.13786183 0.03345447 -0.024242029 0.12378848 0.036079198 0.05178112 -0.08695174 -0.037893377 0.05974246 -0.06425347 -0.01067614 0.11873391 0.053681057 -0.08828687 -0.07921335 0.03007291 -0.07242126 0.09178624 0.079998076 0.035611182 0.040348586 -0.050393146 -0.06106733 0.079546794 0.0013133737 -0.036809828 0.053345263 0.044742454 -0.047291342 0.001441519 0.050985277 0.069584005 0.015227992 0.05958853 -0.033441305 -0.10480833 0.020462282 -0.022204624 0.047032334 -0.07385656 -0.009978063 -0.039932463 7.588591e-05 0.03441504 -0.004536255 -0.0023683708 -0.0007433845 0.036584582 -0.10352974 -0.016986381 0.058618892 -0.012463531 0.121885754 0.08943633 -0.07065168 -0.033043496 0.08191435 0.029887453 -0.08683696 0.020937737 0.007136974 -0.048861958 -0.07902249 0.042112656 -0.020400304 -0.027446534 -0.095697634 -0.047181375 0.008855286 -0.032832608 -0.05305774 0.04111226 0.055570908 0.013092607 -0.031978246 -0.055268545 0.029786525 -0.0008749026 0.044192556 -0.092600785 -0.04995161 0.111587904 0.0542514 -0.050506562 -0.044174604 -0.02993323 0.025834078
with 0.032468367 -0.03445694 -0.06596407 0.009826025 -0.04070287 -0.04268822 0.030974755 0.088326156 0.13216886 0.071047604 0.109466575 0.045246113 0.08663205 0.0021928074 -0.007880824 -0.0038698423 -0.041006885 -0.018069541 0.02194008 0.021974098 0.037384592 -0.07975672 -0.015165627 -0.12253018 -0.046560146 0.030259553 0.014707812 -0.010069423 -0.010005737 -0.052986536 -0.03523988 0.024781657 -0.08548029 0.06354181 0.100052945 0.053822346 0.0007769986 0.006796763 -0.115597695 -0.10396041 -0.0475001 -0.058146395 -0.13927813 -0.054419342 0.057660226 -0.053126443 0.05784086 -0.07653305 -0.0125082815 -0.049591772 0.020429334 0.04784783 -0.009897725 0.058288246 -0.005793082 0.028372342 0.0946884 0.081463575 0.0187327 0.01583216 -0.014082521 -0.03062532 -0.103307456 0.0803266 -0.049453355 0.08041659 0.10237435 0.008645895 -0.09329148 0.010643784 0.013724709 -0.066437885 0.02067608 0.024368117 0.04283809 -0.05148252 -0.026457123 -0.08237129 0.064131856 -0.034130435 0.10719668 0.11779288 -0.08923108 -0.04224144 -0.12674563 0.020540534 0.02125259 0.09307904 0.068997525 -0.02658862 -0.015063756 0.10356399 0.06871661 -0.098360375 0.05388133 -0.049487073 0.064246565 -0.0043576076 0.020155685 -0.04036377 -0.07116199 0.11693117 -0.04259669 -0.12241981 -0.06346647 0.02397682 -0.0011147422 -0.024711432 0.027620554 0.030579269 0.062075652 -0.036032297 0.05066208 0.11144924 -0.07036034 0.025187284 -0.047470015 0.0011027671 -0.03434996 0.12940001 0.024350015 -0.0590991 0.047432594 -0.010930139 -0.039430603 0.034654614 0.048141036 0.0027840303 -0.062487137 -0.030873977 0.02506962 0.05838538 -0.06650595 -0.05124329 0.04527502 0.050853193 0.008548606 -0.08785745 -0.116660826 0.0042046965 0.009450682 0.035308074 -0.14811222 -0.040395904 -0.009650947 0.073326394 0.006495528 -0.012863356 -0.03701491 0.10201876
little 0.031267796 -0.087908596 -0.014684426 -0.012067553 0.115165785 0.04955887 0.0754713 0.13478896 -0.0016371348 0.1383612 0.022144405 0.044440515 -0.056728937 0.025285074 0.04736583 0.03436618 -0.05698489 0.017172795 0.12674184 -0.00990744 -0.0019501018 -0.12561405 0.074231975 -0.12937686 -0.08242109 -0.032841653 0.052231647 0.03989726 0.024498027 -0.007994218 -0.00849245 -0.055830892 0.0666107 -0.032185394 -0.02771293 -0.017046995 -0.041573506 0.10740136 -0.061332185 -0.010701615 -0.0033579376 0.0818313 -0.14412029 0.041892562 -0.015693106 -0.051376406 0.09698392 -0.002296537 -0.032282356 -0.11482302 0.09041005 -0.00849151 0.09041111 0.008258238 0.022493552 0.0969878 0.009171064 0.09201254 -0.027851459 -0.08212579 -0.14711013 -0.05113912 -0.06479183 -0.011139366 0.00084948086 0.12962788 0.028038234 -0.09677014 -0.10466307 -0.08196511 0.005628516 -0.0292 -0.026721355 0.05823171 -0.087113544 -0.006195318 -0.03874814 -0.042556033 0.03394064 -0.02079292 0.14570636 0.064184815 -0.06489623 0.011637543 -0.051100027 0.12481474 0.020151699 -0.015460756 -0.04312687 -0.027144693 -0.08042561 0.12620598 -0.016633166 -0.08536374 0.098093845 -0.0090380125 0.0030366303 0.04437473 0.04297239 0.040581215 -0.115626134 -0.07963906 0.11294757 -0.068758875 -0.027199171 0.06837187 -0.02040279 -0.08981177 0.00058537244 0.0060662674 -0.030327097 0.04582508 0.018323153 0.076212026 -0.13660997 -0.030448869 -0.11430918 -0.048679106 0.05394289 0.020596819 0.00090315007 0.022122284 0.009376267 0.035361443 0.055896927 -0.02235532 -0.07046956 -0.06162765 -0.08753076 -0.1143038 -0.028299637 -0.058850218 -0.015772637 -0.027859194 -0.06435412 0.0027684867 -0.08973512 0.07710123 -0.12247719 -0.06185378 0.0068243127 -0.06844479 -0.13363513 -0.11241475 0.0046597514 0.023486767 0.013541402 -0.14276612 -0.048369303 -0.04675343
mouse 0.1078913 -0.14396186 0.038146805 0.05642718 -0.017049514 -0.053986285 0.048644006 0.029924773 0.013419537 0.09083703 0.0035036313 0.054304834 0.09122948 -0.08175675 -0.11162514 -0.044136785 -0.019318629 -0.021244401 0.017687663 -0.028855525 -0.044830818 0.0063344724 0.035022397 -0.014845742 -0.094424665 -0.001022919 0.09145155 -0.00059433456 -0.07715369 -0.014932952 -0.038359713 0.036996733 -0.09410582 0.07196759 -0.0010632761 0.063676685 0.07853207 0.042631235 -0.12011058 -0.112166524 -0.115604416 0.032871723 -0.11086922 0.028929986 0.016039263 0.024912037 0.10640915 0.00600715 0.013623515 -0.03336561 0.013341344 -0.007962967 0.08785685 0.027875505 -0.1385515 0.13238628 0.027614642 0.14955333 0.010495784 -0.010760198 -0.07490881 -0.032791458 -0.01686492 0.064056195 0.021329023 0.039546095 0.09518003 -0.046188798 -0.08196132 -0.1318253 0.012943777 -0.08186737 -0.06724619 0.102573946 0.014924671 -0.031416085 0.06323896 -0.010846814 -0.025302488 -0.0689927 -0.011998738 -0.0041749277 -0.003234175 -0.064905465 -0.009179813 0.08887466 0.10818577 -0.023878627 -0.025168123 0.065811306 -0.08002375 0.077331245 0.003268107 -0.11326035 0.091643505 -0.13725573 0.07324988 -0.006505057 0.01903893 -0.06995726 -0.049625065 0.09321391 0.073462024 -0.031414725 -0.11132666 -0.02463346 0.017480081 -0.04842074 0.079861544 0.03928369 0.08873 -0.07739104 -0.025729066 -0.004183738 0.0072951177 0.0009411617 0.024983382 -0.02653049 -0.085101165 0.051760137 0.015084912 -0.041646086 0.030047657 -0.08078823 -0.011378493 0.058641046 -0.030546293 0.009667719 -0.06520169 -0.066158704 0.02168399 0.021186903 0.06327884 -0.05434017 0.03146881 0.05098988 -0.12293298 0.046518262 -0.09646068 0.042884678 -0.03869528 0.007141485 -0.05418144 -0.025666708 0.014938509 0.0027457234 0.059320875 0.0013300602 -0.039697465 0.014905718
down 0.07327134 0.049318768 -0.1023862 0.10071617 -0.079136305 -0.053058688 0.04134185 0.07443757 0.0057096872 -0.03441705 0.09618083 0.074537456 -0.031839896 0.01733284 -0.011083879 -0.012051913 -0.039777126 -0.007407628 -0.03428864 -0.015691321 0.06273285 -0.10245232 -0.124450095 -0.049955714 -0.08042906 -0.10867832 0.013168233 -0.03940533 0.005908923 -0.054763705 0.107767425 -0.07035017 0.01168145 0.055462744 0.010297249 -0.09192248 0.077209555 -0.10347506 -0.09548591 -0.09965792 0.037269387 -0.03172562 -0.061965648 0.048600238 0.042885788 0.04226659 -0.014523505 -0.012451995 0.015731296 -0.048651867 -0.027631827 0.021404602 -0.075059496 0.09558466 0.04871838 -0.041019954 -0.017565217 -0.04651481 -0.067916036 0.01910038 0.020912556 0.021079198 -0.054382164 0.100283355 0.05660689 0.046698894 -0.033137184 0.05010664 0.061153226 -0.053875692 -0.06063734 0.023543026 -0.043677267 0.060149137 -0.026585314 -0.07551129 -0.048861958 -0.012256468 0.10065894 -0.012472479 0.09747413 0.013887688 0.03203102 -0.026135255 -0.11853046 -0.054596014 0.08511186 0.10953523 0.02818765 -0.047261 -0.005784274 0.032634664 0.10503485 -0.03731007 -0.068907365 -0.0075502186 0.07076224 -0.013423219 -0.10358698 0.009213728 0.018792318 0.053260185 -0.024047945 0.022433473 -0.05997246 0.050398253 0.028471354 -0.030213257 -0.002828995 0.009929887 0.04688247 -0.07351392 0.0048667924 0.100699425 -0.05625382 0.011025295 -0.022648746 -0.075005256 -0.07132831 -0.044530872 0.13537192 -0.04710573 0.033864286 -0.056947976 -0.07416279 0.006960188 0.042314988 0.019602016 -0.07163316 -0.073953144 0.043553498 -0.011082308 -0.05721422 0.07683909 -0.023685846 0.09832959 0.018013526 0.014485175 -0.08219745 0.049930528 -0.034481034 -0.008766458 -0.021311702 -0.047451414 -0.07406341 0.031182246 0.047614448 0.042682964 0.021264693 -0.055880968
very -0.0473247 -0.030598804 -0.026008045 0.03839072 -0.047029287 -0.0075352937 0.057669625 0.022384483 -0.034515407 0.008580853 0.07191735 0.09295022 0.06506492 -0.049190417 0.007953801 -0.062164214 -0.08465609 0.040167063 -0.016189821 0.060377795 -0.033723377 -0.061905053 -0.002777102 0.05930883 -0.07117054 -0.11541095 -0.006419722 0.01904094 0.020411106 0.08545591 0.072304 -0.061244648 -0.008829721 0.052663326 0.079769656 -0.0033603623 -0.01857765 0.00903394 0.06364445 0.057722725 -0.023732126 0.005369286 0.03384766 0.0356379 -0.029215574 -0.098573826 -0.0064508133 0.0052224677 0.02992283 -0.033677656 0.041711614 0.019779216 -0.02997861 0.03046336 0.006285056 -0.014370316 0.0038311938 0.03978822 -0.015267855 -0.0009950665 -0.045042217 -0.0452826 -0.07528062 0.0814262 0.02184123 0.07731146 0.045742836 -0.05115508 0.08908631 0.039982226 0.01160012 -0.017111028 0.0556141 -0.012528311 -0.035626005 -0.075089365 -0.027388854 0.026862696 0.0819485 -0.091164164 -0.024153091 0.09242121 -0.1075291 0.042117372 0.027605614 -0.02917106 0.08526267 0.078835 -0.10934195 0.06563561 0.07968099 0.072188124 0.10581228 0.00569314 -0.030740777 -0.083244145 0.054011844 -0.03486705 -0.033709288 0.080598734 -0.0016892022 0.04407481 -0.08619615 -0.058186628 0.0072435024 -0.0049892957 -0.056832727 0.04620006 0.0013129363 -0.052313007 0.0072244564 0.09892037 0.097856276 0.06892735 -0.047015425 -0.035676505 0.012234849 -0.050720844 0.043732792 0.07585492 0.0020771937 -0.014181557 -0.108761705 -0.05692158 -0.07949287 -0.08391143 -0.045108747 -0.076502524 -0.08393255 -0.08766234 -0.029118758 0.06842105 -0.06555832 0.115610465 0.074111186 0.06329207 -0.08621315 -0.04490374 0.028941559 -0.051821552 -0.0409722 -0.024350055 -0.067619756 -0.08695392 0.030614343 -0.031811476 0.013283793 -0.07459909 -0.042106368 0.02804345
this 0.04274665 -0.082601465 -0.02988376 0.11381748 0.04527984 0.07014289 0.0656447 -0.039255366 0.09335622 0.0024174384 -0.039020747 0.029951561 -0.06745038 -0.06845615 0.02757949 -0.025367396 0.012276562 -0.10112383 0.000111089554 0.010076154 -0.027579738 -0.07163723 -0.051601462 -0.04435686 0.058043037 -0.0143660065 0.07058424 -0.06906678 -0.076449335 0.051597103 0.08105242 -0.09071283 0.002429776 0.028958555 0.08025274 -0.06316747 0.04393534 -0.076912664 -0.06513193 -0.06725998 -0.03920925 0.020690683 -0.10553736 -0.04291856 0.046704665 -0.012587779 0.019013578 0.028771287 0.021213196 -0.070776924 -0.08083319 0.09066553 0.063012496 0.09273974 -0.017842073 0.08790845 -0.08454318 -0.04949241 -0.0806514 0.022138458 -0.047923982 -0.01740927 -0.04769074 0.04737697 -0.057660315 -0.0016551346 -0.030181648 -0.04238801 -0.0058998833 -0.08011866 -0.12045568 0.028867502 0.06561302 -0.008595484 0.070737645 -0.025112187 -0.10523311 0.004733364 0.05388892 0.0039020828 0.066044636 0.040159717 -0.021830617 0.050359506 0.029408943 -0.11140501 -0.03291634 0.029170036 0.0020768782 -0.0052072764 0.07480235 -0.061365567 0.012544837 -0.03253696 0.040793527 -0.09896611 -0.0041527436 -0.010953739 -0.104461275 0.07981985 -0.022481594 0.062176995 -0.070233464 -0.044024013 -0.04141924 -0.0304595 0.040205244 0.06885759 0.005178167 -0.06521461 -0.10189777 0.06371303 0.084336616 -0.020169323 -0.085808 0.06649046 0.044358328 0.0108219925 0.015318118 0.07381204 -0.02997359 -0.08804779 -0.10900919 0.03606798 -0.07901771 0.04121486 -0.07266683 0.006681742 -0.099073485 -0.011250318 0.017241215 0.049822103 0.008072173 -0.0061635645 0.084002644 -0.06349409 0.03711314 -0.07272327 0.050532233 -0.03248353 -0.06779773 -0.04068703 -0.032005332 0.023140226 -0.025396684 0.015673226 0.025224097 -0.03254206 -0.03901989 0.02745221
not 0.07502264 -0.054865383 -0.08638681 0.0716331 0.011635612 0.017468818 0.12438157 0.09744523 -0.010076338 0.10759544 0.017748853 0.04313197 -0.074710675 -0.09573414 0.0005674917 -0.021724228 -0.07887548 -0.030439937 -0.010403056 0.121906646 0.09857141 -0.042547844 -0.0066653267 -0.014921278 -0.082286224 -0.07984619 0.079844035 -0.12936778 -0.026406467 0.092591025 -0.009089457 -0.061899453 -0.0019891742 -0.057608988 0.057635162 -0.008367926 0.029401891 -0.11542981 -0.015649758 -0.018773245 -0.02161718 0.04235606 -0.10837116 0.030144995 -0.029860355 -0.08421525 0.064635396 -0.09017301 -0.04074129 0.0053860345 -0.04670389 0.076491244 0.06066516 0.10293917 0.019215554 0.02090426 -0.05035829 -0.09380341 -0.10942452 -0.03822819 -0.027416345 -0.014012862 -0.06582408 0.060365792 0.07697895 0.0077732867 -0.005898902 -0.03304795 0.06942234 -0.010166677 0.019685177 0.08350328 0.07658337 0.11020863 0.10422363 -0.09037097 0.028989362 0.06525266 0.043753885 -0.01137439 -0.048797317 0.091357954 -0.039779924 -0.007556582 -0.03603289 0.028152702 0.086301744 -0.040398467 0.045102242 0.02495384 0.027532957 0.0056887297 0.06973401 -0.025065504 -0.106926434 -0.06114961 0.07723671 -0.037309304 0.034522556 0.06982325 0.000568404 -0.07943512 -0.02607682 -0.08404277 -0.12162499 0.10514182 0.016095543 0.07828382 -0.03877254 -0.005877834 0.011870979 0.07766002 -0.013499418 0.010879274 -0.056879923 0.008407092 -0.052658517 0.09722545 0.03959727 0.0136084715 0.0061129844 -0.048826534 -0.030423699 0.02215088 -0.08791054 -0.0020213483 0.025198359 0.008909825 0.030602971 -0.036392838 0.004978665 -0.076113015 0.011013671 0.010938602 0.032296833 0.0261255 -0.0022516935 -0.02410601 0.005812212 -0.033006247 -0.058980647 0.0072547253 -0.0020369757 -0.097297534 -0.04042835 -0.015303929 0.10358095 -0.045849115 0.074874826 0.025442442
so -0.034772765 -0.099093355 -0.0903286 0.06425409 -0.080601305 -0.05717029 -0.07441144 0.011103709 0.034553193 0.06138694 -0.037565283 -0.012430041 0.025890652 -0.05520055 -0.03810531 -0.027667237 -0.060218856 -0.048583332 0.06588705 0.104012676 0.032010242 0.043300036 -0.04658375 -0.044124763 -0.047863916 0.016025398 -0.026481556 0.018527746 -0.081020765 0.101640776 0.10463727 -0.019576766 -0.024020463 -0.050816137 0.11000712 -0.058689848 -0.07323714 -0.060778484 0.03435059 0.039074473 0.049397785 -0.093662865 -0.061558284 -0.07771805 -0.06168389 -0.018595308 -0.023591941 -0.045737047 0.0034422134 -0.09252514 0.038728394 0.0015948827 -0.04748284 -0.010744959 -0.062265914 -0.04405212 0.006511034 -0.016534103 -0.10346603 -0.0363242 -0.02470434 -0.008360655 -0.042370573 -0.022889951 -0.019580258 0.027727608 0.023844812 -0.029462948 -0.024923544 0.020157868 -0.03182808 0.089025564 -0.007431764 0.029116075 0.044820543 -0.09941177 -0.07276467 -0.014915793 0.023526642 -0.042927235 0.06563473 0.035963137 0.037522733 -0.069689766 -0.044804152 -0.0018517998 0.00013978663 0.02090854 -0.07508941 0.115502834 -0.020923998 0.024592036 0.055804957 -0.013356052 -0.038430415 -0.02148005 0.08337836 0.04894426 -0.063997634 0.023758784 -0.024730481 0.022371136 0.024736272 -0.06507143 -0.096962325 -0.035477526 0.09037041 0.11430573 -0.006209988 -0.09959796 -0.068686396 0.097470455 0.017666152 0.10879617 -0.057489417 0.0044365358 0.026762875 0.070879 -0.02199997 0.074289516 0.11995304 -0.020819433 0.0072271773 -0.03391898 -0.017604936 -0.073419854 -0.018572306 0.000985083 0.016190251 -0.07004974 -0.057451498 -0.049578093 -0.009268776 0.017061548 -0.024732701 -0.009451812 0.020573588 -0.059421465 -0.044741224 -0.0063124625 -0.021248914 0.05538765 0.003482919 -0.05658483 -0.019947119 0.07231519 0.05544165 -0.05376794 0.012823099 0.09218966
out 0.116890386 -0.0058525475 -0.07073215 -0.021632737 -0.014781526 0.059168663 -0.032241978 0.060114972 0.044747606 0.06179343 -0.002527447 0.10947568 0.07015486 0.0013590156 0.043877084 -0.0496201 -0.004651611 0.017191267 0.13527367 -0.017098738 0.061601102 0.035578117 -0.053603873 -0.051566843 0.025531003 -0.07299487 -0.06299376 -0.02539195 0.007923398 -0.05057503 0.001859489 0.053479947 -0.024966598 0.10650264 -0.002344544 0.006250929 0.07843138 0.0338914 0.026228651 -0.07028398 0.049120378 -0.04423859 -0.07388263 -0.0074838866 -0.01724437 -0.08659371 0.005011902 0.044839215 0.0011498726 -0.0046680113 0.026251797 0.017777702 -0.032706596 0.037292756 0.048477605 0.085754804 0.059523962 0.036180668 0.038495146 -0.03722223 -0.07711388 -0.0062350826 0.03971546 -0.035828423 -0.04878938 0.024144312 0.06755674 0.017624535 0.045862567 -0.061384004 0.06344681 -0.024891615 -0.07249917 -0.017069789 -0.030011931 -0.0183534 0.041918516 -0.026256293 0.004850613 -0.0476571 0.028335683 0.12078674 -0.005816167 0.07361443 -0.061411187 -0.067745365 0.0039423984 0.020174168 0.04035612 0.05022719 0.06404843 0.064028576 -0.026455633 0.009089911 0.10778917 0.030397607 -0.002809763 -0.04806634 0.00102442 0.056619108 -0.041222613 0.09357568 0.009997847 -0.048371352 0.0235924 0.008189134 -0.006188998 -0.020196872 -0.0038908795 -0.04448433 0.028604412 -0.06468575 0.027058078 0.06030212 -0.10803171 -0.03710461 0.058158204 -0.09222015 -0.07011131 0.057758085 -0.022491567 0.035634488 -0.03169699 -0.037794452 -0.021649323 -0.06605008 -0.033542547 -0.01593233 0.04033782 -0.098277055 -0.023918763 0.078650184 -0.077542864 0.02194043 0.082432024 0.045985393 -0.053530883 -0.026918277 -0.036391787 -0.077206865 0.019199084 -0.04745658 -0.058879435 0.013784016 -0.0042912555 -0.04759585 -0.04525181 0.02775396 0.011129071 0.039340273
if 0.076342374 -0.030696373 -0.10057587 0.09791706 -0.08062105 -0.011828356 0.043334078 0.029030241 0.026379067 -0.09156843 0.058137808 -0.05991588 -0.06808344 -0.020520387 0.0056218193 0.041275438 -0.035012454 -0.10794617 -0.10652586 0.119294524 0.052143212 0.07177185 -0.0009879526 0.09341843 -0.061125107 -0.001996725 0.05003716 -0.0989838 0.008805154 -0.061290357 0.17210145 -0.04889053 -0.15188597 -0.011528042 -0.039886363 -0.11062451 0.11010595 0.0004632877 0.099371225 -0.0075220205 0.050647367 -0.11079688 0.027376508 -0.08734498 -0.04531756 -0.05716495 -0.059241787 -0.0710496 -0.04041017 -0.0020014485 -0.01269863 0.020037439 0.026532141 0.10024891 -0.1163899 -0.07615495 0.019693667 -0.08001236 -0.059499174 0.012232691 0.04064612 0.021247957 0.119338706 -0.029109033 0.06780927 -0.040449 0.08248238 0.006940069 0.023517923 -0.07653742 -0.07384898 0.13691913 0.08421256 0.016860152 0.011672263 -0.05140505 -0.04592422 -0.021443706 0.0022354631 -0.022576159 0.05814772 -0.07156732 0.028705541 -0.053834356 -0.09158623 -0.06181244 -0.01924579 -0.072797775 -0.019786306 0.07979132 0.026655067 -0.09098489 -0.024789106 -0.059179176 -0.081140466 -0.0008764352 0.050061543 0.07864771 0.024517925 -0.005100586 0.051154897 -0.10920164 0.052554727 -0.011283091 -0.1107683 0.0982673 -0.089594066 0.09358896 0.095550686 -0.018388819 -0.07857579 0.072260864 0.07121675 -0.05749751 -0.053903192 0.02139989 -0.01840178 -0.012626376 0.022582954 -0.011406771 -0.019368332 0.047174845 -0.12456665 -0.0052501387 -0.15916419 -0.10669759 0.06276071 -0.04329184 0.0018598504 -0.025750764 0.04534746 0.06959164 0.061567318 0.023865186 0.02510253 0.08549336 -0.06382598 0.04834281 0.0076633515 -0.039376516 -0.07222584 -0.041396774 0.017681355 0.050752483 -0.047851346 0.07965125 0.04570696 0.0120738065 -0.021450184 0.01262285
is 0.022226166 0.019699031 -0.03183342 -0.019943163 -0.029664494 -0.055310685 0.022895696 0.06868006 -0.03085254 -0.044141997 0.064107664 -0.018022466 -0.044950377 0.0140381735 0.089472555 -0.047863275 -0.05140331 0.07951016 -0.053137667 0.098958395 0.0023474284 -0.06936994 -0.052776575 -0.046546888 -0.025321513 -0.015371322 0.086554036 -0.01083815 0.0077223703 -0.003389656 0.09261369 -0.05804422 -0.017566113 0.014573799 0.054640073 0.040427286 0.0731231 -0.086105645 0.048671514 -0.07006465 -0.064799584 -0.021669958 -0.040164165 -0.06361463 -0.030345606 -0.017596487 0.09396724 -0.025029184 -0.074438766 2.4379464e-05 -0.04772793 0.037564382 0.029081514 -0.033946164 0.019080121 0.08412588 0.025691466 0.029502898 -0.0073849596 -0.09682032 -0.03263214 -0.047955245 0.01575165 0.09475409 -0.022202391 0.022391206 0.09018785 0.03174355 0.017829483 0.031155577 -0.07382459 0.03041015 0.011510546 -0.043041646 0.061455786 0.01728892 -0.011038069 0.048255596 0.030184135 -0.01918808 0.00611598 0.017767828 -0.010242949 -0.06974042 -0.004372226 -0.042874854 0.06610846 -0.09474668 0.0052955085 0.071431845 -0.026062382 0.0052026664 -0.003546573 -0.018368138 0.08400087 0.013293067 -0.00206218 0.018669704 0.0017016464 -0.060017757 0.01233823 -0.018775286 0.08575442 0.019044299 0.016898617 0.079660155 -0.03299346 -0.046072718 -0.052576136 0.070829876 -0.08198263 -0.06073211 0.029469086 0.00080684747 -0.064663246 0.0882005 0.052886613 0.032889172 -0.02133049 0.015968645 0.017152136 -0.10200255 0.05466755 -0.111930266 -0.095257 -0.044784494 -0.0366687 -0.036833595 -0.028996043 -0.1068895 0.10442285 0.033146154 -0.03880365 -0.007302195 -0.006761393 -0.023355942 -0.023404114 -0.031854596 -0.06348761 0.0719702 -0.06938397 0.009019409 -0.09917942 -0.056115247 0.0634273 0.08011076 0.089335226 0.024059108 -0.019559389 -0.04242546
at 0.06778037 0.046683356 -0.037206147 0.061863318 -0.0005973395 0.051785752 -0.03349652 0.028215334 0.014702098 -0.011263416 0.08950515 0.010248355 0.0068459706 0.043085515 0.055539396 0.024535485 -0.09884063 -0.08568391 0.060931757 0.00072257826 -0.06230346 -0.07980045 0.017004011 -0.010169818 -0.045090407 -0.0043893275 0.027214952 0.038044225 -0.036496755 0.028149292 0.09034459 -0.064302534 -0.012104416 -0.01290605 -0.025119456 0.018526461 -0.008075425 0.05162562 0.0052580237 -0.042910844 -0.015138856 -0.017730268 0.01538506 -0.020568619 0.044010144 -0.077586934 0.058867663 -0.029175354 0.007045522 -0.0011519993 -0.07784975 0.044645756 0.07512771 -0.039259963 -0.10232384 0.036692847 -0.00058553345 -0.0050163036 -0.04741572 0.0104594035 -0.11616769 -0.07507527 -0.052120294 0.08071065 -0.09863019 0.07485763 0.0981502 -0.023478057 0.06669393 -0.041297976 -0.058959577 -0.026203325 -0.07313954 0.07265954 0.07105476 -0.09870997 0.024022512 0.023534758 -0.00956994 0.030608695 0.10505294 0.09295461 -0.042740554 -0.053080842 0.024837667 0.054284915 0.060349837 0.07146648 0.022113908 -0.014504153 0.06325241 0.018315384 0.080990754 0.06413457 0.040150236 -0.0036452876 0.07789932 -0.089663304 -0.046626117 0.052098926 0.0053104335 0.042973984 -0.05983506 0.005420617 -0.055902597 0.012020988 -0.017013839 0.049269848 -0.008500648 0.02899509 -0.01623502 -0.08761499 0.08239359 0.05511267 0.03806489 0.056513693 -0.0057651615 -0.0132638905 -0.047429577 -0.0005355333 0.01083041 -0.029324826 -0.057225727 0.0374418 -0.016199341 0.041733414 -0.01523279 -0.08854329 -0.036157615 -0.10538943 0.024108438 0.0820125 -0.07280445 0.0133575415 -0.005906918 0.014586322 -0.024701118 -0.017275779 0.0019753608 0.050759252 -0.078539245 0.045031205 0.016955454 -0.019319788 0.027837599 0.057137933 0.08524588 -0.11369049 -0.026425723 0.07409767
t 0.052990578 0.01249903 -0.012424536 0.09342138 -0.11054489 0.06709619 0.0882224 -0.002017094 0.052017987 -0.04170472 0.08482335 -0.06049056 -0.095018566 -0.1271894 0.072112314 0.044350497 -0.044705335 -0.120855086 0.029122172 0.059734497 0.1479442 -0.018412469 -0.17006783 -0.025726516 -0.10984507 -0.09012252 0.044052 -0.106010266 -0.03836522 -0.0031484584 0.06738164 -0.121966794 -0.104247145 -0.021924466 0.028562097 0.018994166 0.14144672 -0.05608261 0.031001683 -0.028090553 0.02503271 -0.05250379 -0.0410929 -0.06849425 0.06543664 -0.08932792 -0.059925303 -0.014929654 0.0073350235 -0.074984655 -0.15500827 0.048873324 -0.01707312 0.028554045 -0.08264404 0.047498643 0.035110597 -0.056370832 -0.03502907 -0.095669925 -0.0088832015 -0.08849106 0.039245624 -0.00036010228 -0.050119333 -0.0021783924 0.0888122 -0.10503285 -0.004193052 -0.12435463 -0.091111146 0.043577287 0.10620081 -0.015528141 0.06186661 -0.03138501 -0.12657137 0.040320154 0.004582523 0.0243862 -0.0047062933 0.015346281 0.009602332 0.042729404 -0.062659316 -0.110414624 -0.039918885 -0.04340401 -0.016878724 0.031761415 0.13534114 -0.01343357 -0.021983556 -0.06595594 0.07382596 0.0021064742 0.016058505 -0.050402626 -0.030119719 -0.023412496 0.077581525 -0.05537929 -0.10753153 -0.073620826 0.044618417 0.12150786 0.030922135 0.09118138 0.13451076 -0.07666033 -0.1046765 0.1216437 0.04119576 -0.047476914 -0.030768422 0.097867884 0.09530768 -0.022355938 0.07606379 0.055082545 -0.06577569 0.026592586 -0.15548643 -0.12826464 -0.081409164 -0.040409505 -0.019468943 -0.038757794 -0.052729577 -0.016658891 0.026284717 0.011382122 -0.015583775 0.13982268 -0.024424924 -0.025493637 0.004134003 0.018023795 -0.05428961 -0.0859497 0.025027394 0.061809253 0.048115466 -0.09797068 -0.018020876 0.088124394 -0.029454947 -0.023927571 0.020673057 -0.07527254
s 0.05733954 -0.116253495 -0.010994626 0.04287361 -0.009112919 0.04384934 0.017268114 -0.00962609 0.0622143 0.03717043 0.039903574 -0.031790905 0.063571095 -0.054957837 -0.049562126 0.06038688 0.030744785 0.017601209 0.041438982 0.057393476 0.058913082 -0.083247684 -0.09795184 -0.048021823 -0.09326044 -0.029727938 0.07377201 -0.011203382 -0.0058620777 0.08962903 0.04530278 0.04602827 -0.07571525 0.03980102 0.023707094 -0.016136121 -0.047118817 -0.041052245 0.0041791634 -0.030451009 -0.07023003 -0.012002596 -0.033358254 -0.056227442 0.05129142 -0.0054595103 -0.031131482 0.03168881 -0.0536507 -0.06381273 -0.0337534 0.08471963 0.0744453 0.010564644 0.023656072 -0.048990328 -0.032194298 -0.01754283 -0.010616819 -0.034051653 -0.096169755 -0.09726079 -0.04839258 -0.011645403 -0.0021318803 -0.028938185 0.033730652 0.02948042 0.04274041 0.02818827 -0.061115224 0.08824312 0.024906779 -0.028826468 0.05912786 0.0047862725 -0.006614565 0.04381452 0.057001136 0.02091188 0.009933062 0.06651132 0.015215756 0.02404956 0.061687294 0.01626222 0.04089635 -0.030828208 -0.047752228 0.08976257 0.103539646 0.006209028 0.09025569 -0.057829916 0.00029071234 0.0023750328 0.098603554 0.0190009 0.02485537 0.036694147 -0.053186588 -0.011231497 -0.06909086 -0.020269558 -0.010969546 -0.024631958 0.07073093 -0.03214713 -0.00054211484 0.059568487 0.013741633 -0.049962413 0.026310656 0.018151533 0.021350201 -0.01032059 -0.0718999 -0.03803275 0.021371718 0.028888365 0.08595312 -0.094267204 -0.10828302 -0.08863242 -0.04898046 -0.045749266 -0.031531416 -0.05177656 0.019512704 0.0028279263 0.02843201 0.086924516 0.012512822 0.10413506 -0.0034045933 0.09159505 -0.06767979 -0.037222616 -0.10239192 0.10413734 -0.060683984 0.081589304 -0.09580297 0.03150195 -0.029638195 0.10278449 0.074803546 -0.01845411 -0.04288178 -0.04721596
ll 0.09630156 0.048450474 -0.07853565 0.07562424 -0.0054619857 0.022866493 0.019327575 0.006936046 0.03663445 0.018740822 0.06792176 -0.047539208 -0.007507734 0.0070083593 -0.01933351 0.11406069 0.0746353 -0.11412011 -0.011201948 0.08127688 0.103409044 -0.0027106595 -0.03546747 0.0018967795 0.022803899 0.008768955 0.0030005544 -0.048004456 0.06995511 -0.07556531 0.119016185 -0.06359513 -0.06696074 0.02913984 0.04389751 -0.0712324 0.0787315 -0.044881847 0.021096498 -0.0048320247 0.060016513 -0.06080803 0.056955494 -0.08123393 -0.009690872 -0.03637972 -0.07326939 -0.056429584 0.03288416 -0.03846214 0.008573166 0.11938906 -0.016389517 0.06877961 -0.09856493 0.028603164 0.067148656 -0.11034179 -0.04554115 -0.039942656 0.05134532 -0.12818842 0.019696066 0.07006756 -0.0034771394 0.057364702 0.06413656 0.021758834 -0.009878449 0.014988854 -0.030799977 0.11932762 0.06937905 -0.052830704 0.0765143 0.07957444 -0.10199259 0.105723724 0.04756567 0.097561896 -0.0020496184 -0.051161446 -0.05945249 0.05172508 -0.021318594 -0.12893207 -0.072073445 -0.05810254 -0.057131365 0.100329846 0.068868294 -0.12208982 -0.004393603 0.043113645 0.05192293 0.004807394 -0.017853295 0.05644069 0.05476111 0.084128 0.04097679 -0.043059874 -0.037443254 0.026195927 -0.051925525 0.0048826574 0.010353744 -0.005071375 0.09241645 -0.12750283 -0.07339772 -0.025638899 0.11833347 -0.014496169 -0.039538156 0.03870942 -0.002619411 -0.03152028 -0.058727592 -0.0113729 0.038231067 -0.07246283 -0.121327505 1.5220023e-05 -0.1276618 -0.051964596 -0.021714935 -0.054259952 -0.08127357 -0.04119604 -0.05530914 -0.03921027 -0.061123993 0.12011463 0.10633434 0.07586298 0.0177159 0.049975753 0.019181151 -0.085468665 -0.045700733 0.01136132 0.022525035 -0.046217382 -0.06677307 0.020607242 0.028578348 -0.035613567 0.026080577 -0.013533388
how 0.056082793 -0.01582951 -0.07732173 0.030521318 0.026743703 0.05327036 0.06431094 0.04826357 0.048911836 -0.04560125 -0.0076814773 0.08557437 0.056921847 -0.06039132 0.048736144 -0.0895391 -0.06329896 -0.04958243 0.06963899 0.08115046 -0.046237316 -0.04895339 0.028252393 0.081093885 -0.0479218 -0.018455751 0.08081821 -0.067441404 -0.09263509 0.0057444004 -0.013216735 0.026203131 -0.11035704 0.034417074 -0.017282793 -0.028733848 0.050469104 -0.05693401 -0.052703343 -0.06395846 0.06551024 0.007760398 -0.0011150718 0.037155908 -0.057939198 -0.10208756 -0.009037539 -0.0786976 -0.017440839 -0.022981098 0.014969794 -0.023047037 0.03417702 -0.031664144 -0.09657953 0.055143524 0.06096827 -0.05337238 -0.067603625 -0.08163451 -0.045716792 -0.0208564 0.0014475407 0.0842367 0.06386495 -0.016602442 0.00020206266 -0.038951207 0.06596548 -0.055792578 -0.11689022 0.010843052 -0.04991556 0.029862693 0.022300014 -0.02347747 -0.027954785 0.09694283 0.010468346 -0.044007257 0.10613324 -0.012556197 0.007364011 -0.112242304 -0.04286089 -0.031178046 0.010414548 0.034061857 0.0140534025 0.08270328 0.053633753 0.016026787 -0.023693267 -0.041826904 0.07038413 -0.02423413 -0.00887155 -0.057457577 -0.0034864831 -0.022032784 0.04946871 -0.049301635 -0.046128243 -0.045137137 -0.023493938 0.0023942855 0.0004934955 0.035303015 0.021157412 -0.046919663 0.0059758513 0.027099824 -0.013444095 0.044571195 -0.005367709 -0.025371728 0.03001872 0.0041430285 -0.005174337 0.007489071 0.06699987 -0.078685105 -0.0044105994 -0.051037457 -0.014077652 0.02328741 -0.05963025 -0.07547476 -0.0038984404 -0.068747796 0.042807244 0.0086012725 -0.043946635 0.11254406 0.039392475 0.06860296 -0.0038104793 -0.063420035 0.02278874 -0.017281318 0.018654393 0.046233255 -0.0077971127 0.027682701 0.04326416 -0.053182185 0.020080362 0.032151215 0.059570383 0.037979614
they 0.027912086 -0.014710261 -0.035768934 0.03380279 -0.106431425 0.08785041 0.036324393 0.108540125 0.107113056 -0.04069232 0.09858446 -0.05151448 -0.033907663 -0.051472913 0.06835171 0.059674248 -0.07570734 -0.009269513 -0.057068784 0.012083439 0.069806896 -0.011713909 0.022823256 0.02650398 -0.07794436 -0.038587827 -0.025406849 0.032630257 0.03468785 0.028402217 0.022137266 -0.09508715 -0.0067722057 -0.045160256 0.06976824 -0.078163154 0.06578032 -0.05791601 -0.03188326 -0.013284553 0.015626892 -0.06436143 -0.0726055 -0.0068100276 0.042771384 -0.024200499 0.043470364 -0.07156225 -0.12389636 -0.041013338 -0.09949742 -0.02222734 -0.0036611236 -0.037240025 -0.1251693 0.023658669 0.07299959 -0.034926794 -0.06289038 0.075353004 -0.018137403 -0.05061306 -0.03177939 -0.008990535 -0.047837697 0.11350356 0.08198711 -0.06952109 0.040680975 0.05482981 -0.01498452 -0.00015922193 0.014873242 0.098651536 0.104838304 -0.06336964 -0.12983243 0.031747036 0.11286717 -0.1378209 0.036505878 0.035706773 -0.08458137 -0.014515001 -0.06333964 0.035051085 0.045502953 0.018299159 -0.06510526 -0.04190132 0.076251104 -0.045412604 0.05902561 0.068194784 0.06037867 -0.068863474 0.026669186 -0.02774042 0.0024157001 0.080333024 0.109576374 -0.035094902 -0.07704399 0.007324797 -0.06492015 0.019900821 -0.055082105 0.08883926 -0.026628155 -0.1084513 -0.0065813945 -0.03126925 0.053916723 -0.053712938 -0.039524302 0.10191635 0.013835192 0.10280609 0.024986919 0.070690066 -0.025958326 0.032563355 -0.069351554 -0.02561268 -0.09714293 -0.052488066 -0.0059107607 -0.13353899 0.03560564 -0.09942519 0.053852454 0.012996274 0.023766294 0.04074774 -0.010339226 0.07620867 -0.07302846 -0.06013355 -0.02711895 0.013097043 -0.07267891 0.05634587 0.04767104 -0.087195195 -0.031301733 0.10104549 0.07564694 -0.06902781 -0.10598843 -0.052574005
about 0.078367464 -0.05945875 -0.082875386 0.01984803 -0.06694348 -0.021838782 -0.03315069 0.0557388 0.014610685 -0.055563364 0.022500973 0.024729235 -0.015851328 -0.033930548 0.035664503 0.011709304 -0.08692501 -0.09927485 0.052075427 -0.03139072 -0.040069852 0.039018042 0.008117713 -0.046268504 -0.06606158 0.004714325 0.06619904 0.004301547 -0.066525795 0.033577956 0.0171011 0.020989997 -0.07870809 -0.013256466 0.089603595 -0.059348904 0.03265185 0.040933948 -0.0674148 -0.08501886 0.012764762 -0.060043383 0.021935344 -0.013717053 -0.027777288 -0.027925331 -0.037881196 -0.04509128 0.008893333 -0.06452482 -0.04846785 0.027833965 0.01822089 0.087424874 -0.074047044 0.086345464 0.08847103 -0.016815929 -0.06541227 0.025805825 -0.07575053 -0.03206744 -0.010572691 0.009861689 -0.055580366 0.070956334 0.012914755 -0.061925933 0.06628308 -0.013487958 -0.11176565 0.088982664 0.085236445 -0.0069974028 -0.029422257 -0.09416389 -0.06117678 -0.086320356 -0.042313375 0.016600471 0.014918208 0.057966758 -0.03460609 -0.05791641 0.03556899 0.032459386 -0.030426063 -0.021819875 -0.025547234 -0.0071340646 0.10766514 -0.07810578 0.053907093 -0.024443049 0.0009775212 -0.07956616 0.05331258 -0.06548426 0.004791202 -0.036145948 0.07416734 0.060410395 -0.06339226 0.08408819 -0.01916995 -0.013656296 -0.01770406 0.054150548 -0.061026804 -0.0030137603 0.008158128 0.05695746 -0.03580496 -0.0065614586 -0.01049998 0.08195193 0.0511757 -0.023106234 -0.011854592 -0.006775835 0.090024844 -0.08219815 -0.033023708 0.022076787 -0.048188165 -0.074679404 0.004506812 -0.054140057 0.04230043 0.025275718 0.011556985 0.07670289 -0.054288983 -0.019588875 -0.033997435 0.044572666 -0.05350605 -0.012894119 -0.020030767 0.0525581 -0.072979644 -0.0799389 -0.00022090029 0.009957951 0.023683157 -0.03769434 0.0070991116 -0.00773556 0.016291043 0.046657335
herself 0.0034968592 0.07338003 -0.094539 -0.03223901 0.078371756 -0.013874255 0.009748999 0.014762519 -0.06718879 -0.050170664 -0.020068936 -0.07749414 -0.03835076 -0.055434402 -0.09691605 0.020691453 -0.0577866 0.027715873 0.08551515 0.018928189 -0.009896732 -0.05171741 0.043731436 0.031598125 -0.001546543 0.04398546 0.067209594 -0.070939474 0.0040305164 -0.019785423 0.045196 0.054874573 -0.08354728 0.07180966 0.07580095 -0.02106936 -0.060218103 0.021907747 -0.05895253 0.045948073 -0.045726936 0.0118779745 -0.054006636 -0.05448801 -0.0034239783 -0.057434775 0.11155281 -0.07976151 -0.012024043 -0.077153556 -0.047124818 0.037160266 -0.05514518 0.051153183 0.102673724 -0.041618496 -0.048582707 0.017924184 0.016530633 -0.07071103 0.08916399 -0.042370208 0.028775865 -0.07915152 -0.04542887 0.05977387 0.052138995 -0.022668676 0.06640226 -0.04809443 -0.045506053 0.04980294 0.06441103 0.031975247 0.0057523847 -0.044015676 -0.051990177 -0.031676237 0.060379036 -0.0375221 0.041756496 0.06817702 -0.08466567 -0.06953209 0.05375746 0.061742112 -0.057883646 0.011297435 -0.004549768 0.101716235 -0.07441987 -0.058091022 -0.06889304 -0.035794914 -0.016630938 -0.10396408 0.109309725 -0.048772868 0.0038611814 -0.015108058 0.11740479 0.09567228 -0.008262217 -0.097048216 -0.02481651 0.075478904 0.084677435 -0.048534736 -0.03641941 0.05571787 0.0058736047 0.044783972 0.03358566 0.053734336 -0.016016396 -0.08565025 0.06573648 -0.053353585 0.02621535 -0.013716564 -0.020750405 -0.04452541 0.00911887 -0.0037944813 0.020707246 -0.010429985 -0.07981591 -0.05987653 -0.030827783 -0.0015179917 -0.09332568 -0.06369719 -0.06770634 -0.010665815 0.06611871 0.021913327 0.06762075 -0.012988163 -0.02813721 0.004962266 0.10267261 -0.07833613 0.03461366 0.013147291 0.081638336 0.034328397 0.09264831 0.073182136 -0.0047019487 -0.044337023
me -0.013144381 -0.043681618 -0.02822651 0.065276735 -0.0074521443 -0.011356483 0.11312568 0.06269766 0.008541915 -0.008584041 0.0969327 0.025106696 0.038088016 -0.08031321 -0.077383675 0.04001089 -0.11115245 -0.02432801 0.04878614 0.017407503 0.090510726 -0.060655996 -0.09927389 0.08282189 -0.066054516 -0.059776153 0.015083011 -0.037622377 0.053555343 0.027366837 -0.018053347 0.007210218 -0.07087042 0.026339564 -0.00056916854 -0.056154348 0.08493901 -0.080070555 -0.09733821 0.017579034 0.011984727 -0.03602716 0.020405801 0.060365938 -0.041699346 -0.08329187 0.028872421 -0.021127703 -0.11035177 0.0062834886 -0.0821362 0.08939495 -0.028323743 0.08952583 0.028208798 0.07297986 0.13396476 0.062082544 -0.0808726 -0.04487777 -0.07029358 -0.054966748 0.010620439 0.029249119 -0.05265886 0.0032513903 0.0081875315 -0.0010332214 0.032686915 -0.006709916 -0.11753757 0.044350736 0.021681758 0.0077810567 0.011728697 -0.061443787 0.015399389 0.10313641 0.03557712 0.00683135 0.038965475 0.07732587 -0.098176956 -0.024698779 -0.04164668 -0.0760182 0.047681008 -0.045334585 -0.021522574 -0.012960657 0.018794306 0.0005698581 -0.011857477 0.033847727 -0.0015836715 -0.07534875 0.018012002 -0.014572379 0.0070930943 0.05284826 0.085254245 0.018885342 0.027857054 -0.070018955 0.014941494 0.081981555 -0.061976418 0.057237364 -0.072298564 -0.09598872 0.026276445 0.03335479 -0.00989918 -0.0068937102 -0.01863602 0.107226685 0.03658757 -0.020651484 0.016883817 0.04291139 0.07509434 -0.03159779 0.020961849 -0.10131999 -0.07551656 -0.09091487 0.028629834 0.012211352 -0.053806506 -0.10328234 0.06857838 0.07130814 0.028851384 0.04950765 0.025994767 0.009576356 -0.022601219 -0.06030028 -0.046844803 -0.12468056 -0.097547114 -0.05460033 -0.01737587 -0.073559634 0.055604715 0.00931948 -0.028562475 0.024531199 -0.113421425 -0.03572673
up -0.0046427506 -0.08050545 0.03798537 -0.025555933 -0.017874783 0.042606317 0.07002392 -0.033753034 -0.0034729943 0.04666039 0.09815084 0.06380474 0.0120907165 -0.027766729 0.019025609 0.02618496 -0.025809858 -0.09401752 0.0035632602 -0.0054643014 0.018554285 -0.024383705 -0.05900475 0.023660224 0.01763581 0.00016581384 0.02370906 -0.0041136243 -0.047723107 -0.0062822076 0.017532025 0.01843273 0.012347329 -0.05361692 0.011973671 -0.03183743 0.041759532 -0.011342933 -0.111862704 -0.0536972 -0.0035093515 0.03361512 -0.046335258 -0.038677808 -0.04386265 0.0058828657 0.085851565 -0.064219914 -0.043929957 -0.056552395 -0.0408757 0.05492994 -0.0017567642 0.08146712 0.0050373445 0.02948688 -0.024839701 0.011965379 -0.1006891 -0.031452853 -0.024250515 -0.0007854458 -0.025173344 -0.0071044075 0.006365017 0.06065618 0.037889957 0.027737027 0.02770933 0.04978912 -0.032983057 0.0390701 0.0070161056 -0.0071786363 0.084806524 -0.018607793 0.0412832 0.039247774 0.04230375 0.048216425 0.061999634 -0.023992123 0.028086876 0.0094756875 -0.07527826 0.034962717 -0.044781268 -0.02212053 0.058136657 0.06568015 -0.031383477 0.011096673 0.028854024 -0.031184467 0.10125593 -0.037204485 0.04067955 -0.024549877 -0.08100797 0.068002 0.069408715 0.06493598 0.016487243 -0.06164256 -0.09884599 0.046516538 0.054550603 -0.04822851 0.01978795 -0.019533293 -0.040078115 -0.04126797 0.07341626 0.030290809 -0.069123775 -0.043984335 -0.0048480975 0.019480385 -0.07019155 0.069274224 0.044411633 -0.042249225 0.03339976 -0.012062636 -0.07354155 -0.0025357218 -0.060873166 -0.08502742 0.01388557 0.019143136 0.064782135 0.07139565 -0.028489077 0.045332793 -0.037404764 0.0341463 -0.03883495 0.044464495 0.006824378 0.019887649 -0.032379072 0.028791785 -0.08938355 0.042687215 -0.046605997 0.065710455 -0.004169734 0.0102039855 -0.051825475 0.09961443
what 0.11187115 0.013657849 -0.033604853 0.023806516 -0.03721391 0.060431127 0.055029407 0.038730204 0.026610289 0.07380477 0.050804462 0.04343376 0.05046055 -0.041514605 0.03474218 -0.031947527 -0.072278 0.033795856 0.06645946 0.09422663 0.021557076 -0.059754886 -0.01059316 0.052970435 -0.007905029 0.016356464 0.0034319211 -0.03064339 -0.08214094 -0.063305244 -0.012818583 -0.024019942 -0.013376035 -0.013444251 -0.02927581 -0.025602736 0.07890046 -0.074466266 -0.03478565 0.010643824 -0.009105488 -0.014981016 -0.046005663 -0.014388735 0.0361823 0.0064573446 -0.052111216 -0.01904894 -0.027474312 -0.017127393 0.07148105 0.061498918 0.015989494 -0.028090354 -0.014073335 -0.04088274 0.07298559 0.029430313 -0.08574943 -0.09196213 0.042464353 -0.112260036 -0.0020176088 0.08467576 0.050542235 0.021892443 0.055288002 0.061338298 0.05352797 -0.0014201328 -0.10417979 0.09476601 -0.020548066 0.055516813 0.049838718 0.005953573 -0.088930935 -0.009600733 -0.050421137 0.008585257 -0.032176632 -0.029521395 -0.01850571 -0.08881263 -0.011329024 -0.011420479 0.07685288 0.03040625 -0.07667223 0.10194611 0.03210748 -0.0107518295 0.07467109 -0.08707174 0.07156664 -0.03459281 0.0229013 0.02249546 0.00812093 -0.014498046 0.023768656 -0.061472878 -0.004636424 -0.037197836 -0.08790958 0.06988949 0.018875584 0.015232802 -0.018547231 0.022627167 0.030240469 0.06492818 -0.013946565 0.065739624 0.0070684906 -0.022464614 0.069630764 -0.057414792 -0.009650249 0.06986378 0.015960164 -0.075504 0.0058264514 0.0012066994 -0.06845748 -0.014362577 -0.056843083 -0.0453485 -0.012902998 0.018371144 0.010033732 -0.0442106 -0.055662762 0.023539959 -0.000533644 0.024463035 -0.0017177328 0.030395882 0.029308168 0.059500914 -0.0120103415 0.011031153 -0.09816274 0.008691019 -0.020377444 0.040136103 -0.018497854 -0.0020206228 -0.033334367 -0.080490574
way 0.0864491 -0.014229292 -0.05373305 0.03472007 0.026279483 0.037246592 0.0111137265 -0.022131331 0.025374113 0.082511656 -0.017478334 0.076547354 -0.05506058 -0.057999343 0.08381724 -0.079805166 0.03106866 0.016125746 0.08293543 -0.02629437 0.004844254 0.07069105 -0.022310827 0.060295667 -0.061727714 -0.017358188 0.031205392 0.04035398 0.07543129 -0.030638771 0.025366321 -0.010809804 0.02139978 0.021977292 -0.022095013 -0.014335433 0.095751666 -0.024948817 -0.074445136 -0.110369645 -0.009105477 -0.02260079 -0.03880448 -0.009480345 -0.06734539 0.031372886 0.056868475 0.012596484 0.02259747 -0.059683118 0.036635023 -0.03443229 0.0015688897 -0.018299436 0.07331447 0.0005601153 0.03560397 0.11488507 -0.055073105 0.003832702 -0.0043585887 0.02131968 0.052161533 0.083676465 -0.10884932 0.012566786 0.088296324 0.036828406 -0.025181547 0.033085287 0.036634352 -0.03417336 0.022447525 0.036306165 -0.056128357 0.011200177 0.05572479 0.031470437 0.046354517 -0.04637547 0.08221453 0.09017167 0.020096233 -0.077872515 -0.0025014044 -0.04083905 0.09156266 0.09297128 0.041834358 0.019723589 0.019952832 0.02446917 -0.0027521728 0.021760687 0.018035967 -0.05404275 0.042965826 -0.09298026 0.04278412 0.054868504 -0.080548815 -0.02092884 -0.092933975 -0.06609523 -0.06562192 -0.009307467 0.03981805 0.03215791 0.009382859 0.045642424 0.052555714 -0.05538827 -0.016411167 -0.0058958204 -0.055306833 0.033459242 0.030905511 -0.041135263 -0.10528174 -0.005223786 -0.014900722 0.039352626 0.02288063 -0.031422433 -0.044623286 0.040540345 -0.028922169 0.014258164 0.022234019 -0.012678005 0.0733766 0.04075026 -0.041160442 0.012209146 -0.010244965 0.046436626 -0.048904166 0.00861922 -0.096420676 -0.030568527 -0.037974466 0.027470857 -0.09082362 -0.087483376 -0.025475794 -0.06354717 -0.008501596 0.045503158 0.0025115674 -0.022563
when 0.030654237 -0.07019246 -0.06350945 0.071244076 -0.0343285 0.024767933 -0.019760367 -0.0024481197 -0.023170007 0.07797314 0.054100677 -0.04966333 0.052737955 -0.039127856 0.018593667 0.009216757 -0.07523924 -0.05278775 0.06456708 0.10483745 0.03087733 -0.08665309 -0.0060215425 0.038687356 -0.082682624 -0.009647291 -0.007255842 0.0100149615 -0.05321974 -0.036875635 -0.026857967 -0.054993834 0.016889196 0.006261452 0.0935481 -0.077256165 -0.026840735 0.012073316 0.026531408 -0.055876642 -0.066081986 -0.060281396 -0.07957106 -0.015548459 0.07568747 0.033945322 0.022909982 -0.031949934 0.065901175 0.04280006 -0.04900595 0.008586064 0.014501277 0.029682169 -0.073562086 -0.0523293 0.046569213 0.04617035 -0.062446896 0.00068192685 -0.05625574 0.057293348 0.052872155 0.061816603 0.041610643 -0.019078027 0.05283208 0.022993002 0.018190911 -0.031257927 0.011798614 0.09870362 -0.054751113 0.0024181406 0.018794382 -0.0167837 -0.06907952 -0.046835467 0.040120248 0.002670356 -0.0019056943 0.07627144 0.08905377 -0.025419636 -0.063438185 -0.022989312 -0.021091657 0.0051012104 0.05769206 0.06379802 -0.003970822 0.027037367 0.1010473 -0.026253138 0.049555477 -0.048631094 0.02841782 -0.07338765 -0.096599355 -0.055496056 0.07202549 0.09475852 -0.029098548 -0.07434793 -0.075155124 -0.059302688 0.019194266 0.07014639 0.018098634 -0.041655637 -0.029013699 0.012630038 0.08804596 0.08459388 -0.06162954 -0.0006350789 0.00791019 -0.006204495 -0.045276977 0.007558656 0.05812063 -0.009977363 -0.005282916 0.020609777 0.0075406684 0.056107044 -0.013058817 -0.0013480346 -9.289943e-06 -0.032761123 0.044102676 0.035506643 0.02531678 0.025506197 0.029046783 0.067349635 -0.0809081 -0.07527033 -0.039509885 0.033296708 -0.08015211 0.061126538 -0.045533154 0.05324276 0.05558987 0.028260803 0.0086078085 -0.008245944 0.016025847 0.08462893
like 0.054230914 0.007203464 0.009895071 -0.035902824 -0.083010405 -0.024237951 0.05432302 0.036471553 0.046965715 0.07893481 0.045982514 0.00046721578 -0.019175604 -0.05490422 -0.045194708 0.06860165 0.009969243 -0.02401417 0.026909389 0.06283485 0.093625925 -0.08317262 -0.09907849 0.05429784 -0.08618845 -0.0022233769 0.02435315 -0.01083157 -0.011268224 -0.10545959 0.08399395 -0.060471624 0.046560455 -0.018602122 0.040010266 -0.07406215 0.09430277 0.056784097 -0.043828137 -0.062045686 0.0050062486 0.024617849 -0.07331021 -0.012802386 0.053641886 0.0277061 0.049126152 0.030233825 0.0060995864 -0.08222946 -0.0096678855 0.07270199 0.08579128 -0.0299121 0.01544309 0.071279466 0.0023088774 -0.032097906 0.010668388 0.014683141 0.019632587 -0.05809688 -0.04929178 0.013402272 0.019056499 0.094188765 0.08964222 -0.016484076 -0.07017491 -0.027759233 -0.053762376 0.06066636 -0.014219018 0.041523878 0.036136832 -0.03796974 -0.035874348 -0.030398063 0.016624264 0.005757606 -0.031960264 0.015509622 -0.015468824 -0.012587592 -0.038197327 0.04296246 0.04751275 0.064904444 -0.08056225 0.05589538 0.077942215 -0.062042892 -0.042498473 -0.025362287 0.028343556 -0.063244194 0.06956535 0.015997585 -0.022688793 0.044597548 0.014090131 0.065005064 0.06562002 -0.09613906 -0.086206004 0.026351959 0.023327054 -0.007868315 0.05577913 -0.058188234 -0.03249092 -0.010386852 0.028936202 -0.007988752 -0.04815103 -0.031462163 0.043290026 -0.065066956 0.09071715 -0.052725002 0.05458454 -0.06240157 0.029186374 -0.057034496 0.0074911574 -0.072334 -0.074287474 -0.05990944 -0.11799881 -0.056813724 0.02571403 -0.011928041 -0.009190973 -0.002951954 0.01329352 -0.0377358 0.010740416 0.059830192 -0.06721327 0.047168314 -0.05816096 -0.026221152 0.018913599 0.01307446 0.10288699 -0.016524158 0.08427577 -0.061974328 -0.08016291 0.07471062
one 0.06665719 -0.025106052 0.03224627 0.002693214 -0.075179815 0.01614168 0.0060272603 -0.041626032 0.017365132 0.043812495 0.099882565 0.093159705 0.0930015 -0.03895665 -0.033341058 0.023619864 -0.049781732 -0.049006335 0.03656732 -0.036440447 0.084691666 -0.06753351 0.01558625 -0.022714809 0.03344839 -0.012521379 -0.04380127 0.037301403 -0.046393793 -0.013574676 0.04391216 -0.076812275 -0.03421637 -0.004635527 -0.020571575 0.042618643 0.005414507 0.033453993 0.04483102 0.008248631 -0.042707376 -0.095541455 -0.0127503835 0.07664143 -0.015925445 0.002409462 0.03618324 -0.015796974 -0.06074158 -0.020317934 0.06497541 0.07087994 0.054930434 0.09650433 0.054522198 0.038129985 0.109800674 0.0853827 -0.08918473 -0.043678246 -0.00371814 0.044692453 -0.007015901 0.064974494 0.03135839 -0.0015324254 0.06796756 -0.0036127851 0.021286054 0.043258257 -0.022400199 0.0012156648 -0.020597903 -0.027825931 0.05726259 -0.0531634 -0.007413363 -0.080963545 0.08126719 -0.057672158 0.06312351 0.00066711404 -0.09385371 -0.004896299 -0.021210654 -0.09151239 0.025910618 -0.03399826 -0.018897666 -0.03558123 0.015282046 -0.054050244 0.031550646 0.061326552 -0.020606564 -0.05145367 0.06861235 -0.0303544 -0.071336664 0.07652469 0.03777044 0.04559764 -0.04053917 -0.07547788 -0.046976693 -0.018333662 -0.01806626 -0.058841653 0.0016585744 -0.004761867 -0.039126556 0.007196124 0.04243363 -0.0020403904 -0.008698819 0.034040682 -0.033347983 -0.043847412 -0.103166424 0.11740831 0.079171814 -0.05938053 0.044624325 0.0038938948 -0.008759686 -0.017716775 -0.03999598 -0.044425413 0.042711563 0.009816975 -0.040003724 0.01713571 -0.015810782 0.071952015 0.07284681 0.06929639 -0.10892613 0.025350293 0.026377622 0.023193395 -0.06331411 -0.06077761 -0.05029894 -0.011305353 -0.034996744 0.07379905 -0.01378181 -0.026417885 0.028306812 0.017466703
do -0.009458893 0.036301233 -0.075400025 -0.023962516 -0.017810171 -0.01119818 0.07181896 0.0018080629 0.079800494 0.015465967 0.03619029 -0.0026096613 0.04050419 -0.085494526 -0.021477977 0.05392971 0.02582325 -0.020427508 -0.02863378 0.06865565 0.0012967784 -0.033576675 0.0606765 0.12519169 0.033409737 -0.043907873 0.05224901 -0.025409134 0.07114754 0.028522752 -0.016743189 0.044655077 -0.08937701 0.04767466 -0.023315936 -0.008534659 -0.0014081324 -0.08143779 0.047963124 -0.08256547 -0.018019095 -0.032426134 -0.010019279 -0.009544118 0.038904436 0.030429212 0.07383357 0.011593358 -0.06552676 -0.06060486 -0.0891165 0.0706776 -0.012914826 0.041811492 -0.017701654 0.05400351 0.059762478 0.018491516 -0.039603397 0.050122898 -0.025388192 0.0021887678 0.049918167 0.005671303 -0.032900795 0.031063052 0.07312907 0.016362272 -0.039793495 0.0045938976 -0.0009091698 0.037469253 0.094900884 0.037267264 -0.011579434 -0.03363518 -0.045709398 0.018377256 0.032318726 -0.004420131 0.06471601 -0.055309977 -0.078420796 0.049761504 -0.017620752 -0.04068907 0.05699064 -0.053772863 -0.03265237 -0.02823643 0.03507773 -0.05668529 0.021798411 0.08222963 0.018811684 0.052670464 0.048844017 0.0040822085 -0.024792723 0.06026555 -0.017805219 -0.00033467705 -0.038314305 -0.00834266 -0.10119461 0.028032167 -0.00925746 0.05885845 0.058534697 -0.029658446 -0.026084593 0.010290045 0.07950475 0.074825004 0.064547904 -0.06241827 0.08205245 -0.0735201 -0.09846479 -0.009400921 -0.02688617 -0.023875177 -0.097583756 -0.043114856 -0.0924816 -0.005983971 -0.0059662946 -0.08486066 -0.017006723 -0.04452411 0.007907987 -0.03487746 -0.086119734 0.07890557 0.11580603 -0.033709474 -0.028073793 0.052255318 0.029572543 0.0069009913 -0.05976967 -0.048471376 0.032079782 0.0050307396 0.049289178 -0.008607999 0.028757159 0.04345944 -0.04671259 0.009667486
no 0.08303832 -0.09366834 -0.066418424 0.05692756 -0.10750508 -0.03638091 -0.010209492 0.027017338 0.038898293 -0.06707905 0.108817846 0.07478392 -0.05539055 -0.00020343508 0.012680194 0.069422245 0.012735547 0.043867428 -0.0038792733 0.007611546 -0.057574514 0.02287372 0.032847967 -0.019766781 -0.10078108 -0.056360167 -0.040690072 -0.0346059 -0.046683636 -0.037369 0.08719184 -0.039019004 -0.045295697 0.0676161 0.10688836 -0.007780834 -0.07043825 -0.07228486 -0.069015615 -0.00017932127 0.09173543 -0.10911076 0.0045380006 0.038203698 0.017923778 -0.09253785 -0.0031318967 -0.03223128 -0.09683295 -0.10558219 0.030324508 0.033335123 0.0059047206 0.016966656 0.04144431 0.06589196 -0.0068754978 0.053860754 -0.04030184 -0.038506627 0.0016383466 -0.026297936 -0.020352354 0.013018049 0.040930137 -0.003339725 -0.0473667 -0.0045034136 0.03590723 -0.04866398 0.042451292 0.099074416 0.08364438 -0.011918826 0.049108606 -0.07845712 -0.07325083 0.05869569 0.020669749 -0.08659061 -0.07202077 0.044917945 -0.0046901046 -0.01692366 0.055329267 0.0056686774 0.08113794 -0.077347375 -0.10137092 -0.018058153 -0.010722284 -0.0013400433 -0.015582886 0.08210217 0.018577024 -0.05894867 -0.030847784 -0.013781337 -0.06384438 0.026168443 0.05819445 0.00083730393 -0.079057224 0.06344553 0.057505473 -0.009477319 0.008627623 -0.05652768 0.023592517 -0.057674825 -0.018269172 -0.074296385 -0.0027846373 0.09970091 -0.025995709 0.017211352 -0.03227587 0.027988454 -0.031206395 -0.02580063 0.07487589 0.006028694 -0.10480396 -0.00449196 -0.024242425 -0.11007815 -0.014271597 0.026673691 0.013619688 -0.030723272 -0.08727337 0.06340414 -0.08245369 0.08789051 0.068089806 0.042442393 0.0023375875 -0.053839408 -0.020821756 -0.06546351 -0.020599624 -0.05717509 -0.039728325 -0.09979299 -0.008207718 0.11636785 0.066100456 -0.0023158449 -0.036081772 -0.054411434
oh 0.074275315 0.039027113 -0.013925746 -0.016690124 -0.10555955 0.10661571 0.054652587 0.07685831 0.02611932 -0.03172909 4.0523242e-05 0.02399132 0.0027441657 0.0018089834 0.020178003 0.06260102 0.007021527 -0.06324437 0.030244712 0.108404875 0.07767001 -0.08667177 -0.12998879 -0.032641802 -0.10439724 -0.11381781 0.07163422 -0.043555327 -0.027431397 -0.025917768 -0.0025597266 -0.122783706 -0.028238855 -0.019061662 -0.028287817 -0.0061783767 0.05029757 -0.023415871 0.08091444 -0.06488406 -0.006722726 -0.018265877 -0.083355166 -0.020673357 -0.032574452 -0.011843486 0.07306884 -0.062849425 -0.063463226 -0.097781286 -0.043646764 -0.009472339 0.05445284 0.100806564 -0.084290065 0.09909325 -0.005972708 -0.050877776 0.0018805583 -0.010159807 -0.022797626 0.043014817 0.0020569186 -0.041839566 0.00969097 0.019833406 -0.026463527 0.01843932 0.031982265 -0.10490382 -0.11754576 0.028937541 -0.0017670059 0.045676686 0.022336503 0.020120893 -0.06961795 -0.08895041 0.093768165 0.04321431 0.10107886 -0.058469024 -0.07690231 -0.03033931 -0.025935393 -0.0325452 -0.03553142 0.025794828 -0.01957207 0.074237734 -0.023928223 -0.0536195 -0.014927827 -0.023380462 0.046627145 -0.018599182 0.015584354 -0.026180567 0.064187676 0.104140006 -0.0059187193 -0.074376784 -0.0048523783 -0.02022694 -0.050583705 -0.019709239 0.020835169 -0.025659448 0.093713276 0.009942483 0.008995878 -0.039588977 0.022396069 0.104375504 -0.021790361 0.054003883 0.08033997 -0.07885049 -0.093697175 0.01241197 0.076051176 -0.044056997 -0.09248927 -0.06708572 -0.070121914 -0.026899977 -0.028209403 -0.053297203 -0.06880123 -0.037644647 0.05629331 0.02135383 -0.048700787 0.11562684 0.050549623 -0.04358581 0.0065618483 -0.062298834 -0.04035175 0.0049402327 -0.03737682 -0.02586545 0.040273577 -0.035645165 -0.042093776 -0.04675874 0.016735915 -0.080011874 0.024438363 -0.035363827
went -0.05685399 0.02600486 0.027928337 0.06254944 -0.09579773 -0.07043497 0.052642137 0.12945847 -0.06018015 0.070455275 -0.03566545 0.05371447 -0.041314323 -0.027824575 -0.057083335 0.07141988 0.003575237 0.0165095 0.018819882 0.07218983 -0.05429527 0.024435515 -0.06431668 -0.0074383034 0.0051108086 0.00750814 0.04650765 -0.0019276907 -0.039283156 0.04722107 0.0024644407 0.06478334 0.043927025 -0.082361326 0.044329923 -0.12537983 -0.02857 -0.030546164 0.020224778 0.057557493 0.038258944 -0.048734397 0.0120179895 -0.017682485 0.03461937 -0.073789015 0.05980722 -0.019686334 -0.07587315 0.042452816 -0.01225031 0.046207502 0.06892913 0.096414015 -0.021184009 -0.07302027 0.05993696 -0.04584798 -0.009875496 0.072473265 -0.021127585 0.08080759 0.013465574 -0.09761642 -0.01072625 -0.016969522 -0.07935349 -0.08473816 -0.04210511 0.07583414 -0.11693005 0.01734837 0.029787483 -0.04266874 0.111651845 0.06973357 -0.09853292 0.085961744 0.08126008 -0.029727168 0.0241848 -0.030369742 0.044696026 0.03011765 0.038235284 -0.036510434 -0.03502441 0.028800774 0.0045303386 -0.025207588 -0.016721193 0.04276321 -0.023277657 0.0683588 0.01371905 -0.07220042 -0.022639774 0.017542534 0.007861767 -0.020048436 0.07681266 -0.018948 0.028466498 -0.057908956 0.015338881 -0.016537266 0.025161201 -0.019634223 -0.04235398 -0.12408694 0.046410915 0.0227294 0.076779604 -0.008071221 0.016564509 -0.005366262 -0.06305027 -0.030453132 0.011867757 -0.021497509 0.05862647 -0.02564113 -0.019372284 -0.08827214 0.005538767 -0.048497085 -0.09706174 0.05847543 0.05878753 0.0063486127 -0.07591987 0.075967334 0.05953304 0.08338367 0.019565323 0.10694199 -0.050357334 -0.052398436 0.007589396 0.03134598 -0.026884507 -0.060328856 -0.036393423 -0.03166626 -0.018910795 0.033523396 0.015961608 0.067514166 -0.047980275 -0.024568811
thought -0.06780597 -0.04251497 -0.05158996 0.034270953 -0.08790377 -0.022466691 0.019394733 0.0027635284 0.041704785 -0.020174967 0.07158787 0.020872477 0.043711998 -0.085583664 0.03426803 -0.0015069037 0.07698983 0.03883496 0.011505701 0.05906661 -0.03713675 -0.031767454 0.025166493 0.065490656 0.05702114 -0.07481784 0.06306847 -0.051040996 -0.026511014 0.04266336 0.08717907 0.03278006 -0.04560676 -0.037150808 0.049380865 -0.039458245 -0.030814838 0.035357077 -0.032850347 -0.035922796 0.00954907 -0.031231282 -0.07131334 -0.10211161 0.036922526 0.032877427 0.022332905 -0.058819484 -0.046499897 -0.07619146 0.0039141895 0.08834736 -0.076153725 -0.041121554 -0.029368473 0.04954378 0.007885455 0.02055024 -0.07943734 0.06934675 -0.042406715 -0.0530986 0.028421383 -0.021194972 0.077545546 -0.010883198 -0.042434677 -0.04707335 0.026325637 0.05930551 -0.04140511 0.088281766 0.07363263 0.025067694 -0.03577557 -0.015696842 -0.060099 0.060731385 -0.03152518 -0.036841854 -0.056691274 0.05328954 -0.06554983 -0.03595973 0.065709546 -0.053607337 0.04882439 0.0214258 0.06544338 0.07020099 0.06917594 0.052703373 0.012022477 -0.059579458 -0.07893526 -0.020301944 -0.010955795 0.092175014 0.031286642 0.07956596 -0.034404434 0.015902711 0.018678347 -0.084150776 -0.06634708 0.01088668 0.05875972 0.07969654 0.08296323 0.046300296 -0.032457903 0.0693384 0.05485999 0.08049996 -0.0043004574 -0.06387551 -0.07668371 -0.051485278 -0.031008923 0.05691471 -0.038884863 -0.049748886 -0.06889367 0.032186437 -0.02218658 0.06044885 -0.027990563 -0.003031833 0.019346833 -0.04503409 -0.021453323 0.070928976 -0.017832316 0.05118491 -0.034338225 0.03479995 -0.03397367 0.055454444 0.0043749684 -0.03953015 0.027484512 0.03263014 -0.049114857 0.018303264 -0.035540935 0.048369758 0.011674197 0.0702384 0.005369517 0.0061587263
again -0.01950833 -0.045003146 -0.08047723 0.06718822 0.02766407 -0.028168552 -0.02641638 0.035133015 0.085934 0.049680185 0.005837687 -0.041329045 -0.031745218 -0.0148907285 -0.0033219364 0.022536537 -0.049432226 0.012726983 -0.03765813 0.047735684 0.04634721 -0.03627008 -0.060874276 0.026478713 -0.05251466 -0.09402683 0.02298421 0.033511106 0.0025569526 -0.021481479 0.015726343 0.027822865 -0.035073917 -0.032798998 0.00042833004 -0.07025469 0.082349874 -0.0005424833 -0.031134095 0.01256343 0.07468599 -0.046130683 -0.00021498441 -0.059356276 0.068747796 -0.079218894 -0.008784633 -0.01707679 0.016596114 -0.0041543003 -0.06288434 0.04525493 0.044079684 0.07040584 -0.07872129 0.011358736 0.05314398 -0.08679915 -0.06027202 0.040405158 -0.013272083 -0.01672963 -0.067513764 0.01112439 0.038741928 0.029392224 0.04824467 0.004575019 0.07173409 0.0023775662 -0.031026216 0.025227433 0.05937806 -0.06322088 0.029472131 -0.034957737 -0.0621354 0.011720049 0.04344508 0.016169917 0.022240536 0.057857454 0.022131674 0.033087783 0.006994442 -0.051244974 -0.0035215088 0.038026936 -0.016417496 0.010818536 -0.061670166 -0.030551169 0.054845516 0.0099265 0.004344037 -0.028117774 0.08743133 -0.011192998 -0.066556886 -0.032436576 -0.038238507 0.0363876 0.076108016 -0.09335208 -0.03904733 0.016759763 0.06537304 0.0029473845 -0.047392618 0.003417303 -0.02185152 0.07875669 0.037382152 0.04989886 -0.03845427 0.039489537 0.0146632325 0.0018617559 0.0056370688 0.08665254 0.012945185 -0.06555791 -0.051057942 0.011992337 -0.007861682 -0.062379375 0.03334133 -0.06633922 -0.028791029 -0.055668112 0.022366831 0.030669594 -0.008029496 0.012724076 -0.005104515 0.07706494 0.007847991 -0.049183194 -0.0015693787 0.037930973 -0.027803365 -0.06463967 -0.07017198 0.048535325 0.044875126 -0.03226796 -0.014742733 0.04474091 -0.05131493 -0.0337707
there 0.031021347 -0.06799626 -0.054488093 0.107132964 -0.057074133 0.09998579 0.06391891 -0.025817867 -0.07256789 0.07164857 0.041335765 0.032083925 0.030378979 0.09141615 0.0640563 0.026839774 -0.10533019 -0.102028586 0.026718812 0.026222253 0.06364399 -0.08451875 0.09250866 -0.08870683 0.006124259 -0.010527757 0.047281213 0.018236684 -0.10254208 0.07446192 0.1181415 0.07082586 -0.010116038 0.037739 -0.015563034 -0.13268167 0.06132495 -0.060681414 0.014914968 0.054164637 0.06822169 -0.07272531 -0.020662434 -0.0072531123 -0.0376625 0.014203312 -0.016636021 -0.039644897 -0.06238942 -0.031136334 -0.041078415 0.052692 -0.043125734 0.034616213 0.04438122 -0.045646533 -0.025424225 0.026098652 -0.09219783 0.0309265 -0.123058654 0.049140293 -0.088589415 0.047780503 0.0525565 0.10417585 -0.05933588 -0.0579131 0.058317907 0.02629483 -0.06325499 0.08666271 0.0010682816 0.08967645 -0.02848745 -0.092178114 -0.033384524 -0.0036034454 -0.015076558 -0.11671616 0.07552365 0.037088998 -0.09642566 -0.03595259 -0.017390428 0.026803674 0.0248857 -0.025936961 -0.13304444 0.06745531 0.07337542 0.03975459 0.06353267 0.087188415 -0.050664805 -0.058576785 -0.03645063 0.066530466 -0.11159611 0.035774603 -0.014507511 -0.039710294 -0.011153641 0.046819013 -0.036889676 -0.052035067 -0.086184375 0.06090729 0.029507825 -0.055199634 0.07032226 -0.031509124 0.067496225 -0.0107397605 0.07027455 0.08984455 -0.031766534 -0.050101932 -0.018563341 -0.02445299 0.090892866 0.055760194 -0.079952426 0.022530936 0.053861346 -0.05751622 -0.10010044 0.0024065147 0.012935142 0.01462691 -0.071170814 0.0031780733 0.0068681636 0.07061511 -0.030110087 0.1161179 0.06348199 0.033198263 0.075074784 -0.06594785 -0.10771128 -0.0988803 0.052329827 -0.08080353 0.06194321 0.107085496 -0.0104449345 -0.089420676 -0.050205044 0.01550897
