1182 50
the -0.19904216 0.13714616 0.25670546 -0.02590445 0.16808344 -0.3575505 -0.29928797 0.14437686 -0.28888077 0.22800191 0.027017385 0.16985568 0.23390178 0.31811813 0.08476543 0.15015474 0.20761773 -0.06926674 -0.2832113 0.082174875 0.10606058 0.3597008 0.06657593 0.30869877 0.0046892907 0.13005601 -0.052085057 0.23633349 0.0718632 0.0596418 -0.12669373 -0.09690971 0.11862604 -0.08758139 -0.31009948 0.1436577 -0.08655899 -0.2539614 0.30505672 -0.24881312 0.0833006 0.0002921191 0.23109849 0.22932747 -0.12825656 0.17962271 -0.080368824 -0.15054867 -0.22392093 -0.04684579
and 0.13357604 -0.065792404 -0.16942097 0.23832275 -0.05833846 0.0133397095 0.1991863 -0.16891846 -0.0007071846 -0.022226576 0.06863899 -0.04548816 0.005533102 -0.007349305 -0.17430444 -0.026438707 0.04088501 -0.08092613 0.16241357 -0.16412558 0.13596325 0.032227032 -0.20352605 -0.04722466 0.028614756 0.005911008 -0.11903078 0.050490193 0.08248748 0.04676887 0.036247473 0.065769374 0.15544221 -0.08412132 -0.08384231 0.049010865 -0.1024389 -0.06760505 -0.06499509 -0.0925193 0.1494696 0.029196672 0.06755192 0.16333282 -0.026708333 0.15539262 -0.0973421 0.089578584 -0.13373725 0.020359913
to -0.10539014 -0.08446282 -0.10226827 0.10926547 -0.038032915 0.014825627 0.13688979 -0.057835698 0.22444855 0.029424423 0.059427354 -0.11227054 0.17999367 0.022247165 -0.12189428 0.066802025 -0.068610296 -0.08730143 0.048649702 -0.15420234 0.11521051 0.12372219 -0.1046535 -0.055465348 -0.09767672 0.042212225 -0.07289072 0.073003985 -0.11119791 0.052051004 -0.11986521 0.1515959 -0.017756972 -0.21577336 0.07867005 0.09513306 -0.043156397 0.069040835 0.00730478 0.005549874 0.16284567 -0.061746176 -0.096269734 -0.09022743 -0.04643931 -0.10919605 -0.010352838 -0.061792728 -0.120054826 -0.10742702
she 0.17854261 -0.10663549 -0.07595618 0.1039039 0.2313043 -0.20937054 0.003296923 0.101960704 0.2410625 0.27743217 0.08994306 -0.19283263 -0.0053367405 -0.11402269 -0.029911313 0.0732185 -0.29018292 -0.08693361 -0.20602784 -0.059852343 -0.21351571 0.15560669 -0.22109818 -0.08124863 -0.047033757 0.15328732 0.036710184 -0.021446982 -0.17733213 -0.08953194 -0.11655967 0.19523533 0.16483031 -0.14699139 0.10171098 0.038961563 -0.1827957 0.22931392 0.24764091 -0.08225257 0.081995845 -0.059744112 0.009690799 -0.14584763 -0.07267074 0.104717955 -0.11125506 -0.16583887 0.14564066 0.078837864
a -0.18990256 -0.14777362 0.0043855333 -0.072044834 0.19074787 -0.24283597 -0.030252973 -0.10730357 -0.12470414 0.084585324 0.16817065 0.032244813 0.22247729 0.17345299 -0.11043949 0.033301894 -0.023506194 -0.14988862 -0.17275907 -0.0023516188 0.15522192 0.27597913 -0.082481526 0.032055456 0.0002989883 -0.1816188 0.107392244 0.10270773 0.033881757 0.1355195 0.0073070102 -0.07759369 0.094386205 -0.011400017 -0.1963357 -0.011835026 -0.1604641 -0.1345204 0.19302064 -0.13936962 0.15091637 -0.04110928 0.10176023 0.07487944 -0.09409816 -0.017115295 -0.17740226 -0.20996827 -0.13304323 0.12854743
i 0.14200939 -0.26507726 -0.2141323 0.05388469 0.12656485 -0.030471858 0.17498977 -0.25859728 0.35835135 0.24538887 0.2974557 0.22105938 0.12477968 0.04504526 -0.16970052 0.16760422 -0.30674917 -0.11915162 0.25224206 -0.21820472 -0.12619007 -0.0059899236 -0.23180139 0.1654921 -0.19646725 -0.17531955 -0.18232995 0.09146463 -0.19928947 -0.14576356 -0.17170393 -0.07692742 0.12936993 0.088030726 -0.069249876 0.10409818 -0.18917826 0.2528152 0.18843994 0.12809558 -0.11014869 -0.09191692 -0.1747049 0.04166379 -0.20675008 -0.14329769 0.021564022 -0.28997678 -0.2944663 0.1130869
it 0.11350883 -0.017853893 -0.068001285 0.007735326 0.152204 -0.079331905 0.070910886 0.05812693 0.19810848 0.20499523 0.022705255 -0.17227781 -0.004118938 0.13076365 -0.021091871 0.11449861 -0.16929038 -0.035447847 0.03659625 0.005696197 -0.14134423 0.07701317 -0.09779686 0.12312828 -0.06919056 0.070748106 -0.030318953 -0.07390228 0.01963995 -0.16737396 -0.0059368005 0.17102966 0.18401836 -0.11477568 -0.033063147 0.07641401 -0.13056856 0.22930214 0.16758546 -0.050007023 0.14176364 -0.1971245 0.082593665 0.025670864 -0.097010225 0.06554073 -0.10406004 -0.13380693 0.061890654 0.0044061583
of -0.20626892 0.061165586 -0.22599103 0.06245995 -0.06128535 -0.018659027 0.21729581 -0.14980851 -0.028547518 -0.08200884 -0.06239886 0.043128707 0.09872783 0.010360389 -0.045762464 0.14280011 0.00801864 -0.25474375 0.09056809 -0.013798533 0.15316069 -0.077976264 0.050471738 -0.060326684 -0.24975665 -0.16424547 -0.21288384 0.20778297 0.012069357 0.21866778 -0.1261804 -0.029964056 -0.064788304 -0.1500927 -0.20799266 0.1699191 -0.06992728 0.041487623 0.015086335 -0.049574394 -0.042302012 0.15563335 0.23080789 -0.08249317 -0.10723948 -0.013342037 0.033065706 0.04390278 -0.1972385 -0.16412653
was 0.04634177 -0.111589596 -0.14171556 0.0035717355 -0.020200286 0.033290528 0.06734695 -0.003081156 -0.09270337 0.06958024 -0.036751967 -0.01692523 0.109452605 -0.068155564 -0.1270571 0.015278895 -0.103369065 0.012677228 0.13727275 -0.18768969 0.08052827 -0.04087992 -0.01462313 -0.074284054 -0.00648799 -0.061546925 -0.096717186 -0.023127925 0.17426017 0.13239902 0.06263684 0.13437408 0.20177516 -0.14261407 0.05501647 0.06298246 -0.11099326 0.115091644 -0.1514843 0.020972496 0.1302505 0.12315359 -0.026278617 0.0040220525 -0.023123661 0.08311304 -0.14438805 0.047458746 0.023311475 -0.05471595
in -0.14107804 -0.08239508 -0.19970134 0.04074731 0.060327277 0.0887108 0.09712622 0.010424238 0.120596066 -0.13521901 -0.026416348 -0.005680222 0.008573093 -0.03064224 -0.019587286 0.10713465 -0.057943057 -0.0766938 0.0030779042 -0.067901075 0.101416685 -0.05763049 -0.084373824 -0.08427358 -0.17888215 -0.0680445 -0.13248444 0.13543296 0.10440709 0.15568571 -0.1811264 0.050352767 0.037603904 -0.1714562 -0.09994696 0.09245204 -0.03724018 -0.14845447 -0.022757601 0.00066564593 0.1495735 -0.016929317 0.05758355 0.023281207 -0.13831447 -0.050075755 -0.03830634 -0.026022056 -0.028277803 -0.091869175
alice -0.11231494 0.015467538 -0.039096586 0.026439669 0.08816207 -0.016601035 0.0097312145 -0.013557679 0.0860859 0.19344455 0.12646301 -0.041365847 0.00065308326 0.01200864 -0.12611319 0.051204763 -0.0073109623 -0.06280777 -0.0144833 0.066217415 -0.07075178 0.14067446 -0.10744222 0.11672816 -0.070927076 -0.053365923 -0.12167224 0.0541022 0.025804244 0.06270743 -0.054367304 0.16786115 0.10068811 -0.09989844 -0.07787063 -0.031232836 -0.047273 0.0014230715 0.07404271 0.012196237 0.028646505 0.005869309 0.05169499 0.07280179 -0.039763093 0.057054557 -0.096173234 -0.07379434 0.053437185 -0.005751917
you -0.03448953 -0.15693222 -0.13318875 0.032902762 0.08034752 -0.013096452 0.026905833 -0.14743783 0.22002372 0.2105381 0.17261775 0.09482367 0.07145731 0.14627917 -0.0972014 0.0152484635 -0.10609432 -0.043654278 0.14517406 -0.061503764 -0.08440042 0.1583264 -0.14944452 0.18953441 -0.17017615 -0.15752576 -0.09174814 0.040977165 -0.08135648 0.07980721 -0.123882584 0.13010384 0.04620425 -0.02121445 -0.032732677 -0.034591857 -0.111971214 0.13938296 0.16780555 -0.07613434 0.10183903 -0.022501394 -0.023346774 0.19066177 -0.07546242 -0.03686011 -0.19886819 -0.14572975 -0.1320527 0.011205445
that 0.0074451156 -0.102345966 -0.07375697 0.05368304 0.06703119 -0.105930686 0.0022264468 0.033020645 0.014871719 0.14273362 0.04984132 -0.045932416 0.0013314076 -0.073926955 -0.07350749 -0.047797963 -0.09926887 -0.07877323 0.080322646 -0.042936232 -0.014231924 0.0720442 -0.08336941 -0.019860532 -0.0024596308 -0.09255366 -0.059317343 -0.016564468 0.117685415 0.029786626 -0.042608626 0.13080578 0.09306987 -0.10597108 -0.019548995 0.003127024 -0.1271793 0.12360599 0.0139955245 -0.11040038 0.13745375 -0.0013661373 -0.013945401 -0.0030183478 -0.060712524 0.16099714 -0.123824224 0.03306836 0.05673014 0.020424448
her -0.036724046 -0.011225745 -0.005131711 0.10057758 0.07916536 -0.039140433 0.07194991 -0.012252403 0.016621456 0.11672704 0.06679876 -0.024527123 0.10640154 0.17601204 -0.05692698 0.063365355 -0.0739747 -0.05688421 -0.031114742 -0.086831845 0.030035693 0.23769854 -0.035847023 0.06226666 -0.05187208 -0.07086279 -0.08989849 0.074720986 0.113302015 0.076364756 -0.07066591 0.0019125165 0.06668492 -0.04642615 -0.064515315 0.09365338 -0.088310726 0.029172763 0.16530052 -0.08457607 0.058844034 -0.019839667 -0.02584417 0.104275815 -0.07471393 0.10783046 -0.08836202 -0.20959857 -0.034834743 0.021657698
as -0.031684615 -0.057891317 -0.059215777 0.06363151 0.13754728 0.038903393 -0.032285668 -0.03479454 -0.060192347 0.084368564 -0.03650693 0.025337959 -0.08153933 -0.11902481 -0.09971428 0.054614376 -0.16851927 0.04421136 0.10459205 -0.07736894 0.09479196 -0.006958697 -0.12147411 -0.07786754 -0.044569213 -0.10879497 -0.049199913 -0.11677993 0.07880467 0.0065380163 0.004080427 0.20681152 0.12439547 -0.10696864 0.1127058 0.08971461 -0.106729515 0.14645985 -0.044021886 0.008075213 0.15751511 -0.09172129 -0.06010784 0.11281312 0.043174643 0.16764277 -0.09733625 0.05621113 0.006684646 -0.019119784
said -0.019098403 0.015403412 -0.074782655 -0.002765799 -0.04794981 0.10911827 -0.01194034 -0.021009184 -0.07116728 -0.033136815 0.043964937 0.040649753 0.116495565 0.07360412 -0.078348115 0.015545552 -0.01814184 -0.06829366 0.10625695 -0.05091695 -0.003322572 -0.05345081 -0.11192539 -0.0006732057 -0.058546238 -0.16838466 -0.08310181 0.08724244 0.104603104 0.057229444 0.0188654 0.1517895 0.060824778 -0.009985526 -0.03449986 -0.036239743 0.039942015 0.081439584 -0.03784388 -0.013921339 0.02364053 -0.041091394 -0.0525607 0.016706327 -0.038491182 0.072458506 0.00012594857 0.010089858 -0.056919344 -0.08319768
had -0.03680092 -0.1064213 -0.083182655 -0.03140917 0.004524855 0.00014116103 0.059971992 0.0039656623 0.03528317 -0.022116091 0.052813016 -0.11657018 0.07563385 -0.054728754 -0.09683058 0.10022542 -0.020047149 -0.0035212403 0.032612942 -0.08393723 0.08304245 0.108761854 -0.09037949 -0.025626127 -0.04485114 -0.047485545 -0.069740914 -0.010764884 -0.03192013 -0.01948313 0.047796562 0.1441335 0.13319288 -0.0806206 0.022618625 -0.019949708 -0.0658395 0.13165319 -0.04990801 -0.07899227 0.13965397 -0.008820032 -0.03487279 0.099357314 -0.0071893125 0.15765904 -0.04424308 -0.025768412 0.046118177 0.021751538
for -0.009336704 -0.06881732 -0.033938557 0.10846081 0.0677045 -0.035217788 0.09631825 -0.11690136 -0.028296923 0.023224536 0.0957397 0.028844232 -0.0036784597 0.006412329 -0.1237905 -0.019023081 -0.09105532 -0.09208477 0.072698936 -0.105140164 0.049220506 0.09514945 -0.10009398 -0.019445848 -0.13828635 0.032922845 -0.08966486 0.032987714 0.085299425 0.027211566 0.009678294 0.08582935 0.1293188 0.020352224 -0.096993886 -0.022694558 -0.05666359 0.021130556 0.01909161 -0.015450738 0.08104352 0.052650005 0.019568432 0.005254318 -0.06111116 0.017606413 -0.11191537 0.048827868 -0.048688047 -0.03989244
but -0.07357393 -0.054458424 -0.005203013 0.04306745 -0.0009161236 -0.093524486 0.09192144 -0.15420535 0.08314909 0.027734078 0.1009308 0.10978246 0.029378522 -0.045832854 -0.024764385 0.11115594 -0.10908662 -0.06879544 0.12089129 -0.10635201 0.031035861 -0.00246992 -0.054796293 -0.036031906 -0.11515697 -0.12362165 -0.03583219 -0.028588358 0.03432949 0.017882368 -0.035741877 0.023427725 -0.03189186 -0.11557986 -0.1080298 0.009037948 -0.01959681 0.041374702 0.036635436 -0.07373391 0.056877162 0.07570579 0.067781575 0.12000522 -0.07009436 0.055768304 -0.03902159 -0.021441378 -0.102457576 -0.06515132
be 0.013602796 -0.13561232 0.009254433 0.1261117 -0.00420825 -0.0827586 0.11797858 -0.16908564 0.15919176 0.09049444 0.12223497 0.13879974 -0.044690922 0.10457294 -0.16060843 0.05323046 -0.06281483 0.044718992 0.16266207 0.061456654 -0.0046122884 -0.0281063 -0.053979635 0.0012535723 -0.04514176 -0.015019112 -0.10985311 0.102501564 0.08617806 -0.07663609 -0.12827748 0.01227779 0.10319471 0.07859609 -0.08718618 0.11144162 -0.1356087 -0.06781634 0.11753132 -0.036319442 -0.0021432291 0.0043974463 -0.078971274 0.12568717 -0.11016412 -0.031807885 -0.14380024 -0.04633279 -0.10712243 0.06283667
on -0.0004536329 0.063850075 0.00089590554 0.1169062 -0.003573857 -0.02490301 0.075963594 -0.11352997 0.00027527788 0.07001422 0.031484444 0.07314358 0.06655938 -0.02449454 -0.111090206 0.08934077 0.04329984 -0.08373351 0.021180399 0.008257296 0.13073635 0.058315273 -0.07347193 0.009967382 -0.086857416 -0.0656603 -0.11706228 0.08129545 0.012664142 0.04846331 0.0019910717 0.08850375 -0.025242945 -0.09463433 0.038270194 0.014191914 -0.029217739 0.01611066 -0.058293134 -0.11108461 0.0076559056 0.059536375 0.041089285 0.111681774 -0.08095279 0.0066063395 -0.09698314 0.033418085 -0.10121212 -0.10326371
all -0.104659595 -0.0057859616 -0.05318826 0.10091446 0.08420092 0.0037906677 0.11028594 -0.09532661 0.08160114 0.0023012324 0.04749848 0.04249916 0.11267983 0.13388999 -0.12175705 0.058896303 -0.08325941 0.003456997 0.081380635 -0.030019714 0.035249934 0.022853548 0.057202894 0.10422716 -0.010114599 -0.08548324 0.03596372 0.09993662 0.029567743 -0.015737385 -0.11466393 0.09835293 0.048837107 -0.09433931 -0.112157755 0.06672808 -0.07328413 -0.027505713 0.08724629 -0.12751311 0.04031454 0.04346642 0.00044105446 -0.034785535 -0.08556422 0.017476864 0.004557452 -0.06689168 -0.05854999 0.002864929
with -0.08125039 -0.049181636 -0.11582218 0.12180331 0.037372198 0.027311768 0.07489644 -0.060242444 0.057261918 -0.03050477 0.054669045 0.012656373 0.015205307 0.042909272 -0.13120238 0.045589164 0.06517642 -0.08283153 0.13834044 -0.05640667 0.09044773 0.035136007 0.009042855 0.007385969 -0.09736079 -0.01585752 -0.10591999 0.036732536 0.061546996 0.0033135081 -0.14524703 0.04315006 0.07839721 -0.14046888 -0.07193728 0.096549146 -0.04914505 0.04227959 -0.013577944 -0.01635577 0.078149706 0.034567937 0.13253972 -0.034590106 -0.04236888 -0.0054686964 -0.041340947 -0.057414517 -0.06589847 -0.013578536
little -0.011496656 0.026107233 -0.0547713 -0.030212102 -0.0091145 -0.011005373 0.05424096 0.023514863 0.044444878 0.013963243 -0.04686628 -0.113526054 0.02694957 0.08885621 -0.02385535 0.10549874 -0.06643058 -0.06611695 -0.0048363935 0.034758955 0.047636714 0.012853474 0.03832944 -0.025978126 -0.105310924 -0.07329027 0.023354284 0.06337579 -0.0007314603 0.1803892 -0.10134665 -0.01687753 0.009519126 -0.016911067 -0.056607645 0.115876466 -0.0008365859 0.027847208 -0.0098002255 -0.031444907 0.13682768 -0.053449746 0.10574009 -0.04503143 -0.13634714 0.026336247 -0.065603964 0.01906177 0.0053782724 -0.11061221
mouse -0.016430354 0.05659898 -0.10047019 0.04438757 -0.056190025 0.015348839 0.09774451 -0.07263771 0.011750312 0.020660622 -0.005828417 0.051967476 -0.09312562 -0.0654896 0.010669755 -0.017620388 0.07472211 -0.0951589 0.114520706 -0.075973496 0.013164246 -0.09358652 -0.07123339 -0.10073194 -0.106169865 -0.01863635 -0.13437414 0.15497753 0.1121785 0.15167052 -0.018483793 0.0917601 0.048629005 -0.103250384 -0.012270827 0.14284858 0.036105223 -0.08534495 -0.057127696 -0.030976063 -0.008152815 0.11624633 -0.021336172 -0.088718176 -0.14224887 -0.09724135 0.0016121417 0.031102266 -0.051391885 -0.120065585
down 0.06259979 0.0035101834 -0.11498303 0.0021629082 0.054466557 0.017130403 0.00717578 0.04023851 -0.02073022 -0.018875495 0.090964556 0.05389512 0.07126862 0.029226441 -0.014877965 0.08637926 -0.014373982 0.002308473 0.009422576 -0.13792177 0.077451244 0.056183793 0.022848364 -0.025397006 -0.049577326 -0.043199547 -0.026925411 0.010742952 0.01207133 -0.03417931 0.012996298 0.08841537 0.020377746 -0.08791115 -0.08224219 0.088196866 0.009717699 0.024430681 0.021627132 -0.059358712 0.10545577 0.08798002 -0.016389268 0.027341723 -0.10247618 -0.021803454 0.017762225 -0.11122182 0.03420956 -0.03168005
very -0.083168045 -0.122407526 -0.023431841 0.07664031 0.09866474 -0.03589691 -0.0076469644 -0.084738865 0.067240484 0.1012137 0.13621591 -0.015448256 0.103268564 0.006169918 -0.08931061 0.013440066 -0.105417594 -0.07343807 0.0628686 -0.01815687 0.09622311 0.05994725 -0.011522236 0.07129146 -0.042500246 -0.004555727 -0.03458115 0.07125924 -0.011499003 0.062453106 -0.03676029 0.08031764 0.06324479 -0.075480804 0.012603711 0.0149767455 -0.11116638 0.017724505 -0.0086034695 -0.080932625 0.0035131418 0.046397932 0.026615042 0.10848892 -0.06245139 0.010145447 -0.09426702 -0.03736311 0.016461037 -0.05179882
this -0.05523155 -0.008380112 -0.10603551 0.08113837 0.020902291 -0.029809302 0.004554988 -0.077009626 0.030532146 0.12997976 0.1305443 0.099563316 -0.008496292 0.08028877 -0.024428353 0.0022270787 -0.014545705 -0.06499803 -0.035479162 0.0076097194 0.046669427 0.09445358 -0.031794596 0.073978834 -0.07747233 -0.044236545 -0.07350969 0.110084526 0.07123225 0.01472245 -0.10888718 0.02721 0.119055144 -0.109754615 -0.041701037 0.044731874 -0.021079872 0.04443332 0.010608212 -0.06601752 -0.0024832897 0.047881577 0.0038197662 0.07217773 -0.09847694 0.13188528 -0.12391044 0.015167289 -0.05576055 -0.035602126
not 0.031509537 0.0123278415 -0.03577477 0.050817177 -0.044802815 -0.082407184 0.042276092 -0.047053963 0.028087359 0.09703713 0.06604645 0.05954044 -0.0023275726 -0.079601616 -0.14150614 0.011530677 -0.015030807 -0.0034992308 0.03631596 0.00830523 0.0017753174 0.03666569 -0.1102978 -0.022044178 -0.056747302 -0.06432809 0.0037339735 -0.0046461285 -0.036148183 -0.027537422 -0.084061116 0.11463361 0.009725956 -0.092749275 0.046155576 -0.009280518 0.014472592 0.07695588 0.054376166 -0.08041039 0.05665594 -0.01318408 0.011955423 0.12728356 -0.10369903 0.10023297 -0.1393673 0.03616688 0.004776956 -0.07634999
so 0.027730754 -0.024348604 -0.04207167 0.078089885 0.051579796 -0.026088439 0.07131918 -0.08215825 0.055500284 0.04799483 -0.0113303885 -0.03542327 0.11526014 -0.025038725 -0.03039054 -0.00072190526 -0.07226775 -0.08870954 0.0472334 -0.030179061 -0.038341686 0.10038488 -0.09949011 0.036197692 0.032115065 0.02747004 0.015850829 0.011018588 0.025139827 0.038233794 -0.074582964 0.012960277 0.10785687 -0.06845578 0.021174261 0.033204585 -0.040875986 0.11401079 -0.053444583 -0.02559949 0.14250751 -0.019789796 -0.077935554 0.04224204 0.028654842 0.0051054023 -0.106389806 -0.07122069 -0.027505923 0.0056743966
out -0.030115562 -0.06407996 -0.0015191843 0.08697376 -0.0013197004 -0.013084152 -0.03098972 -0.08172863 0.06148969 -0.025044441 0.03482527 0.08043444 0.021539196 0.051841736 -0.06707717 -0.0022976175 0.0418017 -0.06735752 0.023448259 -0.00310503 0.10819473 -0.05963866 -0.05696492 0.070818335 -0.09554396 0.0011008134 0.036285892 0.10635409 -0.008698055 0.008117697 -0.041507367 -0.070220165 0.030938046 0.038163573 -0.021303214 0.119147606 0.058783416 -0.11174382 -0.01957347 -0.07400325 -0.031823024 0.05100287 -0.013435753 0.03838629 -0.030817598 0.054003574 -0.06268342 -0.03568614 -0.10435552 -0.0475372
if 0.06677373 -0.02356804 -0.022814564 -0.009150016 0.10674173 -0.1044569 -0.032736227 -0.102091156 0.057326876 0.08613036 0.09773586 0.059083663 -0.04274978 0.05403095 -0.13514459 0.03370975 -0.08867844 0.005278808 0.13527198 -0.14504452 -0.048829824 -0.034615654 -0.10607929 0.0371963 -0.079759195 -0.078876935 -0.02866504 -0.082304 0.025515884 -0.093498275 -0.057448354 -0.016253943 -0.00900414 0.07251757 -0.025557684 0.0028614982 -0.105673596 0.06940146 0.09767196 0.01574548 -0.052021176 0.0007468057 -0.018328674 0.017466763 -0.046372727 -0.028279528 -0.13786405 -0.040161118 -0.09434561 0.058301926
is -0.047290675 0.043780785 0.0069456534 0.010990762 0.07581768 -0.022028029 -0.021331247 -0.101177335 0.06912766 0.019725192 0.03916675 -0.026810726 -0.044072427 0.02446089 -0.0067528915 0.06557717 -0.0063296575 0.05205527 0.010887357 -0.039635446 -0.021753345 0.028298216 -0.086818375 -0.08845246 -0.08445646 0.012367521 -0.08084653 0.009929591 -0.013867754 0.0669742 -0.07617611 0.054183204 0.1087072 -0.027581273 -0.043708924 0.06695895 0.002236575 0.079027265 0.0042143837 -0.062395878 -0.049292877 0.10322543 0.10177708 0.05320811 -0.10747425 0.060216896 -0.061850756 0.039654683 -0.02889991 0.02352243
at -0.065719135 -0.06750374 0.006744073 0.07798296 0.08054892 -0.03531283 0.008231551 -0.09870184 -0.029135251 0.09412091 0.083341606 0.017337266 0.12455267 0.07128413 0.009451468 0.11809211 5.079247e-05 0.023714324 0.00031253032 -0.12226621 0.04505742 -0.003217861 -0.05601468 -0.003691062 -0.03514237 0.04516438 -0.062491324 -0.010291449 0.07669013 0.039116852 -0.041311067 0.08979668 0.06809884 -0.06605632 -0.05365187 0.029939475 -0.023340004 -0.059521336 -0.0078055314 0.0064634965 -0.0242412 0.064670175 0.09063393 -0.06848669 0.0039629475 0.0753466 -0.0019099994 -0.09045477 0.0012008693 -0.08281633
t 0.017536288 -0.034412906 0.041649923 0.081157014 0.057133988 -0.09268528 0.039798193 0.014485511 0.006842657 0.10321949 0.054154247 0.124038726 0.024442798 0.121553004 -0.124014996 0.098482445 -0.079717554 0.027336957 0.11826422 -0.14504328 0.07745891 0.08317076 -0.116635464 0.11737483 -0.01586595 -0.15865089 -0.011699188 0.081194445 -0.0669445 -0.09256821 -0.0035533642 0.034165487 0.053224098 0.04183149 -0.011625949 0.091736 -0.08154347 0.020793317 -0.009481545 -0.035885092 0.06932851 -0.0062824343 0.027494589 0.09229664 -0.07695364 0.00058859785 -0.056386974 -0.04291903 -0.08306133 0.014488854
s -0.046524066 0.0008579115 -0.001808269 0.0052389246 -0.022031197 -0.008804062 0.06337529 -0.09046435 0.028864577 -0.02285265 0.05675411 0.036523025 0.011372677 0.055337816 -0.034085046 0.02776247 -0.04756346 0.037760906 0.03135589 -0.123861775 0.117291555 -0.044008568 0.0049855635 0.059624355 -0.07354851 -0.006976625 0.012355692 0.08592845 0.06446833 0.022259748 -0.0026427843 0.07493434 0.0648796 -0.0786525 -0.02901051 -0.0046610893 -0.036510598 0.031340558 0.024661878 -0.035726074 0.007580641 0.06938732 0.09400692 0.08030975 0.01354421 0.080389194 -0.002082601 -0.09089253 0.028108692 -0.065066785
ll -0.012940369 -0.1155218 -0.069253445 0.09890309 0.058341432 -0.10520275 -0.023801312 0.0024285396 -0.006547705 0.08248772 0.1570117 0.11722402 -0.047104415 0.032753292 -0.12969981 0.042316403 -0.118453845 -0.034380924 0.11175572 -0.097849146 -0.0509338 0.030172734 -0.0005127705 -0.030649679 0.01759222 -0.021341892 0.06464808 -0.010155956 -0.066080995 -0.12844257 -0.039369985 0.0041783066 0.022080764 0.019537885 0.07014163 -0.027738687 -0.053856086 0.10731534 0.10539974 0.05288327 0.073424704 0.020372739 -0.0685759 0.09759 -0.06748906 0.045090903 -0.046573482 0.015860764 -0.048168138 0.0726172
how 0.013223071 -0.037617695 -0.05525604 0.10893076 -0.041070696 -0.0364979 0.036737025 -0.07364149 -0.0035231714 -0.013280522 0.043585017 -0.05878334 0.012674654 0.012030071 -0.13467525 0.055960663 -0.111389555 0.023323864 0.052887853 -0.02954146 0.056387536 -0.00035975652 0.009561464 -0.012494768 0.032703586 -0.030325498 -0.07096934 0.031099683 0.05736167 -0.046860136 -0.011476813 0.023496334 0.05948474 -0.10836403 -0.04815807 0.0502111 -0.12195225 0.07731738 0.037812665 0.01181053 -0.0110423835 0.06031613 0.039247096 0.02982981 -0.06932829 0.046028353 -0.012900363 -0.07524183 -0.018170409 -0.022818899
they 0.033434182 -0.008853652 -0.0792022 0.101794325 0.111982815 -0.08113089 0.03342393 -0.05108779 0.10161991 0.15311028 0.051219866 -0.07101731 0.07664851 0.13324751 -0.02334548 0.08929707 -0.090816595 -0.024704153 0.03717187 -0.024845265 0.010820073 -0.022052556 -0.013622941 0.114671804 -0.02853197 -0.059900306 -0.0756951 0.07782648 -0.027880505 -0.022300437 -0.021552475 0.109852776 0.118707776 0.026465047 -0.019584803 0.044048525 -0.035176776 -0.0100185415 0.121567965 -0.08533415 0.10975211 0.05669015 0.018219898 0.067110926 -0.03071447 0.055364504 -0.12584405 -0.098062135 -0.045325257 0.025238743
about -0.08601884 -0.09352492 -0.056288194 0.0077950465 0.107372135 -0.078807525 -0.003853019 -0.104787886 0.0046477243 0.08993704 0.0687117 0.0052020918 4.8481976e-05 0.0015400331 0.00093498325 0.012496677 -0.022292772 -0.06976219 -0.060117092 -0.051032268 0.058877826 0.0704379 -0.09227063 -0.03314907 -0.06436942 -0.06022385 0.026733954 0.010652089 -0.0022345644 -0.026761198 -0.0322295 0.053470984 0.017014893 -0.03293636 -0.0058641993 0.04374912 -0.11095939 -0.004541871 0.042747952 -0.10649863 -0.034306873 0.018562876 0.017227206 0.028058778 -0.09052987 -0.027439926 -0.08377772 0.017976487 -0.06522242 0.038797345
herself -0.09656891 -0.00978172 -0.06804666 -0.034139585 0.056619544 0.09419907 0.061350282 0.02968179 -0.060152702 0.053221345 -0.053613164 -0.010057315 0.013929284 0.097139515 -0.06242251 -0.010341717 0.072610684 0.04054597 0.057396464 0.053823575 0.00313921 0.020635253 -0.09288507 -0.005188689 0.016651632 -0.12288829 -0.050835405 0.05872977 0.048191782 -0.014287385 0.035475705 -0.00573552 0.018620744 -0.0054040067 -0.031875823 -0.022752477 -0.027374985 0.0028819696 0.07360282 -0.020115688 0.108555116 0.05791485 -0.088814236 0.056610916 0.02663701 -0.043172143 -0.09038306 -0.053382378 -0.014711166 0.097372696
me -0.050602514 -0.038485415 -0.03556678 0.1165573 0.0087223975 -0.007466327 0.069539465 -0.12046193 0.06736456 0.03754886 0.12163832 0.017346745 0.08263364 0.038603317 -0.07320966 0.12384242 -0.06672638 -0.09103194 -0.014707299 -0.030186767 -0.035799995 -0.009624506 -0.038346227 0.07437094 -0.06469016 0.005347701 -0.0750097 0.09268166 -0.04841046 0.00030733657 -0.07016981 -0.021309339 0.027405607 0.033203367 -0.047674038 0.04812949 -0.08493813 0.11438713 0.078993134 0.008220149 0.05163398 0.036068376 -0.054390743 -0.019093119 0.01380358 0.06255163 -0.12965344 -0.11290255 -0.11333752 -0.0042221746
up -0.0851539 0.0022571222 -0.016647998 -0.015686749 0.093951344 -0.031048926 0.026868561 0.036628604 -0.015583821 -0.05067019 -0.0033516826 -0.04852977 0.09884115 0.01630346 -0.07719842 0.048085302 -0.07783711 0.014768147 0.078470245 -0.018700602 0.08427526 0.028291885 0.015418226 -0.027889172 -0.060259897 0.04142572 -0.031074665 0.06253854 0.06785937 0.06826499 0.04997171 0.10251109 0.10901794 0.006209917 -0.017326463 0.050540503 0.03527017 0.087936655 0.058399253 0.0058058654 0.038658954 0.02425094 -0.016907472 -0.024519844 -0.08634677 0.058411736 -0.051028114 0.059021603 -0.023920147 0.019556332
what -0.0694022 0.02997711 -0.04775641 -0.03540267 0.016984604 -0.028161993 0.059650514 -0.06468699 0.017768197 0.06433143 0.04474396 -0.02205759 -0.021172343 -0.035122063 -0.095582515 -0.025493076 -0.06290171 -0.026608076 0.059632797 -0.014253114 -0.034122355 0.032008715 -0.07245623 0.087042995 -0.07577527 0.017595302 0.031920888 0.04011226 0.056076176 -0.024016712 0.015411001 0.061803203 -0.025270022 0.008275216 -0.023064803 0.05887814 -0.077048704 -0.038451876 -0.010722894 -0.009121936 -0.01141181 -0.020665819 0.06727759 0.0349392 -0.11215383 0.0040538753 -0.03476898 0.019687112 0.026527697 -0.06450751
way 0.005494391 0.07629322 -0.04095465 0.035574853 -0.00930533 0.011037743 -0.031328972 -0.032886744 -0.015334701 -0.008440556 -0.058152534 0.09929228 0.015471959 0.0012570234 -0.0061275405 0.08259268 0.020431204 -0.10816475 -0.04012372 -0.02018464 0.007897698 -0.0031187022 -0.0021446855 0.02850941 -0.08973315 -0.023774426 0.015631083 0.08540117 0.00791911 -0.009204015 -0.11649824 0.040416364 -0.039395753 0.029683875 -0.09736325 0.05008891 0.05689888 0.0055046044 -0.063724615 -0.03490581 -0.023417927 0.1034545 0.02745005 0.0418784 -0.06363736 -0.03614017 0.038999084 0.063271955 -0.055792723 -0.046787996
when -0.06140617 0.07598362 -0.1034176 0.014134352 0.04797146 -0.078005716 0.07991431 0.058486924 -0.04964227 0.014898833 -0.031030077 0.0011625096 0.05108976 -0.03053854 -0.028961958 0.07602013 -0.053806596 -0.043671872 -0.0019648504 -0.051692076 0.03534943 0.059735194 -0.101122156 -0.017995603 -0.092301816 -0.015624886 -0.02906642 -0.007986281 0.025284372 0.05816 0.043684456 0.022589656 0.015299865 -0.05230254 -0.06912372 0.0077261114 0.01229118 0.051991586 0.01578512 0.06319487 0.069527104 0.009616337 0.0695318 0.050279886 -0.07467819 -0.024657678 0.017939247 -0.030381903 -0.064216286 -0.07041095
like 0.022943055 0.0076077096 -0.027612358 0.014127423 0.06403494 -0.052084614 0.051432166 -0.061260104 0.06115096 0.035894416 -0.0012193868 0.06443217 -0.029150471 0.10787726 -0.0821925 0.018852217 -0.056507874 -0.049484596 0.03725559 -0.030891323 -0.02521292 0.09667653 -0.0031501912 0.054136347 -0.09047416 -0.0038052062 0.007263993 -0.00029378186 -0.04211722 0.016121782 0.0071862573 0.08517463 0.04810626 -0.01698756 0.023949012 0.04601627 -0.107700914 0.02851003 -0.018532438 -0.06624076 0.09839586 0.07506342 -0.013584455 0.057733007 -0.034346472 -0.066489495 -0.041585498 0.031018293 -0.107709564 -0.00012388965
one -0.06714872 0.03384488 -0.04065426 0.09079967 -0.052297257 -0.013492921 0.033650503 -0.0059162406 0.029973818 0.07156165 -0.0287056 0.068069674 0.032319028 0.07068489 0.01077772 0.07331592 -0.0014678935 -0.09737808 -0.031096252 -0.042090897 0.082286954 0.017663147 0.03524621 0.010874131 -0.02338073 -0.05472553 0.029246548 0.108357415 0.10559736 -0.021388493 -0.03959456 -0.029339623 0.041174248 -0.080500886 -0.12582351 0.010398487 -0.07746214 0.0024234776 -0.008425235 -0.09480253 0.010582879 -0.0027485169 0.084634826 -0.04661938 -0.019350596 0.040698506 -0.04431183 -0.035560023 -0.03395206 -0.07195103
do -0.10140536 -0.04799593 -0.027245242 0.042869516 0.09411655 -0.0143872 -0.04781173 -0.08361553 0.10941234 -4.124944e-06 0.086440004 -0.015534719 0.06301584 0.110389344 -0.044604767 0.0031991384 -0.058904074 0.019984461 0.06484894 -0.039526656 -0.007400247 0.037682403 -0.051029466 0.035285156 0.019806016 -0.033202868 0.0011121815 -0.022710975 -0.0084175635 0.029275801 -0.044044055 0.045270093 0.06045297 0.08170522 -0.08629489 0.0021291329 0.033137422 0.08365175 0.07970317 0.029029597 0.0055966345 0.037643448 -0.030975481 0.11156652 -0.045615 0.0073036184 -0.01498326 -0.076767184 0.028256256 -0.05115923
no -0.047698256 -0.04590296 -0.01606211 0.07389514 0.12543924 -0.06902594 0.06717615 -0.07771613 0.083846085 0.009284023 0.03165135 -0.0061550597 -0.0012048805 0.06256743 -0.050502986 -0.038315643 -0.06745433 0.026403932 0.024480313 -0.053711258 0.062955536 0.022801518 -0.08560427 0.0011780028 -0.05738525 0.00066196 -0.057131268 -0.013219231 0.03925599 -0.05182507 0.0053916695 0.0006420441 -0.0075429734 -0.029490601 -0.09069386 0.033532657 -0.043970652 -0.015210134 0.046360116 0.00059136446 0.010727292 0.029584536 -0.077533334 -0.015086294 -0.09444304 -0.030366315 -0.13251996 -0.009205628 -0.011998712 -0.002105555
oh 0.04819163 0.03231426 0.017061377 0.059476495 0.02591086 -0.089568704 0.07257064 -0.033495743 0.068844765 0.14027525 0.052459657 0.06903398 0.08881139 0.014117918 -0.070003904 0.08064527 -0.04737092 0.027196562 0.031919505 -0.058886297 -0.03076243 -0.030100418 0.012891696 0.09340224 0.022673585 -0.081949465 0.012089842 0.068272926 0.07551547 0.06300704 -0.030310625 0.031414226 0.02554931 0.015541948 7.756939e-05 -0.00010178611 -0.006511972 0.081448324 0.03818678 0.018974237 0.07802203 0.05756716 0.0945844 -0.004653347 -0.1266795 -0.0583186 0.004974014 -0.12503642 0.007173453 -0.06677481
went -0.016529122 0.050873943 0.012883076 -0.07107581 0.11367148 -0.082326025 -0.075699575 -0.06885305 -0.060895912 0.044728283 -0.06985909 -0.07231623 0.056529377 -0.060059693 -0.0129823135 0.0051128063 -0.07150104 -0.056851953 0.04194564 -0.066740215 -0.034541115 0.055744708 0.005462845 0.0496038 0.027859993 -0.03497288 -0.035221994 0.038858835 0.10585749 0.03111944 -0.04751967 0.045619197 0.03538261 -0.077211104 0.036953796 0.004296312 -0.0058402475 0.076359354 0.04037938 -0.088176005 0.07968077 0.006468422 -0.057572942 0.099755466 0.08919897 0.103404716 -0.013037827 0.041091558 0.08629872 0.007883546
thought 0.014344711 0.0476042 -0.010941969 -0.0019239411 0.033454377 0.063437946 -0.040567614 0.044064023 0.040701795 0.06239801 -0.012316618 -0.067520715 -0.008393383 -0.0073156287 -0.07632896 0.014463484 -0.08617474 -0.03718793 0.10628779 -0.01121656 0.021475574 -0.049222756 -0.097717024 0.024328623 -0.059883364 -0.08573434 -0.057666108 0.011387259 0.018994587 -0.084544785 -0.01760596 0.07747077 -0.022059156 -0.075510025 0.027259834 0.025673253 0.0070392974 0.061584707 -0.07511633 -0.059171528 0.08389615 0.0058761174 0.019410433 0.0032295818 0.010470042 -0.02538439 -0.095876545 -0.028157717 0.07157343 -0.01890328
again -0.035975322 -0.06956237 0.0024965738 0.04650677 -0.026090112 0.029750006 -0.025700532 0.006622078 -0.02585125 -0.029114876 -0.008248259 -0.009924062 -0.037629306 0.0046800165 -0.07802428 0.02353539 0.013661174 0.02552669 -0.023043742 0.007559755 0.0901064 0.040319346 -0.0925927 0.02551752 -0.0055351024 -0.062118754 -0.09829789 -0.0461219 -0.0067423354 0.04828212 0.012588593 0.0059476765 0.07384794 -0.07236282 -0.035265658 0.0031812927 0.0075079836 0.10127543 0.019744802 -0.018223584 0.049308535 -0.035416774 0.0056585753 0.07652193 -0.0031446666 -0.04209859 -0.011508645 -0.0049821176 -0.060036626 -0.06589103
there -0.03493166 0.026324127 0.024827225 -0.00082836754 -0.011128215 -0.0220518 0.031127475 0.042252213 -0.0009143343 0.122177795 0.02096371 -0.0761857 -0.04501137 0.0794629 -0.049264554 0.049062964 0.0062775672 0.0052735927 -0.06080813 -0.06203707 0.0545203 0.039564304 -0.05966581 -0.041892022 0.027708218 0.009346515 0.0713907 0.0034904936 0.06376906 -0.048897035 -0.08084805 0.020905068 0.039264727 -0.11510235 0.01228001 0.089974724 -0.0851616 0.10732813 0.025453541 -0.07038235 0.10975229 0.03847785 -0.040322345 0.035138436 -0.07387972 0.0140025355 -0.03249556 -0.06044497 -0.0030553052 0.021471387
see -0.0089993365 -0.069097355 -0.09405148 0.07569637 0.049026065 0.01586052 0.077355035 -0.027790807 -0.06341316 0.0639163 -0.0035231637 0.0032952982 -0.070538215 -0.05232444 -0.096217066 -0.020575993 -0.010561153 0.006504629 0.0796537 0.022756357 0.048771437 0.094495595 -0.075973585 0.028527122 0.041550215 -0.030053727 -0.075681455 0.03156757 0.005986866 -0.04459918 0.015156736 0.01907551 0.07919526 0.056196753 -0.047435872 -0.0007498899 -0.07475235 0.04711053 0.028417341 -0.03509152 0.08626839 0.06966432 -0.07914405 0.056935288 -0.003746133 -0.0079759685 -0.0567909 -0.015676204 0.016669119 0.06332493
or -0.039555546 -0.040296912 -0.04379041 -0.018634409 -0.007997483 -0.09300603 -0.04581283 0.0142245935 0.09497585 -0.0024488585 0.050195813 -0.06330756 0.061209816 0.046157714 -0.06059393 0.038516797 -0.03920542 -0.077519834 0.08883571 -0.06606223 0.0063149566 0.07715045 -0.0034373384 0.047645513 0.01279046 0.058756277 -0.059025586 -0.0144194085 0.06601981 0.037792265 -0.107945606 -0.030128773 -0.026786348 -0.08358081 -0.0056602457 0.08712911 -0.04411176 0.072193086 0.019003658 -0.09171911 0.017117854 0.025857987 0.077839844 0.054729108 -0.000714944 0.024368506 -0.023316974 -0.03188831 -0.035388727 -0.0378873
could -0.005437967 0.034836043 -0.045185365 0.00079176517 0.12490956 0.01864718 0.0589593 0.044799704 0.020566812 -0.026209686 -0.042514686 -0.044567034 0.007174036 -0.02279323 -0.072097525 -0.032914132 -0.1065112 -0.07062907 0.029561456 -0.029442908 0.028379668 0.033101104 -0.05907861 0.027075091 -0.076197155 -0.10541713 -0.060763262 -0.09668186 0.024169017 -0.046383493 -0.049808674 0.10201507 -0.007050874 0.015881106 0.08074374 -0.046749093 -0.0062580165 0.13068675 -0.015670808 -0.018263053 0.09875422 -0.035444118 -0.0053361463 0.014912891 -0.066642605 0.0877367 -0.12742783 0.04700564 -0.06910107 0.086400695
would 0.05905452 0.021212328 -0.076897174 -0.010410743 -0.020219209 -0.060906544 0.009060588 -0.0341243 -0.045722794 -0.03251795 0.0007203624 -0.040330302 -0.03675173 0.037227504 0.0064470517 0.010079793 -0.0860354 0.026249656 0.028300218 -0.03691969 -0.026908506 0.027413566 -0.05662213 -0.031964976 -0.008514746 -0.043119516 -0.04759606 0.017960235 -0.0047890786 -0.033511493 0.049330313 0.036375884 0.04714784 -0.055273023 0.034189932 0.07700743 -0.07732902 0.060621455 -0.049658414 -0.05214037 0.023763489 -0.0029428857 0.024035366 0.08335313 -0.07723511 0.012819422 -0.002036919 -0.10290408 -0.04609326 0.022774087
think 0.057875726 -0.10289511 0.057825025 0.0074819974 -0.005283436 -0.0076126624 -0.014589694 -0.061014123 0.05958349 0.03475887 0.095731296 -0.018706081 0.004120026 0.06919299 -0.10417064 0.060290758 0.0020723063 -0.025512375 0.08825445 -0.038014457 0.0064410605 0.0137816435 -0.07977275 0.059285868 -0.018771935 -0.026399251 0.01778018 -0.051228758 -0.04323977 -0.12347695 -0.08328174 0.021813145 0.014292567 0.029173598 -0.021418888 0.076379105 0.0069771353 0.056081068 -0.029590093 -0.0018038827 -0.020224765 0.03184281 -0.100480385 0.07473896 -0.01595424 0.019457906 0.0002915162 -0.10559925 -0.03874948 0.105530195
them 0.016942801 -0.0036314563 -0.017926933 0.01087377 -0.011922843 -0.010370801 -0.041493442 -0.064023584 0.0061931657 0.06312115 -0.03453872 -0.0045858044 0.10158171 0.008042809 -0.05233369 0.024235249 -0.036890347 0.03478331 0.05960704 -0.06174531 0.022044292 0.02711886 0.021309977 0.029258557 -0.031018766 -0.036103226 -0.069865815 -0.020948112 0.0013441814 0.00700511 -0.04536852 0.03345795 0.079794586 0.033122223 0.01369633 0.038000148 0.0016380863 0.05298932 0.054958608 0.008860141 -0.03999607 -0.06431258 0.06623885 0.073483884 0.0044079153 0.07550708 -0.056519322 -0.031811055 0.05265276 0.008763219
know -0.05974439 -0.01562509 -0.06429685 0.05376906 -0.032472134 0.03773175 0.07396161 -0.0034490544 0.112698376 -0.01559823 0.09329853 -0.020088462 0.0314761 0.045666564 0.0007436833 0.052468795 -0.07715449 -0.05913809 0.09977071 -0.016563516 -0.007926014 -0.032201152 -0.03348171 0.03651841 -0.10525652 -0.038997237 -0.011399575 -0.02058436 0.019488916 0.03418605 -0.10652872 0.09734289 -0.016289813 0.0058457307 0.02125531 -0.04528552 -0.016958917 -0.0027526168 0.08470659 -0.07458861 0.015293311 -0.039089005 -0.042767532 0.06344183 -0.06336213 0.017700097 -0.0833474 -0.03595109 -0.08227081 0.046041626
rabbit -0.023181615 0.04309046 -0.058134835 0.070883736 -0.042856105 0.043236125 0.09187438 -0.096657485 -0.1000565 0.04856105 -0.054374058 -0.028943734 0.06697905 0.06781952 0.038640745 0.054459054 -0.024937756 -0.1120086 0.024107616 0.029026803 0.09823577 -0.083633505 0.017904367 0.03693303 -0.0073704217 -0.069883056 -0.04639685 0.11193568 0.095523514 0.08541292 -0.09712968 0.06787909 -0.06813208 -0.0055169878 -0.095359705 0.116819486 0.00077319785 -0.08880826 -0.029789725 0.058782335 0.04364613 0.09434099 0.08097463 -0.052054904 -0.01940502 -0.041490905 0.06541744 -0.05527314 -0.108007334 -0.041783478
dear -0.08050613 -0.07212627 0.010051009 0.05160292 0.071528584 -0.022459684 0.019098893 -0.072913535 0.07832807 0.12252975 0.096280195 -0.04565176 0.06467009 0.09904562 -0.09453072 -0.031371653 -0.09958872 -0.038711093 0.029741121 -0.09950791 -0.04975272 -0.051593825 -0.0020239255 0.05349886 -0.019761417 -0.09492254 -0.0695625 0.08024539 0.0014546333 0.026043849 -0.026965614 0.040903874 0.052584883 0.030098489 -0.04318442 0.06104013 -0.096384816 -0.014704958 0.11066548 -0.020771833 0.026280088 0.055561673 -0.026735896 -0.04010772 -0.004521017 -0.044970248 1.7997925e-05 -0.113863535 -0.01932044 -0.07695743
were 0.027007926 0.030214796 -0.021376532 0.006332889 0.05118466 -0.08783329 0.038631923 -0.08575975 0.06429258 -0.006384087 -0.03240825 0.057593364 0.056104828 0.08201822 -0.03348136 0.098366916 -0.09090655 -0.065160535 -0.011571432 -0.063353084 0.012240819 -0.03702029 0.0022268984 -0.0065011214 0.0049514 -0.04647172 -0.031142926 0.04832998 0.01414495 -0.0045448565 -0.04543486 0.042392354 0.10630785 -0.02116458 0.023272391 0.008041382 -0.049055066 0.033721134 -0.02271698 -0.025715986 0.08820289 0.04272223 0.055598248 0.031165382 -0.090604596 -0.013853315 0.0062801302 -0.012886301 -0.018558938 0.081136584
time 0.03197788 0.013552781 -0.09138113 0.088207535 -0.01838512 -0.019802995 0.06664003 -0.07349305 -0.042781945 0.002126095 -0.03284473 -0.023725418 -0.04613347 -0.031583793 -0.036963843 0.008693661 0.05762135 -0.057447072 0.07665514 -0.01371801 0.03743875 -0.02103259 -0.04596773 0.03989564 0.034105357 -0.051592298 -0.040761065 -0.069109365 0.02593951 0.070387244 0.0013621512 0.071159326 0.09321527 -0.08411241 -0.047501322 -0.06394707 -0.074219145 0.046894424 -0.06459119 0.031079931 0.034729086 0.053229928 0.00682455 0.08760469 0.0012467148 0.09821975 -0.022298956 0.05022903 0.028866261 0.077062234
get -0.083371565 -0.019906476 0.038903408 0.06427267 0.003532669 -0.032612763 0.059675366 -0.08692786 0.0346766 0.029215746 0.072150975 0.08052147 0.06295663 -0.016171666 -0.022443755 -0.029687932 0.035144415 0.024544634 0.08730548 0.029207239 0.07397117 0.09430766 -0.089258455 -0.0057559814 -0.072885126 0.04631023 0.02696402 -0.014272791 -0.0066959085 0.013523615 0.009564704 0.044279348 0.0480415 -0.04022645 -0.082435064 0.08093862 -0.068924494 0.03704395 0.036949232 -0.02980431 0.0735054 0.065269336 -0.010464875 0.09356994 -0.05883672 -0.032996643 -0.1011199 -0.036235772 -0.08765998 -0.038148537
here -0.07857364 0.048087407 -0.060484298 0.03892757 0.09523247 0.023959707 -0.0014760107 0.058241215 0.04563369 0.061885 -0.017540378 0.07192882 0.03995539 0.08852662 -0.014825068 0.0022799326 -0.0126700215 -0.052209225 0.06488711 -0.08293611 -0.010048789 0.016186843 0.045477334 0.07255583 0.021748146 -0.04288147 0.03697653 0.00031273672 0.06838334 -0.04981834 -0.049910158 0.07440778 0.02566488 -0.051430345 -0.00593506 0.090969354 -0.08742148 -0.024650853 0.006778781 -0.07359337 -0.0480283 0.051282156 0.06852227 -0.06849933 -0.0096274 -0.034313727 0.057191357 -0.041177444 0.032921392 -0.042488985
must 0.019485597 -0.077180594 0.0051202984 0.012732758 0.0728029 -0.0597316 0.07451993 -0.045988254 0.038925435 0.052950826 -0.0125554865 0.04747128 -0.033166435 -0.028245231 -0.09492377 -0.046979837 -0.009735153 0.030729888 0.02587759 -0.050021265 0.0048533687 0.030806545 -0.009439738 0.044101235 0.056289937 0.0073613687 0.05924438 0.012298036 0.010840154 -0.05804642 0.0071532684 0.05851272 0.026377773 -0.029285455 0.031371284 0.0661361 -0.020057008 0.04750433 -0.016089726 -0.005935746 -0.036302753 -0.08119956 -0.0015948024 0.021834925 -0.045711953 -0.027436597 -0.02643244 -0.029690368 -0.022461813 0.0433472
my 0.027612375 -0.07457659 -0.026616473 0.05080081 0.09037854 -0.01089007 0.046257462 -0.06035375 0.05849925 0.023562133 0.11017388 -0.005800638 -0.007830851 -0.025694434 -0.11375164 -0.010378383 -0.038557768 -0.011493349 0.04313653 -0.053780824 0.08212095 0.010832375 -0.07479031 -0.011487692 -0.040833343 -0.10149054 0.010826446 0.06627788 0.0880355 -0.039352786 -0.044989713 0.057702597 0.041295033 0.01990551 -0.00073235633 0.0058758995 -0.08827412 0.08103117 0.11661371 -0.08310375 0.034810558 0.061613034 0.06737302 0.10099747 -0.094692074 -0.011563353 -0.097716935 -0.08868637 -0.05805333 -0.0830918
by -0.096743196 0.06495738 -0.009251215 0.047197696 0.0110142175 0.046578936 0.07390134 -0.018590424 0.08396122 -0.024798987 0.01758944 0.05463946 0.08636077 -0.008853413 -0.026219953 -0.012284956 0.0022163792 -0.029149707 -0.036860578 -0.0739578 0.053769737 -0.035179228 0.016825277 0.038771484 0.027285121 -0.05735869 -0.0013835961 0.07912789 0.042988144 0.07365387 0.024989061 0.006259008 -0.039547745 -0.058444347 0.009560186 0.06218037 -0.079687186 0.07197503 0.017086351 0.05901079 -0.0322991 0.07044145 0.06092697 -0.023188848 0.035010464 -0.032836486 0.024648366 -0.022895543 0.042107664 -0.05171233
into -0.06599643 -0.03682834 -0.07763874 0.10121968 -0.015415253 -0.015004794 0.08368488 -0.07698526 0.017898168 0.00019453815 -0.05968716 0.063240945 -0.03257718 0.030934084 0.021874571 -0.046440624 -0.07111981 0.00014721777 0.08743007 -0.081871614 0.094712414 -0.028457448 0.0059255483 -0.049475044 -0.090631925 0.03650824 -0.005942703 0.096448325 -0.0020851577 0.047381956 -0.07101066 0.08106302 -0.023415787 -0.013822679 0.042611822 0.07562514 -0.026519086 0.03086765 -0.054632172 -0.0013823748 -0.011114795 0.0005104471 0.062197283 0.036362078 -0.023177816 0.05971339 -0.0053462535 0.032868654 -0.03211859 -0.010588322
found -0.022311253 0.03834768 -0.026387028 0.03283088 0.07823445 -0.022273477 0.080329224 -0.046723925 -0.089404084 -0.08324152 -0.070377946 -0.09381371 0.013257751 0.0026300848 -0.08322692 -0.0714307 0.007567808 0.07069421 0.009014219 -0.0050190017 0.07438762 0.012395072 -0.043391313 -0.045264132 0.05745914 -0.07513755 0.053555388 0.023934187 0.048883587 0.060253758 0.04243004 0.088647656 0.07546858 -0.05647444 0.085048646 0.042525295 -0.0017299068 0.047258437 -0.038143452 -0.04024598 0.025396066 -0.025953786 -0.0077199508 -0.029604996 0.07088801 0.054999184 -0.012419897 0.07308143 -0.02122019 0.07374486
such -0.036978178 -0.0035357638 -0.050576128 0.049743 0.014307887 0.019591158 0.07694295 0.07718965 0.016124915 0.01946424 0.01586759 -0.054623738 0.05350621 -0.028733188 -0.06140069 0.04496978 -0.018925695 -0.076577365 0.0942328 0.023528215 0.011201005 0.020815603 0.0031327812 -0.012342538 -0.06511574 0.0068121715 -0.07611483 0.07861065 0.012571339 0.11463172 0.015692968 0.100159764 0.0192166 -0.028977202 -0.010593291 0.004842784 0.0065839747 -0.034738515 -0.0649053 -0.07198222 0.025409298 -0.056202713 -0.015676474 0.038123764 0.025515834 0.0530319 -0.07507974 -0.017357 -0.0046741487 -0.06236914
began -0.074911505 -0.05593494 -0.03538702 0.08009843 0.026251368 0.045426436 0.02635233 -0.061183244 0.012838172 -0.030675769 0.08721352 0.031406704 0.05810882 -0.038343027 -0.061354887 0.08303958 -0.0086339805 -0.04338131 -0.0012041384 -0.014097989 0.07564569 0.090393454 0.03914962 0.018000394 -0.000418833 -0.0067272885 0.032250717 -0.0055427914 -0.019286588 -0.056371897 0.05301105 0.03464263 0.061558004 -0.097628355 -0.059734844 0.039416585 0.037176672 0.033757318 0.05531822 -0.06297595 -0.019782405 0.023507847 0.032262076 0.088117056 -0.032897152 0.010121793 -0.020451207 -0.083002724 -0.0004195047 -0.022230653
soon -0.026564175 0.011518722 -0.030745158 0.027510077 -0.011764429 -0.055721167 0.07212637 -0.031648718 -0.04277722 0.075699896 -0.007403289 0.009542959 0.07368614 0.03513855 -0.08083951 0.02409567 -0.051854663 -0.07380166 0.0011141748 -0.0128410235 0.012256625 0.08461131 -0.051903307 -0.015371465 0.029016262 -0.057236515 -0.06995313 -0.02181548 0.059491992 -0.052056015 0.02900855 -0.021688001 0.019119594 -0.037569705 0.030011188 -0.03454707 -0.026022978 -0.021913208 -0.022370249 -0.030553972 0.007201125 -0.044079732 -0.02306357 -0.012347798 -0.026778666 0.04719811 -0.11306567 -0.06348182 0.03919743 0.002371626
m -0.00844201 -0.0016007022 0.028158423 -0.008668693 0.06711794 -0.021575524 0.014317552 0.054060645 -0.016204651 0.11006581 0.116279595 -0.0097729545 -0.0837989 0.09069013 -0.08504419 -0.04040915 -0.09806932 -0.037640072 0.021019524 -0.083920166 -0.105373316 -0.013939248 -0.0046556643 0.10633683 0.018802304 0.0234858 0.06917923 -0.07504743 -0.05564041 -0.037855584 -0.07484433 0.008380587 -0.082280196 0.023683866 0.06914564 0.03568603 0.039215434 0.07987331 -0.03507811 0.107896864 -0.018809596 0.038101096 0.054687396 0.08361539 -0.07250565 -0.08758992 0.010642607 0.033994798 -0.06634768 -0.038248185
quite 0.032894697 0.005940028 0.03383919 -0.046743765 0.008328627 -0.042289313 -0.0098495 0.043362815 0.012681711 -0.03705375 0.04619122 -0.03339965 0.0035084663 0.05717976 -0.049753267 0.009686712 0.026578968 -0.013907459 0.078905866 -0.034319855 0.055624932 0.057830952 -0.03588375 -0.015848035 0.0069141523 0.06673679 0.01787156 0.0019002528 0.0029269035 -0.0508034 0.05514997 -0.0092236865 0.08226984 -0.021535102 0.04410257 -0.040821504 -0.08292815 -0.022232912 0.051282883 -0.10530836 0.09566494 0.071432345 -0.0359851 -0.026454339 0.012044362 0.054335732 -0.06080843 0.035599545 -0.067147635 0.05356005
then -0.018800471 -0.050590068 0.04933823 -0.012521384 -0.03425342 -0.0022883243 0.050830856 0.059280034 0.062414385 0.038458277 0.09468737 -0.050824232 -0.023307508 -0.03106006 0.023050552 0.053804196 -0.06303978 0.010902612 -0.03444389 -0.0789092 0.040938042 0.10126323 -0.050581608 -0.013025755 0.004917659 0.04055151 -0.026081642 0.007987778 -0.048790064 0.001768833 0.05778183 0.038417306 0.018402603 -0.03005045 -0.027865823 -0.0031270639 -0.03525527 0.011601627 -0.057252523 -0.013541918 -0.038582012 0.03786986 0.003109653 0.024790654 -0.09222765 0.04194369 0.03090509 -0.015999483 0.031017678 0.0066347187
off -0.035943653 -0.017874671 0.018721832 0.009445452 -0.031968452 0.03466086 0.059616704 -0.005161325 -0.049526278 0.07736303 0.08847487 -0.012554794 0.07589093 0.054002497 -0.07635624 -0.04723448 -0.06355798 0.015505858 0.05428695 0.028636985 -0.05258202 0.00598104 0.021264246 -0.03496896 -0.004807867 -0.011987605 -0.0031793648 -0.06031514 -0.023384638 -0.03588956 -0.05796424 0.09102879 -0.002549577 -0.05537252 0.01963636 -0.043167062 -0.027250502 0.09038727 -0.007625833 0.026679924 -0.006733252 0.06580937 0.068306856 0.008296343 -0.012780849 0.08433431 0.06509183 -0.03931074 0.032966696 -0.05932267
now 0.016470628 0.02770652 -0.05936152 0.04414755 -0.060983695 -0.01267432 0.058091182 -0.020981474 -0.00923596 0.06951998 -0.004447973 0.07103764 0.022471841 0.030181387 0.025009416 -0.047932185 -0.0697903 0.038817443 0.07336935 -0.06477044 -0.047619104 0.049720936 -0.07557109 -0.03924326 -0.041559972 0.0040597282 0.045577634 0.03370177 -0.034314506 0.037446454 -0.053663556 0.0020501602 0.014165291 0.051404204 0.01314524 0.029182335 -0.03273543 -0.01582955 0.011841578 0.04870308 0.0040337043 0.0054990454 0.037440304 -0.024388438 0.052858535 0.08401306 -0.08001002 0.007204701 -0.041935407 -0.056525595
go -0.07141636 -0.056248512 -0.004710284 0.030378656 0.08705416 -0.008594627 -0.022480492 -0.030361619 0.062854975 0.063540265 0.048958927 -0.0028971424 -0.046754036 -0.028769368 0.029376294 0.029778674 0.055797614 -0.0817576 -0.029276267 -0.011584762 -0.046900935 0.037196636 -0.056199767 -0.03084414 0.00554939 -0.027616827 -0.10069985 0.016329734 0.07338383 -0.039336585 -0.020659797 0.0449634 0.025977645 -0.037208755 -0.07342844 0.018501215 -0.004906495 0.012765519 0.032590616 0.007916141 -0.04530423 -0.041755177 -0.0434791 0.010824379 -0.09479247 -0.01633063 -0.030350473 0.003387051 0.041410256 -0.044314377
say -0.034979448 -0.05116674 -0.027534546 0.071818836 0.011736375 -0.008819351 -0.066226825 -0.08633998 0.06412795 0.08752632 -0.026781064 0.002913205 -0.07888222 0.04011661 -0.009499833 0.016571319 -0.056703806 0.009138764 -0.0053491206 -0.007329778 -0.04400989 0.08557742 -0.06327217 0.008161904 -0.067151934 -0.046429884 -0.07879861 0.053860474 0.05467282 -0.011516488 -0.04982616 0.07830823 0.09475524 0.04848233 -0.04469401 0.028261011 -0.027751446 -0.03396446 0.04693298 -0.041140016 0.04450224 0.014083523 -0.031245576 -0.005271648 -0.06795835 0.02022226 -0.04079121 -0.012930022 -0.06547824 -0.07400673
have -0.019900743 0.03338076 -0.09043351 -0.0057259854 0.06324817 0.04689973 -0.04120744 0.010412931 0.07390788 0.062292513 -0.01636444 -0.003070277 -0.02232307 -0.027758563 -0.027667202 0.023627486 -0.039791495 -0.012894601 -0.003958996 0.05311767 0.02977328 -0.04404201 -0.115396455 0.0013189698 -0.0038167096 -0.0042165383 -0.05326585 0.058515653 -0.07971928 0.016139422 0.021897292 -0.023619292 0.07193635 -0.07527755 -0.057115342 0.056867052 -0.07983583 0.059011675 -0.027528109 0.060985304 -0.019780433 0.024618063 -0.039514687 0.025695717 -0.07468172 -0.03923438 -0.081960365 -0.063277654 0.021687454 0.03353719
which -0.03234143 0.009055347 0.023211047 -0.02824039 -0.027390225 -0.03018989 0.03544795 -0.081661806 -0.04954753 -0.022842482 -0.022983994 -0.039854713 -0.023740113 0.026784949 -0.037417166 -0.027211482 0.03412953 -0.016008373 0.02548002 0.016633166 0.031305257 -0.012914276 0.0522896 0.076697454 -0.039328303 -0.023883509 -0.07278594 0.08351496 -0.0070250058 0.08702883 -0.05300346 0.07293054 -0.0400579 -0.07850676 -0.06264201 0.0409056 -0.08730856 0.071834974 0.048622955 -0.044362325 0.04825803 0.06521588 0.011069499 -0.0045456123 0.03935571 0.0048543084 0.02969874 -0.011174931 -0.057920277 -0.06845207
come 0.036429502 -0.0532513 -0.01565037 -0.041865516 0.07916149 0.023211619 -0.024149396 0.0022310936 0.09337279 0.08189368 -0.023781555 0.06835874 0.09057832 -0.00075916515 -0.092731796 0.075107925 -0.09038995 0.01667336 -0.012676031 -0.08566417 -0.015182127 -0.02706167 -0.045484565 0.04796692 -0.012519118 -0.058246925 -0.095757596 0.031780712 -0.02010057 0.041559145 0.00015503354 0.0975726 0.06663362 -0.036582917 -0.058455065 -0.037077304 -0.017703753 -0.014099969 0.042084694 0.0240066 0.027464353 0.075372025 0.039574645 -0.0050968784 0.015961528 0.071976386 -0.057218436 0.033641797 -0.040799584 0.005869066
dinah -0.045659255 -0.06199938 -0.0012767705 0.058029447 0.107331775 -0.009368315 -0.02712213 -0.013676338 0.06811966 0.08968409 0.009732358 0.055743057 0.0720007 0.0075729364 -0.006862308 0.098291 -0.041540015 0.03500612 0.03168996 0.043672476 0.031706497 0.06588383 -0.009306479 -0.023362115 -0.0070166113 -0.08560092 -0.03508757 -0.04269467 0.022904355 -0.040454 0.024662485 -0.009961588 -0.04565355 -0.009650875 -0.065486886 0.0769305 0.018661913 0.092784494 0.107205965 0.052019086 0.036775086 0.067635484 0.014958626 -0.013242882 -0.05390665 -0.04838447 -0.03696846 0.011480285 0.025784243 -0.068035424
your -0.09108693 0.016387658 0.0033319076 0.098960556 0.059721574 -0.10606539 -0.017645543 -0.088718824 0.096168734 0.028757222 0.09884966 -0.026595846 0.0820621 0.090134114 -0.065064654 0.038213044 -0.055355523 0.0032339054 -0.017328082 0.022086065 -0.029913254 0.085450575 -0.072462134 -0.009549551 0.029690202 0.010844461 0.0028316444 0.006929115 0.04734921 0.025906947 -0.0034279758 0.033161655 0.020587131 0.054347344 -0.001374189 -0.0126994 -0.0036328745 0.039355814 0.017178202 -0.0740935 -0.012892037 0.03567749 0.010598387 -0.029529322 -0.005030745 0.015464768 0.028206488 -0.06509052 -0.09228412 -0.037196487
thing -0.019963497 0.07325419 -0.04401546 0.013382452 -0.032580405 0.032595478 0.09259098 0.035181288 -0.00353449 0.019098803 -0.03819505 0.040656675 -0.03585471 0.016582958 -0.056449343 0.026755283 -0.058547687 -0.07802204 -0.015527411 0.0037695337 -0.014613693 -0.03886288 0.020468855 0.03540295 0.0065328283 -0.0004188728 -0.058474965 0.010440288 0.036700394 -0.024330677 -0.050379016 0.07624004 0.008846985 -0.012381574 0.012393275 -0.013035925 -0.012469334 -0.0073279985 -0.039280016 0.02098862 -0.024163065 0.034613162 0.04022363 -0.007734228 -0.002953181 0.03877125 -0.036888223 -0.04397017 0.03232621 -0.0031522606
dodo 0.02774934 0.08090724 -0.039670862 0.10904712 -0.08937598 0.06539224 0.056496285 -0.023951916 0.04497755 -0.061704695 -0.07070436 0.0076980544 -0.042787522 -0.04820698 0.031682953 -0.024072722 0.051247515 0.0069438014 -0.030361101 -0.039246585 -0.026643053 -0.04622518 0.014343492 -0.07063679 0.0029722448 -0.060331523 -0.07059092 0.023730986 0.045083087 0.061066236 -0.0065915077 0.07993956 -0.01714097 0.015709952 -0.11195262 0.044648305 -0.04711382 0.039687663 -0.050917953 -0.028299054 -0.047674235 0.03579969 0.09447207 -0.022885641 -0.01464517 -0.064576514 0.020010667 -0.01979248 -0.078520805 0.012583686
much -0.060179133 -0.05869276 0.04128789 0.0012197266 0.036373366 0.044160284 -0.06281262 0.0047777584 -0.04014752 0.0358472 0.02276794 -0.016697064 -0.010274084 -0.0708319 -0.06872135 -0.022874659 0.004374873 -0.0778528 0.06732395 0.06842168 0.038481724 -0.048978344 -0.074071094 0.076016426 -0.04632928 0.02249818 -0.020355951 -0.028463205 0.04569511 -0.047741756 -0.0114427665 0.05895606 0.0045441417 -0.016676862 0.0048236544 -0.00023106171 -0.09887305 0.072299704 0.055705573 -0.03034927 0.035709124 0.02252177 -0.060797647 0.05983531 -0.07512047 0.08383325 -0.010842202 -0.0015284251 0.02342532 0.055425886
shall -0.029324215 -0.05489753 0.022986103 -0.040803142 0.10497567 0.00049573556 0.024087215 0.0064816363 0.01178027 0.08014585 0.074968964 0.084056646 0.0132294465 0.07114439 -0.07136411 -0.055213153 0.019569648 -0.04377764 -0.011736319 0.038965132 -0.04161957 0.0088475505 -0.017712593 0.034632634 -0.06584404 -0.076543346 0.021218622 -0.029887473 -0.09001826 -0.06463459 0.05127396 -0.056460883 0.056536946 0.025078515 0.054954275 0.063075125 -0.017013537 -0.00028327876 -0.0005297478 0.041836925 0.049677618 -0.025683718 0.015156657 0.087733775 0.027314166 -0.08365448 -0.040524106 -0.087733366 -0.10468302 0.09196594
things -0.010060769 0.010328253 -0.02258758 -0.042177398 0.08975595 -0.0074542444 -0.025856933 0.04852118 0.049191322 -0.01299473 0.030594487 0.07425027 -0.03011309 0.07518746 0.010804271 0.053536188 -0.014983863 0.006283696 -0.031725824 -0.063355826 0.015425116 -0.022929404 -0.0077817817 0.020127922 -0.008626592 0.0039357664 -0.06964567 0.010873852 0.03342996 -0.05523346 0.012816521 0.028239481 -0.019456908 0.029806431 -0.037490312 -0.042694148 -0.0025078456 -0.005682174 -0.010318365 -0.0495375 0.036716696 0.0004112455 0.017773818 0.08508561 -0.059721068 0.03830598 0.05611361 0.009082253 -0.01866052 0.028607802
long 0.0045589637 0.05137954 -0.046013944 0.005395584 -0.0028098072 -0.020884186 -0.05904924 -0.033359937 0.08595378 0.087414645 -0.018647708 0.022882208 -0.0036893685 -0.021841051 0.024974544 0.057004455 -0.042665433 0.021709103 -0.039423432 0.0076240203 0.06767063 0.053904567 0.025287323 -0.04500978 -0.025345135 0.0503617 -0.0267328 0.052657258 0.029178211 0.04010036 -0.06253404 -0.004234732 0.0058621783 -0.05219431 0.020513656 -0.009666675 -0.057808377 0.07293714 -0.0036477442 0.05318296 0.046454232 -0.038441192 0.093341365 -0.061525036 -0.07530383 -0.010940349 0.005692252 -0.017264059 -0.06094627 -0.03547475
door 0.060288914 -0.025046302 -0.06764356 0.07546538 -0.043463584 0.03127253 0.094416 -0.018883523 -0.04885714 -0.03837956 -0.008370234 0.08521543 -0.0021947953 -0.035608593 -0.05926293 -0.044715665 0.061525017 -0.10419659 -0.019656759 -0.037967574 -0.010756915 0.052778065 0.002299606 -0.041724876 -0.050882217 0.048163436 -0.021082902 0.018324003 -0.039073367 0.023324976 0.05485571 0.08178193 -0.003256883 -0.020003393 -0.05611919 0.05718289 0.06389556 0.022628142 -0.06876159 0.026040645 -0.016657116 0.06269012 0.08592008 0.034271907 0.021350924 -0.052743047 0.07860647 -0.03449563 0.012884447 -0.011761628
who -0.006818845 -0.07569961 0.014030608 0.0050883973 0.049484015 0.014403197 0.07949483 -0.032164134 0.048888657 0.05268924 0.0586178 0.043118425 -0.0010043425 0.08103183 0.030432016 0.08088215 0.01610136 -0.07295513 0.08751324 -0.025641061 0.074853554 0.036319662 0.04722111 -0.005381206 -0.081239134 -0.07130956 0.008557482 0.07803469 -0.02843897 0.056852754 0.02035134 0.060213324 -0.026158087 0.021989701 0.0077648293 0.023785058 -0.07655337 -0.012416409 -0.018474648 0.011074901 -0.04326017 0.06869027 0.08410298 0.019901792 -0.078636974 0.011812954 0.046182804 -0.08319849 -0.045517467 0.006274004
can 0.01039633 -0.045869764 -0.0067489115 -0.007932271 0.010202078 -0.020812431 0.016123975 -0.029149728 0.0907355 -0.021892851 0.0232759 0.10795859 0.034669388 0.011690561 -0.07452398 -0.017846193 0.024483263 0.0073173665 0.09552028 -0.05585375 -0.046249256 0.0032847975 -0.08566444 0.014803535 -0.012463652 -0.002192719 0.028822297 0.00796718 -0.045070253 -0.06873934 -0.038693137 -0.021982137 -0.042108517 0.061779503 -0.056709807 0.04867059 0.026037822 0.00448808 0.033463724 -0.004776285 -0.046128944 0.052382007 -0.044555344 0.09562491 -0.026381478 -0.0627023 -0.09680261 -0.064796194 -0.0150507195 -0.024012817
once -0.05142738 -0.0011922568 -0.075732835 0.02721702 0.06747555 -0.012835735 0.016532455 0.048881173 -0.06578102 0.04818507 -0.0039430493 -0.02700812 0.08130805 0.0014103061 -0.04022948 0.0012223021 -0.023176938 -0.0622573 0.022046681 -0.047986552 0.056967486 0.047052503 -0.05852089 -0.0123598315 -0.06383107 0.025175285 -0.039608527 -0.016391486 0.025883447 0.06836171 -0.014250701 0.037892006 0.06511733 0.0524563 -0.080091566 0.071684435 -0.021850826 -0.027786056 0.050288886 -0.10122079 0.06610545 0.05009495 0.022238834 0.07162222 0.015697882 -0.044578344 -0.036836557 -0.059342854 0.057037443 0.052256104
did -0.044467602 -0.036421865 -0.023192279 0.01914354 0.0590628 0.009966192 -0.03428323 0.045160394 0.0058088657 0.025327154 -0.019214531 0.084863804 0.016765974 -0.06617873 0.032095436 0.035580628 -0.012868222 0.022787232 0.020694498 -0.087497786 0.04800586 0.017852927 -0.03666459 -0.01773223 -0.07095089 -0.024707578 0.041501362 -0.014963276 0.0757224 0.06500681 0.030460674 0.02665052 0.081436984 0.011037449 -0.05351391 0.034954857 -0.061954554 -0.05074509 -0.021342644 -0.045762237 -0.0009685698 0.04794377 -0.04691785 -0.035297506 -0.014038171 -0.019096773 0.030136341 0.022758448 0.029012173 -0.03748377
over 0.013508766 -0.006147029 0.034962296 0.10033745 -0.016190026 -0.024444109 0.038200583 -0.06690435 -0.030640822 0.05211473 0.037443973 -0.031403042 0.05641101 -0.040695243 -0.06797346 0.021990199 -0.07692207 0.05194037 -0.031446874 0.008200242 0.05694172 0.0057526687 -0.032290682 -0.03986039 -0.054305762 0.005476736 -0.047406815 -0.006206878 -0.03506441 0.020800816 -0.014387926 0.0005021605 -0.03939626 -0.08293054 -0.055536874 -0.043932453 -0.06415999 0.056451052 -0.03043026 0.034093924 0.03628806 0.01135421 0.02456837 0.07598616 -0.04551735 0.022580324 0.024945784 -0.020608028 -0.03194992 -0.046474636
feet 0.07129975 -0.0053127175 0.029151103 -0.02944859 0.048014212 0.018698594 0.02609138 0.006249156 0.013419997 0.03134178 -0.044198856 0.07630312 0.073049195 0.022698833 0.005705472 0.013289493 0.040165946 0.03420256 -0.01188675 -0.00835429 -0.06520286 0.03669851 0.031584825 0.017174454 -0.037637193 -0.05860719 0.03131547 0.08676298 -0.019667163 0.00035668362 -0.05759729 0.061451335 0.013189892 0.052240536 0.025242662 0.03830779 0.002898987 -0.028323814 0.006207451 -0.028700814 -0.024895707 -0.05732259 0.05033113 0.008783686 -0.023082994 0.074469745 -0.08235163 0.026306622 -0.009578387 0.06466352
after 0.05724336 -0.041492213 0.0060424423 -0.025225615 0.0168641 -0.042809144 0.03265656 0.07295124 0.0894985 0.047364186 0.04634318 0.023975931 0.04876957 0.0191178 0.04198064 0.06411332 -0.007082168 0.055758953 0.047983553 -0.0414908 -0.045560285 0.029878626 -0.012775349 -0.03184629 -0.041565586 -0.042388864 0.060313165 0.009665453 -0.060822766 -0.007864643 0.041601744 0.07165136 0.030576987 0.0064084367 -0.050987087 -0.053636476 -0.04572041 -0.020948026 0.005686459 0.07148755 0.07766975 0.01186316 -0.04456764 -0.062940165 -0.004242125 0.03954474 0.029149 0.03523194 0.071308166 0.005455289
wonder 0.035421915 -0.043012094 0.05655186 -0.037521254 0.07451464 -0.0062682815 0.02802677 0.017811636 0.013184868 0.022144696 0.038005006 0.083409026 -0.020102292 0.10538791 0.011019174 -0.031912755 -0.066972926 0.008124649 0.07439968 -0.059283834 0.029539313 0.013302982 -0.02321585 0.054677095 0.07686476 -0.054572348 0.03253683 -0.05803274 0.01853046 -0.055820905 -0.046112064 -0.05874629 -0.06309453 -0.008708692 -0.025458235 -0.05199783 -0.0652533 0.079398945 -0.00092152134 0.031188928 -0.036613718 -0.08613459 -0.081598915 0.081961334 -0.0327215 0.024076428 -0.028941493 -0.02569241 -0.03393111 -0.03217056
first 0.011955536 -0.035245117 0.023003004 0.08363446 0.0459742 -0.073887885 -0.021343926 -0.020093493 0.051674917 0.08313819 0.03637405 -0.08114776 0.07788849 -0.015460703 0.01482218 -0.008658911 -0.0069738016 -0.055608653 0.027743597 0.055334132 0.06617289 0.059531517 0.009574978 0.035095613 -0.007997678 0.009368029 -0.056515552 -0.0076336144 0.004678797 0.045186743 0.042811833 0.055397626 -0.008871549 0.03611608 -0.0470952 -0.010859359 -0.037995268 -0.028330298 0.034662828 0.017841926 -0.005701144 -0.057129104 0.06049394 0.07456489 0.004060684 -0.043745674 0.025088817 0.058389638 0.07819772 0.04905522
let -0.06769684 -0.047887918 0.016572507 -7.335364e-05 0.033275146 -0.004866902 0.042581227 -0.10223634 0.08373229 0.08289683 0.012118274 0.06981646 0.0011326394 0.07609109 -0.056797024 -0.0027834391 -0.0639939 -0.038604893 0.01647253 -0.016517531 0.024691353 0.069961384 -0.11025928 -0.028976358 -0.087569125 -0.045287892 -0.041257422 -0.0046657072 0.046234775 -0.0495058 0.028708568 0.029771129 0.033345528 -0.05170666 0.019485975 -0.02584979 -0.05825767 -0.013727192 0.056444272 -0.023147423 -0.03369415 0.023362223 -0.023846889 -0.047949243 -0.06829979 -0.004485192 0.032388117 -0.02610011 -0.07466571 -0.086113624
are -0.08411884 -0.063140474 -0.10061701 0.0077330824 -0.02892611 -0.004866411 -0.019108798 -0.10864907 -0.0043352568 0.06346767 0.00073519524 0.067015044 -0.007945801 0.061697986 -0.036927287 0.005215477 -0.011600584 -0.011452588 -0.018037153 0.02560797 -0.022797128 0.050572045 -0.099156685 -0.03635326 -0.093268976 -0.0034564945 -0.08924513 0.024666369 0.0031961426 0.015781611 -0.08473518 -0.027362268 0.010710364 -0.03550393 0.0010774999 0.029885814 -0.09229442 0.01873842 0.09062532 -0.017248305 0.06539668 -0.054113224 0.08560238 -0.039400563 -0.05897059 0.042852163 -0.011108888 0.0075273267 0.023671139 -0.07505578
cats -0.048980705 0.042020038 0.002993694 0.02878672 -0.02217254 -0.025658874 0.005190302 -0.03466666 0.024158806 0.07183212 0.106154695 0.012835804 0.000542123 -0.03174422 0.030286545 0.04983029 -0.027478632 -0.061421867 -0.01965691 -0.02350691 0.06927202 0.08324018 -0.07924046 0.08280257 -0.0070334207 0.021963289 -0.06502875 -0.035120275 -0.041211877 -0.012296334 -0.0133312205 0.056513112 -0.038328685 0.03625797 0.025314989 0.06444009 0.005912463 0.058592435 -0.044230573 0.008792982 0.0014866975 -0.04960182 0.023669522 0.012068717 0.026079064 -0.052210886 -0.03561163 -0.0058439868 -0.094049156 0.009040845
round 0.0049822326 0.0017357725 -0.0294226 0.03774354 0.022846559 -0.059764575 -0.0040197796 -0.020692414 -0.01477209 0.024052043 -0.0050358605 -0.048764266 0.047915164 -0.016441517 -0.038379308 -0.014421474 0.00970416 -0.074495964 0.06291235 -0.06997667 0.03806846 0.017087726 0.024021378 -0.009820476 -0.010459243 0.051498365 -0.008737765 -0.05482305 -0.011351636 0.021682544 0.05039801 0.091964655 -0.02508323 -0.070616536 -0.0036880313 0.0756602 -0.07160725 -0.0029569953 -0.015977101 -0.06280621 -0.010523724 0.058060165 -0.019778412 -0.0396477 -0.056554247 -0.01744117 0.039171346 -0.083142266 0.04634084 0.013060408
poor -0.047979563 0.026023058 -0.0431826 -0.019089319 0.047237568 -0.039455444 -0.04055491 -0.02736687 -0.06207401 0.06813568 -0.009787804 -0.054208953 -0.045103 0.05159667 -0.04527865 -0.023562565 -0.044106547 0.0020074144 -0.03838404 -0.01852744 -0.01536096 -0.013616822 0.005502096 0.02315275 0.038892414 0.026158124 0.051502578 0.020082612 -0.016961582 -0.0046980297 -0.038592137 0.0037771915 0.040649764 0.0018500391 -0.0029934375 0.0076980107 -0.024622807 0.06803707 0.03727 -0.08877743 -0.015520457 -0.05553626 0.071855225 -0.028044134 0.007959672 -0.015023733 -0.038395703 -0.08319266 0.042307954 -0.02642221
back -0.03365913 0.06782734 -0.08882141 -0.041399643 -0.028101737 -0.047526337 0.09889851 0.027146406 -0.030956654 0.081286006 -0.05392537 0.07706827 -0.0126332585 0.06744192 -0.03157714 -0.043409657 0.06206695 -0.06657169 0.065033264 0.045511276 0.06359388 -0.015949612 -0.04250803 0.0029555792 -0.0444177 0.014483485 0.004494033 -0.005288345 -0.004190502 0.014335835 0.017643046 0.07694283 0.040238276 0.0013220903 -0.09048033 0.020997811 0.00054671185 -0.05981077 0.030631855 -0.008349953 -0.02063612 0.09041287 0.05495943 -0.025072055 -0.03772393 0.057154797 0.0020538187 0.048667908 -0.013717644 -0.084566586
he 0.0069423844 -0.07709161 0.0066578044 0.06387609 0.09446223 -0.026664263 -0.027576562 -0.08189307 0.028366618 -0.012032948 0.025428139 0.053266544 0.028501706 0.09368324 -0.06814421 0.048252244 -0.024105527 0.011830477 -0.030064948 0.03694664 0.08622323 0.047368433 0.024869261 0.024437334 0.008891159 -0.05929166 -0.0279627 0.05718644 -0.03408746 -0.007860306 -0.012109149 0.050466005 -0.01199576 -0.030676767 0.034025464 0.039987136 -0.080880694 0.015993476 -0.030240197 -0.057225287 0.025709366 0.028632706 0.00097331963 -0.004205475 -0.080139294 0.018552141 0.033354696 -0.09583183 -0.04056756 -0.038105194
nothing -0.035676073 -0.007616597 -0.036382586 0.030407285 0.018806461 0.036673397 -0.076520495 -0.00020238082 -0.047419164 -0.03969858 0.006813187 -0.045881055 0.036361936 -0.018797744 0.047647696 -0.058771193 0.06180245 0.057718016 -0.010648359 -0.028226992 0.08152992 -0.0356049 0.03756349 0.05017419 0.014916543 -0.0011436729 0.038421374 0.017299365 -0.045479786 -0.05360623 -0.017078925 -0.04981385 -0.03212231 -0.030362058 -0.053575832 0.08001594 -0.0385985 -0.027112193 -0.052422144 -0.0256001 0.08735945 0.027471328 -0.029540773 0.078843676 0.027770106 -0.024504662 -0.0888731 -0.009145562 0.04530005 -0.06007229
seemed 0.047994696 -0.02049159 -0.03890768 0.013962168 0.07893799 -0.0736905 0.05583135 -0.01081892 -0.007498579 0.057598554 0.09376797 -0.031145282 -0.03608206 0.08644515 -0.037810117 -0.0415014 0.028221793 -0.027411904 0.099407576 -0.011003892 -0.009849263 0.09411834 0.029793136 -0.049622804 0.038549956 0.007995222 -0.05585745 -0.040704913 0.019622643 -0.008001694 -0.01520502 -0.03503758 0.07118653 0.051804267 -0.04494194 0.0009140315 -0.043907735 0.05748244 -0.0062059825 -0.06476526 -0.027618805 -0.05047927 -0.003591014 -0.007362037 -0.0044492325 0.025630204 -0.06166031 0.009767815 -0.00012593833 -0.060841624
its -0.03445951 0.04597423 -0.01965584 0.010745936 0.07332611 -0.033376943 -0.042664807 -0.0864332 0.08426229 -0.040145263 -0.00191487 0.05295185 0.07151813 0.032802276 0.03431515 0.075879686 0.066877045 -0.029185796 -0.034553543 0.03792721 0.05391777 0.07135796 0.0064831255 0.019036435 0.03433895 -0.057190016 -0.020353187 0.08735682 0.08210165 -0.007232326 -0.06502275 -0.011455268 -0.0052655907 0.027965404 0.029633595 0.06891334 0.025999352 0.039584998 0.012219871 -0.047346555 0.0107383495 0.04501263 0.01991361 0.054309607 0.028462194 -0.037069913 -0.035338942 0.011811186 -0.04513546 -0.02491934
never -0.047263075 -0.008396303 0.029785927 -0.022768842 -0.016722089 -0.014416432 0.04714277 -0.06378388 0.06535574 0.0035842478 -0.02741397 -0.06471568 0.040507875 0.04878555 -0.08660047 0.028205665 0.019646533 -0.017489636 0.033651207 -0.07022869 0.013396775 0.022314988 -0.011521577 0.05513987 -0.010207476 -0.047178775 -0.06907904 -0.0383042 0.0026493354 0.04758522 0.017712012 0.0055965497 0.08045323 0.04879364 -0.0020112614 0.0027932236 -0.05033721 0.054568738 -0.00023933931 -0.06369858 0.036564663 -0.05716701 0.038206488 0.03958927 0.023621226 -0.047864363 -0.04345625 -0.012381833 -0.04665975 0.029088248
going -0.0144985095 8.242775e-05 0.03313885 0.0679196 0.051951643 -0.036357444 0.037525985 0.038395587 0.00058734324 0.0068830024 -0.03507551 0.06195947 -0.048339166 0.050890867 -0.030829718 -0.022882901 -0.03204822 0.06228604 -0.036561776 0.060203075 -0.0766437 0.09146553 0.0029520663 0.02731065 0.06268496 0.023925949 -0.07360744 -0.071103 -0.0035939645 -0.009913836 -0.0013813699 0.044379167 0.019683968 -0.031375024 -0.068667084 0.057603557 -0.102031335 0.023527447 0.06761849 -0.03654421 0.05990713 -0.05368293 -0.05448465 -0.035178483 -0.0014758703 -0.033997044 -0.02562861 0.032523904 0.00811732 0.038633
great 0.037920773 -0.045806907 -0.0025345972 -0.05028683 -0.010620776 0.0671726 -0.0675171 -0.032693584 0.019451521 -0.011738185 0.014161617 -0.06680307 0.008197157 0.064990275 -0.03953295 0.030902369 0.023980442 -0.004762132 -0.05283131 -0.016653465 0.001218573 -0.0035884897 -0.01678825 -0.060423132 0.006795495 0.04413089 0.023984827 0.06809114 0.07090741 0.069303684 -0.011016596 0.05564024 0.010452015 0.04293733 -0.038358077 0.05320366 0.050743565 -0.016812503 -0.005311124 -0.062568314 0.0596326 0.061667297 -0.053398583 0.0013478769 -0.06419359 -0.011223566 -0.055170678 0.0469623 0.06938193 0.049857803
got 0.005484313 0.060462054 -0.0024649822 0.032669637 0.031085812 -0.03431306 0.028592808 0.040826056 0.06764828 0.008411457 0.04213635 0.04010768 0.05622292 0.06458389 0.01055259 0.006907811 -0.03294074 -0.022506775 0.029141992 -0.06374836 -0.016561402 0.010260957 -0.008757355 -0.038552094 0.044234592 -0.007874544 -0.023928618 0.06935403 0.003640239 0.0112291 0.02271274 -0.051735394 0.03200935 -0.018811643 -0.040164415 -0.04482937 -0.06951322 -0.04031184 -0.0432496 -0.04737505 -0.010756461 -0.0001300982 -0.058125995 0.06387704 0.025660686 -0.061036084 -0.01906362 0.02334564 -0.0033741156 -0.059669133
ever 0.0034448134 0.03831735 -0.01910005 -0.009477275 -0.01597909 -0.07886352 0.06110506 0.036814258 -0.0023784712 -0.028653743 0.015793782 -0.004443675 0.03421146 -0.014230007 -0.07786302 0.076746404 0.01724171 0.045211665 -0.01919575 -0.025177324 -0.051525023 -0.014410498 0.015711684 -0.004989297 -0.07135795 -0.09524289 0.024149394 -0.0053376113 -0.0239472 0.018601077 0.046256285 -0.02835915 0.00058513344 0.03311576 0.023186272 0.031822853 0.0059833177 -0.015809903 0.004717433 -0.00042451266 0.028936103 0.04421804 0.04105715 0.028396314 -0.08060971 0.020913353 -0.10060593 0.039597765 -0.014343632 -0.0024174438
table -0.044911947 0.021592887 0.018379493 0.005312659 0.007578605 0.02645845 0.09181183 0.0112248 -0.016697686 -0.06789059 0.0037431328 0.01807217 -0.06111964 -0.04803958 0.022652198 0.053932972 -0.044996437 0.0063732318 0.024908006 -0.0077504124 -0.03777467 -0.02485806 -0.002326657 -0.04064405 -0.032464165 0.04171788 0.0026675332 -0.032719824 -0.0051352307 -0.0010773889 -0.015315426 0.091763884 -0.042173494 0.053710323 0.039681386 0.025757845 -0.0374706 -0.06017432 -0.004803459 0.019351019 -0.02364916 0.04499543 0.05253615 -0.020181848 -0.020231942 -0.018272923 0.07568466 0.0024345506 0.035197265 0.043850496
any -0.04682944 -0.053139754 0.035817277 0.0027849409 0.050382182 0.013269846 -0.014506323 -0.007245521 -0.016310718 0.026658706 -0.0048863133 0.07670088 0.08890224 -0.0077829156 -0.029413735 0.011527039 -0.052321974 -0.06207998 0.04171526 0.03366181 -0.05918173 0.033475343 0.048667062 0.07163736 0.00040229724 0.03521305 0.04572677 -0.0339699 0.02000272 -0.080539785 -0.07735304 0.052331146 -0.03532438 -0.04761941 0.04105809 0.08740897 -0.087566815 0.012736939 0.055164408 -0.08478019 -0.014994669 -0.06360252 0.042937964 0.07098403 -0.0039773793 -0.0016511877 -0.06202978 -0.0363516 -0.005007086 -0.05903506
only -0.021588434 -0.07084369 -0.056869525 0.0055052126 -0.033025313 -0.08597625 0.0714719 -0.04714768 -0.026955405 -0.053977378 8.634059e-06 0.0548387 -0.042554256 0.056199953 -0.027985202 0.055646047 -0.0063110073 -0.043644354 -0.009081438 -0.02394649 -0.022750977 0.04090022 -0.026121033 -0.01416493 -0.055120565 -0.047746886 -0.06421567 0.037417796 0.012358395 -0.042990923 -0.0275059 -0.058007076 -0.007090761 0.010815144 -0.04478912 -0.009893514 -0.08081258 0.06198212 -0.0065628383 0.011156407 0.036195297 0.017905146 0.02630462 0.060487993 0.0003934364 -0.04659649 -0.028280307 -0.059856948 0.033668954 0.061536353
more -0.014404696 -0.027202746 -9.998563e-06 -0.041286968 0.030455638 0.04004232 0.08599705 -0.015750974 0.014608035 -0.013710926 -0.011161329 0.061741315 0.018655194 -0.022144383 -0.062399793 0.07234958 -0.011586533 -0.045757215 0.06487613 0.014183797 -0.058765255 0.08209991 -0.0654795 -0.020416593 0.0051111956 0.039297704 -0.08125185 -0.01600193 -0.02640804 0.0460215 -0.018962888 0.046236396 0.08504633 0.015928103 0.034836307 -0.0020753522 0.016546175 0.0029259326 0.08184052 0.008222861 0.039421257 -0.030991904 0.03992295 0.028952032 -0.009387546 -0.040646203 -0.06709684 -0.067476295 -0.06258209 0.010737239
cried -0.03677637 0.054717217 0.042128813 0.034724016 -0.051971354 0.025520096 0.02472644 0.008757271 -0.008106681 0.073135406 -0.0033231194 -0.058640018 0.024298616 0.068370886 0.011570227 -0.0045875856 -0.015323895 -0.060365256 0.019601593 -0.03286113 -0.025414582 -0.031175574 -0.08158553 0.034567907 -0.07252675 -0.06612518 0.025757426 0.018386187 -0.012465636 0.054006126 -0.08501005 0.049668886 -0.007423237 -0.046766687 0.0038404637 -0.0006752517 0.041746087 -0.010226791 -0.047845732 0.034402013 -0.04741527 -0.009084502 0.05705885 -0.004452461 -0.0013250972 0.010315427 0.007335735 -0.076705836 -0.044165235 -0.025842013
gloves 0.03793012 -0.051753726 -0.02605142 0.024300186 0.0015630206 0.00508752 0.010483378 0.07988538 0.071123585 0.07886909 0.0562425 0.04936688 0.040813062 0.056298047 0.044225186 0.045323487 0.045406964 -0.026595276 -0.032971673 0.006087877 -0.05085527 -0.0059075262 0.021235373 0.055449873 0.0402053 0.06483725 -0.0071688215 -0.031175202 -0.01430069 0.033494767 0.03808365 0.06418145 -0.030494554 -0.08960638 -0.06883832 -0.037758224 -0.051009007 -0.057724237 -0.010811051 0.02728068 -0.030348772 -0.0367971 0.044430435 -0.0068317484 0.030616552 0.039769497 0.055563197 -0.07272004 0.028385406 0.027172633
fan 0.038361087 0.09371058 -0.021213442 0.0033653136 -0.04947139 -0.018351242 0.024139676 0.06342716 -0.05893122 -0.053455796 -0.047531754 0.013708769 0.031848688 0.03541731 0.046610493 0.013403552 0.05461735 0.04697508 0.002587094 0.0051347977 0.02654268 0.032151382 0.045970693 -0.026372653 -0.041403692 0.05090057 -0.028568035 0.033300005 -0.018237457 0.10138109 -0.026648134 -0.00742038 -0.05532341 0.033077437 -0.04308487 -0.039522473 -0.032128748 -0.0359626 0.053742114 0.013050287 -0.07244912 -0.0023871874 -0.010069169 -0.017393982 -0.015477357 -0.02421583 0.07623706 -0.0376376 0.10019533 0.0004131213
well 0.053277895 0.051130135 0.017117465 0.029365819 0.052390903 0.035599645 -0.033087976 -0.04154624 -0.059933566 0.04513817 0.044046152 0.04546984 0.0063550305 0.04239955 -0.019832749 -0.021968592 0.005202846 -0.03545988 -0.056489397 -0.02477041 0.0072564436 0.007432488 -0.044636644 -0.034081534 -0.0018495764 0.059394997 -0.023211699 0.052763823 0.062069625 0.015238132 -0.033119142 0.047945566 0.012444597 -0.07018474 0.020829566 0.06999263 0.04070944 -0.050930027 0.06173476 0.052358832 0.0627435 0.07549345 0.024349501 0.06347972 0.020121282 -0.043765724 0.0012585723 -0.020986995 0.018423809 0.017201755
white 0.04171496 0.0023119436 -0.023013769 0.0076469327 -0.032639552 -0.06689584 -0.03578323 0.01623182 -0.031754494 0.024884485 -0.046284877 0.017728513 0.06838963 -0.01422117 -0.010749419 0.02094473 0.024490166 -0.06400906 0.05567118 -0.012499214 -0.03423881 0.026407838 0.053250454 -0.020901531 -0.023471834 0.064614214 0.01307165 0.043555662 0.021186052 -0.04212112 -0.000363781 0.061075557 -0.027661996 -0.02421421 -0.04283495 0.05590832 -0.007917699 -0.027457813 0.015736511 0.050173886 0.02796387 0.03782068 0.03835756 0.011659313 0.034563158 -0.053995322 -0.0051390957 0.033814847 0.0448773 -0.04609608
looked -0.030729137 -0.021865817 -0.061310142 -0.017010052 0.027910255 0.013127068 -0.062183775 0.07378553 -0.01267935 0.05672866 -0.03923801 -0.024205953 0.08844557 0.034850966 0.007880811 0.018041007 -0.07705782 -0.06362638 0.061993785 -0.04663295 0.060168702 0.04461558 0.043139167 -0.0782531 0.016491316 0.067631036 -0.021376247 -0.038895275 0.0072775176 0.015430586 0.043402266 -0.055118147 9.103713e-05 0.039575443 -0.044026468 -0.02092922 0.027381208 0.03438511 -0.051617965 0.0011703061 -0.017167158 0.0024589295 0.036894973 -0.033258393 0.016535083 0.061833683 0.06818824 0.06242386 0.03320053 0.014814786
before -0.049661554 0.03117216 -0.069639064 -0.048476294 -0.012576449 -0.05682514 -0.029890642 0.00043341552 -0.016664298 -0.007968423 0.050041106 -0.038584758 0.031009963 -0.041278273 0.036342286 -0.03797907 0.014835884 -0.01186807 0.030574592 -0.02119866 0.032419343 -0.017261162 -0.0041760993 0.030439833 0.0197046 0.059638362 -0.05654797 -0.001397131 -0.044306304 -0.008302821 -0.05910677 0.022018092 0.074828126 -0.008396798 0.045740183 0.066525936 -0.043617688 -0.023798503 -0.005187534 -0.07449141 -0.028405152 -0.014260142 0.043661114 0.016424019 -0.021578154 0.067923956 -0.03143664 0.020381995 0.0025074563 0.050456237
moment -0.057062052 -0.04315072 0.018073322 -0.03564035 0.02867005 0.059359953 0.034539875 -0.021232253 -0.06545987 0.057924155 -0.0488689 0.053096354 -0.016114399 0.047939736 -0.036386453 0.035634045 -0.002157799 -0.055607438 0.0062910225 0.005007183 -0.05386006 -0.028485013 0.054884586 0.029037293 -0.025476485 -0.04017146 -0.0039794156 0.043803383 0.0256492 0.036264453 -0.067471534 0.048452575 0.04131336 0.041569415 0.03395462 -0.032175817 0.03999505 -0.057124246 -0.067190304 -0.028808983 0.0020542536 0.06508979 -0.08108052 -0.038126778 0.03653439 -0.04346973 -0.030946176 -2.8004986e-05 0.046438176 0.057001144
why -0.040990554 -0.0065159965 0.041996844 0.024518315 0.02224493 0.018766737 -0.0018569395 0.052373096 -0.029819 -0.00640689 0.033107053 0.060319073 -0.0341011 0.016398773 -0.0022040682 0.035802055 0.032604795 -0.038859338 0.008527177 0.019129273 0.035325848 -0.010375354 0.005624425 -0.058317076 -0.06264121 -0.026092436 0.059346978 0.01461467 -0.034907453 -0.042911395 0.009629279 -0.03319021 0.021432454 -0.07269875 0.047808204 -0.05118711 -0.013943706 0.07014148 0.022640372 0.046547078 0.05405227 0.009638081 0.050047733 0.04439935 0.026468825 -0.056943502 -0.0039066547 0.03040983 0.0075453 -0.022643672
an -0.06929232 -0.0020537586 0.024038088 -0.035117805 0.021154331 -0.065841526 -0.008055912 0.009912162 -0.02675354 0.08185398 0.060768932 0.031150723 -0.024251513 0.027419064 0.046850767 0.043925907 0.023403244 0.004468854 -0.0015096646 -0.089458145 -0.056135572 0.08309111 -0.056817822 -0.011954842 -0.056595534 -0.06394758 0.032290004 0.040020995 0.017770885 -0.022128336 -0.019833889 0.052274246 0.002179712 -0.016552469 -0.0041522384 0.0039484575 -0.021041317 -0.04160177 0.08513814 0.04850379 0.0029219184 0.08103262 0.056173652 0.020170726 -0.07406765 0.020882731 -0.018527513 -0.05633982 -0.07052445 -0.06455549
eat -0.030318674 -0.06276008 -0.058649484 -0.049466394 -0.00059934997 -0.00176767 -0.041800022 -0.031030878 0.079092935 0.058335286 0.044777602 0.07168868 -0.024170462 0.06397804 0.045875546 0.00836915 -0.052634716 -0.05307335 0.024210336 -0.017547304 0.060702622 0.05326231 -0.044786848 -0.024316331 -0.021314278 -0.055813972 -0.048890725 0.07433713 -0.08907525 -0.030535765 -0.075675234 -0.01283793 0.0018734684 0.038203597 0.04607834 0.07665747 0.013430961 0.05915425 0.07510082 -0.021457048 0.02980978 0.04601133 -0.07143517 0.003991221 -0.07254421 -0.072739154 0.031356033 -0.04812463 -0.0719624 0.04005635
however 0.024121437 0.02780685 0.0030898866 0.08910478 -0.022181563 -0.08393602 0.012741091 0.033447646 -0.060006503 0.056779396 0.016569017 -0.035069805 -0.02985867 -0.028594982 0.0125520695 0.08056474 0.037483767 0.03520531 0.020798897 -0.025904879 0.029097412 0.026579253 0.022837967 -0.017163334 -0.0006520251 -0.074651696 -0.08309981 -0.07158357 0.035604827 0.022564264 0.049689144 -0.027846627 0.06475488 0.04018254 0.0025292765 -0.026076224 0.03414219 -0.0191816 -0.05479182 -0.0356072 -0.009813588 0.009042845 0.037870944 -0.038485024 -0.062324118 0.060744166 -0.045905005 0.021429513 -0.06239833 -0.083696365
sure -0.008689971 0.011574913 0.013802155 -0.04143376 0.046618123 -0.05591846 0.03403908 -0.06479661 -0.039042752 -0.030050857 -0.0131626725 -0.024511302 -0.015528867 0.02964719 -0.009944604 -0.05073098 0.007622733 -0.02312948 0.030071033 -0.044887625 0.031774975 0.07704129 0.00015793671 -0.035873648 -0.07103233 -0.060023487 0.031950813 0.043080747 -0.047197606 0.008139425 -0.07047323 -0.06881194 -0.005688352 0.061832197 -0.030497294 -0.056705505 -0.062053587 -0.010394688 0.062455334 0.038695823 -0.019227488 0.007362622 0.034329616 0.038255118 -0.043329954 0.050906923 -0.042290647 -0.009992743 -0.04287004 0.011003194
pool -0.042071667 -0.00436193 0.026585104 -0.0136660775 0.032503553 0.07216837 -0.023501772 -0.059141316 -0.06151439 -0.068443835 -0.030316735 0.03632095 -0.057192933 -0.0012843142 0.054247655 0.03223648 0.054633185 -0.04011299 0.015103704 -0.03467661 -0.018362237 0.028118309 -0.017035529 0.028252447 0.012648657 0.016998528 0.027888302 0.051493213 -0.030813476 0.030725341 -0.035301257 0.0023794477 0.040525813 0.034671944 -0.03276915 -0.004961976 -0.061954442 -0.021723816 -0.013088648 -0.004841952 -0.06725489 0.07473896 0.0026119624 -0.008345675 0.045434557 -0.035997234 0.057277285 0.0845723 0.03485286 0.008712012
getting 0.061806113 0.014328678 0.024513038 -0.02128076 0.07047251 -0.059355926 0.068269275 -0.01874288 0.043368667 -0.004760549 0.04863342 0.01669769 -0.023381464 -0.01826698 -0.023181327 0.057674892 -0.0066465545 -0.031274736 0.008115609 0.017750725 0.0106860995 0.06316923 0.018564826 -0.007958427 0.0039680665 -0.00794934 0.023322146 0.0769904 0.01723867 -0.042234275 0.043715894 -0.006787321 0.056642562 -0.07667771 0.033687033 0.011632371 -0.012356508 0.023099776 0.07280626 0.038731664 0.04700347 -0.042166073 -0.0027357452 -0.010491727 -0.009696862 0.028876266 0.022691913 0.040497966 -0.012941834 -0.064085305
took 0.02546525 0.021083632 -0.09548963 0.04963352 -0.0044491915 0.04038875 -0.02428564 -0.001781524 0.027642306 0.059554 -0.03606275 -0.054684497 -0.036958463 0.026884077 0.04893763 -0.009979435 -0.013217594 0.039679624 -0.019314485 -0.05518157 0.09411968 0.031761378 -0.06852614 -0.06628656 0.022110874 0.04972915 -0.08930737 0.0045266827 -0.050245207 0.072199464 0.024933254 -0.046484426 0.012731109 -0.020198105 0.048975408 0.05832069 0.027551293 -0.028951157 -0.00752298 0.041553676 0.008770977 0.029335387 0.03582589 0.008318682 -0.012339814 -0.03599452 0.04445493 0.04497725 -0.045997653 -0.018167138
either 0.034351405 0.039155014 0.030517424 0.024236483 -0.048749566 0.021570677 -0.007686938 0.021772807 0.07435241 -0.05485027 0.051027723 -0.00761469 -0.051021263 -0.0042641577 -0.053053875 -0.0025396543 -0.022783523 -0.07074199 0.015694557 0.033264916 0.03854973 -0.036800906 -0.03644523 0.06914529 0.031361327 -0.05077353 0.00458838 0.046456207 0.017671162 -0.058630187 -0.043444984 0.04203703 -0.041494858 -0.012072573 -0.057226077 0.08855659 -0.051588833 -0.055187594 -0.007758187 0.055574622 -0.0035347545 -0.048555486 0.044949908 0.057408895 -0.038189985 0.025924845 -0.00046556082 0.05155274 -0.029336035 0.0037390052
just 0.049230874 -0.06511444 -0.012638959 0.033104256 0.09718257 -0.041303113 -0.04823825 0.03421186 -0.020881623 0.05901636 0.03832033 -0.04417868 -0.0011301906 -0.070371605 -0.060534287 0.029803704 -0.04729251 -0.07033034 0.026513737 -0.016022012 0.06687807 0.046708297 0.015814321 -0.03130984 0.03951781 -0.054048672 -0.00082105095 -0.06119092 -0.03549859 0.0061985804 0.05724155 0.0047310996 0.04013279 -0.018736858 0.06284143 0.036673382 -0.066257134 -0.03691043 -0.029999467 0.020750001 0.0015452842 0.019358367 0.015619444 -0.0014890824 0.03188645 -0.029649127 -0.03794357 0.042753484 0.061005604 0.07737436
upon -0.0071474137 -0.039068412 -0.07236072 -0.04024768 -0.033789136 0.055799514 0.01258328 0.04986989 -0.0035699848 -0.06933856 -0.048482683 0.010945807 0.055182513 -0.033464868 -0.09054594 -0.048796587 0.032956205 -0.027332284 -0.028259538 0.016571522 0.0095999045 0.06293811 -0.07568057 -0.04877037 0.04875876 -0.056176394 0.017143184 -0.031324256 -0.010321464 0.08536732 0.03788447 -0.054909077 0.010355004 -0.057050854 0.054051362 0.05571429 -0.07660699 0.07843596 -0.07627655 -0.068734095 0.01597849 0.001119875 -0.023570782 0.02941528 -0.06486222 -0.036647905 -0.09192195 0.050841156 0.054300312 0.019076064
ve 0.014170015 0.03685307 0.03454789 0.02443624 -0.03877899 0.0052121095 -0.079607494 -0.03157803 0.04535578 0.08716596 0.091649584 0.01554145 -0.0041514942 0.012915809 -0.023754671 -0.02029936 0.0346245 0.043510683 0.0782736 0.0033896794 -0.052323252 -0.037956316 0.029208858 -0.011198699 0.060034655 -0.04433575 -0.06003177 -0.040568188 -0.040053345 -0.036953326 0.017334588 -0.0023929821 0.0011489319 0.052321184 0.041884355 0.05987218 -0.053000446 0.094359405 0.0796454 0.036467876 -0.025781652 0.025663516 -0.068111494 0.08416969 -0.07969579 -0.015792878 -0.07996336 0.035991963 -0.03234173 0.059006862
through 0.009373329 0.074109204 0.0482377 -0.010263701 0.0032196462 0.022066027 -0.013261384 0.013463795 -0.060084827 -0.064581424 -0.0287325 0.067779474 0.03886226 -0.06695572 -0.014601551 -0.019512614 -0.05323897 -0.00887936 0.03727791 -0.006735179 0.04996332 -0.0030191527 0.06265334 0.015508334 0.041624773 0.025457934 -0.05646605 0.011984825 0.061641138 -0.023186713 0.039838098 0.07226755 -0.05572809 -0.0683144 -0.09591993 0.020362169 0.008648504 0.045811713 -0.072676755 -0.03615476 0.03666206 -0.021825798 0.014757026 0.020389892 0.0014089365 -0.058627125 0.022180544 0.07159477 -0.062123477 -0.08569801
wish 0.015088948 -0.05420174 0.020944797 -0.045350775 0.07393363 -0.032453388 -0.078730166 0.07471841 0.043173563 0.018101063 0.05690412 0.0039958837 -0.05484126 -0.037896983 -0.041532483 0.020161733 -0.057138026 0.03821747 0.06355046 -0.057294995 0.035274703 -0.008317463 0.044752136 -0.0053220815 0.042644188 -0.02363382 -0.051953908 -0.0004817288 -0.02754628 0.02824507 -0.05565681 -0.0601939 -0.0036497442 -0.015995303 0.020011866 0.045408364 0.020557432 0.065941766 -0.0008964519 0.015892042 -0.03500185 0.040789224 -0.059870623 0.01733231 -0.0044321 -0.05242145 -0.08697405 -0.08145001 -0.10056126 0.04656055
tell -0.054515816 -0.002707118 -0.00082839036 -0.054076374 0.073236726 -0.028022842 -0.043988485 0.035239097 0.066492386 -0.027110206 0.082255825 0.08306166 0.043867525 -0.028704835 -0.07844963 0.0213438 -0.012476548 -0.029064666 0.022527419 -0.07994581 0.058596134 0.014926067 0.003926535 -0.023428136 -0.08127978 0.019160837 -0.027281601 -0.009715484 -0.035953417 0.052568305 0.008061426 -0.0486415 -0.057327487 0.032569587 -0.043241374 0.049436398 -0.08881974 -0.052941065 -0.0028302968 0.052774385 0.02925377 -0.012483279 0.06567261 0.03445589 0.01262713 -0.056963343 -0.0942637 -0.0268053 0.0026014475 0.04769873
hall 0.039127544 0.089410454 0.037718832 -0.009992706 -0.08534744 -0.010999976 0.01012512 0.0024720419 0.05496559 -0.06304306 -0.044636514 0.04781387 0.05297925 0.024982229 -0.04421485 0.06554217 -0.05555387 -0.024960881 -0.03344866 -0.017716352 -0.022100853 -0.05384819 0.0637242 -0.055422574 -0.022882283 -0.026037788 -0.02939606 -0.032019056 -0.007188411 -0.013575675 -0.028651737 -0.0014871416 -0.07351192 -0.040704962 -0.08516325 0.059869695 -0.025527393 -0.017224248 -0.01480448 -0.048135348 0.029986365 -0.023129372 -0.0026771275 -0.06157285 0.018786684 0.003066267 0.06711151 -0.03872629 0.060087703 -0.01608127
key 0.027529612 -0.030109053 -0.069694914 -0.05060564 0.03788694 0.04244266 -0.03241036 0.04677483 -0.06473826 0.050659493 0.049441513 -0.060209725 0.07619324 -0.044997018 -0.016550258 -0.030855218 -0.03564736 -0.0083509255 0.04251127 0.06295711 0.009802607 -0.040578216 -0.010869875 0.032778457 -0.07793748 0.044759758 0.043673526 0.060567386 0.034750115 0.07549232 0.03643217 -0.020599658 -0.021799184 0.004102233 -0.014908149 -0.0038178433 0.009877263 0.050044104 0.060172006 -0.019548023 0.06306462 0.047189593 0.075595915 -0.015125832 -0.018532716 0.023947828 -0.006702625 -0.0488904 0.06639994 -0.00038437638
half -0.032462202 0.0576197 0.025562534 0.013215819 -0.027536694 0.03487592 0.011319557 -0.060240105 0.08031213 0.060552515 0.063649006 -0.0076216655 0.010220875 0.07540203 -0.017406685 0.025458619 -0.043588243 -0.060370572 0.07102168 -0.042477436 -0.046852633 0.06617971 0.0043209624 0.0720068 -0.045144927 0.03425859 0.031021923 0.025823677 0.07200838 0.04243702 -0.07353309 -0.03165042 -0.029444188 -0.06203349 0.011858995 0.06379676 0.022081137 0.02283575 -0.02243975 0.0018668898 0.038698513 0.0137073 0.007818523 -0.02378267 -0.027451094 0.009859128 -0.048623003 0.0021866073 -0.016303197 -0.03929866
find -0.06268155 0.038842525 0.004585998 0.03880691 0.004693867 0.0028793584 -0.047823142 0.01204848 0.08124145 -0.050625212 0.020195866 -0.0061300746 -0.035745505 0.032499112 0.042367395 0.025678424 -0.0048770066 0.037594873 0.09000291 -0.020451339 -0.018689664 0.05649988 -0.07079963 -0.029360572 -0.019122789 -0.075488314 -0.0109712295 0.019706514 -0.020730512 -0.061146267 -0.06256619 0.031808313 0.041742142 -0.026825737 -0.031663984 -0.014385929 -0.010052268 -0.022993295 -0.0030561187 -0.034573052 0.06790365 -0.070073545 -0.018265143 0.057415437 -0.0025061558 -0.053976353 -0.08126455 -0.029220108 -0.031560365 -0.042771064
his -0.026810493 -0.056516122 -0.0752917 0.042754833 -0.016348254 -0.085917614 -0.026114259 0.047564127 0.06993521 0.024528392 0.04950853 0.06314234 0.04590228 0.045455884 -0.031116946 0.0107951 -0.01815728 -0.006672898 0.042245783 -0.040984012 0.015120676 -0.03823309 -0.06512205 0.08870687 0.027601903 0.019787313 0.038390953 0.059694752 0.025344204 0.004059775 0.03604301 0.042874973 -0.0035571412 -0.04373288 0.0017714065 0.07398774 -0.052275833 -0.060709123 0.00937059 -0.02686559 0.02741907 -0.0095237335 -0.029961867 0.06503597 0.04423349 0.021927726 -0.005390013 -0.068420775 0.04330737 0.042789236
use 0.04837965 0.0143546155 0.021348344 -0.06145134 -0.044868328 -0.039218754 0.04452951 -0.052816793 0.053417616 0.03608983 -0.046823993 -0.0379135 0.023563249 -0.03354501 -0.07015543 -0.02474212 0.017547144 0.010545816 0.064641066 0.04979351 0.06513502 0.06778796 -0.046630055 0.010986221 -0.009141756 -0.03964486 -0.026716534 0.006732352 -0.04110585 -0.03459695 -0.056295294 0.01942498 0.0060254154 0.055618443 0.0019085814 -0.005992324 0.0138637265 -0.004946687 -0.045172494 -0.032850634 0.011320957 0.045629386 -0.023115102 -0.05517711 0.006288949 0.050446756 -0.029648613 0.05011793 -0.027484547 0.0043175635
large -0.017427899 -0.020723104 -0.049902078 0.05120468 0.06538671 -0.05199682 0.08113871 0.05894801 0.012877523 -0.037840344 -0.029335154 -0.056347247 0.055246748 -0.054464377 0.0034468356 0.05195287 -0.005723591 -0.074811704 0.026338695 0.049904715 0.060990274 -0.06481518 -0.06480727 -0.025917288 -0.017653422 -0.015094843 0.028270386 0.013438819 0.031348474 0.042160664 -0.0442888 -0.029031366 -0.062316936 0.050409652 0.058218725 -0.06158293 -0.04984047 -0.041966118 -0.057914596 -0.013153158 0.015302695 -0.046456844 0.081608586 -0.077054396 0.054361288 0.017567804 0.05639955 0.034778986 -0.025578 0.010429348
look 0.070204124 -0.06041811 -0.01675829 0.086094014 -0.024659758 -0.06297647 -0.0397443 0.0056303097 0.0502188 0.08091685 0.04264605 0.06136375 -0.054020274 0.033605874 -0.045776326 -0.044873103 -0.009495046 -0.0098204855 -0.040292647 -0.0025800182 0.0019637193 0.04738275 0.0339142 -0.05367979 -0.032068163 -0.04994994 -0.046711463 -0.032090545 0.014402317 0.002700719 -0.0064824275 0.044224184 -0.028255502 -0.05348869 0.05446819 0.06634504 -0.012527581 0.057413667 0.026367988 -0.041136663 0.06445441 -0.064341456 -0.033310086 0.06414084 -0.04746289 -0.014588422 -0.08142925 0.038040873 -0.03689521 0.028670222
too 0.06376102 0.037003383 -0.0021951816 0.051135506 0.01124364 0.043573134 0.051088694 -0.016455248 -0.036741093 0.041858833 -0.021289721 0.036725827 0.019263977 -0.06728503 -0.011812334 0.033443034 -0.08342877 0.054146335 0.024725799 -0.061214555 -0.040507656 0.051842574 -0.023528691 0.040468846 0.026723495 -0.05096694 -0.056798995 -0.05954802 0.08393152 0.034631588 -0.03969221 0.03108599 0.086505525 -0.060136218 -0.07391864 -0.045250647 -0.056665484 0.053439513 -0.0055797184 -0.012463094 -0.018858368 0.06361058 -0.009627779 0.0614477 -0.028358178 -0.04680136 -0.06960655 -0.05788548 -0.04931386 0.04417934
house 0.07047782 2.3293192e-05 -0.026559772 0.052984063 0.026170408 -0.027148848 0.05468757 -0.022538403 0.058357578 -0.061692853 -0.01769529 0.07806874 -0.038318075 -0.010082568 0.026480384 0.010574767 0.017974177 -0.04385777 -0.06463365 -0.050919373 0.020138625 -0.009233496 -0.06623025 0.01445689 0.012552382 0.046676353 -0.0011734336 0.04576762 -0.039265554 -0.0025158816 -0.07077467 -0.0035798813 -0.004289798 0.01158516 0.03987573 -0.030731507 0.017376855 0.0011536863 -0.011901619 0.063755564 0.017690664 0.09228993 -0.053847462 -0.030525327 -0.045698494 -0.032873943 -0.01717103 0.010078199 0.052882656 -0.05492457
good -0.04679071 -0.080552705 0.015560633 -0.009648035 0.016457599 0.032250542 0.053941105 -0.044075973 -0.026171522 -0.0096606705 0.06996315 0.013086953 -0.04227176 -0.07133762 -0.09061213 0.0045795296 -0.04447552 -0.012277604 -0.037036672 0.039720684 0.03921169 0.061370067 -0.0136789465 0.03703765 0.015869137 0.00556059 -0.02596351 0.046718143 0.049968064 -0.0073093316 0.03592089 0.006887698 0.038631484 0.046057772 0.021342061 -0.039239563 0.0034529157 0.024924202 0.009576491 -0.046827212 0.080318056 -0.05800897 -0.02214854 0.039915144 0.03677979 0.022995 0.0060648527 0.022195904 -0.06834606 0.06808272
right -0.07263538 0.054141827 0.014681902 -0.039337706 -0.044838224 -0.02112022 -0.03538829 0.038722157 -0.038400486 -0.05852201 0.03451272 -0.046354774 0.012246855 0.056896426 -0.051919818 0.03129125 0.048954364 -0.059045523 0.012497645 -0.010661832 -0.047242858 0.03934679 0.039100703 -0.0154988235 -0.0036487938 -0.06036583 0.017728666 -0.03358379 0.08082556 0.03250708 -0.01653213 0.05857353 0.03557894 0.014930474 -0.033354435 0.028377539 0.007153471 -0.05742843 -0.03175797 -0.057035953 0.03932156 0.07722701 -0.033843197 -0.0044921273 -0.0045133564 0.004309644 0.014797558 -0.02684087 0.016756197 -0.03720144
words -0.002104813 -0.031782966 0.011483207 0.05551997 0.04297873 0.010092424 0.019026965 -0.0013584755 -0.00558421 -0.04244435 0.071729876 0.004251455 0.006662082 0.044295207 -0.018020287 0.06736223 -0.040656567 -0.0528805 0.032954987 0.059424125 0.03417653 0.038980544 0.039513998 0.015085712 -0.019554105 0.02626308 0.013531987 -0.042910945 0.07054813 -0.034197442 -0.024992924 -0.0026033083 0.068043105 0.0034159804 -0.07245468 -0.0025479856 0.03734186 0.05085057 -0.018115556 0.045037355 0.007174136 0.061188843 0.004474385 0.03658635 -0.046254598 -0.06573105 -0.02041013 0.05313202 -0.0073473835 -0.06756024
am -0.03516895 0.022761146 -0.030008228 -0.0023941812 0.04019196 -0.030894157 -0.063557334 0.0007694686 0.006296051 -0.003175497 0.026399512 -0.03159685 0.02658414 -0.020221712 0.028589653 0.052504648 -0.05815251 0.044739593 0.008904291 0.037629347 -0.06733874 0.024678027 -0.07445053 0.06861567 0.005710173 0.040400542 -0.010150566 0.05500693 0.00018897105 -0.03828999 -0.08062387 0.016987592 -0.07330941 -0.00033121125 0.004637667 0.076433964 -0.034980457 0.04151012 0.014677692 0.066084795 0.028546961 -0.010626678 0.04875939 0.07935841 -0.031525675 -0.0338202 0.044420943 -0.08113186 -0.088744015 0.04393387
might -0.005008659 -0.06093464 -0.013407413 0.019282406 -0.039981388 0.03424021 -0.032848254 -0.07744334 0.028857231 0.030793477 -0.02692176 -0.02551124 -0.00994887 0.05096454 0.03146584 -0.056515433 0.04601919 0.01896086 0.009311864 -0.037106767 0.058028348 0.010976388 0.041464306 -0.017209807 0.0075753587 -0.038368233 -0.008811363 -0.02361738 -0.059298187 0.007086908 0.0124792 0.037716646 -0.051439118 0.06718106 0.044732157 0.020391753 -0.08946081 -0.040513285 0.06895588 -0.04410983 -0.020854445 0.03131003 -0.0069358354 0.055197313 0.032885205 0.026515935 -0.04922763 0.024959508 -0.059937786 0.07534016
question -0.09471311 0.023755709 0.03746076 0.070697784 -0.062307023 -0.043159727 -0.03183802 0.022155844 0.04117059 -0.06253196 -0.067800194 -0.042933203 0.06662388 0.071242206 -0.03813138 -0.02507367 -0.014124819 -0.059262943 0.035531923 0.039867766 0.0059801657 -0.06904889 0.012993753 -0.032699313 -0.03022957 0.02572713 -0.053421464 0.08611147 0.00032594055 -0.017266728 -0.03110264 0.043966677 -0.041657027 -0.011488423 0.026732264 0.045631647 0.020173151 0.008817054 -0.01835119 -0.042277496 -0.04986209 0.08516152 -0.041753136 0.012581704 0.017423376 0.030840255 -0.020470235 -0.0053903568 0.033270992 -0.033043
came 0.06483735 0.046567094 0.019324709 0.017263055 -0.04216804 -0.06418398 0.013595504 -0.05803379 -0.018405408 -0.039130103 0.04120408 -0.080098495 0.053427834 -0.04330605 -0.01538628 0.012566869 -0.039489858 0.007924501 0.034389254 -0.008299603 0.062105782 0.023042977 0.044809476 -0.020262236 -0.04903357 -0.046584494 -0.043134578 0.030756671 0.06642562 0.022112312 -0.043551136 0.074829035 -0.0021568565 0.030622328 0.08044245 -0.044483673 -0.06526014 0.027353508 0.015365935 -0.055706773 -0.0017394926 -0.031897306 0.073520206 -0.0012134658 -0.005784436 -0.00994819 0.026514642 0.052873325 0.009499908 -0.0039347787
